svm_type c_svc
kernel_type rbf
gamma 0.015625
nr_class 2
total_sv 842
rho 0.16934229320074615
label 0 1
nr_sv 432 410
SV
3.1622776601683795 1:2.0 2:1.0 3:1.0 4:3.0 5:1.0 6:2.0 7:2.0 
3.1622776601683795 1:2.0 2:1.0 3:1.0 5:1.0 8:1.0 18:3.0 19:1.0 20:2.0 21:2.0 22:2.0 
2.8722114333177857 1:8.0 2:2.0 3:1.0 5:1.0 8:1.0 18:1.0 20:1.0 21:1.0 23:1.0 24:4.0 25:1.0 26:1.0 27:1.0 28:1.0 29:2.0 30:1.0 31:2.0 32:1.0 33:1.0 34:1.0 35:1.0 36:2.0 37:1.0 38:2.0 39:1.0 40:1.0 41:1.0 42:1.0 43:1.0 
0.3124857392684493 1:10.0 2:3.0 3:2.0 8:4.0 11:1.0 24:2.0 44:1.0 87:1.0 88:1.0 89:1.0 90:1.0 91:1.0 92:1.0 93:1.0 94:1.0 95:1.0 96:1.0 97:1.0 98:1.0 99:1.0 100:1.0 101:2.0 102:1.0 103:1.0 104:1.0 105:1.0 106:1.0 107:1.0 108:1.0 109:1.0 110:1.0 111:1.0 112:1.0 113:1.0 114:1.0 115:1.0 116:1.0 117:1.0 118:2.0 119:1.0 120:1.0 121:1.0 122:1.0 123:1.0 124:1.0 125:1.0 126:1.0 127:1.0 128:1.0 129:1.0 130:1.0 131:1.0 132:1.0 133:1.0 
0.8797833419826057 1:3.0 2:1.0 3:2.0 8:1.0 10:1.0 11:1.0 15:1.0 87:1.0 101:2.0 138:2.0 139:2.0 140:2.0 141:1.0 
0.7780931337985041 1:12.0 2:4.0 3:1.0 5:1.0 24:3.0 26:2.0 31:1.0 48:1.0 58:1.0 142:3.0 143:1.0 144:1.0 145:1.0 146:1.0 147:1.0 148:1.0 149:2.0 150:2.0 151:1.0 152:1.0 153:1.0 154:1.0 155:1.0 156:1.0 157:1.0 158:1.0 159:1.0 160:1.0 161:1.0 162:1.0 163:2.0 164:1.0 165:1.0 166:1.0 167:1.0 168:1.0 169:1.0 170:1.0 171:1.0 172:1.0 173:1.0 174:1.0 
1.8249271662451712 1:14.0 2:1.0 3:1.0 5:1.0 8:1.0 18:1.0 20:1.0 21:1.0 23:1.0 24:9.0 25:1.0 28:1.0 29:2.0 30:1.0 32:1.0 35:1.0 37:1.0 39:1.0 41:1.0 42:1.0 48:1.0 58:2.0 175:1.0 176:2.0 177:2.0 178:3.0 179:2.0 180:2.0 181:2.0 182:2.0 183:2.0 184:1.0 
2.3006059241913235 1:15.0 2:1.0 3:1.0 5:1.0 8:1.0 18:1.0 20:1.0 21:1.0 23:1.0 24:7.0 25:1.0 28:1.0 29:1.0 30:1.0 32:1.0 37:1.0 39:1.0 41:1.0 42:1.0 48:1.0 53:1.0 58:1.0 175:2.0 177:2.0 178:2.0 179:1.0 183:2.0 185:1.0 188:1.0 196:1.0 197:1.0 198:1.0 199:2.0 203:1.0 204:1.0 205:1.0 206:1.0 207:1.0 208:1.0 209:1.0 210:1.0 211:1.0 212:1.0 
1.0169525429408222 1:20.0 2:3.0 3:2.0 5:1.0 8:1.0 23:2.0 24:5.0 26:2.0 29:1.0 48:2.0 49:1.0 61:1.0 142:2.0 144:2.0 175:1.0 177:1.0 178:2.0 183:1.0 265:1.0 266:1.0 267:1.0 268:1.0 269:1.0 270:1.0 271:1.0 272:1.0 273:2.0 274:1.0 275:1.0 276:1.0 277:1.0 278:1.0 279:1.0 280:1.0 281:1.0 282:2.0 283:1.0 284:1.0 285:1.0 286:1.0 287:1.0 288:1.0 289:1.0 290:1.0 291:1.0 292:1.0 293:1.0 294:1.0 295:1.0 296:1.0 297:1.0 298:1.0 299:1.0 300:2.0 301:1.0 302:1.0 303:1.0 304:1.0 305:1.0 306:1.0 307:1.0 
3.1622776601683795 1:3.0 2:1.0 5:1.0 8:1.0 18:1.0 19:1.0 21:1.0 22:1.0 144:1.0 145:1.0 154:1.0 308:2.0 309:2.0 310:1.0 311:1.0 312:1.0 
3.1622776601683795 1:3.0 8:1.0 134:1.0 135:1.0 137:1.0 144:1.0 145:1.0 154:1.0 318:2.0 319:2.0 320:1.0 321:1.0 
1.1694416608149563 1:62.0 2:16.0 3:12.0 5:13.0 8:12.0 18:10.0 19:1.0 21:10.0 23:1.0 24:2.0 25:4.0 26:1.0 48:1.0 49:1.0 52:8.0 53:4.0 58:2.0 61:1.0 68:2.0 87:1.0 142:3.0 146:2.0 147:2.0 148:2.0 157:2.0 185:1.0 232:4.0 265:4.0 266:6.0 269:4.0 322:1.0 323:2.0 324:1.0 325:1.0 326:4.0 327:4.0 328:1.0 329:1.0 330:1.0 331:1.0 332:1.0 333:1.0 334:1.0 335:1.0 336:1.0 337:1.0 338:1.0 339:1.0 340:1.0 341:1.0 342:1.0 343:1.0 344:1.0 345:2.0 346:2.0 347:2.0 348:2.0 349:2.0 350:2.0 351:4.0 352:4.0 353:2.0 354:2.0 355:2.0 356:2.0 357:8.0 358:2.0 359:2.0 360:2.0 361:2.0 362:2.0 363:1.0 364:1.0 365:1.0 366:1.0 367:1.0 368:1.0 369:1.0 370:1.0 371:1.0 372:1.0 373:1.0 374:1.0 375:1.0 376:1.0 377:1.0 378:1.0 379:1.0 380:1.0 381:1.0 382:1.0 383:1.0 384:1.0 385:1.0 386:1.0 387:2.0 388:2.0 389:2.0 390:2.0 391:2.0 392:2.0 393:2.0 394:2.0 395:2.0 396:2.0 397:2.0 398:2.0 399:2.0 400:4.0 401:2.0 402:2.0 403:2.0 404:2.0 405:8.0 406:2.0 407:2.0 408:2.0 409:2.0 410:2.0 411:2.0 412:2.0 413:2.0 414:2.0 415:2.0 
0.7698710776184118 1:11.0 2:5.0 5:1.0 8:2.0 11:1.0 18:1.0 19:1.0 21:1.0 22:1.0 24:4.0 95:2.0 96:1.0 97:2.0 98:1.0 99:1.0 110:2.0 111:1.0 112:1.0 113:1.0 114:1.0 115:1.0 116:1.0 128:1.0 129:1.0 131:1.0 132:1.0 133:1.0 144:1.0 323:1.0 423:1.0 424:1.0 425:1.0 426:1.0 427:1.0 428:1.0 429:1.0 430:1.0 431:1.0 432:1.0 433:1.0 434:1.0 435:1.0 436:1.0 437:1.0 438:1.0 439:1.0 440:1.0 441:1.0 442:1.0 443:1.0 444:1.0 
0.5820719977221382 1:17.0 2:6.0 5:1.0 24:1.0 26:3.0 27:1.0 48:1.0 53:2.0 142:4.0 144:1.0 146:1.0 147:1.0 148:1.0 185:1.0 247:1.0 267:1.0 273:2.0 274:1.0 275:1.0 276:1.0 291:1.0 292:1.0 293:1.0 323:2.0 326:1.0 445:1.0 446:1.0 447:1.0 448:1.0 449:1.0 450:1.0 451:1.0 452:1.0 453:1.0 454:1.0 455:1.0 456:1.0 457:1.0 458:1.0 459:1.0 460:1.0 461:1.0 462:1.0 463:1.0 464:1.0 465:1.0 466:1.0 467:1.0 468:1.0 469:1.0 470:1.0 471:1.0 472:1.0 473:1.0 474:1.0 475:1.0 476:1.0 477:1.0 478:1.0 479:1.0 480:1.0 481:1.0 482:1.0 
1.072169503695614 1:17.0 2:6.0 5:2.0 24:1.0 26:3.0 48:1.0 49:1.0 53:2.0 61:1.0 142:4.0 144:1.0 147:1.0 148:1.0 185:1.0 247:1.0 267:1.0 273:2.0 274:1.0 275:1.0 276:1.0 291:1.0 292:1.0 293:1.0 323:2.0 326:1.0 445:1.0 446:1.0 447:1.0 448:1.0 449:1.0 451:1.0 452:1.0 456:1.0 457:1.0 458:1.0 459:1.0 460:1.0 461:1.0 462:1.0 463:1.0 464:1.0 465:1.0 469:1.0 470:1.0 475:1.0 476:1.0 477:1.0 478:1.0 479:1.0 480:1.0 481:1.0 482:1.0 483:1.0 484:1.0 485:1.0 486:1.0 487:1.0 488:1.0 489:1.0 490:1.0 491:1.0 492:1.0 
2.5459555992799485 1:4.0 8:1.0 44:1.0 144:1.0 145:1.0 154:1.0 324:1.0 327:1.0 598:1.0 599:1.0 600:1.0 601:1.0 602:1.0 603:1.0 604:1.0 605:1.0 606:1.0 607:1.0 608:1.0 609:1.0 610:1.0 
3.1622776601683795 1:8.0 2:2.0 3:2.0 5:1.0 53:1.0 142:1.0 144:1.0 145:1.0 147:1.0 148:1.0 154:1.0 248:1.0 326:1.0 357:2.0 500:1.0 503:1.0 509:1.0 510:1.0 611:1.0 612:1.0 613:1.0 614:1.0 615:1.0 616:1.0 617:1.0 618:1.0 619:2.0 620:1.0 621:1.0 
1.0050421419055389 1:14.0 2:2.0 5:2.0 8:1.0 19:1.0 23:1.0 24:5.0 48:1.0 49:2.0 61:2.0 175:3.0 177:2.0 178:2.0 183:2.0 283:2.0 307:2.0 637:2.0 638:2.0 639:2.0 640:1.0 641:1.0 642:1.0 643:1.0 644:1.0 645:1.0 646:2.0 647:2.0 648:1.0 649:1.0 650:1.0 651:1.0 652:1.0 653:1.0 654:1.0 655:1.0 656:1.0 657:2.0 658:2.0 659:1.0 660:1.0 661:1.0 
1.3402221649535218 1:9.0 8:8.0 19:2.0 25:2.0 44:3.0 90:1.0 91:1.0 94:1.0 229:2.0 327:1.0 518:1.0 673:1.0 674:1.0 675:1.0 676:1.0 677:2.0 678:1.0 679:1.0 680:1.0 681:1.0 682:1.0 683:1.0 684:1.0 685:1.0 686:1.0 687:1.0 688:1.0 689:1.0 690:1.0 691:1.0 692:1.0 693:1.0 694:2.0 695:1.0 696:1.0 697:1.0 698:1.0 699:1.0 700:1.0 701:1.0 702:1.0 703:1.0 704:1.0 705:1.0 706:1.0 707:1.0 708:1.0 709:1.0 710:1.0 711:1.0 712:1.0 713:1.0 714:1.0 715:1.0 716:1.0 717:1.0 718:1.0 719:1.0 
0.37378673812728674 1:15.0 2:2.0 3:1.0 5:2.0 8:1.0 19:1.0 23:1.0 24:6.0 48:2.0 49:2.0 58:2.0 61:2.0 175:3.0 177:2.0 178:2.0 183:2.0 283:2.0 307:2.0 344:1.0 640:1.0 646:3.0 648:1.0 649:1.0 657:2.0 658:2.0 720:1.0 721:1.0 722:1.0 723:1.0 724:1.0 725:1.0 726:1.0 727:1.0 728:1.0 729:1.0 730:1.0 
0.11713010730620864 1:6.0 2:4.0 8:4.0 11:1.0 19:1.0 24:2.0 95:1.0 96:1.0 97:2.0 98:1.0 99:1.0 110:1.0 111:1.0 112:1.0 113:1.0 114:1.0 115:1.0 116:1.0 128:1.0 129:1.0 131:1.0 132:1.0 133:1.0 731:1.0 732:2.0 733:1.0 734:1.0 735:1.0 736:1.0 737:1.0 738:1.0 739:1.0 740:1.0 741:1.0 742:1.0 743:1.0 744:1.0 745:1.0 746:1.0 747:1.0 748:1.0 749:1.0 
0.074822459134321 1:6.0 2:3.0 8:4.0 11:1.0 19:1.0 24:2.0 44:1.0 90:1.0 94:1.0 95:1.0 96:1.0 97:1.0 98:1.0 99:1.0 110:1.0 111:1.0 112:1.0 113:1.0 114:1.0 115:1.0 116:1.0 128:1.0 129:1.0 131:1.0 132:1.0 133:1.0 732:2.0 750:1.0 751:1.0 752:1.0 753:1.0 754:1.0 755:1.0 756:1.0 757:1.0 758:1.0 759:1.0 760:1.0 761:1.0 762:1.0 763:1.0 764:1.0 765:1.0 766:1.0 
1.47836651003704 1:6.0 2:3.0 8:2.0 11:1.0 19:1.0 23:2.0 24:3.0 26:1.0 27:1.0 29:1.0 31:1.0 34:1.0 98:1.0 99:1.0 115:1.0 116:1.0 648:1.0 662:1.0 664:1.0 665:1.0 783:1.0 784:1.0 785:1.0 786:1.0 787:1.0 788:1.0 789:1.0 790:1.0 791:1.0 792:1.0 793:1.0 794:1.0 795:1.0 
3.1481738640042107 1:6.0 2:3.0 8:2.0 11:1.0 19:1.0 23:2.0 24:3.0 26:1.0 27:1.0 29:2.0 34:1.0 98:1.0 99:1.0 115:1.0 116:1.0 648:1.0 662:1.0 665:1.0 783:1.0 784:1.0 785:1.0 786:1.0 787:1.0 794:1.0 795:1.0 796:1.0 797:1.0 798:1.0 799:1.0 800:1.0 801:1.0 802:1.0 
2.3763750782938593 1:6.0 2:3.0 8:2.0 11:1.0 19:1.0 23:2.0 24:3.0 26:1.0 27:1.0 29:1.0 31:1.0 34:1.0 98:1.0 99:1.0 115:1.0 116:1.0 648:1.0 664:1.0 783:1.0 785:1.0 786:1.0 792:1.0 794:1.0 795:1.0 803:1.0 804:1.0 805:1.0 806:1.0 807:1.0 808:1.0 809:1.0 810:1.0 811:1.0 
1.0198803322228038 1:3.0 2:2.0 8:3.0 11:1.0 19:1.0 44:1.0 91:1.0 92:1.0 94:1.0 98:1.0 99:1.0 105:1.0 115:1.0 116:1.0 751:1.0 768:1.0 771:1.0 779:1.0 812:1.0 813:1.0 814:1.0 815:1.0 816:1.0 817:1.0 818:1.0 819:1.0 820:1.0 821:1.0 822:1.0 823:1.0 824:1.0 
0.23727763985379177 1:14.0 2:2.0 5:2.0 8:1.0 19:1.0 23:1.0 24:7.0 29:1.0 48:1.0 49:2.0 58:1.0 61:2.0 175:3.0 177:2.0 178:2.0 183:2.0 283:2.0 307:2.0 646:3.0 648:1.0 657:3.0 658:2.0 728:2.0 804:1.0 810:1.0 825:1.0 826:1.0 827:1.0 828:1.0 829:1.0 830:1.0 831:1.0 
0.4293835758628256 1:14.0 3:2.0 8:3.0 19:1.0 23:3.0 24:7.0 29:3.0 48:1.0 175:1.0 177:1.0 178:2.0 183:1.0 207:1.0 305:1.0 344:2.0 648:1.0 721:2.0 729:2.0 832:2.0 833:1.0 834:2.0 835:1.0 836:1.0 837:1.0 838:1.0 839:1.0 840:1.0 841:1.0 842:1.0 843:1.0 844:1.0 845:1.0 846:1.0 847:1.0 848:1.0 849:1.0 
2.3506023998716405 1:9.0 2:2.0 5:1.0 8:1.0 19:1.0 27:1.0 53:6.0 69:3.0 86:1.0 147:1.0 148:1.0 220:1.0 221:1.0 226:1.0 227:1.0 327:1.0 852:1.0 860:1.0 861:1.0 862:1.0 863:1.0 864:2.0 865:1.0 866:1.0 867:1.0 868:1.0 869:1.0 870:2.0 871:2.0 
2.057172813121743 1:2.0 8:4.0 19:1.0 91:1.0 732:2.0 872:1.0 873:1.0 874:1.0 875:1.0 876:1.0 877:1.0 878:1.0 879:1.0 880:1.0 881:1.0 882:1.0 883:1.0 884:1.0 885:1.0 
1.8108544240585192 1:11.0 2:2.0 5:1.0 8:1.0 19:1.0 27:1.0 53:9.0 69:7.0 147:1.0 148:1.0 220:1.0 221:1.0 226:1.0 227:1.0 327:1.0 356:1.0 850:1.0 851:1.0 852:1.0 853:1.0 854:1.0 855:1.0 856:1.0 857:1.0 858:1.0 859:1.0 886:5.0 
1.501238614868916 1:15.0 2:4.0 3:4.0 24:4.0 26:1.0 31:2.0 44:1.0 45:1.0 48:1.0 58:2.0 142:1.0 146:1.0 248:2.0 348:1.0 493:1.0 495:1.0 502:1.0 588:1.0 860:1.0 913:1.0 919:2.0 955:2.0 956:1.0 957:1.0 958:1.0 959:1.0 960:1.0 961:3.0 962:1.0 963:1.0 964:1.0 965:1.0 966:1.0 967:1.0 968:1.0 969:1.0 970:1.0 971:1.0 972:1.0 973:1.0 974:2.0 975:1.0 976:1.0 977:3.0 978:1.0 979:1.0 980:1.0 981:1.0 982:1.0 983:1.0 984:1.0 
0.5672953600070292 1:8.0 3:3.0 8:5.0 25:2.0 52:1.0 91:3.0 327:1.0 493:1.0 495:1.0 872:2.0 922:1.0 923:1.0 924:1.0 926:2.0 927:2.0 932:1.0 935:2.0 1046:1.0 1076:1.0 1077:1.0 1078:2.0 1079:1.0 1080:1.0 1081:1.0 1082:1.0 1083:1.0 1084:1.0 1085:1.0 1086:1.0 1087:1.0 1088:2.0 1089:1.0 1090:1.0 1091:1.0 
3.0410879664484707 1:8.0 2:5.0 5:1.0 8:4.0 19:1.0 27:3.0 51:1.0 65:1.0 142:1.0 146:3.0 248:1.0 266:1.0 324:2.0 454:2.0 585:1.0 674:1.0 683:1.0 991:1.0 1003:1.0 1114:1.0 1115:1.0 1116:1.0 1117:1.0 1118:1.0 1119:1.0 1120:1.0 1121:1.0 1122:1.0 1123:1.0 1124:1.0 1125:1.0 1126:1.0 1127:1.0 1128:1.0 1129:1.0 1130:1.0 1131:1.0 1132:1.0 1133:1.0 1134:1.0 1135:1.0 1136:1.0 1137:1.0 1138:1.0 1139:1.0 1140:1.0 1141:1.0 1142:1.0 
3.03769566187257 1:5.0 2:4.0 5:2.0 8:3.0 9:1.0 19:1.0 27:1.0 52:1.0 142:1.0 147:2.0 148:2.0 221:1.0 231:1.0 239:1.0 240:1.0 248:1.0 614:1.0 1009:1.0 1163:1.0 1164:1.0 1165:1.0 1166:1.0 1167:1.0 1168:1.0 1169:1.0 1170:1.0 1171:1.0 1172:1.0 1173:1.0 1174:1.0 1175:1.0 1176:1.0 1177:1.0 1178:1.0 1179:1.0 1180:1.0 
0.4202693852470915 1:12.0 8:2.0 23:2.0 24:10.0 29:4.0 178:6.0 184:2.0 305:4.0 832:2.0 834:2.0 835:2.0 842:2.0 1288:2.0 1289:4.0 
0.9125548681815581 1:2.0 2:1.0 8:2.0 11:1.0 265:2.0 832:1.0 1290:1.0 1291:1.0 1292:2.0 1293:2.0 1294:1.0 1295:1.0 1296:1.0 1297:1.0 1298:1.0 
1.0957452863581716 1:6.0 2:1.0 3:2.0 8:2.0 11:1.0 53:2.0 327:2.0 832:1.0 891:2.0 1290:1.0 1295:1.0 1299:1.0 1300:1.0 1301:1.0 1302:2.0 1303:1.0 1304:1.0 1305:1.0 1306:1.0 1307:1.0 1308:2.0 1309:1.0 1310:1.0 1311:1.0 
0.8185968259357017 1:6.0 2:1.0 3:4.0 8:2.0 11:1.0 52:2.0 832:1.0 1078:4.0 1290:1.0 1295:1.0 1312:1.0 1313:1.0 1314:1.0 1315:1.0 1316:1.0 1317:1.0 1318:1.0 1319:2.0 1320:1.0 1321:2.0 1322:1.0 
1.2839778370960928 1:10.0 2:4.0 3:1.0 5:2.0 8:5.0 18:1.0 21:1.0 25:1.0 27:1.0 51:1.0 52:1.0 53:1.0 65:1.0 142:1.0 146:1.0 248:1.0 266:1.0 323:1.0 334:1.0 339:1.0 376:1.0 570:1.0 585:1.0 832:1.0 991:1.0 1003:1.0 1114:1.0 1118:1.0 1164:1.0 1323:1.0 1324:1.0 1325:1.0 1326:1.0 1327:1.0 1328:1.0 1329:1.0 1330:1.0 1331:1.0 1332:1.0 1333:1.0 1334:1.0 1335:1.0 1336:1.0 1337:1.0 1338:1.0 1339:1.0 1340:1.0 1341:1.0 1342:1.0 1343:1.0 1344:1.0 1345:1.0 1346:1.0 1347:1.0 1348:1.0 1349:1.0 1350:1.0 1351:1.0 1352:1.0 
1.6489912719604998 1:15.0 2:1.0 3:1.0 8:5.0 19:1.0 24:5.0 48:1.0 53:1.0 91:2.0 142:1.0 175:1.0 177:2.0 178:3.0 183:2.0 184:1.0 248:2.0 252:1.0 253:1.0 259:1.0 587:1.0 732:1.0 767:1.0 872:1.0 873:1.0 876:1.0 879:1.0 1181:1.0 1186:1.0 1359:1.0 1360:1.0 1361:1.0 1362:1.0 1363:1.0 1364:1.0 1365:1.0 1366:1.0 1367:1.0 1368:1.0 1369:1.0 1370:1.0 1371:1.0 1372:1.0 1373:1.0 1374:1.0 1375:1.0 1376:1.0 1377:1.0 1378:1.0 1379:2.0 1380:1.0 1381:1.0 1382:1.0 1383:1.0 1384:1.0 1385:1.0 
1.2715602997010564 1:6.0 24:6.0 178:6.0 184:6.0 
0.4630770411973369 1:12.0 8:2.0 19:2.0 23:2.0 24:8.0 29:4.0 58:1.0 175:1.0 176:2.0 177:3.0 180:4.0 181:2.0 185:1.0 648:2.0 804:2.0 810:2.0 830:4.0 944:2.0 
0.7799114814693174 1:20.0 24:12.0 178:3.0 1404:8.0 1405:8.0 1406:4.0 1407:2.0 1408:2.0 1409:1.0 1410:1.0 1411:3.0 1412:2.0 1413:3.0 1414:1.0 1415:1.0 1416:1.0 1417:1.0 1418:1.0 1419:1.0 1420:1.0 1421:1.0 1422:2.0 1423:1.0 
1.1838875030121014 1:8.0 2:1.0 24:5.0 97:1.0 178:2.0 423:1.0 428:1.0 1404:1.0 1405:1.0 1422:1.0 1424:1.0 1425:1.0 1426:1.0 1427:1.0 1428:1.0 1429:1.0 1430:1.0 1431:1.0 1432:1.0 1433:1.0 1434:1.0 1435:1.0 1436:1.0 1437:1.0 
1.7764667377474892 1:11.0 2:3.0 5:1.0 8:3.0 18:1.0 19:1.0 21:1.0 22:1.0 24:5.0 27:1.0 48:1.0 53:1.0 58:2.0 178:3.0 183:2.0 184:1.0 327:1.0 416:1.0 418:1.0 420:1.0 767:1.0 1047:1.0 1507:2.0 1520:1.0 1521:1.0 1522:1.0 1523:1.0 1524:1.0 1525:1.0 1526:1.0 1527:1.0 1528:1.0 1529:1.0 1530:1.0 1531:1.0 1532:1.0 1533:1.0 1534:1.0 1535:1.0 1536:1.0 1537:1.0 1538:1.0 1539:1.0 1540:1.0 1541:1.0 
1.0989461334142303 1:5.0 2:2.0 27:2.0 248:2.0 585:2.0 637:2.0 639:2.0 860:1.0 1542:2.0 1543:2.0 1544:2.0 1545:2.0 1546:2.0 1547:2.0 1548:2.0 1549:2.0 1550:2.0 
0.8406030745750078 1:2.0 2:1.0 142:1.0 493:2.0 495:2.0 1559:2.0 1560:2.0 1561:2.0 1562:2.0 1563:2.0 1564:2.0 
1.958970948854628 1:16.0 2:4.0 8:4.0 11:1.0 24:6.0 27:2.0 44:1.0 91:2.0 94:1.0 98:1.0 99:1.0 115:1.0 116:1.0 178:2.0 248:2.0 266:1.0 327:2.0 585:2.0 679:1.0 812:1.0 813:1.0 817:1.0 824:1.0 1036:1.0 1044:1.0 1064:1.0 1404:1.0 1405:1.0 1422:1.0 1439:1.0 1584:1.0 1585:1.0 1586:1.0 1587:1.0 1588:1.0 1589:1.0 1590:1.0 1591:1.0 1592:2.0 1593:2.0 1594:1.0 1595:1.0 1596:1.0 1597:1.0 1598:1.0 1599:1.0 1600:1.0 1601:1.0 1602:1.0 1603:1.0 1604:1.0 1605:1.0 1606:1.0 1607:1.0 1608:2.0 1609:2.0 1610:2.0 1611:1.0 1612:1.0 1613:1.0 1614:1.0 1615:1.0 1616:1.0 
0.9087328969517018 1:14.0 2:2.0 5:2.0 8:4.0 19:4.0 23:4.0 24:4.0 29:4.0 48:1.0 49:2.0 61:2.0 175:3.0 283:2.0 307:2.0 640:1.0 648:4.0 836:1.0 847:4.0 849:1.0 1638:3.0 1639:3.0 1640:2.0 1641:4.0 1642:4.0 1643:3.0 
3.1622776601683795 1:11.0 2:4.0 8:3.0 11:1.0 23:3.0 24:3.0 25:1.0 27:2.0 29:2.0 98:1.0 99:1.0 115:1.0 116:1.0 248:2.0 265:1.0 266:1.0 327:2.0 528:1.0 585:2.0 664:1.0 783:1.0 786:1.0 795:1.0 1592:2.0 1593:2.0 1609:2.0 1610:2.0 1644:1.0 1645:1.0 1646:1.0 1647:1.0 1648:1.0 1649:1.0 1650:1.0 1651:1.0 1652:1.0 1653:1.0 1654:1.0 1655:1.0 1656:2.0 1657:1.0 1658:1.0 1659:1.0 
1.3609024091652266 1:1.0 493:2.0 495:2.0 637:1.0 639:1.0 1666:3.0 1667:4.0 1668:2.0 
0.25772025324741005 1:2.0 3:1.0 637:1.0 639:1.0 1542:3.0 1546:2.0 1669:2.0 
0.6587957488673171 1:25.0 2:6.0 3:3.0 5:2.0 27:2.0 49:2.0 53:6.0 61:2.0 142:2.0 144:3.0 146:2.0 247:1.0 248:1.0 268:1.0 323:1.0 326:3.0 454:1.0 456:1.0 585:1.0 860:2.0 889:1.0 891:1.0 903:1.0 909:1.0 961:2.0 1670:1.0 1671:1.0 1672:1.0 1673:1.0 1674:1.0 1675:1.0 1676:1.0 1677:1.0 1678:1.0 1679:1.0 1680:1.0 1681:1.0 1682:1.0 1683:1.0 1684:1.0 1685:1.0 1686:1.0 1687:1.0 1688:1.0 1689:1.0 1690:1.0 1691:1.0 1692:1.0 1693:1.0 1694:1.0 1695:1.0 1696:1.0 1697:1.0 1698:1.0 1699:1.0 1700:1.0 1701:1.0 1702:1.0 1703:1.0 1704:1.0 1705:1.0 1706:1.0 1707:1.0 1708:1.0 1709:1.0 1710:1.0 1711:1.0 1712:1.0 1713:1.0 1714:1.0 1715:1.0 1716:1.0 1717:1.0 1718:1.0 1719:1.0 1720:1.0 
1.9962819246796573 1:4.0 144:2.0 145:2.0 154:2.0 1721:4.0 1722:2.0 
1.5981310686565096 1:4.0 2:1.0 3:3.0 27:1.0 268:3.0 282:6.0 1733:2.0 
1.466984659469605 1:19.0 2:4.0 3:1.0 5:2.0 24:9.0 48:2.0 53:2.0 58:2.0 142:2.0 147:2.0 148:2.0 175:1.0 177:2.0 178:5.0 183:4.0 184:1.0 248:2.0 614:2.0 891:1.0 903:1.0 909:1.0 1367:1.0 1472:1.0 1473:1.0 1476:1.0 1477:1.0 1478:2.0 1725:1.0 1731:1.0 1732:1.0 1734:2.0 1735:2.0 1736:2.0 1737:2.0 1738:2.0 1739:1.0 1740:1.0 1741:2.0 1742:1.0 
0.26656995493779656 1:8.0 2:2.0 3:1.0 8:2.0 27:1.0 53:4.0 99:1.0 248:1.0 327:2.0 356:2.0 585:1.0 622:1.0 623:1.0 627:1.0 628:1.0 636:1.0 891:1.0 902:2.0 903:1.0 909:1.0 1725:1.0 1748:1.0 1749:1.0 1750:1.0 1751:2.0 1752:1.0 1753:1.0 1754:1.0 1755:1.0 1756:1.0 1757:1.0 1758:1.0 
0.744586449384879 1:5.0 2:2.0 3:1.0 5:1.0 8:3.0 19:1.0 51:1.0 53:2.0 65:1.0 99:1.0 327:1.0 356:1.0 572:1.0 622:1.0 623:1.0 625:1.0 626:1.0 627:1.0 628:1.0 632:1.0 633:1.0 634:1.0 635:1.0 636:1.0 891:1.0 902:1.0 903:1.0 904:1.0 905:1.0 909:1.0 1756:1.0 1757:1.0 
2.823487560869359 1:4.0 2:2.0 3:1.0 5:1.0 53:1.0 142:1.0 146:1.0 147:1.0 148:1.0 348:1.0 1802:1.0 1803:2.0 1804:1.0 1805:2.0 1806:1.0 1807:1.0 1808:1.0 1809:1.0 
3.1622776601683795 1:9.0 2:4.0 5:1.0 24:3.0 26:2.0 27:3.0 31:1.0 34:2.0 48:1.0 58:1.0 144:2.0 147:1.0 148:1.0 152:1.0 221:1.0 278:1.0 313:1.0 315:1.0 316:1.0 912:1.0 918:1.0 1815:2.0 1816:1.0 1817:2.0 1818:1.0 1819:1.0 1820:1.0 1821:1.0 1822:1.0 1823:1.0 1824:1.0 1825:1.0 
0.9873666040679434 1:10.0 2:2.0 5:2.0 8:1.0 18:2.0 21:2.0 44:1.0 53:2.0 144:2.0 326:2.0 493:4.0 495:4.0 1903:1.0 1904:1.0 1905:1.0 1906:1.0 1907:2.0 1908:2.0 1909:1.0 1910:1.0 1911:1.0 1912:1.0 1913:2.0 1914:2.0 1915:2.0 1916:2.0 1917:2.0 1918:2.0 1919:2.0 1920:1.0 1921:1.0 1922:1.0 1923:1.0 1924:2.0 1925:2.0 1926:2.0 1927:2.0 
1.1143466893276877 1:9.0 2:2.0 5:2.0 8:1.0 18:2.0 21:2.0 44:1.0 53:2.0 144:2.0 326:2.0 493:3.0 495:3.0 1903:1.0 1904:1.0 1907:2.0 1908:2.0 1909:1.0 1915:2.0 1916:2.0 1917:2.0 1918:2.0 1919:2.0 1926:2.0 1927:2.0 1928:1.0 1929:1.0 1930:1.0 1931:3.0 1932:1.0 1933:1.0 1934:1.0 1935:3.0 
1.2217662450278037 1:12.0 2:2.0 5:1.0 8:1.0 24:7.0 25:1.0 26:1.0 31:1.0 142:1.0 178:3.0 265:1.0 517:1.0 526:1.0 527:1.0 528:1.0 539:1.0 1404:2.0 1405:3.0 1406:1.0 1413:2.0 1422:2.0 1936:1.0 1937:1.0 1938:1.0 1939:1.0 1940:1.0 1941:1.0 1942:1.0 1943:1.0 1944:1.0 1945:1.0 1946:1.0 1947:1.0 1948:1.0 1949:1.0 
1.148099969457298 1:1.0 493:4.0 495:4.0 1950:3.0 1951:8.0 
2.8608668524406826 1:3.0 2:4.0 5:2.0 8:3.0 19:1.0 27:1.0 51:1.0 65:1.0 99:1.0 147:1.0 148:1.0 221:1.0 327:1.0 572:1.0 622:1.0 623:1.0 625:1.0 626:1.0 627:1.0 628:1.0 632:1.0 633:1.0 634:1.0 635:1.0 636:1.0 1952:1.0 1953:1.0 1954:1.0 1955:1.0 1956:1.0 1957:1.0 1958:1.0 
1.4515381724508827 1:6.0 2:2.0 24:4.0 26:2.0 27:2.0 31:2.0 34:2.0 178:2.0 1030:2.0 1815:2.0 1817:2.0 1819:2.0 1995:2.0 
0.8145986839366582 1:14.0 2:2.0 5:1.0 8:1.0 23:1.0 24:4.0 27:1.0 29:2.0 48:1.0 53:3.0 58:2.0 69:1.0 147:1.0 148:1.0 218:1.0 220:1.0 221:1.0 223:2.0 226:1.0 227:1.0 266:1.0 327:2.0 493:2.0 495:2.0 850:1.0 853:1.0 854:1.0 957:2.0 968:2.0 1646:1.0 1647:1.0 2075:2.0 2076:2.0 2077:1.0 2078:2.0 2079:2.0 2080:2.0 2081:1.0 2082:1.0 2083:2.0 2084:1.0 2085:1.0 2086:1.0 
1.6466222429444812 1:9.0 2:4.0 5:2.0 27:2.0 147:2.0 148:2.0 221:2.0 326:2.0 493:6.0 495:6.0 542:2.0 543:1.0 544:2.0 545:2.0 547:1.0 548:2.0 549:2.0 551:2.0 552:2.0 557:1.0 558:2.0 559:2.0 561:2.0 562:2.0 2122:2.0 2123:2.0 2124:2.0 2125:2.0 2126:2.0 2127:2.0 2128:2.0 
0.2912840802833287 1:12.0 2:1.0 8:1.0 19:1.0 23:1.0 24:8.0 26:2.0 29:2.0 31:4.0 142:1.0 493:1.0 494:1.0 495:1.0 501:1.0 648:1.0 804:1.0 809:2.0 810:1.0 913:2.0 930:2.0 944:1.0 1492:1.0 1498:2.0 1500:1.0 2129:1.0 2130:2.0 2131:2.0 2132:1.0 2133:2.0 2134:1.0 
2.4711462885164344 1:5.0 2:3.0 5:1.0 27:1.0 142:1.0 147:1.0 148:1.0 247:1.0 323:1.0 493:3.0 495:3.0 544:1.0 552:1.0 1859:1.0 1906:1.0 1913:2.0 2059:1.0 2135:1.0 2136:1.0 2137:1.0 2138:1.0 2139:1.0 2140:1.0 2141:1.0 2142:1.0 2143:1.0 2144:1.0 2145:1.0 2146:1.0 2147:1.0 2148:2.0 2149:1.0 
1.8223792812219741 1:14.0 2:4.0 3:2.0 5:1.0 8:1.0 24:3.0 27:1.0 44:1.0 45:2.0 46:1.0 47:1.0 48:1.0 53:1.0 54:2.0 56:1.0 57:1.0 147:1.0 148:1.0 221:1.0 326:2.0 327:2.0 357:2.0 493:1.0 494:1.0 495:1.0 501:1.0 553:1.0 930:1.0 947:1.0 953:1.0 954:1.0 1903:1.0 2065:1.0 2073:1.0 2150:2.0 2151:2.0 2152:1.0 2153:1.0 2154:1.0 2155:1.0 2156:2.0 2157:1.0 2158:2.0 2159:1.0 2160:2.0 2161:1.0 2162:1.0 2163:2.0 2164:1.0 2165:1.0 2166:1.0 2167:1.0 2168:1.0 2169:1.0 
1.9634634429199005 1:4.0 3:1.0 145:1.0 323:1.0 339:1.0 493:1.0 495:1.0 957:1.0 968:1.0 2177:2.0 2178:1.0 2179:2.0 2180:1.0 2181:1.0 2182:1.0 
3.1622776601683795 1:6.0 8:2.0 19:2.0 23:2.0 24:3.0 29:1.0 493:1.0 494:1.0 495:1.0 501:1.0 648:2.0 664:1.0 804:1.0 808:1.0 810:1.0 930:1.0 931:1.0 943:1.0 2063:1.0 2074:1.0 2175:1.0 2186:1.0 2187:1.0 2188:1.0 2189:1.0 
3.1622776601683795 1:6.0 8:2.0 19:2.0 23:2.0 24:3.0 29:1.0 493:1.0 494:1.0 495:1.0 501:1.0 648:2.0 930:1.0 1492:1.0 1500:1.0 2064:1.0 2185:1.0 2190:2.0 2191:2.0 2192:1.0 2193:1.0 2194:1.0 2195:1.0 2196:1.0 
1.6231281144737066 1:2.0 493:1.0 495:1.0 957:1.0 968:1.0 1034:3.0 1038:3.0 1998:1.0 2006:3.0 2209:2.0 2210:2.0 2211:1.0 2212:3.0 
0.8680823961779698 1:14.0 2:2.0 3:2.0 5:1.0 8:3.0 23:1.0 24:4.0 25:1.0 27:1.0 29:1.0 44:1.0 48:2.0 58:1.0 91:2.0 147:1.0 148:1.0 178:1.0 201:1.0 202:1.0 221:1.0 229:1.0 344:2.0 493:1.0 495:1.0 518:1.0 679:1.0 2213:1.0 2214:1.0 2215:1.0 2216:1.0 2217:1.0 2218:1.0 2219:1.0 2220:1.0 2221:1.0 2222:1.0 2223:1.0 2224:1.0 2225:1.0 2226:1.0 2227:1.0 2228:1.0 2229:1.0 2230:1.0 2231:1.0 2232:1.0 2233:1.0 2234:1.0 2235:1.0 2236:1.0 2237:1.0 2238:1.0 2239:1.0 2240:1.0 2241:1.0 2242:1.0 2243:1.0 2244:1.0 2245:1.0 2246:1.0 2247:1.0 
0.8793094708203286 1:16.0 2:2.0 3:2.0 5:1.0 8:4.0 18:1.0 21:1.0 23:1.0 24:4.0 25:2.0 27:1.0 29:1.0 44:1.0 48:2.0 58:1.0 91:2.0 178:1.0 201:1.0 202:1.0 229:1.0 248:1.0 327:1.0 344:2.0 493:1.0 495:1.0 518:1.0 585:1.0 676:1.0 1593:1.0 1610:1.0 1661:1.0 1665:1.0 1897:1.0 2213:1.0 2214:1.0 2215:1.0 2216:1.0 2219:1.0 2220:1.0 2221:1.0 2222:1.0 2225:1.0 2226:1.0 2227:1.0 2228:1.0 2229:1.0 2230:1.0 2231:1.0 2232:1.0 2233:1.0 2234:1.0 2235:1.0 2241:1.0 2242:1.0 2243:1.0 2244:1.0 2245:1.0 2246:1.0 2247:1.0 2248:1.0 2249:1.0 2250:1.0 2251:1.0 2252:1.0 2253:1.0 2254:1.0 2255:1.0 2256:1.0 2257:1.0 
3.1622776601683795 1:6.0 24:5.0 178:3.0 184:1.0 493:1.0 494:1.0 495:1.0 501:1.0 930:2.0 940:2.0 1492:1.0 1500:1.0 2134:1.0 2278:2.0 
1.1680237396667041 1:6.0 2:3.0 3:2.0 5:1.0 8:3.0 25:1.0 27:1.0 51:1.0 65:1.0 99:1.0 146:1.0 327:1.0 348:1.0 454:1.0 493:1.0 495:1.0 622:1.0 623:1.0 627:1.0 628:1.0 636:1.0 1625:1.0 1626:1.0 1628:1.0 1629:1.0 1632:1.0 1796:1.0 2297:1.0 2298:1.0 2299:1.0 2300:1.0 2301:1.0 2302:1.0 2303:1.0 2304:1.0 2305:1.0 2306:1.0 2307:1.0 2308:1.0 2309:1.0 2310:1.0 2311:1.0 
1.8352930187822318 1:1.0 493:1.0 495:1.0 1034:1.0 1038:1.0 2312:3.0 2313:2.0 2314:2.0 
1.2189669518580284 1:1.0 493:3.0 495:3.0 2315:3.0 2316:6.0 
1.0638128996724487 1:2.0 2:1.0 142:1.0 267:1.0 275:1.0 493:1.0 495:1.0 1559:1.0 1560:1.0 1561:2.0 1563:1.0 2317:2.0 2318:1.0 
3.1622776601683795 1:9.0 2:1.0 5:1.0 8:2.0 23:1.0 24:4.0 25:1.0 28:1.0 29:2.0 51:1.0 65:1.0 265:2.0 266:1.0 269:2.0 493:1.0 494:1.0 495:1.0 501:1.0 930:2.0 1326:1.0 1342:1.0 1492:1.0 1500:1.0 2029:1.0 2041:1.0 2134:1.0 2185:2.0 2319:1.0 2320:1.0 2321:1.0 2322:2.0 2323:1.0 2324:2.0 
2.2558671688725744 1:16.0 2:2.0 5:1.0 8:1.0 19:1.0 24:9.0 142:1.0 175:2.0 177:4.0 178:3.0 183:2.0 184:1.0 268:1.0 493:1.0 494:1.0 495:1.0 501:1.0 517:1.0 526:1.0 930:2.0 1492:1.0 1500:1.0 2134:1.0 2206:2.0 2280:2.0 2285:2.0 2367:1.0 2368:1.0 2369:1.0 2370:1.0 2371:1.0 2372:1.0 2373:1.0 2374:1.0 2375:1.0 2376:1.0 2377:1.0 2378:1.0 2379:1.0 2380:1.0 2381:1.0 2382:2.0 2383:2.0 
3.1622776601683795 1:4.0 144:1.0 145:2.0 154:1.0 493:1.0 495:1.0 544:1.0 552:1.0 2402:2.0 2403:2.0 2404:1.0 2405:1.0 2406:1.0 2407:1.0 
1.8133545991812368 1:8.0 8:2.0 48:2.0 134:2.0 135:2.0 137:2.0 493:4.0 494:4.0 495:4.0 501:4.0 2416:1.0 2417:2.0 2418:2.0 2419:1.0 2420:2.0 2421:1.0 2422:1.0 2423:2.0 2424:2.0 2425:1.0 2426:2.0 2427:2.0 2428:2.0 2429:1.0 
0.9987212387644314 1:9.0 2:7.0 5:1.0 8:3.0 25:1.0 27:4.0 51:1.0 52:1.0 65:1.0 66:1.0 99:1.0 142:1.0 146:3.0 247:1.0 248:1.0 327:1.0 454:2.0 493:1.0 495:1.0 585:1.0 622:1.0 623:1.0 625:1.0 627:1.0 628:1.0 635:1.0 636:1.0 957:1.0 968:1.0 991:1.0 1003:1.0 1122:1.0 1123:1.0 1139:1.0 1140:1.0 1678:1.0 2059:1.0 2075:1.0 2078:1.0 2299:1.0 2305:1.0 2430:1.0 2431:1.0 2432:1.0 2433:1.0 2434:1.0 2435:1.0 2436:1.0 2437:1.0 2438:1.0 2439:1.0 2440:1.0 2441:1.0 2442:1.0 2443:1.0 2444:1.0 2445:1.0 2446:1.0 
1.5208564885505411 1:14.0 2:4.0 5:2.0 24:6.0 26:2.0 27:2.0 31:2.0 34:2.0 48:1.0 49:2.0 58:1.0 61:2.0 175:3.0 177:1.0 178:2.0 283:2.0 307:2.0 646:2.0 658:2.0 728:1.0 1386:2.0 1393:2.0 2451:1.0 2452:1.0 2453:1.0 2454:2.0 2455:2.0 2456:2.0 2457:2.0 2458:2.0 
1.45045422055529 1:13.0 2:3.0 3:2.0 5:1.0 24:4.0 26:1.0 27:1.0 31:2.0 53:1.0 142:1.0 147:1.0 148:1.0 175:1.0 177:2.0 221:1.0 268:1.0 281:1.0 282:2.0 326:1.0 493:2.0 495:2.0 543:1.0 551:2.0 913:1.0 919:2.0 1094:1.0 2491:1.0 2492:1.0 2493:1.0 2494:1.0 2495:1.0 2496:2.0 2497:1.0 2498:1.0 2499:1.0 2500:2.0 2501:1.0 2502:1.0 2503:1.0 2504:1.0 2505:1.0 2506:1.0 2507:2.0 2508:1.0 
1.3317683084824812 1:13.0 2:5.0 3:3.0 5:2.0 27:2.0 49:1.0 61:1.0 142:1.0 146:1.0 147:1.0 148:1.0 221:1.0 322:1.0 323:4.0 326:1.0 339:1.0 348:1.0 357:1.0 445:1.0 989:1.0 2516:1.0 2517:1.0 2518:1.0 2519:1.0 2520:1.0 2521:1.0 2522:1.0 2523:1.0 2524:1.0 2525:1.0 2526:1.0 2527:1.0 2528:1.0 2529:1.0 2530:1.0 2531:1.0 2532:1.0 2533:1.0 2534:1.0 2535:1.0 2536:1.0 2537:1.0 2538:1.0 2539:1.0 2540:1.0 2541:1.0 2542:1.0 2543:1.0 2544:1.0 
0.6763430261911577 1:21.0 2:7.0 3:3.0 5:3.0 8:1.0 27:1.0 53:1.0 142:3.0 144:3.0 145:1.0 146:1.0 147:3.0 148:3.0 154:1.0 157:1.0 158:1.0 159:1.0 160:1.0 174:1.0 248:1.0 265:1.0 268:1.0 282:1.0 323:2.0 326:1.0 327:2.0 357:1.0 451:1.0 470:1.0 614:1.0 2281:1.0 2287:1.0 2545:1.0 2546:1.0 2547:1.0 2548:1.0 2549:1.0 2550:1.0 2551:1.0 2552:1.0 2553:1.0 2554:1.0 2555:1.0 2556:1.0 2557:1.0 2558:1.0 2559:1.0 2560:1.0 2561:1.0 2562:1.0 2563:1.0 2564:1.0 2565:1.0 2566:1.0 2567:1.0 2568:1.0 2569:1.0 2570:1.0 2571:1.0 2572:1.0 2573:1.0 2574:1.0 2575:1.0 2576:1.0 2577:1.0 2578:1.0 2579:1.0 2580:1.0 2581:1.0 2582:1.0 2583:1.0 2584:1.0 2585:1.0 2586:1.0 2587:1.0 2588:1.0 
1.6676918364728575 1:12.0 2:3.0 3:3.0 5:1.0 24:4.0 26:1.0 31:2.0 142:2.0 147:1.0 148:1.0 248:1.0 252:1.0 253:1.0 259:1.0 268:1.0 281:1.0 282:2.0 493:1.0 494:1.0 495:1.0 501:1.0 614:1.0 913:1.0 930:2.0 1492:1.0 1498:2.0 1500:1.0 2133:2.0 2134:1.0 2281:1.0 2287:1.0 2288:1.0 2289:1.0 2493:1.0 2501:1.0 2502:1.0 2507:2.0 2595:1.0 2596:1.0 
1.7822399156025168 1:9.0 2:2.0 5:1.0 24:4.0 26:1.0 31:1.0 48:1.0 58:1.0 142:1.0 144:2.0 147:1.0 148:1.0 178:2.0 183:1.0 273:1.0 278:1.0 452:1.0 1029:1.0 1030:1.0 1816:1.0 2711:1.0 2712:1.0 2713:1.0 2714:1.0 2715:1.0 2716:1.0 2717:1.0 2718:1.0 2719:1.0 2720:1.0 
1.419720122785487 1:8.0 2:1.0 3:1.0 8:1.0 19:1.0 23:1.0 24:3.0 26:1.0 29:1.0 31:1.0 48:1.0 142:1.0 152:1.0 267:1.0 274:1.0 275:1.0 292:1.0 344:1.0 648:1.0 721:1.0 729:1.0 836:1.0 846:1.0 849:1.0 913:1.0 921:1.0 2130:1.0 2721:1.0 2722:1.0 2723:1.0 2724:1.0 
0.12178145649373308 1:8.0 2:1.0 3:1.0 8:1.0 19:1.0 23:1.0 24:3.0 26:1.0 31:1.0 48:1.0 58:1.0 142:1.0 207:1.0 267:1.0 274:1.0 275:1.0 292:1.0 344:1.0 648:1.0 662:1.0 663:1.0 665:1.0 1768:1.0 1773:1.0 1776:1.0 2675:1.0 2725:1.0 2726:1.0 2727:1.0 2728:1.0 2729:1.0 
3.1622776601683795 1:4.0 2:1.0 3:1.0 4:1.0 5:1.0 7:1.0 144:2.0 244:1.0 246:1.0 910:1.0 911:1.0 914:1.0 2486:2.0 2487:1.0 2730:1.0 
0.8278128072810399 1:9.0 3:3.0 8:6.0 25:2.0 91:3.0 134:1.0 135:1.0 137:1.0 327:1.0 493:1.0 495:1.0 872:2.0 922:1.0 923:1.0 924:1.0 926:2.0 927:2.0 932:1.0 935:2.0 1076:1.0 1079:1.0 1080:1.0 1081:1.0 1082:1.0 1083:1.0 1084:1.0 1089:1.0 1090:1.0 1091:1.0 2027:1.0 2035:2.0 2731:1.0 2732:1.0 2733:1.0 2734:1.0 2735:1.0 2736:1.0 2737:1.0 2738:1.0 2739:2.0 
2.6966089471165997 1:5.0 2:1.0 8:1.0 10:1.0 11:1.0 15:1.0 53:4.0 69:2.0 87:1.0 139:1.0 141:1.0 2782:2.0 2783:1.0 2784:2.0 2785:1.0 2786:2.0 2787:1.0 
1.2572243081183176 1:18.0 2:3.0 5:1.0 8:2.0 18:1.0 21:1.0 23:1.0 24:3.0 25:1.0 26:2.0 30:1.0 31:1.0 53:4.0 69:2.0 91:1.0 92:2.0 142:2.0 146:1.0 149:2.0 166:1.0 175:1.0 177:1.0 267:1.0 274:1.0 275:1.0 292:1.0 343:1.0 386:1.0 455:2.0 493:2.0 494:2.0 495:2.0 501:2.0 1097:1.0 1572:2.0 2602:1.0 2626:1.0 2667:1.0 2788:1.0 2789:1.0 2790:2.0 2791:1.0 2792:1.0 2793:1.0 2794:1.0 2795:1.0 2796:1.0 2797:1.0 2798:1.0 2799:1.0 2800:1.0 2801:2.0 2802:2.0 2803:1.0 2804:2.0 2805:2.0 2806:1.0 2807:2.0 
0.5257935823817117 1:7.0 2:2.0 8:2.0 53:1.0 248:1.0 327:3.0 493:2.0 495:2.0 957:2.0 968:2.0 1257:1.0 1263:1.0 2075:2.0 2078:2.0 2808:1.0 2809:1.0 2810:1.0 2811:1.0 2812:2.0 2813:1.0 2814:1.0 2815:1.0 2816:1.0 2817:1.0 2818:1.0 2819:1.0 2820:1.0 2821:2.0 2822:2.0 2823:1.0 2824:1.0 2825:1.0 2826:1.0 2827:1.0 2828:1.0 2829:1.0 2830:1.0 
1.594169028575012 1:6.0 2:1.0 5:1.0 8:6.0 18:1.0 19:1.0 21:1.0 22:1.0 91:2.0 265:2.0 622:1.0 676:1.0 767:1.0 832:1.0 873:1.0 1185:1.0 1195:1.0 1258:1.0 1266:1.0 2467:1.0 2873:2.0 2874:1.0 2875:1.0 2876:1.0 2877:1.0 2878:1.0 2879:2.0 2880:1.0 2881:1.0 2882:1.0 2883:1.0 2884:1.0 2885:1.0 2886:1.0 2887:1.0 2888:1.0 2889:1.0 2890:1.0 
2.743586487817748 1:6.0 2:3.0 5:2.0 8:2.0 18:1.0 21:1.0 27:1.0 53:2.0 89:1.0 147:1.0 148:1.0 220:1.0 221:1.0 226:1.0 227:1.0 265:2.0 417:1.0 622:1.0 850:1.0 853:1.0 2873:2.0 2891:1.0 2892:1.0 2893:1.0 2894:1.0 2895:1.0 2896:1.0 2897:1.0 2898:1.0 2899:1.0 2900:2.0 
0.7656888435350788 1:12.0 2:2.0 8:2.0 19:2.0 23:2.0 24:8.0 29:4.0 44:1.0 45:2.0 47:2.0 57:4.0 648:2.0 804:2.0 810:2.0 944:2.0 2901:1.0 2902:2.0 2903:1.0 2904:2.0 2905:2.0 2906:1.0 2907:2.0 2908:4.0 2909:4.0 
2.491629649575946 1:14.0 24:8.0 175:2.0 177:4.0 326:1.0 493:5.0 494:2.0 495:5.0 501:2.0 930:4.0 1094:2.0 1492:2.0 1500:2.0 2055:1.0 2056:3.0 2134:2.0 2206:4.0 2916:4.0 2927:1.0 2928:1.0 2929:3.0 2930:1.0 2931:1.0 2932:2.0 
1.1691091804796587 1:12.0 2:1.0 26:2.0 142:1.0 637:10.0 638:10.0 639:10.0 647:10.0 2129:1.0 2933:4.0 2934:2.0 2935:6.0 2936:4.0 2937:4.0 2938:2.0 2939:4.0 2940:2.0 2941:6.0 2942:1.0 
0.7040021855146502 1:25.0 2:6.0 3:4.0 5:3.0 8:1.0 27:1.0 49:2.0 53:4.0 61:2.0 142:2.0 144:3.0 146:2.0 147:1.0 148:1.0 158:1.0 159:1.0 160:1.0 174:1.0 248:1.0 323:1.0 324:1.0 326:3.0 454:1.0 456:1.0 614:1.0 860:2.0 889:1.0 961:2.0 1474:1.0 1675:1.0 1676:1.0 1677:1.0 1681:1.0 1682:1.0 1684:1.0 1685:1.0 1686:1.0 1687:1.0 1688:1.0 1689:1.0 1690:1.0 1704:1.0 1705:1.0 1708:1.0 1709:1.0 1710:1.0 1712:1.0 1713:1.0 1714:1.0 1715:1.0 1716:1.0 1717:1.0 1718:1.0 1719:1.0 1720:1.0 2027:1.0 2943:1.0 2944:1.0 2945:1.0 2946:1.0 2947:1.0 2948:1.0 2949:1.0 2950:1.0 2951:1.0 2952:1.0 2953:1.0 2954:1.0 2955:1.0 2956:1.0 2957:1.0 2958:1.0 2959:1.0 2960:1.0 2961:1.0 2962:1.0 2963:1.0 2964:1.0 2965:1.0 2966:1.0 2967:1.0 
0.9076063538883635 1:19.0 2:2.0 3:2.0 5:1.0 27:1.0 49:1.0 53:8.0 61:1.0 144:1.0 146:1.0 323:1.0 326:3.0 454:1.0 455:1.0 485:1.0 860:2.0 864:2.0 889:2.0 961:2.0 1675:2.0 1681:1.0 1686:1.0 1915:1.0 2968:1.0 2969:1.0 2970:1.0 2971:1.0 2972:1.0 2973:1.0 2974:1.0 2975:1.0 2976:1.0 2977:1.0 2978:1.0 2979:1.0 2980:1.0 2981:1.0 2982:1.0 2983:1.0 2984:1.0 2985:1.0 2986:1.0 2987:1.0 2988:1.0 2989:1.0 2990:1.0 2991:1.0 2992:1.0 2993:1.0 2994:1.0 
1.0081660579226943 1:21.0 2:3.0 3:3.0 5:2.0 49:1.0 53:8.0 61:1.0 142:1.0 144:1.0 146:1.0 147:1.0 148:1.0 157:1.0 158:1.0 159:1.0 160:1.0 173:1.0 174:1.0 323:1.0 326:3.0 455:1.0 485:1.0 860:2.0 864:2.0 889:2.0 961:2.0 1097:1.0 1675:2.0 1681:1.0 1686:1.0 1915:1.0 2968:1.0 2969:1.0 2970:1.0 2971:1.0 2972:1.0 2974:1.0 2975:1.0 2976:1.0 2977:1.0 2978:1.0 2979:1.0 2980:1.0 2981:1.0 2982:1.0 2983:1.0 2984:1.0 2985:1.0 2986:1.0 2988:1.0 2989:1.0 2992:1.0 2993:1.0 2995:1.0 2996:1.0 2997:1.0 2998:1.0 
1.856990833709358 1:17.0 2:2.0 3:2.0 5:2.0 8:1.0 18:2.0 20:2.0 21:2.0 23:1.0 24:7.0 29:1.0 53:1.0 58:2.0 175:1.0 177:1.0 178:3.0 183:2.0 185:3.0 187:1.0 188:1.0 190:1.0 191:1.0 195:1.0 196:1.0 197:1.0 198:2.0 199:1.0 200:1.0 201:1.0 206:1.0 266:1.0 285:1.0 304:1.0 3090:1.0 3091:2.0 3092:1.0 3093:2.0 3094:2.0 3095:2.0 3096:1.0 3097:1.0 
0.19712381533333967 1:6.0 2:1.0 8:2.0 99:1.0 144:2.0 145:2.0 154:2.0 327:2.0 600:2.0 605:2.0 622:1.0 623:1.0 624:2.0 627:1.0 628:1.0 629:2.0 636:1.0 1748:1.0 1758:1.0 3101:2.0 3102:1.0 
0.447591903073526 1:7.0 2:3.0 8:6.0 11:1.0 19:2.0 24:2.0 91:3.0 95:1.0 96:1.0 97:1.0 98:1.0 99:1.0 110:1.0 111:1.0 112:1.0 113:1.0 114:1.0 115:1.0 116:1.0 128:1.0 129:1.0 131:1.0 132:1.0 133:1.0 872:1.0 879:2.0 1438:1.0 1439:1.0 1440:2.0 1441:1.0 1443:1.0 1444:1.0 1446:2.0 1447:2.0 1450:1.0 3103:1.0 3104:1.0 3105:2.0 3106:1.0 3107:1.0 3108:1.0 3109:1.0 
3.1622776601683795 1:7.0 3:1.0 8:2.0 19:2.0 23:2.0 24:3.0 29:1.0 48:1.0 58:1.0 344:1.0 648:2.0 664:1.0 721:1.0 729:1.0 804:1.0 808:1.0 810:1.0 830:1.0 836:1.0 849:1.0 2208:1.0 3110:1.0 3111:1.0 3112:1.0 
0.42141302697690036 1:12.0 2:1.0 8:1.0 19:1.0 23:1.0 24:7.0 29:1.0 97:1.0 178:2.0 648:1.0 804:1.0 810:1.0 1404:2.0 1405:2.0 1422:1.0 1424:2.0 1427:2.0 1429:1.0 1436:1.0 1437:1.0 3150:2.0 3151:1.0 3152:1.0 3153:1.0 3154:1.0 3155:1.0 3156:2.0 3157:1.0 3158:1.0 3159:1.0 3160:1.0 3161:1.0 
1.6394768234187878 1:3.0 493:1.0 495:1.0 637:2.0 639:2.0 957:1.0 968:1.0 1542:1.0 1546:1.0 3162:1.0 3163:1.0 3164:2.0 3165:1.0 3166:1.0 3167:1.0 3168:1.0 3169:1.0 3170:1.0 3171:1.0 
0.7862620075724482 1:2.0 637:2.0 639:2.0 1542:2.0 1546:2.0 3179:4.0 3180:2.0 
1.9132659019392575 1:6.0 2:4.0 27:4.0 146:4.0 454:4.0 637:2.0 639:2.0 1123:2.0 1140:2.0 1542:2.0 1546:2.0 3172:2.0 3173:2.0 3174:2.0 3175:2.0 3176:2.0 3177:2.0 3178:2.0 
0.7368538846130431 1:9.0 2:2.0 3:2.0 5:1.0 8:3.0 25:1.0 51:1.0 53:4.0 65:1.0 99:1.0 327:2.0 356:2.0 622:1.0 623:1.0 625:1.0 627:1.0 628:1.0 635:1.0 636:1.0 891:2.0 902:1.0 903:2.0 905:1.0 909:2.0 1756:1.0 1757:2.0 1796:1.0 1797:1.0 1800:1.0 1801:1.0 2299:1.0 2305:1.0 3200:1.0 3201:1.0 3202:1.0 
1.8205380161384295 1:2.0 3:1.0 493:2.0 495:2.0 1034:1.0 1038:1.0 3203:3.0 3204:2.0 3205:4.0 3206:2.0 
3.1622776601683795 1:2.0 2:2.0 5:1.0 27:1.0 147:1.0 148:1.0 221:1.0 493:2.0 495:2.0 1906:1.0 1913:2.0 3213:2.0 3214:2.0 3215:1.0 3216:1.0 3217:2.0 
1.3283951878097668 1:2.0 493:2.0 495:2.0 3218:2.0 3219:2.0 3220:4.0 3221:2.0 
2.738405844324391 1:6.0 24:4.0 493:2.0 494:2.0 495:2.0 501:2.0 930:4.0 1492:2.0 1500:2.0 2134:2.0 3224:4.0 
1.0492734074294365 1:12.0 8:2.0 19:2.0 23:2.0 24:6.0 29:2.0 48:1.0 58:1.0 175:1.0 176:2.0 177:1.0 180:2.0 493:2.0 494:2.0 495:2.0 498:1.0 501:2.0 648:2.0 931:2.0 943:2.0 1491:1.0 2063:2.0 2074:2.0 3225:2.0 3226:2.0 3227:2.0 3228:2.0 3229:2.0 
2.2112369940954646 1:2.0 493:2.0 495:2.0 957:2.0 968:2.0 3240:4.0 3241:2.0 
2.9429936858692147 1:4.0 2:4.0 267:2.0 445:1.0 493:2.0 495:2.0 1257:1.0 1263:3.0 1273:2.0 2810:1.0 2917:1.0 2918:2.0 3264:1.0 3265:1.0 3266:1.0 3267:1.0 3268:1.0 3269:1.0 3270:2.0 3271:1.0 3272:1.0 3273:1.0 3274:1.0 3275:1.0 3276:2.0 3277:2.0 3278:2.0 
1.604852640941638 1:15.0 2:1.0 3:2.0 8:4.0 11:1.0 23:3.0 24:6.0 29:4.0 92:2.0 266:1.0 327:2.0 832:2.0 834:2.0 835:2.0 842:2.0 848:2.0 1081:2.0 1288:1.0 1646:1.0 1647:1.0 1652:2.0 2031:2.0 2045:2.0 2082:1.0 3335:1.0 3336:2.0 3337:2.0 3338:1.0 3339:1.0 3340:1.0 3341:2.0 3342:1.0 3343:2.0 3344:2.0 3345:1.0 3346:1.0 
2.6428136966976905 1:6.0 2:1.0 3:3.0 5:1.0 8:1.0 18:1.0 20:1.0 21:1.0 266:1.0 327:2.0 1081:2.0 2031:2.0 2045:2.0 3091:1.0 3094:1.0 3095:1.0 3347:2.0 3349:2.0 3371:1.0 
3.1622776601683795 1:4.0 2:3.0 27:2.0 142:1.0 248:4.0 585:2.0 587:1.0 1723:2.0 1724:2.0 1726:2.0 1728:2.0 1729:2.0 3381:1.0 
1.4751850487699874 1:18.0 2:2.0 3:2.0 24:8.0 26:2.0 27:2.0 31:4.0 33:2.0 34:2.0 40:2.0 43:2.0 53:2.0 175:2.0 177:4.0 323:2.0 449:2.0 891:2.0 1637:4.0 2921:2.0 3392:2.0 3393:2.0 3394:2.0 3395:4.0 3396:2.0 3397:2.0 
0.3682935292543909 1:5.0 3:2.0 8:2.0 25:2.0 44:1.0 327:2.0 599:1.0 1080:2.0 1081:2.0 1091:2.0 3286:1.0 3287:1.0 3288:1.0 3290:1.0 3398:2.0 3399:1.0 3400:2.0 3401:2.0 
1.2345450980357056 1:12.0 2:4.0 24:4.0 26:2.0 31:2.0 142:4.0 146:2.0 178:1.0 248:4.0 276:1.0 502:2.0 588:2.0 589:2.0 590:2.0 591:2.0 595:2.0 596:2.0 597:2.0 913:2.0 972:2.0 3023:2.0 3418:1.0 3419:2.0 3420:1.0 3421:2.0 
0.8258424580845769 1:12.0 2:3.0 5:1.0 8:3.0 11:1.0 18:1.0 21:1.0 23:1.0 24:6.0 25:2.0 29:1.0 44:1.0 48:1.0 58:1.0 94:1.0 98:1.0 99:1.0 115:1.0 116:1.0 178:2.0 183:1.0 202:1.0 305:1.0 341:1.0 343:1.0 386:1.0 565:1.0 812:1.0 813:1.0 817:1.0 824:1.0 1278:1.0 1584:1.0 1595:1.0 1596:1.0 1597:1.0 1598:1.0 1613:1.0 1614:1.0 1616:1.0 2226:1.0 3436:1.0 3437:1.0 3438:1.0 3439:1.0 3440:1.0 3441:1.0 3442:1.0 3443:1.0 3444:1.0 3445:1.0 3446:1.0 3447:1.0 3448:1.0 
0.5635298108772088 1:4.0 2:2.0 8:2.0 99:1.0 144:2.0 248:1.0 327:1.0 516:1.0 623:1.0 628:1.0 3449:1.0 3450:1.0 3451:1.0 3452:1.0 3453:1.0 3454:1.0 3455:1.0 3456:1.0 3457:1.0 3458:1.0 3459:1.0 3460:1.0 3461:1.0 3462:1.0 3463:1.0 3464:1.0 
2.2970119051684725 1:9.0 2:2.0 5:1.0 24:4.0 26:1.0 31:1.0 48:1.0 53:2.0 58:1.0 142:1.0 147:1.0 148:1.0 178:2.0 183:1.0 273:1.0 452:1.0 611:1.0 615:1.0 850:1.0 1029:1.0 1030:1.0 1490:1.0 2077:1.0 3465:1.0 3466:1.0 3467:1.0 3468:1.0 3469:1.0 3470:1.0 3471:1.0 
1.1237271515606329 1:10.0 2:2.0 3:1.0 24:3.0 26:2.0 31:1.0 53:2.0 142:2.0 143:1.0 149:2.0 150:2.0 151:1.0 161:1.0 162:1.0 163:2.0 164:1.0 166:1.0 175:1.0 177:1.0 512:1.0 891:1.0 903:1.0 909:1.0 1006:1.0 2077:1.0 2667:1.0 3472:1.0 3473:1.0 3474:1.0 3475:1.0 
3.1622776601683795 1:8.0 2:4.0 3:3.0 5:1.0 53:1.0 142:3.0 146:1.0 147:1.0 148:1.0 158:1.0 159:1.0 160:1.0 174:1.0 247:2.0 348:1.0 1678:1.0 1679:1.0 1859:1.0 1860:1.0 1864:1.0 1893:1.0 3530:1.0 3531:1.0 3532:1.0 3533:1.0 3534:1.0 3535:1.0 3536:1.0 3537:1.0 3538:1.0 3539:1.0 3540:1.0 3541:1.0 
0.650319921705024 1:16.0 2:2.0 8:1.0 19:1.0 23:1.0 24:7.0 26:2.0 29:2.0 31:2.0 48:1.0 58:2.0 142:2.0 144:2.0 175:1.0 267:2.0 274:2.0 275:2.0 278:2.0 292:2.0 648:1.0 804:1.0 810:1.0 830:2.0 912:1.0 913:1.0 917:1.0 921:1.0 944:1.0 1025:1.0 1575:1.0 2667:1.0 2712:1.0 2721:1.0 3542:2.0 3543:1.0 3544:1.0 3545:1.0 3546:1.0 3547:1.0 3548:1.0 3549:1.0 
0.9143943725558867 1:16.0 2:4.0 5:2.0 8:2.0 23:2.0 24:6.0 26:2.0 29:2.0 48:1.0 58:1.0 142:2.0 152:1.0 175:1.0 176:2.0 177:1.0 180:2.0 267:2.0 274:2.0 275:2.0 292:2.0 324:2.0 663:2.0 2667:1.0 2729:2.0 3550:2.0 3551:2.0 3552:2.0 3553:2.0 3554:2.0 3555:2.0 3556:2.0 3557:2.0 3558:2.0 3559:2.0 3560:2.0 3561:2.0 3562:2.0 
1.086882607668188 1:20.0 2:8.0 5:1.0 24:2.0 26:7.0 27:1.0 34:1.0 48:1.0 49:1.0 61:1.0 142:6.0 144:1.0 149:1.0 175:2.0 247:1.0 267:3.0 273:1.0 274:3.0 275:3.0 276:2.0 283:1.0 292:3.0 293:1.0 307:1.0 326:1.0 445:1.0 446:1.0 457:1.0 458:1.0 459:1.0 460:1.0 461:1.0 462:1.0 463:1.0 476:1.0 477:1.0 478:1.0 479:1.0 480:1.0 481:1.0 482:1.0 1025:1.0 1386:1.0 1393:1.0 2129:1.0 2600:1.0 2626:1.0 2629:1.0 2642:1.0 2662:1.0 3549:1.0 3581:2.0 3582:1.0 3583:1.0 3584:1.0 3585:1.0 3586:1.0 3587:1.0 3588:1.0 3589:1.0 3590:1.0 3591:1.0 3592:1.0 
1.428195231237236 1:2.0 2:3.0 267:2.0 1257:1.0 1263:2.0 1273:2.0 2810:1.0 3613:1.0 3614:1.0 3615:2.0 3616:2.0 3617:1.0 3618:2.0 3619:2.0 
1.693347740242273 1:3.0 2:3.0 267:2.0 1257:1.0 1263:2.0 1273:2.0 2810:1.0 3620:1.0 3621:1.0 3622:1.0 3623:2.0 3624:1.0 3625:2.0 3626:1.0 3627:1.0 3628:2.0 3629:2.0 
1.267568886743674 1:6.0 2:4.0 8:1.0 142:1.0 248:2.0 267:2.0 327:2.0 587:1.0 1257:1.0 1263:2.0 1273:2.0 2808:1.0 2810:1.0 3630:1.0 3631:1.0 3632:1.0 3633:2.0 3634:1.0 3635:2.0 3636:2.0 3637:1.0 3638:1.0 3639:2.0 3640:2.0 3641:1.0 3642:2.0 3643:2.0 3644:1.0 
0.36251450089936194 1:10.0 2:3.0 3:2.0 8:3.0 11:1.0 24:3.0 91:2.0 95:1.0 96:1.0 97:1.0 98:1.0 99:1.0 110:1.0 111:1.0 112:1.0 113:1.0 114:1.0 115:1.0 116:1.0 128:1.0 129:1.0 131:1.0 132:1.0 133:1.0 767:2.0 1439:1.0 2007:1.0 2470:2.0 3103:1.0 3104:1.0 3107:1.0 3108:1.0 3109:1.0 3132:2.0 3133:2.0 3144:2.0 3645:2.0 3646:1.0 3647:2.0 3648:1.0 
0.4636490349019302 1:5.0 2:2.0 3:1.0 8:3.0 11:1.0 91:1.0 92:1.0 98:1.0 99:1.0 115:1.0 116:1.0 265:1.0 679:1.0 1035:1.0 1193:1.0 1197:1.0 1213:1.0 1214:1.0 1439:1.0 2341:1.0 3649:1.0 3650:1.0 3651:1.0 3652:1.0 3653:1.0 3654:1.0 3655:1.0 3656:1.0 3657:1.0 3658:1.0 3659:1.0 3660:1.0 3661:1.0 
0.407529121959578 1:11.0 2:4.0 8:5.0 11:1.0 24:2.0 25:1.0 96:1.0 97:2.0 98:1.0 99:1.0 110:1.0 111:1.0 112:1.0 114:1.0 115:1.0 116:1.0 128:1.0 129:1.0 131:1.0 132:1.0 133:1.0 144:2.0 265:2.0 266:1.0 269:2.0 431:1.0 442:1.0 444:1.0 732:2.0 733:1.0 736:1.0 737:1.0 3422:1.0 3668:1.0 3669:1.0 3670:1.0 3671:1.0 3672:1.0 3673:1.0 3674:1.0 3675:1.0 3676:1.0 3677:1.0 3678:1.0 3679:1.0 3680:1.0 3681:1.0 3682:1.0 3683:1.0 3684:1.0 3685:1.0 3686:1.0 3687:1.0 3688:2.0 3689:1.0 3690:1.0 
1.6391983652904758 1:8.0 8:1.0 23:1.0 24:5.0 29:2.0 178:3.0 184:1.0 265:2.0 266:1.0 269:2.0 305:2.0 1646:1.0 3599:1.0 3600:2.0 3601:1.0 3602:1.0 3694:2.0 
1.0818074837263019 1:2.0 2:2.0 8:2.0 11:1.0 99:1.0 265:2.0 622:1.0 1777:1.0 1782:1.0 1783:1.0 2873:2.0 3720:2.0 3721:2.0 3722:1.0 3723:1.0 3724:2.0 
0.6535797197112794 1:4.0 3:2.0 323:1.0 339:2.0 493:1.0 495:1.0 3725:1.0 3726:2.0 3727:2.0 3728:1.0 3729:2.0 3730:1.0 
0.3215426438712102 1:7.0 2:3.0 5:1.0 8:6.0 18:1.0 21:1.0 91:1.0 99:2.0 265:3.0 622:2.0 623:2.0 627:2.0 628:2.0 636:2.0 679:1.0 767:1.0 873:1.0 1035:1.0 1193:1.0 1194:1.0 1195:1.0 1827:1.0 1838:1.0 1839:1.0 2873:2.0 3603:1.0 3606:1.0 3608:1.0 3747:1.0 3748:1.0 3749:1.0 3750:1.0 3751:1.0 3752:1.0 3753:1.0 3754:1.0 3755:1.0 3756:1.0 3757:1.0 3758:1.0 3759:1.0 3760:1.0 
2.5468448916675968 1:7.0 2:4.0 3:1.0 8:2.0 11:2.0 23:2.0 24:3.0 29:2.0 98:2.0 99:2.0 115:2.0 116:2.0 175:1.0 178:1.0 344:1.0 783:2.0 786:2.0 795:2.0 3776:1.0 3777:2.0 3778:1.0 3779:1.0 3780:2.0 3781:2.0 3782:1.0 3783:2.0 
1.216071750124707 1:4.0 2:2.0 142:2.0 248:4.0 587:2.0 1724:4.0 3787:4.0 3788:2.0 
0.4274920990649859 1:10.0 2:1.0 3:2.0 8:2.0 53:6.0 69:2.0 99:1.0 327:2.0 356:2.0 622:1.0 623:1.0 627:1.0 628:1.0 636:1.0 891:2.0 902:2.0 903:2.0 906:2.0 907:2.0 908:2.0 909:2.0 1748:1.0 1750:1.0 1751:2.0 1758:1.0 
2.9115565547794597 1:3.0 2:1.0 142:1.0 146:1.0 248:1.0 493:1.0 495:1.0 590:1.0 591:1.0 957:1.0 968:1.0 1551:1.0 1558:1.0 3897:2.0 3898:1.0 3899:1.0 3900:1.0 
2.0951102017954875 1:4.0 2:1.0 3:1.0 53:1.0 142:1.0 146:1.0 248:1.0 590:1.0 591:1.0 891:1.0 3901:1.0 3902:2.0 3903:1.0 3904:1.0 3905:1.0 3906:1.0 
1.321995635593175 1:20.0 2:2.0 3:1.0 24:3.0 26:1.0 27:2.0 31:1.0 33:1.0 34:1.0 43:1.0 53:6.0 152:1.0 175:1.0 177:1.0 185:1.0 206:1.0 268:1.0 326:3.0 860:1.0 864:1.0 889:3.0 961:1.0 1637:1.0 1671:1.0 1675:1.0 1681:1.0 1698:1.0 1733:1.0 2077:1.0 2367:1.0 2368:1.0 2373:1.0 2374:1.0 2381:1.0 2680:1.0 3924:1.0 3930:1.0 3931:1.0 3932:1.0 3934:1.0 3936:1.0 3937:1.0 3940:1.0 3943:1.0 3949:1.0 3950:1.0 3951:1.0 3952:1.0 3953:1.0 3954:1.0 3955:1.0 3956:1.0 3957:1.0 3958:1.0 3959:1.0 3960:1.0 
3.1622776601683795 1:6.0 2:2.0 3:1.0 5:1.0 8:1.0 19:1.0 27:1.0 44:1.0 52:1.0 53:1.0 147:1.0 148:1.0 221:1.0 229:2.0 231:1.0 239:1.0 240:1.0 518:1.0 689:1.0 1009:1.0 3846:1.0 3851:1.0 3852:1.0 3979:1.0 3980:1.0 3981:1.0 3982:1.0 3983:1.0 3984:1.0 3985:1.0 3986:1.0 3987:1.0 3988:1.0 
3.1622776601683795 1:6.0 2:2.0 3:1.0 5:1.0 8:1.0 19:1.0 27:1.0 44:1.0 52:1.0 53:1.0 147:1.0 148:1.0 221:1.0 229:2.0 231:1.0 239:1.0 240:1.0 518:1.0 689:1.0 1009:1.0 3846:1.0 3851:1.0 3852:1.0 3979:1.0 3980:1.0 3981:1.0 3982:1.0 3983:1.0 3984:1.0 3985:1.0 3986:1.0 3987:1.0 3988:1.0 
1.5498227784653318 1:9.0 2:2.0 3:1.0 5:1.0 8:2.0 19:1.0 23:1.0 24:4.0 25:1.0 26:1.0 28:1.0 29:2.0 31:2.0 36:2.0 51:1.0 65:1.0 142:1.0 248:1.0 252:1.0 253:1.0 259:1.0 502:1.0 571:1.0 572:1.0 582:1.0 583:1.0 672:1.0 913:1.0 973:1.0 2029:1.0 2130:2.0 2323:1.0 3989:1.0 3990:1.0 3991:1.0 
3.1622776601683795 1:5.0 2:2.0 3:1.0 5:1.0 142:1.0 144:1.0 145:1.0 147:1.0 148:1.0 154:1.0 248:1.0 252:1.0 253:1.0 259:1.0 314:1.0 317:1.0 614:1.0 2289:1.0 2711:1.0 2713:1.0 3391:1.0 4008:1.0 4009:1.0 
1.2721408961630907 1:2.0 2:1.0 3:1.0 27:1.0 248:3.0 253:2.0 585:2.0 
0.14423401759528878 1:4.0 2:1.0 3:2.0 8:2.0 11:1.0 327:2.0 832:1.0 1081:2.0 1290:1.0 1295:1.0 1299:1.0 1300:1.0 1311:1.0 4010:1.0 4011:1.0 4012:1.0 4013:1.0 4014:1.0 4015:1.0 4016:1.0 4017:1.0 
0.5220377475435898 1:3.0 2:1.0 3:1.0 8:2.0 11:1.0 265:1.0 327:1.0 832:1.0 1081:1.0 1290:1.0 1293:1.0 1294:1.0 1295:1.0 1297:1.0 1299:2.0 1311:1.0 4011:1.0 4016:1.0 4017:1.0 4018:1.0 
3.1622776601683795 1:8.0 3:1.0 24:5.0 53:1.0 175:1.0 177:2.0 178:3.0 183:2.0 184:1.0 891:1.0 1006:1.0 1015:2.0 4026:1.0 4028:1.0 4029:1.0 4030:1.0 
0.5871015476328073 1:2.0 2:1.0 142:1.0 248:2.0 4048:4.0 4049:2.0 
1.4852446583498815 1:3.0 8:2.0 25:2.0 44:1.0 327:2.0 599:1.0 3286:1.0 3287:1.0 3288:1.0 3290:1.0 3398:2.0 4050:2.0 4051:1.0 4052:2.0 4053:2.0 
1.4398770904849187 1:24.0 2:4.0 3:4.0 5:2.0 24:4.0 48:1.0 53:8.0 58:1.0 69:2.0 142:2.0 147:2.0 148:2.0 175:1.0 177:1.0 178:2.0 183:2.0 248:2.0 326:2.0 614:2.0 889:2.0 891:4.0 903:2.0 908:2.0 909:2.0 1734:1.0 1735:2.0 1736:2.0 1737:2.0 1738:1.0 1741:2.0 3098:1.0 3099:1.0 3374:2.0 3380:2.0 4066:2.0 4067:2.0 4068:2.0 4071:2.0 4072:2.0 4073:2.0 4074:2.0 4078:2.0 
0.995187344954886 1:6.0 2:3.0 3:2.0 5:2.0 8:3.0 25:1.0 49:1.0 51:1.0 61:1.0 62:1.0 65:1.0 99:1.0 327:2.0 622:1.0 623:1.0 625:1.0 627:1.0 628:1.0 635:1.0 636:1.0 1081:1.0 1796:1.0 2299:1.0 2305:1.0 3200:1.0 4043:1.0 4044:1.0 4045:1.0 4079:1.0 4082:1.0 4083:1.0 4084:1.0 4085:1.0 4086:1.0 4087:1.0 4088:1.0 
0.29329320338748277 1:3.0 2:1.0 3:1.0 8:3.0 99:1.0 135:1.0 327:1.0 622:1.0 623:1.0 627:1.0 628:1.0 636:1.0 1081:1.0 2459:1.0 2465:1.0 4043:1.0 4045:1.0 4089:1.0 4090:2.0 4091:1.0 4092:1.0 4093:1.0 4094:1.0 
1.0435798615635568 1:13.0 2:1.0 8:6.0 24:3.0 27:1.0 91:2.0 175:1.0 177:1.0 268:1.0 327:2.0 732:2.0 873:4.0 876:2.0 1034:2.0 1037:2.0 1038:2.0 1049:1.0 1050:1.0 1052:2.0 1068:1.0 1072:1.0 1521:1.0 1733:1.0 1997:1.0 3859:1.0 3874:1.0 4173:2.0 4174:1.0 4175:2.0 4176:2.0 4177:2.0 4178:1.0 4179:1.0 4180:1.0 4181:1.0 4182:2.0 4183:2.0 4184:2.0 4185:2.0 4186:2.0 4187:2.0 4188:1.0 4189:1.0 4190:1.0 4191:1.0 4192:1.0 4193:1.0 4194:1.0 
0.9860832167196747 1:15.0 2:1.0 5:1.0 8:1.0 18:1.0 21:1.0 23:1.0 24:7.0 25:1.0 28:1.0 29:1.0 30:1.0 48:1.0 53:1.0 58:1.0 175:1.0 177:2.0 178:2.0 179:1.0 183:2.0 185:2.0 188:1.0 189:1.0 196:1.0 197:1.0 198:1.0 199:2.0 203:1.0 204:1.0 205:1.0 207:1.0 208:1.0 209:1.0 210:1.0 211:1.0 212:1.0 1034:3.0 1038:3.0 1998:1.0 2006:3.0 4202:1.0 4203:1.0 4204:1.0 4205:1.0 4206:1.0 4207:1.0 4208:3.0 
0.8774945736346588 1:14.0 2:1.0 3:1.0 5:1.0 8:1.0 18:1.0 20:1.0 21:1.0 23:1.0 24:8.0 25:1.0 28:1.0 29:2.0 30:1.0 32:1.0 35:1.0 37:1.0 39:1.0 41:1.0 42:1.0 58:1.0 175:1.0 176:2.0 177:3.0 179:2.0 180:2.0 181:2.0 185:1.0 1034:1.0 1037:1.0 1038:1.0 1049:2.0 1050:1.0 1052:1.0 1068:2.0 1070:1.0 1072:1.0 4209:2.0 
0.31440385799496906 1:3.0 2:2.0 5:1.0 8:3.0 19:1.0 51:1.0 65:1.0 99:1.0 327:1.0 572:1.0 622:1.0 623:1.0 625:1.0 626:1.0 627:1.0 628:1.0 632:1.0 633:1.0 634:1.0 635:1.0 636:1.0 1034:1.0 1038:1.0 4210:1.0 4211:1.0 4212:1.0 4213:1.0 4214:1.0 4215:1.0 4216:1.0 4217:1.0 
1.272628504593657 1:24.0 2:4.0 3:2.0 5:1.0 8:1.0 24:8.0 27:3.0 48:1.0 52:1.0 53:2.0 144:2.0 146:2.0 147:1.0 148:1.0 175:1.0 176:1.0 177:2.0 178:2.0 220:1.0 221:1.0 226:1.0 227:1.0 454:2.0 675:1.0 1034:1.0 1035:1.0 1036:1.0 1037:1.0 1038:1.0 1044:1.0 1049:2.0 1050:1.0 1052:1.0 1064:1.0 1068:2.0 1070:1.0 1072:1.0 1078:2.0 1404:1.0 1405:1.0 1422:1.0 2606:1.0 2973:1.0 2994:1.0 3032:1.0 3061:1.0 4209:2.0 4232:1.0 4233:1.0 4234:1.0 4235:1.0 4236:1.0 4237:1.0 4238:1.0 4239:1.0 4240:1.0 4241:1.0 4242:1.0 4243:1.0 4244:1.0 4245:1.0 4246:1.0 4247:1.0 4248:1.0 4249:1.0 4250:1.0 4251:1.0 4252:1.0 4253:1.0 4254:2.0 4255:1.0 4256:1.0 4257:1.0 
3.1622776601683795 1:1.0 2:1.0 5:3.0 4258:3.0 
3.1622776601683795 1:5.0 2:1.0 3:1.0 5:1.0 8:3.0 44:1.0 89:2.0 91:1.0 94:1.0 104:1.0 675:1.0 680:1.0 686:1.0 698:1.0 768:1.0 772:1.0 2470:1.0 3382:1.0 3385:1.0 3717:1.0 4259:1.0 4260:1.0 4261:1.0 4265:1.0 4266:1.0 4267:1.0 4268:1.0 4269:1.0 4270:1.0 4271:1.0 4272:1.0 4273:1.0 4274:1.0 
0.9668251094854432 1:8.0 2:4.0 5:1.0 8:4.0 11:1.0 24:2.0 44:1.0 89:2.0 91:1.0 94:1.0 96:1.0 97:1.0 98:1.0 99:1.0 104:1.0 110:1.0 111:1.0 112:1.0 114:1.0 115:1.0 116:1.0 128:1.0 129:1.0 131:1.0 132:1.0 133:1.0 675:1.0 680:1.0 686:1.0 698:1.0 768:1.0 769:1.0 772:1.0 773:1.0 774:1.0 778:1.0 780:1.0 781:1.0 782:1.0 3382:1.0 3385:1.0 3668:1.0 3670:1.0 3715:1.0 3717:1.0 4259:1.0 4260:1.0 4261:1.0 4265:1.0 4266:1.0 4267:1.0 4268:1.0 4269:1.0 
1.169780336672089 1:34.0 2:15.0 3:4.0 5:6.0 8:1.0 19:1.0 27:7.0 52:1.0 53:14.0 69:3.0 142:2.0 146:5.0 147:6.0 148:6.0 157:2.0 220:2.0 221:4.0 226:2.0 227:2.0 326:4.0 357:2.0 454:3.0 455:2.0 611:2.0 612:4.0 615:2.0 889:1.0 891:1.0 903:1.0 908:1.0 909:1.0 1009:1.0 1078:1.0 1677:2.0 2123:2.0 2127:2.0 2128:2.0 2833:1.0 2850:1.0 2973:2.0 2994:2.0 3031:1.0 3033:1.0 4067:1.0 4233:1.0 4277:1.0 4278:2.0 4279:1.0 4280:1.0 4281:1.0 4282:1.0 4283:1.0 4284:1.0 4285:1.0 4286:1.0 4287:2.0 4288:1.0 4289:1.0 4290:2.0 4291:1.0 4292:1.0 4293:2.0 4294:1.0 4295:2.0 4296:2.0 4297:2.0 4298:2.0 4299:2.0 4300:1.0 4301:1.0 4302:1.0 4303:1.0 4304:1.0 4305:1.0 4306:1.0 
0.7519391829104188 1:4.0 2:1.0 24:2.0 97:1.0 423:2.0 428:2.0 430:2.0 4321:1.0 4322:2.0 4323:2.0 4324:1.0 
2.8494521341174868 1:5.0 2:2.0 4:1.0 5:1.0 7:1.0 24:2.0 95:1.0 97:1.0 110:1.0 423:1.0 427:1.0 428:1.0 430:1.0 438:1.0 440:1.0 4325:1.0 4326:1.0 4327:1.0 4328:1.0 4329:1.0 4330:1.0 4331:1.0 
1.955603957710487 1:5.0 2:2.0 24:2.0 27:1.0 97:1.0 110:1.0 248:1.0 423:1.0 428:1.0 430:1.0 438:1.0 440:1.0 585:1.0 3668:1.0 4332:1.0 4333:1.0 4334:1.0 4335:1.0 4336:1.0 4337:1.0 4338:1.0 4339:1.0 
1.9471452224953822 1:15.0 2:3.0 3:4.0 5:1.0 24:3.0 26:1.0 27:1.0 48:1.0 53:2.0 58:1.0 142:1.0 147:1.0 148:1.0 152:1.0 175:1.0 177:1.0 221:1.0 248:1.0 342:1.0 344:2.0 383:1.0 384:1.0 502:1.0 860:1.0 864:1.0 961:2.0 1025:1.0 1367:1.0 1725:1.0 1768:1.0 1776:1.0 2025:1.0 4394:1.0 4395:1.0 4396:1.0 4397:1.0 4398:1.0 4399:1.0 4400:1.0 4401:1.0 4402:1.0 4403:1.0 4404:1.0 4405:1.0 4406:1.0 4407:1.0 4408:2.0 
0.6386687220115662 1:11.0 3:1.0 8:4.0 19:1.0 24:4.0 48:1.0 58:1.0 91:2.0 92:1.0 344:1.0 679:1.0 697:1.0 1036:1.0 1044:1.0 1181:2.0 3187:1.0 4409:1.0 4410:1.0 4411:1.0 4412:1.0 4413:1.0 4414:1.0 4415:1.0 4416:1.0 4417:1.0 4418:1.0 4419:1.0 4420:1.0 4421:1.0 4422:1.0 4423:1.0 4424:1.0 4425:1.0 4426:1.0 4427:1.0 4428:1.0 4429:1.0 4430:1.0 4431:1.0 4432:1.0 4433:1.0 4434:1.0 
1.3480643479355339 1:10.0 8:4.0 19:1.0 24:5.0 91:2.0 92:1.0 178:1.0 679:1.0 697:1.0 1036:1.0 1044:1.0 1181:2.0 3187:1.0 4409:1.0 4410:1.0 4411:1.0 4412:1.0 4413:1.0 4416:1.0 4417:1.0 4418:1.0 4419:1.0 4421:1.0 4422:1.0 4428:1.0 4430:1.0 4431:1.0 4432:1.0 4433:1.0 4434:1.0 4435:1.0 4436:1.0 4437:1.0 4438:1.0 4439:1.0 4440:1.0 4441:1.0 4442:1.0 
3.1622776601683795 1:3.0 2:2.0 27:1.0 142:1.0 146:1.0 248:2.0 585:1.0 589:2.0 590:1.0 591:1.0 596:1.0 597:1.0 991:1.0 1003:1.0 4459:1.0 
3.1622776601683795 1:2.0 2:2.0 5:1.0 8:1.0 19:1.0 27:1.0 147:1.0 148:1.0 221:1.0 327:1.0 852:1.0 1953:2.0 1957:1.0 1958:1.0 4460:2.0 4461:1.0 
1.0015813418159676 1:16.0 2:6.0 24:4.0 26:5.0 27:5.0 31:1.0 34:4.0 48:1.0 53:1.0 142:1.0 152:1.0 175:2.0 177:1.0 205:1.0 248:1.0 268:1.0 326:1.0 502:1.0 1733:1.0 1815:3.0 1817:3.0 1818:2.0 1820:1.0 2600:1.0 2667:1.0 3875:1.0 3878:1.0 3879:1.0 3925:1.0 4502:1.0 4503:1.0 4504:1.0 4505:1.0 4506:1.0 4507:1.0 4508:1.0 4509:1.0 4510:1.0 4511:1.0 4512:1.0 4513:1.0 4514:1.0 4515:1.0 4516:1.0 4517:1.0 4518:1.0 4519:1.0 4520:1.0 
1.1670400016836542 1:6.0 493:6.0 494:6.0 495:6.0 501:6.0 2419:6.0 2429:6.0 4533:6.0 
1.5184463088402431 1:4.0 493:6.0 495:6.0 544:2.0 552:2.0 2917:2.0 2918:4.0 4534:2.0 4535:2.0 4536:2.0 4537:2.0 4538:2.0 4539:4.0 
3.1622776601683795 1:6.0 493:6.0 495:6.0 2106:6.0 2112:6.0 4540:6.0 4541:6.0 4542:6.0 
1.7424665510279809 1:2.0 493:6.0 495:6.0 2055:2.0 2056:6.0 4552:4.0 4553:6.0 
1.1642298828450068 1:9.0 2:6.0 8:6.0 27:6.0 91:3.0 266:3.0 872:2.0 1076:2.0 4569:1.0 4570:6.0 4571:3.0 4572:1.0 4573:3.0 4574:6.0 4575:6.0 4576:3.0 4577:3.0 4578:3.0 4579:6.0 4580:6.0 
1.0169722523505085 1:6.0 2:1.0 8:3.0 265:6.0 1257:1.0 2808:3.0 2810:1.0 4581:1.0 4582:2.0 4583:3.0 4584:1.0 4585:6.0 4586:3.0 4587:1.0 4588:6.0 
1.1870684089042653 1:7.0 2:2.0 3:1.0 5:1.0 8:3.0 19:1.0 51:1.0 53:4.0 65:1.0 69:2.0 99:1.0 327:1.0 356:1.0 572:1.0 622:1.0 623:1.0 625:1.0 626:1.0 627:1.0 628:1.0 632:1.0 633:1.0 634:1.0 635:1.0 636:1.0 856:1.0 891:1.0 902:1.0 903:1.0 904:1.0 905:1.0 906:1.0 908:1.0 909:1.0 3708:1.0 
1.9848633012709647 1:9.0 8:4.0 19:1.0 23:1.0 24:4.0 29:2.0 44:1.0 89:1.0 91:1.0 94:1.0 104:1.0 175:1.0 177:2.0 648:1.0 680:1.0 698:1.0 767:1.0 768:1.0 770:1.0 772:1.0 804:1.0 810:1.0 830:2.0 944:1.0 1364:1.0 3712:1.0 3717:1.0 4606:1.0 4607:1.0 4608:1.0 4609:1.0 4610:1.0 4611:1.0 4612:1.0 4613:1.0 4614:1.0 4615:1.0 4616:2.0 
0.9015328736542954 1:9.0 2:2.0 8:4.0 11:1.0 23:1.0 24:4.0 29:2.0 44:1.0 89:1.0 91:1.0 94:1.0 98:1.0 99:1.0 104:1.0 115:1.0 116:1.0 175:1.0 177:2.0 680:1.0 698:1.0 767:1.0 768:1.0 770:1.0 772:1.0 783:1.0 784:1.0 786:1.0 787:1.0 795:1.0 1364:1.0 2104:2.0 2105:1.0 3712:1.0 3717:1.0 4606:1.0 4607:1.0 4608:1.0 4609:1.0 4610:1.0 4611:1.0 4612:1.0 4613:1.0 4614:1.0 4615:1.0 4616:2.0 
0.8496119626560933 1:12.0 8:2.0 23:2.0 24:10.0 29:4.0 89:2.0 178:6.0 184:2.0 305:4.0 4617:2.0 4618:2.0 4619:2.0 4620:2.0 4621:4.0 
1.7929881074122749 1:2.0 493:2.0 495:2.0 1034:3.0 1038:3.0 1906:1.0 1913:2.0 1998:1.0 2006:3.0 4622:2.0 4623:2.0 4624:3.0 4625:2.0 
2.4670698459095273 1:6.0 2:2.0 24:4.0 26:2.0 27:2.0 31:4.0 33:2.0 34:2.0 40:2.0 43:2.0 4656:4.0 
0.6605991046244343 1:15.0 2:2.0 3:1.0 5:1.0 8:1.0 11:1.0 18:1.0 20:1.0 21:1.0 23:1.0 24:7.0 29:1.0 48:3.0 53:1.0 58:2.0 175:1.0 177:1.0 178:2.0 183:2.0 188:1.0 191:1.0 196:1.0 197:1.0 198:1.0 199:2.0 204:1.0 205:1.0 207:1.0 208:1.0 209:1.0 212:1.0 2630:1.0 4663:1.0 4664:1.0 4665:1.0 4666:1.0 4667:1.0 4668:1.0 4669:1.0 4670:1.0 4671:1.0 4672:1.0 4673:1.0 4674:1.0 4675:1.0 
0.15419138314508982 1:10.0 2:5.0 5:1.0 8:4.0 9:1.0 11:1.0 24:2.0 27:1.0 51:1.0 65:1.0 88:1.0 95:1.0 96:1.0 97:1.0 98:1.0 99:1.0 110:1.0 111:1.0 112:1.0 113:1.0 114:1.0 115:1.0 116:1.0 128:1.0 129:1.0 131:1.0 132:1.0 133:1.0 248:1.0 266:1.0 327:3.0 585:1.0 622:1.0 1147:1.0 1592:1.0 1593:1.0 1609:1.0 1610:1.0 2030:1.0 3761:1.0 4310:1.0 4311:1.0 4679:1.0 4680:1.0 4681:1.0 4682:1.0 4683:1.0 4684:1.0 4685:1.0 4686:1.0 4687:1.0 4688:1.0 4689:1.0 4690:1.0 4691:1.0 4692:1.0 4693:1.0 
0.4172489252267174 1:14.0 2:3.0 8:4.0 11:1.0 24:6.0 25:1.0 27:1.0 44:1.0 91:2.0 94:1.0 98:1.0 99:1.0 115:1.0 116:1.0 178:2.0 248:1.0 327:1.0 585:1.0 679:1.0 692:1.0 812:1.0 813:1.0 817:1.0 824:1.0 1036:1.0 1044:1.0 1064:1.0 1404:1.0 1405:1.0 1422:1.0 1439:1.0 1584:1.0 1585:1.0 1586:1.0 1587:1.0 1588:1.0 1589:1.0 1593:1.0 1594:1.0 1595:1.0 1596:1.0 1597:1.0 1598:1.0 1599:1.0 1601:1.0 1602:1.0 1603:1.0 1604:1.0 1610:1.0 1611:1.0 1612:1.0 1613:1.0 1614:1.0 1615:1.0 1616:1.0 1661:1.0 1665:1.0 4701:1.0 4702:1.0 4703:1.0 4704:1.0 4705:1.0 4706:1.0 
1.2848441625337106 1:10.0 2:3.0 24:3.0 26:2.0 27:1.0 31:1.0 142:2.0 143:1.0 144:1.0 145:1.0 146:1.0 149:2.0 150:2.0 151:1.0 153:1.0 154:1.0 155:1.0 161:1.0 162:1.0 163:2.0 164:1.0 165:1.0 166:1.0 168:1.0 170:1.0 175:1.0 177:1.0 454:1.0 2667:1.0 4721:1.0 4722:1.0 4723:1.0 4724:1.0 4725:1.0 
1.1767462152162398 1:11.0 2:4.0 3:1.0 5:4.0 8:4.0 18:4.0 21:4.0 25:2.0 52:1.0 266:2.0 327:5.0 359:4.0 1051:1.0 1078:1.0 3029:1.0 4731:1.0 4732:1.0 4733:4.0 4734:2.0 4735:1.0 4736:1.0 4737:1.0 4738:1.0 4739:2.0 4740:4.0 4741:4.0 4742:2.0 4743:1.0 4744:2.0 
1.082496380466613 1:11.0 2:1.0 5:1.0 8:6.0 18:1.0 19:1.0 21:1.0 22:1.0 24:1.0 25:2.0 53:3.0 69:1.0 92:1.0 327:2.0 356:1.0 416:1.0 417:1.0 418:1.0 419:1.0 420:1.0 421:1.0 673:1.0 674:1.0 676:1.0 681:1.0 732:1.0 1034:3.0 1038:3.0 1521:1.0 1998:1.0 2006:3.0 2463:1.0 4745:1.0 4746:1.0 4747:1.0 4748:1.0 4749:1.0 4750:1.0 4751:1.0 4752:1.0 4753:1.0 4754:1.0 4755:1.0 4756:1.0 4757:3.0 4758:1.0 4759:1.0 4760:1.0 4761:1.0 4762:1.0 4763:1.0 4764:1.0 4765:1.0 4766:1.0 4767:1.0 4768:1.0 4769:1.0 
1.4898477126649623 1:14.0 2:2.0 3:2.0 5:2.0 8:3.0 18:2.0 21:2.0 23:1.0 24:3.0 25:1.0 29:1.0 30:1.0 48:1.0 53:2.0 58:1.0 87:1.0 88:1.0 89:1.0 102:1.0 175:1.0 186:1.0 417:1.0 860:1.0 887:1.0 892:1.0 961:2.0 2666:1.0 2782:1.0 2891:1.0 2894:1.0 4770:1.0 4771:1.0 4772:1.0 4773:1.0 4774:1.0 4775:2.0 4776:1.0 4777:1.0 4778:1.0 4779:1.0 4780:1.0 4781:1.0 4782:1.0 4783:1.0 4784:1.0 4785:1.0 4786:1.0 4787:1.0 4788:1.0 4789:1.0 4790:1.0 
1.2624136530599184 1:19.0 2:4.0 3:1.0 5:2.0 8:1.0 18:1.0 21:1.0 24:7.0 26:1.0 27:1.0 31:1.0 48:1.0 53:1.0 142:1.0 147:1.0 148:1.0 175:1.0 177:2.0 219:1.0 220:1.0 221:1.0 225:1.0 226:1.0 227:1.0 267:1.0 274:1.0 275:1.0 292:1.0 493:1.0 494:1.0 495:1.0 501:1.0 675:1.0 913:1.0 921:1.0 930:2.0 1035:1.0 1036:1.0 1044:1.0 1404:1.0 1492:1.0 1500:1.0 2134:1.0 2206:2.0 2470:1.0 2788:1.0 3025:1.0 3032:1.0 4238:1.0 4791:1.0 4792:1.0 4793:1.0 4794:1.0 4795:1.0 4796:1.0 4797:1.0 4798:1.0 4799:1.0 4800:1.0 4801:1.0 4802:1.0 4803:1.0 4804:1.0 4805:1.0 4806:1.0 4807:1.0 4808:2.0 4809:1.0 
1.9137240847496426 1:11.0 8:4.0 19:1.0 24:4.0 91:2.0 92:1.0 265:1.0 872:1.0 879:1.0 1036:3.0 1044:2.0 1045:1.0 1193:1.0 1404:1.0 1405:1.0 1586:1.0 3185:1.0 3186:1.0 3187:1.0 3194:1.0 3195:1.0 3196:1.0 3907:1.0 4821:1.0 4822:1.0 4823:1.0 4824:1.0 4825:1.0 4826:1.0 4827:1.0 4828:1.0 4829:1.0 4830:1.0 4831:1.0 4832:1.0 4833:1.0 4834:1.0 4835:1.0 4836:1.0 4837:1.0 
0.513943876092825 1:18.0 2:7.0 3:2.0 5:2.0 8:1.0 11:1.0 27:2.0 52:1.0 53:2.0 142:2.0 144:2.0 146:1.0 147:2.0 148:2.0 157:1.0 248:2.0 268:1.0 323:2.0 326:1.0 327:2.0 357:1.0 451:1.0 470:1.0 585:1.0 614:1.0 910:1.0 1733:1.0 2281:1.0 2287:1.0 2548:1.0 2552:1.0 2554:1.0 2573:1.0 3069:1.0 3089:1.0 3699:1.0 3702:1.0 3703:1.0 4838:1.0 4839:1.0 4840:1.0 4841:1.0 4842:1.0 4843:1.0 4844:1.0 4845:1.0 4846:1.0 4847:1.0 4848:1.0 4849:1.0 4850:1.0 4851:1.0 4852:1.0 4853:1.0 4854:1.0 4855:1.0 4856:1.0 4857:1.0 4858:1.0 4859:1.0 4860:1.0 4861:1.0 4862:1.0 4863:1.0 4864:1.0 4865:1.0 4866:1.0 4867:1.0 4868:1.0 4869:1.0 
0.914568163079715 1:4.0 3:2.0 145:1.0 323:3.0 339:4.0 2178:2.0 
1.4676942504827728 1:4.0 2:2.0 3:2.0 8:1.0 99:1.0 248:1.0 326:1.0 357:2.0 516:1.0 4870:1.0 4871:1.0 4872:1.0 4873:1.0 4874:1.0 4875:1.0 4876:2.0 4877:1.0 4878:1.0 4879:1.0 4880:1.0 4881:1.0 
1.220440110404135 1:14.0 2:2.0 8:3.0 24:4.0 26:1.0 44:1.0 45:1.0 47:1.0 48:1.0 57:1.0 58:1.0 91:3.0 92:2.0 142:1.0 267:1.0 273:1.0 274:1.0 275:1.0 291:1.0 292:1.0 519:1.0 1036:2.0 1043:1.0 1439:1.0 1442:1.0 1587:2.0 2789:1.0 3186:1.0 4892:1.0 4893:1.0 4894:1.0 4895:1.0 4896:1.0 4897:1.0 4898:1.0 4899:1.0 4900:1.0 4901:1.0 4902:1.0 4903:1.0 4904:1.0 4905:1.0 4906:1.0 4907:1.0 4908:1.0 4909:1.0 4910:1.0 4911:1.0 4912:1.0 4913:1.0 4914:1.0 4915:1.0 4916:1.0 4917:1.0 4918:1.0 4919:1.0 
2.679771521802846 1:6.0 2:1.0 5:1.0 8:3.0 18:1.0 21:1.0 24:2.0 89:1.0 91:1.0 92:2.0 175:1.0 2788:1.0 2789:1.0 3186:2.0 3712:1.0 3966:2.0 4608:1.0 4920:1.0 4921:1.0 4922:1.0 4923:1.0 4924:1.0 4925:2.0 4926:2.0 4927:1.0 4928:1.0 4929:1.0 
1.4778258246553047 1:9.0 2:1.0 3:3.0 5:1.0 49:1.0 53:2.0 61:1.0 144:1.0 323:1.0 339:1.0 860:1.0 961:2.0 1688:1.0 4642:1.0 4653:1.0 4930:1.0 4931:1.0 4932:1.0 4933:1.0 4934:2.0 4935:1.0 4936:1.0 4937:1.0 4938:1.0 4939:1.0 4940:1.0 4941:1.0 
0.39927544860666825 1:7.0 2:2.0 8:2.0 53:1.0 248:1.0 327:3.0 493:2.0 495:2.0 957:2.0 968:2.0 1257:1.0 1263:1.0 2075:2.0 2078:2.0 2808:1.0 2809:1.0 2810:1.0 2811:1.0 2812:1.0 2813:1.0 2814:1.0 2815:1.0 2816:1.0 2818:1.0 2819:1.0 2820:1.0 2821:1.0 2822:1.0 2825:1.0 2829:1.0 4942:1.0 4943:1.0 4944:1.0 4945:1.0 4946:1.0 4947:1.0 4948:1.0 4949:1.0 4950:1.0 4951:1.0 
1.5061836099481132 1:5.0 3:1.0 144:1.0 145:2.0 154:1.0 323:1.0 339:1.0 2178:1.0 2563:2.0 2588:1.0 4952:2.0 4953:1.0 4954:1.0 
0.8087849195687546 1:10.0 2:1.0 5:1.0 49:1.0 61:1.0 493:10.0 495:10.0 542:8.0 543:1.0 547:1.0 549:8.0 551:2.0 561:2.0 5032:4.0 5033:2.0 5034:2.0 5035:1.0 5036:4.0 5037:2.0 5038:2.0 5039:1.0 5040:1.0 5041:1.0 5042:4.0 5043:2.0 5044:2.0 
0.44285198363031114 1:21.0 2:7.0 3:5.0 5:2.0 8:1.0 27:2.0 52:1.0 53:1.0 142:3.0 144:2.0 146:2.0 147:2.0 148:2.0 157:1.0 248:1.0 266:1.0 267:1.0 268:2.0 275:1.0 282:2.0 323:2.0 327:2.0 339:1.0 348:1.0 354:1.0 451:1.0 470:1.0 614:1.0 910:1.0 1733:2.0 2281:1.0 2287:1.0 2548:1.0 2552:1.0 2554:1.0 2573:1.0 3029:1.0 3035:1.0 3062:1.0 4839:1.0 4841:1.0 4846:1.0 4850:1.0 4861:1.0 4868:1.0 5050:1.0 5051:1.0 5052:1.0 5053:1.0 5054:1.0 5055:1.0 5056:1.0 5057:1.0 5058:1.0 5059:1.0 5060:1.0 5061:1.0 5062:1.0 5063:1.0 5064:1.0 5065:1.0 5066:1.0 5067:1.0 5068:1.0 5069:1.0 5070:1.0 5071:1.0 5072:1.0 5073:1.0 5074:1.0 5075:2.0 5076:1.0 
1.4920920621146612 1:10.0 3:2.0 53:3.0 144:1.0 145:1.0 323:2.0 326:1.0 339:2.0 456:1.0 889:1.0 1915:1.0 2178:1.0 2970:1.0 4932:1.0 4941:1.0 5077:1.0 5078:1.0 5079:1.0 5080:1.0 5081:1.0 5082:1.0 5083:1.0 5084:1.0 5085:1.0 5086:1.0 5087:1.0 
1.329834172950399 1:19.0 2:2.0 8:5.0 24:4.0 25:1.0 26:1.0 27:1.0 31:1.0 53:4.0 58:1.0 69:1.0 91:1.0 142:1.0 178:1.0 185:1.0 248:2.0 265:1.0 266:1.0 327:4.0 354:2.0 356:2.0 502:1.0 585:1.0 732:1.0 913:1.0 1047:1.0 1051:1.0 1079:1.0 1367:1.0 1438:1.0 1439:1.0 1441:1.0 1507:1.0 1521:1.0 1797:1.0 2456:1.0 2667:1.0 2818:1.0 3023:1.0 4005:1.0 5191:1.0 5192:1.0 5193:1.0 5194:1.0 5195:1.0 5196:1.0 5197:1.0 5198:1.0 5199:1.0 5200:1.0 5201:1.0 5202:1.0 5203:2.0 5204:1.0 5205:2.0 5206:1.0 5207:1.0 5208:1.0 5209:1.0 5210:1.0 5211:1.0 5212:1.0 5213:1.0 5214:1.0 5215:1.0 5216:1.0 5217:1.0 
0.926973843824429 1:11.0 3:1.0 8:5.0 19:1.0 24:2.0 91:3.0 92:1.0 265:1.0 767:1.0 872:1.0 879:1.0 1036:4.0 1043:1.0 1044:2.0 1045:1.0 1193:1.0 2470:1.0 3185:1.0 3907:1.0 4821:1.0 4822:1.0 4825:1.0 4826:1.0 4827:1.0 4833:1.0 4836:1.0 4837:1.0 5261:2.0 5262:1.0 5263:1.0 5264:1.0 5265:1.0 5266:1.0 5267:1.0 5268:1.0 5269:1.0 5270:1.0 5271:1.0 5272:1.0 5273:1.0 5274:1.0 5275:1.0 
1.1609789036724836 1:3.0 8:6.0 19:3.0 91:3.0 872:2.0 879:3.0 1076:1.0 1438:1.0 1440:3.0 1444:2.0 1446:3.0 1450:3.0 5276:3.0 
0.9992684788799269 1:13.0 2:2.0 5:1.0 8:2.0 19:1.0 23:1.0 24:4.0 27:1.0 29:2.0 52:1.0 53:1.0 147:1.0 148:1.0 175:1.0 177:2.0 221:1.0 223:2.0 231:1.0 239:1.0 240:1.0 266:1.0 327:2.0 493:2.0 495:2.0 957:2.0 968:2.0 1005:1.0 1006:1.0 1009:1.0 1014:1.0 1646:1.0 1647:1.0 2075:2.0 2076:2.0 2078:2.0 2079:2.0 2080:2.0 2081:1.0 2082:1.0 2083:2.0 3846:1.0 3849:1.0 3850:1.0 3851:1.0 3852:1.0 
2.1832197421047184 1:7.0 8:1.0 24:4.0 44:2.0 91:1.0 94:1.0 178:2.0 228:1.0 1036:1.0 1044:1.0 1064:1.0 5319:1.0 5320:1.0 5321:1.0 5322:1.0 5323:1.0 5324:1.0 5325:1.0 5326:1.0 5327:1.0 5328:1.0 5329:1.0 5330:1.0 5331:1.0 5332:1.0 5333:1.0 5334:1.0 5335:1.0 5336:1.0 
0.8230075830928434 1:9.0 2:1.0 3:3.0 8:3.0 52:3.0 327:3.0 1078:3.0 1257:1.0 2808:3.0 2810:1.0 4581:1.0 4582:1.0 4584:1.0 4587:1.0 5352:3.0 5353:3.0 5354:3.0 5355:1.0 5356:3.0 5357:3.0 5358:3.0 5359:3.0 
1.1948767088412078 1:4.0 8:2.0 25:1.0 44:1.0 265:1.0 266:1.0 269:1.0 599:1.0 1323:2.0 3286:1.0 3287:1.0 5384:1.0 5385:1.0 5386:1.0 5387:1.0 5388:1.0 5389:1.0 5390:1.0 5391:1.0 5392:1.0 5393:1.0 5394:1.0 5395:1.0 
0.5518040214499579 1:13.0 2:2.0 8:1.0 19:1.0 23:1.0 24:6.0 26:1.0 97:1.0 142:1.0 178:2.0 267:1.0 274:1.0 275:1.0 292:1.0 648:1.0 662:1.0 663:1.0 665:1.0 1404:2.0 1405:1.0 1422:1.0 1424:2.0 1427:2.0 1429:1.0 1436:1.0 1437:1.0 2729:1.0 3150:2.0 3151:1.0 3152:1.0 3156:1.0 3157:1.0 3158:1.0 3159:1.0 3160:1.0 4792:1.0 5431:1.0 5432:1.0 5433:1.0 5434:1.0 5435:1.0 
1.4832673880381506 1:7.0 2:3.0 24:3.0 26:3.0 27:2.0 31:2.0 34:2.0 142:1.0 149:1.0 178:1.0 267:1.0 274:1.0 275:1.0 292:1.0 1815:1.0 1817:1.0 1995:1.0 2626:1.0 3149:1.0 3420:1.0 3875:1.0 3878:1.0 4517:1.0 5436:1.0 5437:1.0 
0.20353210268022573 1:7.0 2:2.0 24:4.0 26:2.0 27:1.0 31:4.0 33:1.0 34:1.0 40:1.0 43:1.0 142:1.0 267:1.0 274:1.0 275:1.0 292:1.0 913:1.0 920:1.0 921:1.0 1575:2.0 4656:2.0 
1.223767910571029 1:12.0 2:4.0 5:1.0 24:2.0 26:2.0 48:1.0 97:1.0 142:2.0 144:2.0 147:1.0 148:1.0 267:1.0 274:1.0 275:1.0 278:1.0 292:1.0 423:1.0 428:1.0 452:1.0 1404:1.0 1424:1.0 1425:1.0 1426:1.0 1428:1.0 1430:1.0 1431:1.0 1816:1.0 2628:1.0 2711:1.0 2712:1.0 2713:1.0 2714:1.0 2719:1.0 2720:1.0 5438:1.0 5439:1.0 5440:1.0 5441:1.0 5442:1.0 5443:1.0 5444:1.0 5445:1.0 5446:1.0 5447:1.0 5448:1.0 5449:1.0 
0.5202017007011244 1:3.0 2:1.0 3:1.0 8:2.0 11:1.0 265:1.0 327:1.0 832:1.0 1081:1.0 1290:1.0 1291:1.0 1292:1.0 1295:1.0 1296:1.0 1298:1.0 1300:2.0 4010:1.0 4014:1.0 4015:1.0 5450:1.0 
1.9367620426608523 1:5.0 2:1.0 3:3.0 142:1.0 267:1.0 268:1.0 275:1.0 282:3.0 5452:2.0 5453:2.0 5454:3.0 5455:1.0 
2.85142255762367 1:2.0 2:2.0 5:1.0 8:1.0 19:1.0 142:1.0 267:1.0 275:1.0 517:1.0 526:1.0 2369:2.0 2370:1.0 2376:1.0 2377:1.0 5456:2.0 5457:1.0 
0.9745835702751713 1:17.0 2:3.0 3:2.0 5:1.0 24:8.0 26:1.0 31:2.0 48:1.0 58:2.0 142:2.0 147:1.0 148:1.0 175:1.0 176:2.0 177:2.0 181:2.0 267:1.0 268:1.0 275:1.0 281:1.0 282:2.0 493:1.0 494:1.0 495:1.0 501:1.0 913:1.0 919:2.0 930:2.0 1010:1.0 1023:1.0 1492:1.0 1500:1.0 2134:1.0 2206:2.0 2281:1.0 2287:1.0 2493:1.0 2501:1.0 2502:1.0 2507:2.0 2592:2.0 2595:1.0 5469:1.0 5470:2.0 5471:1.0 
0.044243090308116365 1:15.0 3:1.0 8:3.0 23:3.0 24:8.0 29:5.0 48:1.0 58:1.0 178:1.0 201:1.0 207:1.0 265:2.0 266:1.0 269:2.0 344:1.0 832:2.0 834:2.0 835:2.0 842:2.0 843:1.0 848:2.0 1288:1.0 1289:1.0 1646:1.0 1652:2.0 1768:1.0 1776:1.0 2675:1.0 3356:1.0 3599:1.0 3600:2.0 3601:1.0 3602:1.0 5472:1.0 
1.7863455394465355 1:7.0 2:2.0 8:3.0 23:2.0 24:4.0 29:4.0 99:2.0 265:1.0 622:1.0 623:1.0 627:1.0 628:1.0 636:1.0 2873:1.0 5473:1.0 5474:1.0 5475:1.0 5476:1.0 5477:1.0 5478:1.0 5479:2.0 5480:2.0 5481:1.0 5482:1.0 5483:1.0 5484:1.0 5485:1.0 5486:1.0 5487:1.0 
2.322378659582817 1:2.0 2:3.0 8:5.0 11:1.0 89:1.0 99:2.0 265:1.0 622:1.0 623:1.0 627:1.0 628:1.0 636:1.0 673:1.0 674:1.0 681:1.0 1777:1.0 1778:1.0 1780:1.0 1781:1.0 1782:1.0 1783:1.0 1784:1.0 1789:1.0 1790:1.0 1791:1.0 1792:1.0 2873:1.0 5513:1.0 5514:1.0 5515:1.0 5516:1.0 5517:1.0 
0.16717990493946938 1:15.0 2:4.0 3:1.0 5:2.0 8:1.0 11:1.0 23:1.0 24:6.0 48:2.0 49:2.0 58:2.0 61:2.0 98:1.0 99:1.0 115:1.0 116:1.0 175:3.0 177:2.0 178:2.0 183:2.0 283:2.0 307:2.0 344:1.0 640:1.0 646:3.0 649:1.0 657:2.0 658:2.0 721:1.0 725:1.0 726:1.0 727:1.0 728:1.0 729:1.0 783:1.0 786:1.0 795:1.0 5518:1.0 5519:1.0 5520:1.0 5521:1.0 5522:1.0 
2.7611333694915476 1:8.0 2:2.0 5:1.0 8:2.0 18:1.0 21:1.0 24:5.0 99:1.0 175:1.0 177:2.0 178:3.0 183:2.0 184:1.0 265:1.0 622:1.0 623:1.0 627:1.0 628:1.0 636:1.0 1264:1.0 1274:1.0 2788:1.0 2873:1.0 3354:2.0 3603:1.0 3606:1.0 3607:1.0 3608:1.0 5531:1.0 5532:1.0 
1.433416902067865 1:7.0 2:4.0 5:2.0 8:4.0 19:1.0 25:1.0 27:1.0 51:1.0 52:1.0 53:2.0 65:1.0 68:1.0 99:1.0 147:1.0 148:1.0 221:1.0 231:1.0 239:1.0 240:1.0 265:1.0 327:1.0 356:1.0 622:1.0 623:1.0 627:1.0 628:1.0 636:1.0 1009:1.0 1796:1.0 1797:1.0 1800:1.0 2299:1.0 2305:1.0 2873:1.0 3202:1.0 3846:1.0 3851:1.0 3852:1.0 5533:1.0 5534:1.0 5535:1.0 5536:1.0 5537:1.0 5538:1.0 5539:1.0 5540:1.0 
1.2713778071660624 1:6.0 2:1.0 3:1.0 8:2.0 52:1.0 53:3.0 68:1.0 69:1.0 99:1.0 327:1.0 356:1.0 622:1.0 623:1.0 627:1.0 628:1.0 636:1.0 902:1.0 1078:1.0 5541:1.0 5542:1.0 5543:1.0 5544:1.0 5545:1.0 5546:1.0 5547:1.0 5548:1.0 5549:1.0 5550:1.0 
2.244202213129463 1:8.0 2:1.0 3:1.0 24:5.0 27:1.0 58:1.0 146:1.0 155:1.0 177:1.0 178:3.0 183:2.0 184:1.0 185:1.0 348:1.0 454:1.0 1456:2.0 5560:1.0 5561:1.0 5562:1.0 5563:1.0 5564:1.0 
2.8534244485163764 1:7.0 2:2.0 3:1.0 24:3.0 26:2.0 27:2.0 31:1.0 34:2.0 48:1.0 58:1.0 152:1.0 344:1.0 1768:1.0 1773:1.0 1776:1.0 1815:2.0 1817:2.0 1818:1.0 1819:1.0 1820:1.0 4399:1.0 5565:1.0 
0.8933203628603938 1:21.0 3:1.0 24:9.0 48:2.0 53:2.0 175:1.0 177:1.0 178:2.0 344:1.0 1404:6.0 1405:5.0 1406:2.0 1408:2.0 1409:1.0 1411:1.0 1413:1.0 1419:1.0 1422:2.0 1423:1.0 2077:2.0 2227:1.0 2247:1.0 5566:1.0 5567:1.0 5568:1.0 5569:1.0 5570:1.0 5571:1.0 5572:1.0 5573:1.0 5574:1.0 5575:1.0 5576:1.0 5577:1.0 5578:1.0 5579:1.0 5580:1.0 5581:1.0 5582:1.0 5583:1.0 
0.8545965876081641 1:13.0 8:2.0 19:2.0 23:2.0 24:6.0 29:2.0 48:1.0 53:1.0 58:1.0 175:1.0 177:1.0 188:1.0 218:1.0 223:2.0 493:2.0 494:2.0 495:2.0 498:1.0 501:2.0 648:2.0 931:2.0 943:2.0 1006:1.0 1491:1.0 2063:2.0 2074:2.0 3225:2.0 3226:2.0 3227:2.0 5584:2.0 5585:2.0 5586:1.0 
0.7531580731614215 1:15.0 3:2.0 8:2.0 19:2.0 23:2.0 24:6.0 29:2.0 48:2.0 53:1.0 58:1.0 175:2.0 177:1.0 188:1.0 218:1.0 223:2.0 344:2.0 648:2.0 721:2.0 729:2.0 836:1.0 846:2.0 849:1.0 1006:1.0 1639:1.0 1643:1.0 1769:2.0 5586:1.0 5587:2.0 5588:2.0 5589:2.0 5590:2.0 
1.4458617937757257 1:1.0 493:2.0 495:2.0 5591:3.0 5592:4.0 
0.7361241224513829 1:17.0 8:2.0 23:2.0 24:8.0 29:4.0 53:1.0 175:2.0 177:4.0 188:1.0 223:4.0 265:4.0 266:2.0 269:4.0 1006:2.0 1502:2.0 1646:2.0 2083:4.0 3599:2.0 3600:4.0 3601:2.0 3602:2.0 5586:1.0 
1.4577822404498586 1:4.0 2:1.0 3:2.0 8:1.0 10:1.0 11:1.0 15:1.0 53:1.0 87:1.0 101:1.0 139:1.0 141:1.0 891:1.0 5600:1.0 5601:2.0 5602:1.0 5603:1.0 5604:1.0 5605:1.0 
2.263745745180107 1:11.0 2:2.0 24:3.0 26:2.0 31:1.0 53:1.0 58:1.0 142:2.0 144:1.0 145:1.0 149:2.0 154:1.0 166:1.0 185:1.0 267:2.0 274:2.0 275:2.0 292:2.0 499:1.0 512:1.0 2626:2.0 2667:1.0 2797:1.0 3475:1.0 4142:1.0 4143:1.0 4146:1.0 4147:1.0 4148:1.0 4149:1.0 5606:1.0 
1.8031594993633966 1:4.0 3:1.0 8:2.0 91:2.0 92:2.0 1439:1.0 2341:1.0 3652:2.0 5623:1.0 5624:2.0 5625:1.0 5626:1.0 5627:2.0 5628:2.0 
1.5493893122833886 1:1.0 2:2.0 8:2.0 11:1.0 89:1.0 99:1.0 265:1.0 1777:1.0 1781:2.0 1782:1.0 1783:1.0 1791:1.0 1792:1.0 5629:1.0 5630:2.0 5631:1.0 
0.5408134613458946 1:10.0 2:2.0 8:3.0 24:2.0 27:1.0 53:2.0 91:1.0 92:2.0 99:1.0 146:1.0 175:1.0 177:1.0 265:1.0 327:1.0 356:1.0 454:1.0 455:1.0 622:1.0 623:1.0 627:1.0 628:1.0 636:1.0 902:1.0 2789:1.0 2873:1.0 3186:1.0 3187:1.0 5632:1.0 5633:1.0 5634:1.0 5635:1.0 5636:1.0 5637:1.0 5638:1.0 5639:1.0 5640:1.0 5641:1.0 5642:1.0 5643:1.0 5644:1.0 5645:1.0 5646:1.0 5647:1.0 5648:1.0 5649:1.0 
0.5384972584344461 1:10.0 2:2.0 5:1.0 8:3.0 24:2.0 49:1.0 53:2.0 61:1.0 91:1.0 92:2.0 99:1.0 175:1.0 177:1.0 265:1.0 327:1.0 356:1.0 485:1.0 622:1.0 623:1.0 627:1.0 628:1.0 636:1.0 902:1.0 2789:1.0 2873:1.0 3186:1.0 3187:1.0 5633:1.0 5635:1.0 5639:1.0 5640:1.0 5641:1.0 5642:1.0 5646:1.0 5647:1.0 5648:1.0 5650:1.0 5651:1.0 5652:1.0 5653:1.0 5654:1.0 5655:1.0 5656:1.0 5657:1.0 5658:1.0 
1.016016466231614 1:2.0 2:1.0 8:3.0 99:1.0 135:1.0 265:1.0 622:1.0 623:1.0 627:1.0 628:1.0 636:1.0 2459:1.0 2465:1.0 2873:1.0 4089:1.0 4091:1.0 5659:2.0 5660:1.0 5661:1.0 5662:1.0 
0.7879003648109714 1:6.0 2:3.0 3:1.0 8:3.0 11:1.0 27:1.0 91:1.0 92:1.0 98:1.0 99:1.0 115:1.0 116:1.0 248:1.0 327:1.0 585:1.0 679:1.0 1035:1.0 1197:1.0 1213:1.0 1214:1.0 1439:1.0 1593:1.0 1610:1.0 2341:1.0 3649:1.0 3651:1.0 3652:1.0 3653:1.0 3657:1.0 3658:1.0 3659:1.0 3661:1.0 5712:1.0 5713:1.0 5714:1.0 5715:1.0 5716:1.0 5717:1.0 5718:1.0 
0.7831683127386566 1:17.0 2:1.0 5:1.0 8:2.0 23:2.0 24:8.0 29:4.0 49:1.0 59:2.0 61:1.0 175:2.0 177:4.0 265:4.0 266:2.0 269:4.0 283:1.0 307:1.0 1646:2.0 2083:4.0 2265:4.0 3599:2.0 3600:4.0 3601:2.0 3602:2.0 5045:1.0 5049:2.0 
0.7064106882453345 1:10.0 493:12.0 495:12.0 542:8.0 543:2.0 547:2.0 549:8.0 551:4.0 561:4.0 5032:4.0 5033:4.0 5037:4.0 5039:2.0 5042:4.0 5043:4.0 5725:4.0 
0.8459281999947198 1:10.0 326:1.0 493:11.0 495:11.0 542:7.0 543:2.0 547:2.0 549:7.0 551:4.0 561:4.0 5032:2.0 5033:2.0 5042:2.0 5043:2.0 5725:1.0 5726:1.0 5727:1.0 5728:2.0 5729:1.0 5730:1.0 5731:1.0 5732:2.0 5733:2.0 5734:2.0 5735:1.0 5736:2.0 
0.8056882490396025 1:15.0 2:5.0 3:1.0 5:3.0 8:4.0 19:2.0 25:1.0 49:2.0 52:2.0 61:2.0 142:2.0 248:1.0 266:1.0 267:1.0 275:1.0 323:2.0 325:2.0 326:1.0 327:1.0 335:1.0 338:2.0 339:1.0 340:1.0 377:1.0 380:2.0 517:1.0 526:1.0 2369:1.0 2370:1.0 2376:1.0 2377:1.0 2546:1.0 4072:1.0 4732:1.0 5759:1.0 5760:1.0 5761:1.0 5762:1.0 5763:1.0 5764:1.0 5765:1.0 5766:1.0 5767:1.0 5768:1.0 5769:1.0 5770:1.0 5771:1.0 5772:1.0 5773:1.0 5774:1.0 5775:1.0 5776:1.0 5777:1.0 5778:1.0 5779:1.0 5780:1.0 5781:1.0 5782:1.0 5783:1.0 5784:1.0 5785:1.0 5786:1.0 5787:1.0 5788:1.0 
0.4868033484336798 1:16.0 2:6.0 3:3.0 5:2.0 8:1.0 27:2.0 52:1.0 53:1.0 142:2.0 144:1.0 146:1.0 147:2.0 148:2.0 157:1.0 248:1.0 266:1.0 268:2.0 282:2.0 323:1.0 326:1.0 327:2.0 354:1.0 357:1.0 614:1.0 1092:1.0 1102:1.0 1733:2.0 2281:1.0 2287:1.0 2548:1.0 2552:1.0 2554:1.0 2573:1.0 3029:1.0 4839:1.0 4841:1.0 4861:1.0 5050:1.0 5051:1.0 5056:1.0 5057:1.0 5058:1.0 5059:1.0 5060:1.0 5061:1.0 5062:1.0 5063:1.0 5794:1.0 5795:1.0 5796:1.0 5797:1.0 5798:1.0 5799:1.0 5800:1.0 5801:1.0 5802:1.0 5803:1.0 5804:1.0 5805:1.0 5806:1.0 5807:1.0 
1.1689537801421475 1:7.0 2:2.0 5:1.0 8:5.0 18:1.0 21:1.0 25:1.0 91:1.0 99:1.0 265:3.0 528:1.0 622:1.0 623:1.0 627:1.0 628:1.0 636:1.0 679:1.0 767:1.0 873:1.0 1035:1.0 1193:1.0 1194:1.0 1195:1.0 1827:1.0 1838:1.0 1839:1.0 2873:1.0 3523:1.0 3529:1.0 3747:1.0 3748:1.0 3750:1.0 3752:1.0 3753:1.0 3756:1.0 3757:1.0 3758:1.0 3760:1.0 5608:1.0 5617:1.0 5808:1.0 5809:1.0 5810:1.0 
0.3693849641537234 1:16.0 2:3.0 8:4.0 11:1.0 24:6.0 44:1.0 91:2.0 94:1.0 98:1.0 99:1.0 115:1.0 116:1.0 142:1.0 178:2.0 248:2.0 266:1.0 327:2.0 587:1.0 679:1.0 812:1.0 813:1.0 817:1.0 824:1.0 1036:1.0 1044:1.0 1064:1.0 1404:1.0 1405:1.0 1422:1.0 1439:1.0 1584:1.0 1585:1.0 1586:1.0 1587:1.0 1588:1.0 1589:1.0 1590:1.0 1591:1.0 1592:2.0 1594:1.0 1595:1.0 1596:1.0 1597:1.0 1598:1.0 1599:1.0 1600:1.0 1601:1.0 1602:1.0 1603:1.0 1604:1.0 1605:1.0 1606:1.0 1611:1.0 1612:1.0 1613:1.0 1614:1.0 1615:1.0 1616:1.0 3636:2.0 3644:1.0 5811:1.0 5812:2.0 5813:2.0 
1.1294811703054055 1:20.0 2:3.0 3:2.0 5:1.0 24:8.0 26:1.0 27:1.0 31:2.0 48:1.0 53:3.0 58:2.0 69:1.0 142:1.0 147:1.0 148:1.0 175:2.0 177:2.0 178:2.0 183:2.0 197:1.0 206:1.0 221:1.0 268:1.0 281:1.0 282:2.0 326:1.0 889:1.0 913:1.0 919:2.0 1094:1.0 2077:1.0 2493:1.0 2494:1.0 2500:2.0 2501:1.0 2502:1.0 2503:1.0 2504:1.0 2505:1.0 2506:1.0 2507:2.0 3949:1.0 5820:1.0 5821:1.0 5822:1.0 5823:1.0 5824:1.0 5825:1.0 5826:1.0 5827:1.0 5828:1.0 
1.4782089275884136 1:12.0 2:3.0 3:2.0 5:2.0 8:2.0 24:2.0 27:1.0 49:1.0 61:1.0 91:1.0 147:1.0 148:1.0 175:1.0 177:1.0 221:1.0 266:1.0 323:1.0 327:1.0 679:1.0 767:1.0 1081:1.0 1323:1.0 1327:1.0 2031:1.0 2045:1.0 2470:1.0 2526:1.0 2542:1.0 2543:1.0 3133:1.0 3144:1.0 5829:1.0 5830:1.0 5831:1.0 5832:1.0 5833:1.0 5834:1.0 5835:1.0 5836:1.0 5837:1.0 5838:1.0 5839:1.0 5840:1.0 5841:1.0 5842:1.0 5843:1.0 5844:1.0 5845:1.0 5846:1.0 5847:1.0 5848:1.0 
1.335994340522736 1:10.0 24:8.0 178:4.0 1404:2.0 1405:4.0 1406:2.0 1413:4.0 1422:4.0 5849:2.0 
1.1403054762535725 1:10.0 8:2.0 19:2.0 23:2.0 24:6.0 29:2.0 178:2.0 648:2.0 1404:2.0 1405:2.0 5850:2.0 5851:2.0 5852:2.0 5853:2.0 5854:2.0 5855:2.0 5856:2.0 5857:2.0 
1.4032010249220588 1:10.0 8:1.0 19:1.0 23:1.0 24:7.0 29:1.0 178:2.0 648:1.0 804:1.0 810:1.0 1404:2.0 1405:3.0 1406:2.0 1413:2.0 1422:2.0 3154:1.0 5849:1.0 5858:1.0 5859:1.0 5860:1.0 5861:1.0 5862:1.0 
0.8745276969087754 1:6.0 2:3.0 3:1.0 5:1.0 8:4.0 11:1.0 25:2.0 44:1.0 51:1.0 65:1.0 91:1.0 92:1.0 94:1.0 98:1.0 99:1.0 105:1.0 115:1.0 116:1.0 327:1.0 569:1.0 578:1.0 768:1.0 812:1.0 813:1.0 814:1.0 815:1.0 816:1.0 817:1.0 818:1.0 819:1.0 820:1.0 824:1.0 1080:1.0 1081:1.0 1091:1.0 1796:1.0 4699:1.0 5881:1.0 5882:1.0 5883:1.0 5884:1.0 5885:1.0 5886:1.0 5887:1.0 5888:1.0 
1.9560004187042908 1:6.0 2:6.0 5:3.0 8:1.0 27:3.0 147:3.0 148:3.0 221:3.0 266:1.0 327:3.0 1051:1.0 1953:3.0 1957:3.0 1958:3.0 5889:3.0 5890:3.0 5891:3.0 5892:1.0 
2.6452081591964647 1:7.0 2:3.0 8:2.0 11:1.0 19:1.0 23:2.0 24:3.0 26:1.0 29:1.0 31:1.0 98:1.0 99:1.0 115:1.0 116:1.0 142:1.0 267:1.0 274:1.0 275:1.0 292:1.0 648:1.0 662:1.0 663:1.0 664:1.0 665:1.0 666:1.0 668:1.0 783:1.0 784:1.0 786:1.0 787:1.0 788:1.0 789:1.0 793:1.0 795:1.0 2728:1.0 2729:1.0 
2.4580660610604856 1:6.0 2:4.0 5:1.0 8:4.0 9:1.0 11:1.0 19:1.0 24:2.0 51:1.0 65:1.0 88:1.0 89:1.0 96:1.0 97:1.0 98:1.0 99:1.0 110:1.0 111:1.0 112:1.0 114:1.0 115:1.0 116:1.0 128:1.0 129:1.0 131:1.0 132:1.0 133:1.0 572:1.0 3668:1.0 3670:1.0 4307:1.0 4308:1.0 4309:1.0 4310:1.0 4311:1.0 4312:1.0 4313:1.0 4314:1.0 4315:1.0 4316:1.0 4317:1.0 4684:1.0 4685:1.0 4686:1.0 
0.18715352495218213 1:11.0 2:3.0 8:3.0 11:1.0 24:5.0 91:1.0 92:2.0 95:1.0 96:1.0 97:1.0 98:1.0 99:1.0 110:1.0 111:1.0 112:1.0 113:1.0 114:1.0 115:1.0 116:1.0 128:1.0 129:1.0 131:1.0 132:1.0 133:1.0 178:1.0 767:1.0 773:1.0 781:1.0 782:1.0 1181:1.0 3187:1.0 4409:1.0 4416:1.0 4435:1.0 4436:1.0 4440:1.0 4441:1.0 4442:1.0 5264:1.0 5404:1.0 5913:1.0 5914:1.0 5915:1.0 5916:1.0 5917:1.0 5918:1.0 5919:1.0 5920:1.0 5921:1.0 
0.5331854984499479 1:6.0 2:5.0 8:3.0 11:1.0 24:2.0 27:1.0 95:1.0 96:1.0 97:2.0 98:1.0 99:1.0 110:1.0 111:1.0 112:1.0 113:1.0 114:1.0 115:1.0 116:1.0 128:1.0 129:1.0 131:1.0 132:1.0 133:1.0 732:2.0 733:1.0 737:1.0 738:1.0 739:1.0 746:1.0 747:1.0 748:1.0 5922:1.0 5923:1.0 5924:1.0 5925:1.0 5926:1.0 5927:1.0 5928:1.0 5929:1.0 5930:1.0 5931:1.0 5932:1.0 
0.3747128759422412 1:9.0 2:5.0 3:1.0 5:1.0 8:4.0 11:1.0 18:1.0 20:1.0 21:1.0 24:2.0 25:1.0 32:1.0 41:1.0 42:1.0 91:1.0 95:1.0 96:1.0 97:1.0 98:1.0 99:1.0 110:1.0 111:1.0 112:1.0 113:1.0 114:1.0 115:1.0 116:1.0 128:1.0 129:1.0 131:1.0 132:1.0 133:1.0 327:1.0 733:1.0 1439:1.0 1522:1.0 1897:1.0 3104:1.0 3108:1.0 3109:1.0 3598:1.0 5933:1.0 5934:1.0 5935:1.0 5936:1.0 5937:1.0 5938:1.0 5939:1.0 5940:1.0 5941:1.0 5942:1.0 5943:1.0 5944:1.0 5945:1.0 5946:1.0 5947:1.0 
0.4435045305966101 1:8.0 2:4.0 3:1.0 5:1.0 8:4.0 11:1.0 18:1.0 20:1.0 21:1.0 24:2.0 25:1.0 32:1.0 41:1.0 42:1.0 44:1.0 90:1.0 94:1.0 95:1.0 96:1.0 97:1.0 98:1.0 99:1.0 110:1.0 111:1.0 112:1.0 113:1.0 114:1.0 115:1.0 116:1.0 128:1.0 129:1.0 131:1.0 132:1.0 133:1.0 732:2.0 750:1.0 753:1.0 754:1.0 755:1.0 756:1.0 757:1.0 761:1.0 762:1.0 763:1.0 764:1.0 765:1.0 5280:1.0 5948:1.0 5949:1.0 5950:1.0 5951:1.0 5952:1.0 5953:1.0 
0.2660434070469676 1:7.0 2:3.0 8:2.0 11:1.0 24:2.0 44:1.0 91:1.0 94:1.0 95:1.0 96:1.0 97:1.0 98:1.0 99:1.0 110:1.0 111:1.0 112:1.0 113:1.0 114:1.0 115:1.0 116:1.0 128:1.0 129:1.0 131:1.0 132:1.0 133:1.0 680:1.0 698:1.0 767:1.0 769:1.0 773:1.0 780:1.0 781:1.0 782:1.0 5954:1.0 5955:1.0 5956:1.0 5957:1.0 5958:1.0 5959:1.0 5960:1.0 5961:1.0 5962:1.0 
0.04596559896356548 1:9.0 2:4.0 3:1.0 5:1.0 8:3.0 11:1.0 18:1.0 20:1.0 21:1.0 24:2.0 25:1.0 32:1.0 41:1.0 42:1.0 44:1.0 91:1.0 94:1.0 96:1.0 97:1.0 98:1.0 99:1.0 110:1.0 111:1.0 112:1.0 114:1.0 115:1.0 116:1.0 128:1.0 129:1.0 131:1.0 132:1.0 133:1.0 675:1.0 680:1.0 686:1.0 698:1.0 719:1.0 768:1.0 769:1.0 772:1.0 773:1.0 774:1.0 778:1.0 780:1.0 781:1.0 782:1.0 3668:1.0 3670:1.0 5280:1.0 5881:1.0 5949:1.0 5963:1.0 5964:1.0 5965:1.0 
0.3525894947589359 1:8.0 2:4.0 5:1.0 8:3.0 11:1.0 24:2.0 25:1.0 44:1.0 91:1.0 94:1.0 96:1.0 97:1.0 98:1.0 99:1.0 110:1.0 111:1.0 112:1.0 114:1.0 115:1.0 116:1.0 128:1.0 129:1.0 131:1.0 132:1.0 133:1.0 675:1.0 680:1.0 686:1.0 698:1.0 719:1.0 768:1.0 769:1.0 772:1.0 773:1.0 774:1.0 778:1.0 780:1.0 781:1.0 782:1.0 3382:1.0 3385:1.0 3668:1.0 3670:1.0 5881:1.0 5963:1.0 5966:1.0 5967:1.0 5968:1.0 5969:1.0 5970:1.0 5971:1.0 
0.768489493926284 1:11.0 2:5.0 3:2.0 5:2.0 8:6.0 11:1.0 18:2.0 20:2.0 21:2.0 24:2.0 25:2.0 32:2.0 41:2.0 42:2.0 91:3.0 95:1.0 96:1.0 97:1.0 98:1.0 99:1.0 110:1.0 111:1.0 112:1.0 113:1.0 114:1.0 115:1.0 116:1.0 128:1.0 129:1.0 131:1.0 132:1.0 133:1.0 872:2.0 927:2.0 1076:1.0 1084:1.0 1439:1.0 1443:2.0 3103:1.0 3104:1.0 3106:1.0 3107:1.0 3108:1.0 3109:1.0 5972:2.0 5973:2.0 5974:2.0 5975:2.0 5976:2.0 
1.0391832783331383 1:12.0 2:2.0 8:1.0 11:1.0 23:1.0 24:5.0 29:1.0 48:2.0 53:2.0 58:2.0 98:1.0 99:1.0 115:1.0 116:1.0 178:1.0 783:1.0 786:1.0 795:1.0 1404:2.0 1405:1.0 2077:2.0 5567:1.0 5851:1.0 5855:1.0 5985:1.0 5986:2.0 5987:1.0 5988:1.0 5989:1.0 5990:1.0 5991:2.0 5992:1.0 5993:1.0 5994:1.0 5995:1.0 5996:2.0 
2.691219805080143 1:6.0 2:2.0 8:1.0 11:1.0 23:1.0 24:5.0 29:2.0 98:1.0 99:1.0 115:1.0 116:1.0 178:3.0 184:1.0 305:2.0 783:1.0 784:1.0 786:1.0 787:1.0 795:1.0 1236:2.0 2105:1.0 
3.1622776601683795 1:7.0 2:4.0 5:1.0 8:1.0 11:1.0 23:1.0 24:4.0 27:1.0 29:2.0 98:1.0 99:1.0 115:1.0 116:1.0 147:1.0 148:1.0 175:1.0 177:2.0 221:1.0 783:1.0 784:1.0 786:1.0 787:1.0 795:1.0 947:1.0 953:1.0 954:1.0 1387:1.0 1395:2.0 1396:1.0 1397:1.0 2104:2.0 2105:1.0 
2.0825335025987637 1:4.0 2:2.0 3:2.0 8:1.0 11:1.0 52:1.0 53:1.0 98:1.0 99:1.0 115:1.0 116:1.0 891:1.0 1078:1.0 2836:1.0 2857:1.0 6019:2.0 6020:1.0 6021:1.0 6022:1.0 6023:1.0 6024:1.0 6025:1.0 
1.2856139790925691 1:12.0 2:3.0 8:1.0 11:1.0 23:1.0 24:7.0 26:2.0 29:2.0 31:3.0 98:1.0 99:1.0 115:1.0 116:1.0 142:1.0 493:2.0 494:2.0 495:2.0 496:1.0 497:1.0 501:2.0 511:1.0 783:1.0 784:1.0 786:1.0 787:1.0 793:2.0 795:1.0 913:1.0 930:1.0 1492:1.0 1498:1.0 1500:1.0 1569:1.0 2105:1.0 2129:1.0 2130:2.0 2131:1.0 3246:1.0 3247:1.0 3251:1.0 3252:1.0 6028:1.0 6029:1.0 
0.842695672453429 1:13.0 2:2.0 8:1.0 11:1.0 23:1.0 24:7.0 29:1.0 53:1.0 58:1.0 98:1.0 99:1.0 115:1.0 116:1.0 175:2.0 177:2.0 178:2.0 183:2.0 185:2.0 188:1.0 190:1.0 196:1.0 197:1.0 198:1.0 199:2.0 203:1.0 206:2.0 207:1.0 208:1.0 209:1.0 212:1.0 783:1.0 784:1.0 786:1.0 787:1.0 795:1.0 1237:1.0 2104:1.0 6030:1.0 
0.2508994157504894 1:8.0 2:5.0 5:2.0 8:4.0 9:1.0 11:1.0 18:1.0 21:1.0 24:2.0 25:1.0 51:1.0 65:1.0 88:1.0 95:1.0 96:1.0 97:1.0 98:1.0 99:1.0 110:1.0 111:1.0 112:1.0 113:1.0 114:1.0 115:1.0 116:1.0 128:1.0 129:1.0 131:1.0 132:1.0 133:1.0 327:1.0 570:1.0 622:1.0 1147:1.0 2299:1.0 2305:1.0 4310:1.0 4311:1.0 4679:1.0 4682:1.0 4683:1.0 4684:1.0 4685:1.0 4686:1.0 4733:1.0 4741:1.0 6031:1.0 6032:1.0 6033:1.0 6034:1.0 6035:1.0 6036:1.0 
1.3232776016489594 1:5.0 8:1.0 265:1.0 266:1.0 269:1.0 327:2.0 493:2.0 495:2.0 957:2.0 968:2.0 2075:2.0 2076:2.0 2078:2.0 2079:2.0 5687:1.0 5695:1.0 6042:2.0 6043:1.0 
1.035348598187275 1:5.0 2:1.0 8:1.0 11:1.0 265:1.0 327:2.0 493:2.0 495:2.0 957:2.0 968:2.0 2075:2.0 2078:2.0 3699:1.0 3700:1.0 3703:1.0 6044:1.0 6045:2.0 6046:1.0 6047:2.0 6048:2.0 6049:1.0 6050:1.0 
2.668823367833471 1:1.0 2:2.0 8:1.0 11:1.0 98:3.0 99:1.0 115:2.0 116:2.0 265:1.0 6051:2.0 
1.39100056145725 1:5.0 2:2.0 3:2.0 8:1.0 11:1.0 52:1.0 53:2.0 98:1.0 99:1.0 115:1.0 116:1.0 891:2.0 2836:2.0 2857:2.0 6020:1.0 6022:1.0 6024:1.0 6055:2.0 6056:1.0 6057:2.0 
0.7465096793214406 1:16.0 2:2.0 8:1.0 11:1.0 23:1.0 24:9.0 29:1.0 98:1.0 99:1.0 115:1.0 116:1.0 178:1.0 783:1.0 786:1.0 795:1.0 1404:6.0 1405:7.0 1406:3.0 1407:2.0 1411:3.0 1412:3.0 1413:2.0 1414:1.0 1417:1.0 5851:1.0 5860:1.0 5985:1.0 5987:1.0 5988:1.0 6065:1.0 6066:1.0 6067:1.0 6068:1.0 
3.1622776601683795 1:9.0 2:2.0 8:2.0 11:1.0 23:1.0 24:5.0 29:1.0 91:1.0 92:1.0 98:1.0 99:1.0 115:1.0 116:1.0 178:1.0 783:1.0 786:1.0 795:1.0 1036:1.0 1404:1.0 1405:2.0 3185:1.0 3186:1.0 3187:1.0 3195:1.0 3196:1.0 4711:1.0 4716:1.0 4718:1.0 5856:1.0 6073:1.0 6074:1.0 6075:1.0 6076:1.0 6077:1.0 6078:1.0 6079:1.0 6080:1.0 
0.5144215514170862 1:11.0 2:4.0 3:2.0 5:1.0 8:2.0 24:4.0 26:2.0 31:2.0 99:1.0 142:2.0 146:1.0 149:2.0 178:2.0 265:1.0 348:2.0 517:1.0 526:1.0 622:1.0 623:1.0 627:1.0 628:1.0 636:1.0 1030:2.0 1229:1.0 1250:2.0 1937:1.0 2873:1.0 3149:2.0 6081:1.0 6082:1.0 6083:1.0 6084:1.0 6085:1.0 6086:1.0 6087:1.0 6088:1.0 6089:1.0 6090:1.0 6091:1.0 6092:1.0 6093:1.0 
1.0809241968603613 1:8.0 2:1.0 8:2.0 53:4.0 99:1.0 327:2.0 356:2.0 622:1.0 623:1.0 627:1.0 628:1.0 636:1.0 902:2.0 1034:6.0 1038:6.0 1748:1.0 1750:1.0 1751:2.0 1758:1.0 1998:2.0 2006:6.0 6094:2.0 6095:2.0 6096:2.0 6097:2.0 6098:2.0 6099:6.0 
2.0177738016454 1:4.0 2:3.0 5:2.0 8:3.0 18:1.0 21:1.0 25:1.0 51:1.0 53:1.0 65:1.0 99:1.0 327:1.0 570:1.0 622:1.0 623:1.0 625:1.0 627:1.0 628:1.0 635:1.0 636:1.0 902:1.0 1353:1.0 1355:1.0 2299:1.0 2305:1.0 6102:1.0 6108:1.0 6109:1.0 6110:1.0 6111:1.0 6112:1.0 6113:1.0 
0.2856181276126507 1:6.0 2:4.0 3:1.0 8:2.0 27:3.0 99:1.0 146:2.0 248:1.0 327:2.0 348:1.0 454:2.0 585:1.0 622:1.0 623:1.0 627:1.0 628:1.0 636:1.0 991:1.0 1003:1.0 1625:1.0 1628:1.0 1632:1.0 1748:1.0 1758:1.0 2032:1.0 2053:1.0 6114:2.0 6115:1.0 6116:1.0 6117:1.0 6118:1.0 6119:1.0 6120:1.0 
0.8846430426841374 1:6.0 2:4.0 3:1.0 5:1.0 8:2.0 27:2.0 49:1.0 61:1.0 62:1.0 99:1.0 146:1.0 248:1.0 327:2.0 454:1.0 585:1.0 622:1.0 623:1.0 627:1.0 628:1.0 636:1.0 991:1.0 1003:1.0 1748:1.0 1758:1.0 2032:1.0 2053:1.0 4083:1.0 4087:1.0 4088:1.0 6114:1.0 6116:1.0 6117:1.0 6118:1.0 6121:1.0 6122:1.0 6123:1.0 6124:1.0 
0.9919645370680593 1:5.0 2:4.0 8:2.0 27:3.0 99:1.0 146:1.0 248:2.0 327:2.0 454:1.0 585:2.0 622:1.0 623:1.0 627:1.0 628:1.0 636:1.0 991:1.0 1003:1.0 1593:1.0 1610:1.0 1748:1.0 1758:1.0 2032:1.0 2053:1.0 4694:1.0 4697:1.0 6114:1.0 6116:1.0 6117:1.0 6118:1.0 6125:1.0 6126:1.0 
1.350525361259818 1:13.0 2:2.0 3:2.0 5:1.0 8:3.0 18:1.0 21:1.0 24:5.0 52:2.0 99:1.0 175:1.0 177:2.0 178:3.0 183:2.0 184:1.0 266:1.0 327:2.0 622:1.0 623:1.0 627:1.0 628:1.0 636:1.0 1078:2.0 1748:1.0 1758:1.0 2788:1.0 3348:1.0 3352:1.0 3354:2.0 4731:2.0 4735:2.0 5524:2.0 6127:1.0 6128:1.0 6129:2.0 6130:2.0 6131:1.0 6132:1.0 6133:1.0 
0.8779824936207312 1:5.0 2:3.0 5:1.0 8:3.0 25:1.0 27:1.0 51:1.0 65:1.0 99:1.0 248:1.0 327:2.0 493:1.0 495:1.0 585:1.0 622:1.0 623:1.0 625:1.0 627:1.0 628:1.0 635:1.0 636:1.0 957:1.0 968:1.0 1593:1.0 1610:1.0 1796:1.0 2075:1.0 2078:1.0 2299:1.0 2305:1.0 3200:1.0 4694:1.0 4695:1.0 4696:1.0 4697:1.0 5253:1.0 5260:1.0 6134:1.0 6135:1.0 
0.9661621088419547 1:6.0 2:3.0 3:1.0 5:1.0 8:3.0 25:1.0 27:1.0 51:1.0 65:1.0 99:1.0 146:1.0 327:2.0 348:1.0 454:1.0 493:1.0 495:1.0 622:1.0 623:1.0 625:1.0 627:1.0 628:1.0 635:1.0 636:1.0 957:1.0 968:1.0 1625:1.0 1628:1.0 1632:1.0 1796:1.0 2075:1.0 2078:1.0 2299:1.0 2305:1.0 3200:1.0 5253:1.0 5260:1.0 6114:1.0 6120:1.0 6134:1.0 6135:1.0 6145:1.0 6146:1.0 
0.7800662658239779 1:4.0 2:2.0 8:2.0 27:1.0 53:1.0 99:1.0 146:1.0 327:2.0 454:1.0 622:1.0 623:1.0 627:1.0 628:1.0 636:1.0 902:1.0 1748:1.0 1758:1.0 2548:1.0 6114:1.0 6147:1.0 6148:1.0 6149:1.0 6150:1.0 6151:1.0 6152:1.0 6153:1.0 
2.0453385436662153 1:5.0 2:2.0 3:2.0 5:1.0 8:3.0 19:1.0 51:1.0 65:1.0 99:1.0 326:1.0 327:1.0 357:2.0 572:1.0 622:1.0 623:1.0 625:1.0 626:1.0 627:1.0 628:1.0 632:1.0 633:1.0 634:1.0 635:1.0 636:1.0 4882:1.0 4883:1.0 4884:2.0 4885:1.0 6154:1.0 6155:1.0 
1.04854506687032 1:7.0 2:1.0 8:2.0 23:1.0 24:4.0 29:2.0 99:1.0 265:1.0 622:1.0 623:1.0 627:1.0 628:1.0 636:1.0 1034:1.0 1037:1.0 1038:1.0 1049:2.0 1050:1.0 1052:1.0 1070:1.0 1072:1.0 2873:1.0 5475:1.0 5476:1.0 5482:1.0 5483:1.0 5484:1.0 5485:1.0 6156:2.0 6157:2.0 
1.7195300657156656 1:15.0 2:1.0 3:1.0 8:2.0 53:12.0 69:10.0 99:1.0 265:1.0 327:1.0 356:1.0 622:1.0 623:1.0 627:1.0 628:1.0 636:1.0 856:1.0 886:8.0 891:1.0 902:1.0 903:1.0 906:1.0 908:1.0 909:1.0 2873:1.0 3708:1.0 5633:1.0 5639:1.0 5640:1.0 5641:1.0 5642:1.0 
0.8528282472942655 1:11.0 2:1.0 3:1.0 8:2.0 53:8.0 69:6.0 99:1.0 265:1.0 327:1.0 356:1.0 622:1.0 623:1.0 627:1.0 628:1.0 636:1.0 856:1.0 886:4.0 891:1.0 902:1.0 903:1.0 906:1.0 908:1.0 909:1.0 2873:1.0 3708:1.0 5633:1.0 5639:1.0 5640:1.0 5641:1.0 5642:1.0 
0.5985549430682306 1:2.0 2:2.0 5:1.0 8:3.0 19:1.0 51:1.0 65:1.0 99:1.0 265:1.0 572:1.0 622:1.0 623:1.0 626:1.0 627:1.0 628:1.0 633:1.0 634:1.0 636:1.0 2873:1.0 5533:2.0 5539:1.0 5540:1.0 6160:1.0 
0.3871795334101951 1:3.0 2:3.0 5:1.0 8:2.0 99:1.0 142:1.0 248:1.0 327:1.0 517:1.0 526:1.0 622:1.0 623:1.0 627:1.0 628:1.0 636:1.0 3636:1.0 4694:1.0 5768:1.0 6082:1.0 6090:1.0 6161:1.0 6162:1.0 6163:1.0 6164:1.0 6165:1.0 6166:1.0 6167:1.0 
0.033139545620506076 1:4.0 2:2.0 8:4.0 53:1.0 99:2.0 327:2.0 622:2.0 623:2.0 627:2.0 628:2.0 636:2.0 902:2.0 3422:1.0 3762:1.0 6169:2.0 6170:1.0 6171:2.0 6172:1.0 6173:2.0 6174:1.0 6175:2.0 
0.17003250247977134 1:5.0 2:1.0 8:2.0 53:1.0 99:1.0 144:2.0 327:2.0 622:1.0 623:1.0 624:1.0 627:1.0 628:1.0 636:1.0 902:1.0 1748:1.0 1758:1.0 1916:1.0 3452:1.0 6176:1.0 6177:1.0 6178:1.0 6179:1.0 6180:1.0 6181:1.0 6182:1.0 
1.1724445583356962 1:4.0 2:1.0 3:1.0 8:2.0 99:1.0 327:2.0 622:1.0 623:1.0 627:1.0 628:1.0 636:1.0 1034:3.0 1038:3.0 1081:1.0 1748:1.0 1758:1.0 1998:1.0 2006:3.0 4043:1.0 4045:1.0 4746:1.0 4757:3.0 6183:1.0 6184:1.0 6185:1.0 6186:1.0 6187:1.0 
0.31257100219525485 1:6.0 2:3.0 8:2.0 27:2.0 99:1.0 144:1.0 145:1.0 146:1.0 154:1.0 248:1.0 327:2.0 454:1.0 585:1.0 600:1.0 605:1.0 622:1.0 623:1.0 624:1.0 627:1.0 628:1.0 629:1.0 636:1.0 991:1.0 1003:1.0 1748:1.0 1758:1.0 2032:1.0 2053:1.0 3101:1.0 6114:1.0 6116:1.0 6117:1.0 6118:1.0 6190:1.0 
1.4415298962453127 1:8.0 2:3.0 3:2.0 5:1.0 8:2.0 53:3.0 69:1.0 99:1.0 142:1.0 248:1.0 252:1.0 253:1.0 259:1.0 327:1.0 356:1.0 517:1.0 526:1.0 622:1.0 623:1.0 627:1.0 628:1.0 636:1.0 891:1.0 902:1.0 903:1.0 906:1.0 907:1.0 908:1.0 909:1.0 5768:1.0 6082:1.0 6090:1.0 6161:1.0 6167:1.0 6193:1.0 6194:1.0 6195:1.0 6196:1.0 6197:1.0 
1.3546318130498283 1:10.0 2:1.0 8:3.0 24:2.0 52:1.0 53:3.0 68:1.0 69:1.0 91:1.0 92:2.0 99:1.0 175:1.0 177:1.0 327:1.0 356:1.0 622:1.0 623:1.0 627:1.0 628:1.0 636:1.0 902:1.0 2789:1.0 3186:1.0 3187:1.0 5542:1.0 5543:1.0 5544:1.0 5545:1.0 5549:1.0 5635:1.0 5646:1.0 5647:1.0 5648:1.0 5873:1.0 5877:1.0 5880:1.0 6198:1.0 6199:1.0 6200:1.0 6201:1.0 6202:1.0 
0.5469337706777688 1:9.0 2:2.0 5:1.0 8:4.0 24:4.0 25:1.0 44:1.0 51:1.0 65:1.0 90:1.0 91:1.0 94:1.0 99:1.0 178:2.0 265:1.0 622:1.0 623:1.0 627:1.0 628:1.0 636:1.0 685:1.0 1036:1.0 1044:1.0 1064:1.0 2299:1.0 2305:1.0 2873:1.0 5320:1.0 5324:1.0 5325:1.0 5326:1.0 5333:1.0 5334:1.0 5335:1.0 5533:1.0 5538:1.0 5539:1.0 5540:1.0 5882:1.0 6203:1.0 6204:1.0 6205:1.0 6206:1.0 6207:1.0 6208:1.0 6209:1.0 6210:1.0 6211:1.0 
1.3901095014046876 1:6.0 2:3.0 3:2.0 8:2.0 27:2.0 99:1.0 146:2.0 327:2.0 348:2.0 454:2.0 622:1.0 623:1.0 627:1.0 628:1.0 636:1.0 1625:2.0 1628:2.0 1632:2.0 1748:1.0 1758:1.0 6114:2.0 6115:1.0 6119:2.0 6120:2.0 
2.1306133387676107 1:6.0 2:3.0 3:2.0 5:2.0 8:2.0 49:2.0 61:2.0 62:2.0 99:1.0 327:2.0 622:1.0 623:1.0 627:1.0 628:1.0 636:1.0 1748:1.0 1758:1.0 4083:2.0 4087:2.0 4088:2.0 6121:2.0 6123:2.0 6124:2.0 6212:1.0 
0.29738232214528026 1:8.0 2:1.0 3:2.0 8:2.0 53:4.0 99:1.0 327:2.0 356:2.0 622:1.0 623:1.0 627:1.0 628:1.0 636:1.0 891:2.0 902:2.0 903:2.0 909:2.0 1748:1.0 1750:1.0 1751:2.0 1756:2.0 1757:2.0 1758:1.0 
0.5090206649447835 1:4.0 2:3.0 8:2.0 27:2.0 99:1.0 248:2.0 327:2.0 585:2.0 622:1.0 623:1.0 627:1.0 628:1.0 636:1.0 1593:2.0 1610:2.0 1748:1.0 1758:1.0 4694:2.0 4697:2.0 6126:2.0 6219:1.0 
0.31672024577629077 1:2.0 2:1.0 8:2.0 99:1.0 265:2.0 622:1.0 623:1.0 627:2.0 628:1.0 636:1.0 2873:2.0 6220:2.0 6221:2.0 
0.5124174387966428 1:12.0 2:1.0 8:2.0 23:2.0 24:10.0 29:4.0 99:1.0 178:6.0 184:2.0 305:4.0 622:1.0 623:1.0 627:1.0 628:1.0 636:1.0 5475:2.0 6222:1.0 6223:1.0 6224:1.0 6225:2.0 6226:4.0 
0.6875576337165457 1:12.0 2:1.0 8:2.0 23:3.0 24:9.0 25:1.0 28:2.0 29:6.0 99:1.0 178:3.0 184:1.0 305:2.0 3801:1.0 3802:1.0 3803:2.0 3804:2.0 3805:2.0 5473:1.0 5474:1.0 5477:1.0 5478:1.0 5480:2.0 5481:1.0 5486:1.0 5487:1.0 
0.1525507481328167 1:12.0 2:1.0 8:2.0 53:10.0 69:8.0 99:1.0 327:2.0 356:2.0 622:1.0 623:1.0 627:1.0 628:1.0 636:1.0 856:2.0 886:6.0 902:2.0 906:2.0 1748:1.0 1750:1.0 1751:2.0 1758:1.0 
0.7647726733579583 1:7.0 2:1.0 8:2.0 53:5.0 69:3.0 99:1.0 327:2.0 356:2.0 622:1.0 623:1.0 627:1.0 628:1.0 636:1.0 856:2.0 886:1.0 902:2.0 906:2.0 1748:1.0 1750:1.0 1751:2.0 1758:1.0 
1.4911726636325349 1:3.0 2:3.0 5:2.0 8:3.0 18:1.0 21:1.0 25:1.0 51:1.0 65:1.0 99:1.0 327:1.0 570:1.0 622:1.0 623:1.0 625:1.0 627:1.0 628:1.0 635:1.0 636:1.0 2299:1.0 2305:1.0 4733:1.0 4741:1.0 6031:1.0 6035:1.0 6036:1.0 6258:1.0 6259:1.0 6260:1.0 
1.5646793238206376 1:5.0 2:3.0 5:1.0 8:2.0 27:1.0 53:2.0 99:1.0 147:1.0 148:1.0 220:1.0 221:1.0 226:1.0 227:1.0 265:1.0 327:1.0 356:1.0 622:1.0 623:1.0 627:1.0 628:1.0 636:1.0 850:1.0 853:1.0 902:1.0 2873:1.0 5633:1.0 5639:1.0 5640:1.0 5641:1.0 5642:1.0 6270:1.0 6271:1.0 
0.3045482063718166 1:4.0 2:2.0 3:1.0 5:1.0 8:2.0 49:1.0 61:1.0 62:1.0 99:1.0 265:1.0 327:1.0 622:1.0 623:1.0 627:1.0 628:1.0 636:1.0 2873:1.0 4083:1.0 4087:1.0 4088:1.0 5633:1.0 5641:1.0 5642:1.0 6121:1.0 6124:1.0 6278:1.0 6279:1.0 
0.8677741318564559 1:10.0 2:4.0 3:1.0 8:2.0 24:4.0 44:1.0 45:2.0 47:1.0 48:1.0 57:2.0 58:2.0 99:1.0 248:1.0 265:1.0 327:1.0 344:1.0 622:1.0 623:1.0 627:1.0 628:1.0 636:1.0 955:1.0 1768:1.0 1776:1.0 2026:1.0 2873:1.0 3731:1.0 3734:2.0 4694:1.0 5633:1.0 5641:1.0 5642:1.0 5709:2.0 5814:1.0 6274:1.0 6280:1.0 6281:1.0 6282:1.0 6283:2.0 6284:1.0 6285:1.0 6286:2.0 6287:1.0 6288:1.0 6289:1.0 
0.15354916362339302 1:6.0 2:1.0 8:3.0 24:3.0 91:1.0 92:1.0 99:1.0 178:1.0 265:1.0 622:1.0 623:1.0 627:1.0 628:1.0 636:1.0 679:1.0 2873:1.0 3186:1.0 3187:1.0 3750:1.0 3757:1.0 3760:1.0 4419:1.0 5138:1.0 5157:1.0 5158:1.0 5159:1.0 6290:1.0 6291:1.0 6292:1.0 6293:1.0 6294:1.0 
1.2069149516710087 1:7.0 2:1.0 8:2.0 23:1.0 24:5.0 29:2.0 99:1.0 178:3.0 184:1.0 265:1.0 305:2.0 622:1.0 623:1.0 627:1.0 628:1.0 636:1.0 2873:1.0 5475:1.0 5476:1.0 5482:1.0 5483:1.0 5484:1.0 5485:1.0 6226:2.0 
0.14519639396273726 1:4.0 2:2.0 8:2.0 99:1.0 142:1.0 248:2.0 327:2.0 587:1.0 622:1.0 623:1.0 627:1.0 628:1.0 636:1.0 1748:1.0 1758:1.0 3636:2.0 3644:1.0 4694:2.0 6139:2.0 6306:1.0 6307:2.0 
0.8047912157557479 1:9.0 2:1.0 8:3.0 24:2.0 48:1.0 52:1.0 53:2.0 58:1.0 68:1.0 91:1.0 92:2.0 99:1.0 327:1.0 356:1.0 622:1.0 623:1.0 627:1.0 628:1.0 636:1.0 902:1.0 2789:1.0 3186:1.0 3187:1.0 5542:1.0 5549:1.0 5646:1.0 5647:1.0 5648:1.0 5873:1.0 5877:1.0 5880:1.0 6198:1.0 6202:1.0 6308:1.0 6309:1.0 6310:1.0 6311:1.0 6312:1.0 6313:1.0 
0.5381225173873151 1:9.0 2:2.0 8:3.0 11:1.0 24:2.0 48:1.0 52:1.0 53:2.0 58:1.0 68:1.0 92:2.0 99:1.0 327:1.0 356:1.0 622:1.0 623:1.0 627:1.0 628:1.0 636:1.0 902:1.0 3187:1.0 3335:1.0 3337:1.0 3338:1.0 3339:1.0 3346:1.0 5542:1.0 5549:1.0 5873:1.0 5880:1.0 6198:1.0 6309:1.0 6310:1.0 6311:1.0 6312:1.0 6313:1.0 6314:1.0 6315:1.0 6316:1.0 6317:1.0 6318:1.0 6319:1.0 
0.8963641995106127 1:4.0 2:1.0 8:3.0 25:1.0 99:1.0 327:4.0 622:1.0 623:1.0 627:1.0 628:1.0 636:1.0 1627:1.0 1748:1.0 1758:1.0 3761:2.0 4050:2.0 6323:1.0 6324:2.0 6325:2.0 6326:1.0 
0.7355164179141528 1:5.0 2:1.0 8:2.0 53:3.0 69:1.0 99:1.0 327:2.0 356:2.0 622:1.0 623:1.0 627:1.0 628:1.0 636:1.0 902:2.0 1748:1.0 1758:1.0 5207:1.0 5544:2.0 6327:1.0 6328:2.0 
0.3131892264043176 1:4.0 2:1.0 8:2.0 53:2.0 99:1.0 327:2.0 356:2.0 622:1.0 623:1.0 627:1.0 628:1.0 636:1.0 902:2.0 1748:1.0 1758:1.0 6332:1.0 6333:2.0 6334:2.0 
0.7439317794718749 1:6.0 2:1.0 3:3.0 8:2.0 44:2.0 99:1.0 518:2.0 622:1.0 623:1.0 627:1.0 628:1.0 636:1.0 6335:2.0 6336:1.0 6337:2.0 6338:2.0 6339:2.0 6340:1.0 6341:1.0 6342:1.0 6343:2.0 6344:2.0 6345:2.0 6346:1.0 6347:1.0 6348:1.0 6349:1.0 
0.6136695719414582 1:4.0 2:1.0 8:2.0 44:1.0 99:1.0 229:2.0 327:2.0 518:1.0 622:1.0 623:1.0 627:1.0 628:1.0 636:1.0 689:1.0 690:2.0 1748:1.0 1758:1.0 6350:2.0 6351:1.0 6352:2.0 6353:2.0 6354:1.0 
2.0052553215621827 1:7.0 2:1.0 3:1.0 8:1.0 23:1.0 24:4.0 29:1.0 99:1.0 175:1.0 177:1.0 178:2.0 183:1.0 305:1.0 344:1.0 721:1.0 729:1.0 840:1.0 5473:1.0 5477:1.0 5478:1.0 5487:1.0 6355:1.0 6356:1.0 6357:1.0 6358:1.0 6359:1.0 
2.690923009264755 1:7.0 2:2.0 3:1.0 8:1.0 11:1.0 23:1.0 24:4.0 29:1.0 48:1.0 58:1.0 98:1.0 99:1.0 115:1.0 116:1.0 178:2.0 183:1.0 305:1.0 344:1.0 721:1.0 729:1.0 783:1.0 786:1.0 795:1.0 840:1.0 3781:1.0 3784:1.0 6360:1.0 6361:1.0 6362:1.0 
2.8720101107484424 1:7.0 2:2.0 3:1.0 8:1.0 11:1.0 23:1.0 24:4.0 29:2.0 48:1.0 58:2.0 98:1.0 99:1.0 115:1.0 116:1.0 344:1.0 783:1.0 784:1.0 786:1.0 787:1.0 795:1.0 1768:1.0 1776:1.0 2026:1.0 2104:2.0 2105:1.0 6363:2.0 
1.3399028747392454 1:20.0 2:6.0 3:1.0 5:3.0 8:1.0 18:1.0 21:1.0 24:6.0 25:1.0 26:1.0 27:2.0 34:1.0 48:1.0 52:1.0 53:2.0 142:1.0 146:1.0 147:2.0 148:2.0 157:1.0 175:2.0 177:2.0 178:3.0 183:2.0 184:1.0 185:1.0 221:1.0 231:1.0 232:1.0 239:1.0 240:1.0 343:1.0 348:1.0 386:1.0 493:1.0 494:1.0 495:1.0 501:1.0 1004:1.0 1005:1.0 1006:1.0 1013:1.0 1014:1.0 1015:2.0 1491:1.0 1735:1.0 1741:1.0 2155:1.0 2169:1.0 3530:1.0 3533:1.0 5425:1.0 5429:1.0 6377:1.0 6378:1.0 6379:1.0 6380:1.0 6381:1.0 6382:1.0 6383:1.0 6384:1.0 6385:1.0 6386:1.0 6387:1.0 6388:1.0 6389:1.0 6390:1.0 6391:1.0 6392:1.0 6393:1.0 6394:1.0 
0.8945850644923268 1:17.0 2:3.0 3:2.0 8:3.0 24:3.0 26:2.0 31:1.0 44:1.0 45:1.0 48:2.0 91:3.0 92:1.0 142:2.0 229:1.0 267:2.0 274:2.0 275:2.0 292:2.0 344:2.0 675:1.0 913:1.0 921:1.0 1036:2.0 1043:2.0 1044:1.0 2214:1.0 4801:1.0 4892:1.0 4901:1.0 6308:1.0 6413:1.0 6427:1.0 6428:1.0 6429:2.0 6430:1.0 6431:1.0 6432:1.0 6433:1.0 6434:1.0 6435:1.0 6436:1.0 6437:1.0 6438:1.0 6439:2.0 6440:1.0 6441:1.0 6442:1.0 6443:1.0 6444:1.0 6445:1.0 6446:1.0 6447:1.0 6448:1.0 6449:1.0 6450:1.0 6451:1.0 6452:1.0 6453:1.0 6454:1.0 
0.8717820091917532 1:15.0 2:2.0 3:1.0 5:2.0 8:1.0 18:1.0 20:1.0 21:1.0 23:1.0 24:7.0 25:1.0 28:1.0 29:1.0 30:1.0 32:1.0 37:1.0 39:1.0 41:1.0 42:1.0 48:1.0 49:1.0 58:1.0 61:1.0 175:2.0 177:2.0 178:2.0 179:1.0 183:2.0 185:1.0 198:1.0 203:1.0 204:1.0 207:1.0 211:1.0 212:1.0 283:1.0 307:1.0 646:2.0 658:1.0 6508:2.0 6509:1.0 6510:1.0 6511:1.0 6512:1.0 
0.8647689970337187 1:13.0 2:5.0 3:1.0 5:2.0 8:1.0 23:1.0 24:2.0 26:2.0 27:1.0 49:1.0 61:1.0 142:2.0 143:1.0 147:1.0 148:1.0 149:2.0 150:2.0 151:1.0 161:1.0 163:2.0 164:1.0 175:1.0 221:1.0 266:1.0 284:1.0 285:1.0 323:1.0 327:1.0 796:1.0 1081:1.0 1323:1.0 1327:1.0 2031:1.0 2045:1.0 2526:1.0 2542:1.0 2543:1.0 2667:1.0 5829:1.0 5835:1.0 5836:1.0 5846:1.0 5847:1.0 6513:1.0 6514:1.0 6515:1.0 6516:1.0 6517:1.0 6518:1.0 6519:1.0 6520:1.0 6521:1.0 6522:1.0 
0.02952778085096848 1:12.0 2:1.0 8:2.0 19:2.0 23:2.0 24:8.0 26:2.0 29:4.0 31:4.0 142:1.0 648:2.0 804:2.0 809:4.0 810:2.0 913:2.0 944:2.0 2129:1.0 2130:4.0 2131:2.0 2132:1.0 
1.1430233009002964 1:9.0 2:2.0 8:2.0 44:2.0 142:2.0 248:4.0 266:1.0 327:4.0 587:2.0 599:1.0 1592:2.0 1903:1.0 1904:1.0 3636:4.0 3644:2.0 5813:2.0 6535:1.0 6536:1.0 6537:1.0 6538:1.0 6539:1.0 6540:1.0 6541:2.0 6542:1.0 6543:1.0 6544:1.0 6545:2.0 6546:1.0 6547:1.0 6548:2.0 6549:2.0 
1.4473800822130667 1:21.0 2:3.0 3:3.0 5:1.0 27:2.0 49:1.0 53:8.0 61:1.0 268:1.0 282:1.0 323:1.0 326:4.0 445:1.0 484:1.0 490:1.0 860:2.0 864:1.0 889:4.0 961:2.0 1671:1.0 1675:2.0 1681:1.0 1698:1.0 1733:1.0 2984:1.0 3476:1.0 3487:1.0 3951:1.0 3953:1.0 3956:1.0 3957:1.0 4931:1.0 5088:1.0 5092:1.0 5093:1.0 5096:1.0 5097:1.0 6550:1.0 6551:1.0 6552:1.0 6553:1.0 6554:1.0 6555:1.0 6556:1.0 6557:1.0 6558:1.0 6559:1.0 6560:1.0 6561:1.0 6562:1.0 6563:1.0 6564:1.0 6565:1.0 6566:1.0 6567:1.0 
1.3223903612869887 1:7.0 2:1.0 26:1.0 142:1.0 267:1.0 274:1.0 275:1.0 292:1.0 493:5.0 494:5.0 495:5.0 501:5.0 2419:3.0 2429:3.0 4533:1.0 6582:2.0 6583:1.0 6584:2.0 6585:2.0 6586:2.0 6587:1.0 6588:1.0 
1.0706951435772947 1:6.0 2:1.0 26:1.0 27:1.0 34:1.0 493:5.0 494:5.0 495:5.0 501:5.0 2419:3.0 2429:3.0 4533:1.0 6582:2.0 6584:2.0 6586:2.0 6600:1.0 6601:1.0 6602:1.0 6603:2.0 
3.1622776601683795 1:6.0 2:1.0 26:1.0 27:1.0 34:1.0 493:5.0 494:5.0 495:5.0 501:5.0 2419:3.0 2429:3.0 4533:1.0 6582:2.0 6584:2.0 6586:2.0 6600:1.0 6601:1.0 6602:1.0 6603:2.0 
0.5220251883850497 1:19.0 2:7.0 3:3.0 5:3.0 8:1.0 27:1.0 49:1.0 53:2.0 61:1.0 142:3.0 144:1.0 146:2.0 147:2.0 148:2.0 157:1.0 248:1.0 265:1.0 266:1.0 268:2.0 269:1.0 282:1.0 323:1.0 326:1.0 327:2.0 348:1.0 354:1.0 357:1.0 614:1.0 1733:1.0 2281:2.0 2287:2.0 2548:1.0 2552:1.0 2554:1.0 2573:1.0 3069:1.0 3089:1.0 4033:1.0 4361:1.0 4374:1.0 5051:1.0 5687:1.0 5695:1.0 6604:1.0 6605:1.0 6606:1.0 6607:1.0 6608:1.0 6609:1.0 6610:1.0 6611:1.0 6612:1.0 6613:1.0 6614:1.0 6615:1.0 6616:1.0 6617:1.0 6618:1.0 6619:1.0 6620:1.0 6621:1.0 6622:1.0 6623:1.0 6624:1.0 6625:1.0 6626:1.0 6627:1.0 6628:1.0 6629:1.0 6630:1.0 
2.597322645986988 1:10.0 2:2.0 3:2.0 5:1.0 8:1.0 18:1.0 20:1.0 21:1.0 23:1.0 24:4.0 25:1.0 26:1.0 28:1.0 29:2.0 30:1.0 31:2.0 32:1.0 35:1.0 36:2.0 37:1.0 39:1.0 41:1.0 42:1.0 142:1.0 248:1.0 252:1.0 253:1.0 259:1.0 502:1.0 672:1.0 913:1.0 973:1.0 2130:2.0 3991:1.0 
1.4108932571523962 1:11.0 2:1.0 3:1.0 5:1.0 8:2.0 18:1.0 21:1.0 23:1.0 24:5.0 29:2.0 144:1.0 178:3.0 184:1.0 265:1.0 305:2.0 325:1.0 622:2.0 1228:1.0 2873:1.0 5475:1.0 6226:2.0 6631:1.0 6632:1.0 6633:1.0 6634:1.0 6635:1.0 6636:1.0 6637:1.0 6638:1.0 6639:1.0 6640:1.0 6641:1.0 6642:1.0 6643:1.0 6644:1.0 
1.1571291137030262 1:39.0 2:2.0 3:5.0 5:1.0 8:1.0 23:1.0 24:4.0 29:2.0 53:12.0 69:1.0 142:1.0 144:1.0 146:1.0 147:1.0 148:1.0 157:1.0 175:1.0 177:2.0 219:1.0 222:1.0 223:2.0 266:1.0 323:1.0 326:6.0 327:2.0 357:3.0 455:1.0 493:2.0 495:2.0 611:1.0 613:1.0 615:1.0 619:2.0 860:2.0 864:2.0 889:5.0 899:1.0 957:2.0 961:2.0 968:2.0 1006:1.0 1097:1.0 1646:1.0 1647:1.0 1675:3.0 1681:1.0 1686:1.0 1915:1.0 2075:2.0 2076:2.0 2078:2.0 2079:2.0 2080:2.0 2081:1.0 2082:1.0 2083:2.0 2968:1.0 2970:1.0 2972:1.0 2974:1.0 2976:1.0 2977:1.0 2979:1.0 2980:1.0 2983:1.0 2984:1.0 2985:1.0 2992:1.0 2995:1.0 2996:1.0 2997:1.0 3476:1.0 3481:1.0 3487:1.0 3499:2.0 3501:1.0 3502:1.0 3504:1.0 3927:1.0 3948:1.0 5089:1.0 5091:1.0 5095:1.0 6645:1.0 6646:1.0 6647:1.0 6648:1.0 
1.282035364440333 1:20.0 2:4.0 5:1.0 24:12.0 26:2.0 27:2.0 31:4.0 33:2.0 34:2.0 40:2.0 43:2.0 142:1.0 147:1.0 148:1.0 175:4.0 177:6.0 178:2.0 183:2.0 268:1.0 1637:4.0 1735:1.0 1737:1.0 1741:1.0 2280:2.0 2562:1.0 3098:1.0 5313:4.0 6659:1.0 6660:1.0 6661:1.0 6662:1.0 6663:1.0 6664:1.0 6665:1.0 6666:1.0 6667:2.0 
