svm_type epsilon_svr
kernel_type rbf
gamma 2
nr_class 2
total_sv 447
rho -2.43929
SV
2.216586994128631 1:-1 2:-1 3:-1 5:-1 6:-1 7:-1 8:-1 9:-1 10:-1 12:-1 13:-1 14:-1 15:-1 17:-1 19:-1 21:-1 22:-1 24:-1 25:-1 26:-1 27:-1 28:-0.833333 29:-1 30:-1 32:-1 33:-1 35:-1 38:1 39:-1 40:-1 41:-1 42:-1 43:-1 44:-1 45:-1 46:-1 47:-1 48:-1 50:-1 51:-1 52:-1 53:-1 54:-1 55:-1 57:-1 58:-1 59:-1 60:-1 61:-1 64:-1 65:-1 67:-1 69:-1 71:-1 72:-1 73:-1 74:-1 75:-1 76:-1 77:-1 78:-1 81:-1 83:-1 84:-1 85:-1 86:-1 87:-1 88:-1 89:-1 90:-1 91:-1 92:-1 93:-1 96:-1 98:-1 100:-1 101:-1 103:-1 104:-1 105:-1 107:-1 108:-1 109:-1 110:-1 111:-1 112:-1 113:-1 114:-1 116:-1 117:-1 118:-1 119:-1 120:-1 121:-1 123:-1 124:-1 126:-1 127:-1 128:-1 129:-1 130:-1 132:-1 133:-1 134:-1 135:-1 136:-1 137:-1 138:-1 139:-1 140:-1 141:-1 142:-1 143:-1 144:-1 145:-1 146:-1 147:-1 148:-1 151:-1 152:-1 153:-1 154:-1 155:-1 156:-1 157:-1 158:-1 159:-1 161:-1 162:-1 163:-1 164:-1 165:-1 167:-1 168:-1 169:-1 170:-1 171:-1 173:-1 174:-1 175:-1 176:-1 177:-1 178:-1 179:-1 180:-1 181:-1 182:-1 183:-1 184:-1 185:-1 186:-1 187:-1 188:-1 189:-1 190:-1 191:-1 192:-1 193:-1 194:-1 195:-1 196:-1 197:-1 198:-1 199:-1 200:-1 201:-1 203:-1 204:-1 205:-1 206:-1 207:-1 208:-1 209:-1 210:-1 211:-1 213:-1 214:-0.846154 215:-1 216:-1 217:-1 218:-1 219:-1 220:-1 222:-1 223:-1 224:-1 227:-1 228:-1 229:-1 230:-1 231:-1 232:-1 233:-1 234:-1 236:-1 239:-1 240:-1 241:-1 242:-1 243:-1 244:-1 245:-1 246:-1 247:-1 250:-1 251:-1 252:-1 
-241.3968861838508 1:-1 2:-1 3:-1 5:-1 6:-1 7:-1 8:-1 9:-1 10:-1 12:-1 13:-1 14:-1 15:-1 17:-1 19:-1 21:-1 22:-1 24:-1 25:-1 26:-1 27:-1 28:-0.833333 29:-1 30:-1 32:-1 33:-1 35:-1 38:-1 39:-1 40:-1 41:-1 42:-1 43:-1 44:-1 45:-1 46:-1 47:-1 48:-1 50:-1 51:-1 52:-1 53:-1 54:-1 55:-1 57:-1 58:-1 59:-1 60:-1 61:-1 64:-1 65:-1 67:-1 69:-1 71:-0.8 72:-1 73:-1 74:-1 75:-1 76:-1 77:-1 78:-1 81:-1 83:-1 84:-1 85:-1 86:-1 87:-1 88:-1 89:-1 90:-1 91:-1 92:-1 93:-1 96:-1 98:-1 100:-1 101:-1 103:-1 104:-1 105:-1 107:-1 108:-1 109:-1 110:-1 111:-1 112:-1 113:-1 114:-1 116:-1 117:-1 118:-1 119:-1 120:-1 121:-1 123:-1 124:-1 126:-1 127:-1 128:-1 129:-1 130:-1 132:-1 133:-1 134:-1 135:-1 136:-1 137:-1 138:-1 139:-1 140:-1 141:-1 142:-1 143:-1 144:-1 145:-1 146:-1 147:-1 148:-1 151:-1 152:-1 153:-1 154:-1 155:-1 156:-1 157:-1 158:-1 159:-1 161:-1 162:-1 163:-1 164:-1 165:-1 167:-1 168:-1 169:-1 170:-1 171:-1 173:-1 174:-1 175:-0.5 176:-1 177:-1 178:-1 179:-1 180:-1 181:-1 182:-1 183:-1 184:-1 185:-1 186:-1 187:-1 188:-1 189:-1 190:-1 191:-1 192:-1 193:-1 194:-1 195:-1 196:-1 197:-1 198:-1 199:-1 200:-1 201:-1 203:-1 204:-1 205:-1 206:-1 207:-1 208:-1 209:-1 210:-1 211:-1 213:-1 214:-0.846154 215:-1 216:-1 217:-1 218:-1 219:-1 220:-1 222:-1 223:-1 224:-1 227:-1 228:-1 229:-1 230:-1 231:-1 232:-1 233:-1 234:-1 236:-1 239:-1 240:-1 241:-1 242:-1 243:-1 244:-1 245:-1 246:-1 247:-1 250:-1 251:-1 252:-1 
-13.3745835550727 1:-1 2:-1 3:-1 5:-1 6:-1 7:-1 8:-1 9:-1 10:-1 12:-1 13:-1 14:-1 15:-1 17:-1 19:-1 21:-1 22:-1 24:-1 25:-1 26:-1 27:-1 28:-0.833333 29:-1 30:-1 32:-1 33:-1 35:-1 38:-1 39:-1 40:-1 41:-1 42:-1 43:-1 44:-1 45:-1 46:-1 47:-1 48:-1 50:-1 51:-1 52:-1 53:-1 54:-1 55:-1 57:-1 58:-1 59:-1 60:-1 61:-1 64:-1 65:-1 67:-1 69:-1 71:-0.8 72:-1 73:-1 74:-1 75:-1 76:-1 77:-1 78:-1 81:-1 83:-1 84:-1 85:-1 86:-1 87:-1 88:-1 89:-1 90:-1 91:-1 92:-1 93:-1 96:-1 98:-1 100:-1 101:-1 103:-1 104:-1 105:-1 107:-1 108:-1 109:-1 110:-1 111:-1 112:-1 113:-1 114:-1 116:-1 117:-1 118:-1 119:-1 120:-1 121:-1 123:-1 124:-1 126:-1 127:-1 128:-1 129:-1 130:-1 132:-1 133:-1 134:-1 135:-1 136:-0.333333 137:-1 138:-1 139:-1 140:-0.5 141:-0.714286 142:-1 143:-1 144:-1 145:-1 146:-1 147:-1 148:-1 151:-1 152:-1 153:-1 154:-1 155:-1 156:-1 157:-1 158:-1 159:-1 161:-1 162:-1 163:-1 164:-1 165:-1 167:-1 168:-1 169:-1 170:-1 171:-1 173:-1 174:-1 175:-1 176:-1 177:-1 178:-1 179:-1 180:-0.5 181:-1 182:-1 183:-1 184:-1 185:-1 186:-1 187:-1 188:-1 189:-1 190:-1 191:-1 192:-1 193:-1 194:-1 195:-1 196:-1 197:-1 198:-1 199:-1 200:-1 201:-1 203:-1 204:-1 205:-1 206:-1 207:-1 208:-1 209:-1 210:-1 211:-1 213:-1 214:-0.846154 215:-1 216:-1 217:-1 218:-0.714286 219:-1 220:-1 222:-1 223:-1 224:-1 227:-1 228:-1 229:-1 230:-1 231:-1 232:-1 233:-1 234:-1 236:-1 239:-1 240:-1 241:-1 242:-1 243:-1 244:-1 245:-1 246:-1 247:-1 250:-1 251:-1 252:-1 
-2.316593802669767 1:-1 2:-1 3:-1 5:-1 6:-1 7:-1 8:-1 9:-1 10:-1 12:-1 13:-1 14:-1 15:-1 17:-1 19:-1 21:-1 22:-1 24:-1 25:-1 26:-1 27:-1 28:-0.666667 29:-1 30:-1 32:-1 33:-1 35:-1 38:-1 39:-1 40:-1 42:-1 43:-1 44:-1 45:-1 46:-1 47:-1 48:-1 50:-1 51:-1 52:-1 53:-1 54:-1 55:-1 57:-1 58:-1 59:-1 60:-1 61:-1 64:-1 65:-1 67:-1 69:-1 71:-1 72:-1 73:-1 74:-1 75:-1 76:-1 77:-1 78:-1 81:-1 83:-1 84:-1 85:-1 87:-1 88:-1 89:-1 90:-1 91:-1 92:-1 93:-1 96:-1 98:-1 100:-1 101:-1 103:-1 104:-1 105:-1 107:-1 108:-1 109:-1 110:-1 111:-1 112:-1 113:-1 114:-1 116:-1 117:-1 118:-1 119:1 120:-1 121:-1 123:-1 124:-1 126:-1 127:-1 128:-1 129:1 130:-1 132:-1 133:1 134:-1 135:-1 136:-0.666667 137:-1 138:-1 139:-1 140:-1 141:-1 142:-1 143:-1 144:-1 145:-1 146:-1 148:-1 151:-1 152:-1 153:-1 154:-1 155:-1 156:-1 157:-1 158:-1 159:-1 161:-1 162:-1 163:-1 164:-1 165:-1 167:-1 168:-1 169:-1 170:1 171:-1 173:-1 174:-1 175:-1 176:-1 177:-1 178:-1 179:-1 180:-1 181:-1 182:-1 183:-1 184:-1 185:-1 186:-1 187:-1 189:-1 190:-0.5 191:-1 192:-1 193:-1 194:-1 195:-1 196:-1 197:-1 198:-1 199:-1 200:-1 201:-1 203:-1 204:-0.333333 205:-1 206:-1 207:-1 208:-1 209:-1 210:-1 211:-1 213:-1 214:-1 215:-0.5 216:-1 217:-1 218:-1 219:-1 220:-1 222:-1 223:-1 224:-0.5 228:-1 229:-1 230:-1 231:-1 232:-1 233:-1 234:-1 236:-1 239:-1 240:-1 241:-1 242:-1 243:-1 244:-1 245:-1 246:-1 247:-1 250:-1 251:1 252:-1 
-20.21948059352599 1:-1 2:-1 3:-1 5:-1 6:-1 7:-1 8:-1 9:-1 10:-1 12:-1 13:-1 14:-1 15:-1 17:-1 19:-1 21:-1 22:-1 24:-1 25:-1 26:-1 27:-1 28:-0.666667 29:-1 30:-1 32:-1 33:-1 35:-1 38:-1 39:-1 40:-1 42:-1 43:-1 44:-1 45:-1 46:-1 47:-1 48:-1 50:-1 51:-1 52:-1 53:-1 54:-1 55:-1 57:-1 58:-1 59:-1 60:-1 61:-1 64:-1 65:-1 67:-1 69:-1 71:-1 72:-1 73:-1 74:-1 75:-1 76:-1 77:-1 78:-1 81:-1 83:-1 84:-1 85:-1 86:-1 87:-1 88:-1 89:-1 90:-1 91:-1 92:-1 93:-1 96:-1 98:-1 100:-1 101:-1 103:-1 104:-1 105:-1 107:-1 108:-1 109:-1 110:-1 111:-1 112:-1 113:-1 114:-1 116:-1 117:-1 118:-1 119:-1 120:-1 121:-1 123:-1 124:-1 126:-1 127:-1 128:-1 129:-1 130:-1 132:-1 133:-1 134:-1 135:-1 136:-1 137:-1 138:-1 139:-1 140:-1 141:-1 142:-1 143:-1 144:-1 145:-1 146:-1 147:-1 148:-1 151:-1 152:-1 153:-1 154:-1 155:-1 156:-1 157:-1 158:-1 159:-1 161:-1 162:-1 163:-1 164:-1 165:-1 167:-1 168:-1 169:-1 170:-1 173:-1 174:-1 175:-1 176:-1 177:-1 178:-1 179:-1 180:-1 181:-1 182:-1 183:-1 184:-1 185:-1 186:-1 187:-1 188:-1 189:-1 190:-1 191:-1 192:-1 193:-1 194:-1 195:-1 196:-1 197:-1 198:-1 199:-1 200:-1 201:-1 203:-1 204:-1 205:-1 206:-1 207:-1 208:-1 209:-1 210:-1 211:-1 213:-1 214:-1 215:-1 216:-1 217:-1 218:-1 219:-1 220:-1 222:-1 223:-1 224:-0.5 227:-1 228:-1 229:-1 230:-1 231:-1 232:-1 233:-1 234:-1 236:-1 239:-1 240:-1 241:-1 242:-1 243:-1 244:-1 245:-1 246:-1 247:-1 250:-1 251:-1 252:-1 
-2.114248394896569 1:-1 2:-1 3:-1 6:-1 7:-1 8:-1 9:-1 10:-1 12:-1 13:-1 14:-1 15:-1 17:-1 19:-1 21:-1 22:-1 24:-1 25:-1 26:-1 27:-1 28:-0.833333 29:-0.666667 30:-1 32:-1 33:-1 35:-1 38:-1 39:-1 40:-1 41:-1 42:-1 43:-1 44:-1 45:-1 46:-1 47:-1 48:-1 50:-1 51:-1 52:-1 53:-1 54:-0.6 55:-1 57:-1 58:-1 59:-1 60:-1 61:-1 64:-1 65:-1 67:-1 69:-1 71:-1 72:-1 73:-1 74:-1 75:-1 76:-1 77:-0.666667 78:-1 81:-1 83:-1 84:-1 85:-1 86:-1 87:-1 88:-1 89:-1 90:-1 91:-1 92:-1 93:-1 96:-1 98:-1 100:-1 101:-1 103:-1 104:-1 105:-1 107:-1 108:-1 109:-1 110:-1 111:-1 112:-1 113:-1 114:-1 116:-1 117:-1 118:-1 119:-1 120:-1 121:1 123:-1 124:-1 126:-1 127:-1 128:-1 129:-1 130:-1 132:-1 133:-1 134:-1 135:-1 136:-0.5 137:-0.333333 138:-1 139:-1 140:-1 141:-0.428571 142:-1 143:-1 144:-1 145:-1 146:-1 147:-1 148:-1 151:-1 152:-1 153:-1 154:-1 155:-1 156:-1 157:-1 158:-1 159:-1 161:-1 162:-1 163:-1 164:-1 165:-1 167:-1 168:-1 169:-1 170:-1 171:-1 173:-1 174:-1 175:-1 176:-1 177:-1 178:-1 179:-1 180:-1 181:-1 182:-1 183:-1 184:-1 185:-1 186:-1 187:-1 188:-1 189:-1 190:-1 191:-1 192:-1 193:-1 194:-1 195:-1 196:-1 197:-1 198:-1 199:-1 200:-1 201:-1 203:-1 204:-1 205:-1 206:-1 207:-1 208:-1 209:-1 210:-1 211:-1 213:-1 214:-0.846154 215:-1 216:-1 217:-1 218:-1 219:-0.142857 220:-1 222:-1 223:-1 224:-1 227:-1 228:-1 229:-1 230:-1 231:-1 232:-1 233:-1 234:-1 236:-1 239:-1 240:-1 241:-1 242:-1 243:-1 244:-1 245:-1 246:-1 247:-1 250:-1 251:-1 252:-1 
-2.660284363955089 1:-1 2:-1 3:-1 5:-1 6:-1 7:-1 8:-1 9:-1 10:-1 12:-1 13:-1 14:-1 15:-1 17:-1 19:-1 21:-1 22:-1 24:-1 25:-1 26:-1 27:-1 28:-0.833333 29:-1 30:-1 32:-1 33:-1 35:-1 38:-1 39:-1 40:-1 41:-1 42:-1 43:-1 44:-1 45:-1 46:-1 47:-1 48:-1 50:-1 51:-1 52:-1 53:-1 54:-1 55:-1 57:-1 58:-1 59:-1 60:-1 61:-1 64:-1 65:-1 67:-1 69:-1 71:-0.8 72:-1 73:-1 74:-1 75:-1 76:-1 77:-1 78:-1 81:-1 83:-1 84:-0.5 85:-1 86:-1 87:-1 88:-1 89:-1 90:-1 91:-1 92:-1 93:-1 96:-1 98:-1 100:-1 101:-1 103:-1 104:-1 105:-1 107:-1 108:-1 109:-1 110:-1 111:-1 112:-1 113:-1 114:-1 116:-1 117:-1 118:-1 119:-1 120:-1 121:-1 123:-1 124:-1 126:-1 127:-1 128:-1 129:-1 130:-1 132:-1 133:-1 134:-1 135:-1 136:0.5 137:-0.333333 138:-1 139:-1 140:-0.5 141:-1 142:-1 143:-1 144:-1 145:-1 146:-1 147:-1 148:-1 151:-1 152:-1 153:-1 154:-1 155:-1 156:-1 157:-1 158:-1 159:-1 161:-1 162:-1 163:-1 164:-1 165:-1 167:-1 168:-1 169:-1 170:-1 171:-1 173:-1 174:-1 175:-1 176:-1 177:-1 178:-1 179:-1 180:-0.5 181:-1 182:-1 183:-1 184:-1 185:-1 186:-1 187:-1 188:-1 189:-1 190:-1 191:-1 192:-1 193:-1 194:-1 195:-1 196:-1 197:-1 198:-1 199:-1 200:-1 201:-1 203:-1 204:-1 205:-1 206:-1 207:-1 208:-1 209:-1 210:-1 211:-1 213:-1 214:-0.846154 215:-1 216:-1 217:-1 218:-1 219:-1 220:-1 222:-1 223:-1 224:-1 227:-1 228:-1 229:-1 230:-1 231:-1 232:-1 233:-1 234:-1 236:-1 239:-1 240:-1 241:-1 242:-1 243:-1 244:-1 245:-1 246:-1 247:-1 250:-1 251:-1 252:-1 
-1.408838613641995 1:-1 2:-1 3:-1 5:-1 6:-1 7:-1 8:-1 9:-1 10:-1 12:-1 13:-1 14:-1 15:-1 17:-1 19:-1 21:-1 22:-1 24:-1 25:-1 26:-1 27:-1 28:-0.833333 29:-1 30:-1 32:-1 33:-1 35:-1 38:-1 39:-0.888889 40:-1 41:-1 42:-1 43:-1 44:-1 45:-1 46:-1 47:-1 48:-1 50:-1 51:-1 52:-1 53:-1 54:-1 55:-1 57:-1 58:-1 59:-1 60:-1 61:-1 64:-1 65:-1 67:-1 69:-1 71:-0.8 72:-1 73:-1 74:-1 75:-1 76:-1 77:-1 78:-1 81:-1 83:-1 85:-1 86:-1 87:-1 88:-1 89:-1 90:-1 91:-1 92:-1 93:-1 96:-1 98:-1 100:-1 101:-1 103:-1 104:-1 105:-1 107:-1 108:-1 109:-1 110:-1 111:-1 112:-1 113:-1 114:-1 116:-1 117:-1 118:-1 119:-1 120:-1 121:-1 123:-1 124:-1 126:-0.333333 127:-1 128:-1 129:-1 130:-1 132:-1 133:-1 134:-1 135:-1 136:0.166667 137:-0.333333 138:-1 139:-1 140:-0.5 141:-1 142:-1 143:-1 144:-1 145:-1 146:-1 147:-1 148:-1 151:-1 152:-1 153:-1 154:-1 155:-1 156:-1 157:-1 158:-1 159:-1 161:-1 162:-1 163:-1 164:-1 165:-1 167:-1 168:-1 169:-1 170:-1 171:-1 173:-1 174:-1 175:-1 176:-1 177:-1 178:-1 179:-1 180:-0.5 181:-1 182:-1 183:-1 184:-1 185:-1 186:-1 187:-1 188:-1 189:-1 190:-1 191:-1 192:-1 193:-1 194:-1 195:-1 196:-1 197:-1 198:-1 199:-1 200:-1 201:-1 203:-1 204:-1 205:-1 206:-1 207:-1 208:-1 209:-1 210:-1 211:-1 213:-1 214:-0.846154 215:-1 216:-1 217:-1 218:-1 219:-1 220:-1 222:-1 223:-1 224:-1 227:-1 228:-1 229:-1 230:-1 231:-1 232:-1 233:-1 234:-1 236:-1 239:-1 240:-1 241:-1 242:-1 243:-1 244:-1 245:-1 246:-1 247:-1 250:-1 251:-1 252:-1 
-2.332748984243068 1:-1 2:-1 3:-1 5:-1 6:-1 7:-1 8:-1 9:-1 10:-1 12:-1 13:-1 14:-1 15:-1 17:-1 19:-1 21:-1 22:-1 24:-1 25:-1 26:-1 27:-1 28:-0.666667 29:-0.333333 30:-1 32:-1 33:-1 35:-1 38:-1 39:-1 40:-1 41:-1 43:-1 44:-1 45:-1 46:-1 47:-1 50:-1 51:-1 52:-1 53:-1 54:-1 55:-1 57:-1 58:-1 59:-1 60:-1 61:-1 64:-1 65:-1 67:-1 69:-1 71:-1 72:-1 73:-1 74:-1 75:-1 76:-1 77:-1 78:-1 81:-1 83:-1 84:-0.5 85:-1 86:-1 87:-1 88:-1 89:-1 90:-1 91:-1 92:-1 93:-1 96:-1 98:-1 100:-1 101:-1 103:-1 104:-0.666667 105:-1 107:-1 108:-1 109:-1 110:-1 111:-1 112:-1 113:-1 114:-1 116:-1 117:-1 118:-1 119:-1 120:-0.666667 121:-1 123:-1 124:-1 126:-1 127:-1 128:-1 129:-1 130:-1 132:-1 133:-1 134:-1 135:-1 136:-0.166667 137:0.333333 138:-1 139:-1 141:-0.428571 142:-1 143:-1 144:-1 145:-1 146:-1 147:-1 148:-1 151:-1 152:-1 153:-1 154:-1 155:-1 156:-1 157:-1 158:-1 159:-1 161:-1 162:-1 163:-1 164:-1 165:-1 167:-1 168:-1 169:-1 170:-1 171:-1 173:-1 174:-1 175:-1 176:-1 177:-1 178:-1 179:-1 180:-1 181:-0.666667 182:-1 183:-1 184:-1 185:-1 186:-1 187:-1 188:-1 189:-1 190:-1 191:-1 192:-1 193:-1 194:-1 195:-1 196:-1 197:-1 198:-1 199:-1 200:-1 201:-1 203:-1 204:-1 205:-1 206:-1 207:-1 208:-1 209:-1 210:-1 211:-1 213:-1 214:-0.846154 215:-1 216:-1 217:-1 218:-1 219:-0.428571 220:-1 222:-1 223:-1 224:-1 227:-1 228:-1 229:-1 230:-1 231:-1 232:-1 233:-1 234:-1 236:-1 239:-1 240:-1 241:-1 242:-1 243:-1 244:-1 245:-1 246:-1 247:-1 250:-1 251:-1 252:-1 
-10.27211569167627 1:-1 2:-1 3:-1 6:-1 7:-1 8:-1 9:-1 10:-1 12:-1 13:-1 14:-1 15:-1 17:-1 19:-1 21:-1 22:-1 24:-1 25:-1 26:-1 27:-1 28:-1 29:-0.666667 30:-1 32:-1 33:-1 35:-1 38:-1 39:-1 40:-1 41:-1 42:-1 43:-1 44:-1 45:-1 46:-1 47:-1 48:-1 50:-1 51:-1 52:-1 53:-1 54:-1 55:-1 57:-1 58:-1 59:-1 60:-1 61:-1 64:-1 65:-1 67:-1 69:-1 71:-0.8 72:-1 73:-1 74:-1 75:-1 76:-1 77:-1 78:-1 81:-1 83:-1 84:-1 85:-1 86:-1 87:-1 88:-1 89:-1 90:-1 91:-1 92:-1 93:-1 96:-1 98:-1 100:-1 101:-1 103:-1 104:-1 105:-1 107:-1 108:-1 109:-1 110:-1 111:-1 112:-1 113:-1 114:-1 116:-1 117:-1 118:-1 119:-1 120:-1 121:-1 123:-1 124:-1 126:-1 127:-1 128:-1 129:-1 130:-1 132:-1 133:-1 134:-1 135:-1 136:-1 137:-1 138:-1 139:-1 140:-1 141:-1 142:-1 143:-1 144:-1 145:-1 146:-1 147:-1 148:-1 151:-1 152:-1 153:-1 154:-1 155:-1 156:-1 157:-1 158:-1 159:-1 161:-1 162:-1 163:-1 164:-1 165:-1 167:-1 168:-1 169:-1 170:-1 171:-1 173:-1 174:-1 175:-0.5 176:-1 177:-1 178:-1 179:-1 180:-1 181:-1 182:-1 183:-1 184:-1 185:-1 186:-1 187:-1 188:-1 189:-1 190:-1 191:-1 192:-1 193:-1 194:-1 195:-1 196:-1 197:-1 198:-1 199:-1 200:-1 201:-1 203:-1 204:-1 205:-1 206:-1 207:-1 208:-1 209:-1 210:-1 211:-1 213:-1 214:-0.846154 215:-1 216:-1 217:-1 218:-1 219:-1 220:-1 222:-1 223:-1 224:-1 227:-1 228:-1 229:-1 230:-1 231:-1 232:-1 233:-1 234:-1 236:-1 239:-1 240:-1 241:-1 242:-1 243:-1 244:-1 245:-1 246:-1 247:-1 250:-1 251:-1 252:-1 
-2.292940752811809 1:-1 2:-1 3:-1 6:-1 7:-1 8:-1 9:-1 10:-1 12:-1 13:-1 14:-1 15:-1 17:-1 19:-1 21:-1 22:-1 24:-1 25:-1 26:-1 28:-1 29:-0.666667 30:-1 32:-1 33:-1 35:-1 38:-1 39:-1 40:-1 41:-1 42:-1 43:-1 44:-1 45:-1 46:-1 47:-1 48:-1 50:-1 51:-1 52:-1 53:-1 54:-1 55:-1 57:-1 58:-1 59:-1 60:-1 61:-1 64:-1 65:-1 67:-1 69:-1 71:-1 72:-1 73:-1 74:-1 75:-1 76:-1 77:-1 78:-1 81:-1 83:-1 84:-1 85:-1 86:-1 87:-1 88:-1 89:-1 90:-1 91:-1 92:-1 93:-1 96:-1 98:-1 100:-1 101:-1 103:-1 104:-1 105:-1 107:-1 108:-1 109:-1 110:-1 111:-1 112:-1 113:-1 114:-1 116:-1 117:-1 118:-1 119:-1 120:-1 121:-1 123:-1 124:-1 126:-1 127:-1 128:-1 129:-1 130:-1 132:-1 133:-1 134:-1 135:-1 136:-1 137:-1 138:-1 139:-1 140:-1 141:-1 142:-1 143:-1 144:-1 145:-1 146:-1 147:-1 148:-1 151:-1 152:-1 153:-1 154:-1 155:-1 156:-1 157:-1 158:-1 159:-1 161:-1 162:-1 163:-1 164:-1 165:-1 168:-1 169:-1 170:-1 171:-1 173:-1 174:-1 175:-1 176:-1 177:-1 178:-1 179:-1 180:-1 181:-1 182:-1 183:-1 184:-1 185:-1 186:-1 187:-1 188:-1 189:-1 190:-1 191:-1 192:-1 193:-1 194:-1 195:-1 196:-1 197:-1 198:-1 199:-1 200:-1 201:-1 203:-1 204:-1 205:-1 206:-1 207:-1 208:-1 209:-1 210:-1 211:-1 213:-1 214:-1 215:-1 216:-1 217:-1 218:-1 219:-1 220:-1 222:-1 223:-1 224:-1 227:-1 228:-1 229:-1 230:-1 231:-1 232:-1 233:-1 234:-1 236:-1 239:-1 240:-1 241:-1 242:-1 243:-1 244:-1 245:-1 246:-1 247:-1 250:-1 251:-1 252:-1 
-2.339222638710688 1:-1 2:-1 3:-1 5:-1 6:-1 7:-1 8:-1 9:-1 10:-1 12:-1 13:-1 14:-1 15:-1 17:-1 19:-1 21:-1 22:-1 24:-1 25:-1 26:-1 27:-1 28:1 29:-1 30:-1 32:-0.333333 35:-1 38:-1 39:-0.555556 43:0.333333 44:-1 45:-1 46:-1 47:-1 48:-1 50:-1 51:-1 52:1 53:-1 54:-0.2 55:-1 57:-1 58:-1 59:-1 60:-1 61:-1 64:-1 65:-1 67:-1 69:0.333333 71:1 72:-1 73:-1 74:-1 75:-1 76:-1 77:-0.333333 78:-1 81:-1 83:-1 84:-1 85:-1 86:-1 87:-1 88:-1 89:-1 90:-1 91:-1 92:-1 93:-1 96:-1 98:-1 100:-1 101:-1 103:-1 104:0.333333 105:-1 107:-1 108:-1 109:-1 110:-1 111:-1 112:-1 113:-1 114:-1 116:-1 117:-1 118:-1 119:-1 120:-1 121:-1 123:-1 124:-1 126:-0.333333 127:-1 128:-1 129:-1 130:-1 132:-1 133:-1 134:-1 135:-1 136:-0.666667 137:-0.333333 138:-1 139:-1 140:-0.5 141:-0.714286 142:-1 143:-1 144:-1 145:-1 146:-1 147:-1 148:-1 151:-1 152:-1 153:-1 154:-1 155:-1 156:-1 157:-1 158:-1 159:-1 161:-1 162:-1 163:-1 164:-1 165:-1 167:-1 168:-1 169:-1 170:-1 171:-1 173:-1 174:-1 175:-0.5 177:-1 178:-1 179:-1 180:1 181:1 182:-1 183:-1 184:-1 185:-1 186:-1 187:-1 188:-1 189:-1 190:-1 191:-1 192:-1 193:-1 194:-1 195:-1 196:-1 197:-1 198:-1 199:-1 200:-1 201:-1 203:-1 204:-1 205:-1 206:-1 207:-1 208:-1 209:-1 210:-1 211:-1 213:-1 214:1 215:-1 216:-1 217:-1 218:-1 219:-0.142857 220:-1 222:-1 223:-1 224:-1 227:-1 228:-1 229:-1 230:-1 231:-1 232:-1 233:-1 234:-1 236:-1 239:-1 240:-1 241:-1 242:-1 243:-1 244:-1 245:-1 246:-1 247:-1 250:-1 251:-1 252:-1 
-2.221264521459902 1:-1 2:-1 3:-1 5:-1 6:-1 7:-1 8:-1 9:-1 10:-1 12:-1 13:-1 14:-1 15:-1 17:-1 19:-1 21:-1 22:-1 24:-1 25:-1 26:-1 27:-1 28:-1 29:-0.666667 30:-1 32:-1 33:-1 35:-1 38:-1 39:-1 40:-0.5 41:-1 42:-1 43:-1 44:-1 45:-1 46:-1 47:-1 48:-1 50:-1 51:-1 52:-1 53:-1 54:-1 55:-1 57:-1 58:-1 59:-1 60:-1 61:-1 64:-1 65:-1 67:-1 69:-1 71:-0.8 72:-1 73:-1 74:-1 75:-1 76:-1 77:-1 78:-1 81:-1 83:-1 84:-1 85:-1 86:1 87:-1 88:-1 89:-1 90:-1 91:-1 92:-1 93:-1 96:-1 98:-1 100:-1 101:-1 103:-1 104:-1 105:-1 107:-1 108:-1 109:-1 110:-1 111:-1 112:-1 113:-1 114:-1 116:-1 117:-1 118:-1 119:-1 120:-1 121:-1 123:-1 124:-1 126:-1 127:-1 128:-1 129:-1 130:-1 132:-1 133:1 134:-1 135:-1 136:-0.333333 137:-1 138:-1 139:-1 140:-1 141:-1 142:-1 143:-1 144:-1 145:-1 146:-1 147:-1 148:-1 151:-1 153:-1 154:-1 155:-1 156:-1 157:-1 158:-1 159:-1 161:-1 162:-1 163:-1 164:-1 165:-1 167:-1 168:-1 169:-1 170:-1 171:-1 173:-1 174:-1 175:-0.5 176:-1 177:-1 178:-1 179:-1 180:-1 181:-1 182:-1 183:-1 184:-1 185:-1 186:-1 187:-1 188:-1 189:-1 190:-0.5 191:-1 192:-1 193:-1 194:-1 195:-1 196:-1 197:-1 198:-1 199:-1 200:-1 201:-1 203:-1 204:-1 205:-1 206:-1 207:-1 208:-1 209:-1 210:-1 211:-1 213:-1 214:-0.846154 215:-0.5 216:-1 217:-1 218:-1 219:-1 220:-1 222:-1 223:-1 224:-0.5 227:1 228:-1 229:-1 230:-1 231:-1 232:-1 233:-1 234:-1 236:-1 239:-1 240:-1 241:-1 242:-1 243:-1 244:-1 245:-1 246:-1 247:-1 250:-1 251:-1 252:-1 
-2.166824566243885 1:-1 2:-1 3:-1 5:-1 6:-1 7:-1 8:-1 9:-1 10:-1 12:1 13:-1 14:-1 15:-1 17:-1 19:-1 21:-1 22:-1 24:-1 25:-1 26:-1 27:-1 28:-1 29:-0.666667 30:-1 32:-1 33:-1 35:-1 38:-1 39:-0.777778 41:-1 42:-1 43:-0.666667 44:-1 45:-1 46:-1 47:-1 48:-1 50:-1 51:-1 52:-1 53:-1 54:-0.6 55:-1 57:-1 58:-1 59:-1 60:-1 61:-1 64:-1 65:-1 67:-1 69:-1 71:-1 72:-1 73:-1 74:-1 75:-1 76:-1 77:-0.666667 81:-1 83:-1 84:-1 85:-1 86:-1 87:-1 88:-1 89:-1 90:-1 91:-1 92:-1 93:-1 96:-1 98:-1 100:-1 101:-1 103:-1 104:-1 105:-1 107:-1 108:-1 109:-1 110:-1 111:-1 112:-1 113:-1 114:-1 116:-1 117:-1 118:-1 119:-1 120:-0.666667 121:-1 123:-1 124:-1 126:-0.333333 127:-1 128:-1 129:-1 130:-1 132:-1 133:-1 134:-1 135:-1 136:-0.833333 137:-0.333333 138:-1 139:-1 140:-1 141:-0.142857 142:-1 143:-1 144:-1 145:-1 146:-1 147:-1 148:-1 151:-1 152:-1 153:-1 154:-1 155:-1 156:-1 157:-1 158:-1 159:-1 161:-1 162:-1 163:-1 164:-1 165:-1 167:-1 168:-1 169:-1 170:-1 171:-1 173:-1 174:-1 175:-1 176:-1 177:-1 178:-1 179:-1 180:-1 181:-1 182:-1 183:-1 184:-1 185:-1 186:-1 187:-1 188:-1 189:-1 190:-1 191:-1 192:-1 193:-1 194:-1 195:-1 196:-1 197:-1 198:-1 199:-1 200:-1 201:-1 203:-1 204:-1 205:-1 206:-1 207:-1 208:-1 209:-1 210:-1 211:-1 213:-1 214:-0.846154 215:-1 216:-1 217:-1 218:-0.714286 219:0.142857 220:-1 222:-1 223:-1 224:-1 227:-1 228:-1 229:-1 230:-1 231:-1 232:-1 233:-1 234:-1 236:-1 239:-1 240:-1 241:-1 242:-1 243:-1 244:-1 245:-1 246:-1 247:-1 250:-1 251:-1 252:-1 
-2.163693540641507 1:-1 2:-1 3:-1 5:-1 6:-1 7:-1 8:-1 9:-1 10:-1 12:1 13:-1 14:-1 15:-1 17:-1 19:-1 21:-1 22:-1 24:-1 25:-1 26:-1 27:-1 28:-1 29:-0.666667 30:-1 32:-1 33:-1 35:-1 38:-1 39:-0.777778 41:-1 43:-0.666667 44:-1 45:-1 46:-1 47:-1 48:-1 50:-1 51:-1 52:-1 53:-1 54:-1 55:-1 57:-1 58:-1 59:-1 60:-1 61:-1 64:-1 65:-1 67:-1 69:-1 71:-1 72:-1 73:-1 74:-1 75:-1 76:-1 77:-0.666667 81:-1 83:-1 84:-1 85:-1 86:-1 87:-1 88:-1 89:-1 90:-1 91:-1 92:-1 93:-1 96:-1 98:-1 100:-1 101:-1 103:-1 104:-1 105:-1 107:-1 108:-1 109:-1 110:-1 111:-1 112:-1 113:-1 114:-1 116:-1 117:-1 118:-1 119:-1 120:-0.666667 121:-1 123:-1 124:-1 126:-0.333333 127:-1 128:-1 129:-1 130:-1 132:-1 133:-1 134:-1 135:-1 136:-0.833333 137:-0.333333 138:-1 139:-1 140:-1 141:-0.142857 142:-1 143:-1 144:-1 145:-1 146:-1 147:-1 148:-1 151:-1 152:-1 153:-1 154:-1 155:-1 156:-1 157:-1 158:-1 159:-1 161:-1 162:-1 163:-1 164:-1 165:-1 167:-1 168:-1 169:-1 170:-1 171:-1 173:-1 174:-1 175:-1 176:-1 177:-1 178:-1 179:-1 180:-1 181:-1 182:-1 183:-1 184:-1 185:-1 186:-1 187:-1 188:-1 189:-1 190:-1 191:-1 192:-1 193:-1 194:-1 195:-1 196:-1 197:-1 198:-1 199:-1 200:-1 201:-1 203:-1 204:-1 205:-1 206:-1 207:-1 208:-1 209:-1 210:-1 211:-1 213:-1 214:-0.692308 215:-1 216:-1 217:-1 218:-1 219:0.142857 220:-1 222:-1 223:-1 224:-1 227:-1 228:-1 229:-1 230:-1 231:-1 232:-1 233:-1 234:-1 236:-1 239:-1 240:-1 241:-1 242:-1 243:-1 244:-1 245:-1 246:-1 247:-1 250:-1 251:-1 252:-1 
-1.371228616815616 1:-1 2:-1 3:-1 6:-1 7:-1 8:-1 9:-1 10:-1 12:-1 13:-1 14:1 15:-1 17:-1 19:-1 21:-1 22:-1 24:-1 25:-1 26:-1 27:-1 28:-1 29:-0.666667 30:-1 32:-1 33:-1 35:-1 38:-1 39:-1 40:-1 41:-1 42:-1 43:-1 44:-1 45:-1 46:-1 47:-1 48:-1 50:-1 51:-1 52:-1 53:-1 54:-1 55:-1 57:-1 58:-1 59:-1 60:-1 61:-1 64:-1 65:-1 67:-1 69:-0.666667 71:-1 72:-1 73:-1 74:-1 75:-1 76:-1 77:-1 78:-1 81:-1 83:-1 84:-1 85:-1 86:-1 87:-1 88:-1 89:-1 90:-1 91:-1 92:-1 93:-1 96:-1 98:-1 100:-1 101:-1 103:-1 104:-1 105:-1 107:-1 108:-1 109:-1 110:-1 111:-1 112:-1 113:-1 114:-1 116:-1 117:-1 118:-1 119:-1 120:-1 121:-1 123:-1 124:-1 126:-1 127:-1 128:-1 129:-1 130:-1 132:-1 133:-1 134:-1 135:-1 136:-1 137:-1 138:-1 139:-1 140:-1 141:-1 142:-1 143:-1 144:-1 145:-1 146:-1 147:-1 148:-1 151:-1 152:-1 153:-1 154:-1 155:-1 156:-1 157:-1 158:-1 159:-1 161:-1 162:-1 163:-1 164:-1 165:-1 167:-1 168:-1 169:-1 170:-1 171:-1 173:-1 174:-1 175:-1 177:-1 178:-1 179:-1 180:-1 181:-1 182:-1 183:-1 184:-1 185:-1 186:-1 187:-1 188:-1 189:-1 190:-1 191:-1 192:-1 193:-1 194:-1 195:-1 196:-1 197:-1 198:-1 199:-1 200:-1 201:-1 203:-1 204:-1 205:-1 206:-1 207:-1 208:-1 209:-1 210:-1 211:-1 213:-1 214:-1 215:-1 216:-1 217:-1 218:-1 219:-1 220:-1 222:-1 223:-1 224:-1 227:-1 228:-1 229:-1 230:-1 231:-1 232:-1 233:-1 234:-1 236:-1 239:1 240:-1 241:-1 242:-1 243:-1 244:-1 245:-1 246:-1 247:-1 250:-1 251:-1 252:-1 
-6.901985135767065 1:-1 2:-1 3:-1 6:-1 7:-1 8:-1 9:-1 10:-1 12:-1 13:-1 14:-1 15:-1 17:-1 19:-1 21:-1 22:-1 24:-1 25:-1 26:-1 27:-1 28:-0.666667 29:-0.666667 30:-1 32:-1 33:-1 35:-1 38:-1 39:-0.888889 40:-1 41:-1 42:-1 43:-0.666667 44:-1 45:-1 46:-1 47:-1 48:-1 50:-1 51:-1 52:-1 53:-1 54:-1 55:-1 57:-1 58:-1 59:-1 60:-1 61:-1 64:-1 65:-1 67:-1 69:-1 71:-1 72:-1 73:-1 74:-1 75:-1 76:-0.666667 77:-0.666667 78:-1 81:-1 83:-1 84:-1 85:-1 86:-1 87:-1 88:-1 89:-1 90:-1 91:-1 92:-1 93:-1 96:-1 98:-1 100:-1 101:-1 103:-1 104:-1 105:-1 107:-1 108:-1 109:-1 110:-1 111:-1 112:-1 113:-1 114:-1 116:-1 117:-1 118:-1 119:-1 120:-1 121:-1 123:-1 124:-1 126:-1 127:-1 128:-1 129:-1 130:-1 132:-1 133:-1 134:-1 135:-1 136:-1 137:-1 138:-1 139:-1 140:-1 141:-1 142:-1 143:-1 144:-1 145:-1 146:-1 147:-1 148:-1 151:-1 152:-1 153:-1 154:-1 155:-1 156:-1 157:-1 158:-1 159:-1 161:-1 162:-1 163:-1 164:-1 165:-1 167:-1 168:-1 169:-1 170:-1 171:-1 173:-1 174:-1 175:-1 176:-1 177:-1 178:-1 179:-1 180:-1 181:-1 182:-1 183:-1 184:-1 185:-1 186:-1 187:-1 188:-1 189:-1 190:-1 191:-1 192:-1 193:-1 194:-1 195:-1 196:-1 197:-1 198:-1 199:-1 200:-1 201:-1 203:-1 204:-1 205:-1 206:-1 207:-1 208:-1 209:-1 210:-1 211:-1 213:-1 214:-0.846154 215:-1 216:-1 217:-1 218:-1 219:-0.714286 220:-1 222:-1 223:-1 224:-1 227:-1 228:-1 229:-1 230:-1 231:-1 232:-1 233:-1 234:-1 236:-1 239:-1 240:-1 241:-1 242:-1 243:-1 244:-1 245:-1 246:-1 247:-1 250:-1 251:-1 252:-1 
-2.101228028955014 1:-1 2:-1 3:-1 6:-1 7:-1 8:-1 9:-1 10:-1 12:-1 13:-1 14:-1 15:-1 17:-1 19:-1 21:-1 22:-1 24:-1 25:-1 26:-1 27:-1 28:-1 29:-0.666667 30:-1 32:-1 33:-1 35:-1 38:-1 39:-1 40:-1 41:-1 42:-1 43:-1 44:-1 45:-1 46:-1 47:-1 48:-1 50:-1 51:-1 52:-1 53:-1 54:-1 55:-1 57:-1 58:-1 59:-1 60:-1 61:-1 64:-1 65:-1 67:-1 69:-0.666667 71:-1 72:-1 73:-1 74:-1 75:-1 76:-1 77:-1 78:-1 81:-1 83:-1 84:-1 85:-1 86:-1 87:-1 88:-1 89:-1 90:-1 91:-1 92:-1 93:-1 96:-1 98:-1 100:-1 101:-1 103:-1 104:-1 105:-1 107:-1 108:-1 109:-1 110:1 111:-1 112:-1 113:-1 114:-1 116:-1 117:-1 118:-1 119:-1 120:-1 121:-1 123:-1 124:-1 126:-1 127:-1 128:-1 129:-1 130:-1 132:-1 133:-1 134:-1 135:-1 136:-1 137:-1 138:-1 139:-1 140:-1 141:-1 142:-1 143:-1 144:-1 145:-1 146:-1 147:-1 148:-1 151:-1 152:-1 153:-1 154:-1 155:-1 156:-1 157:-1 158:-1 159:-1 161:-1 162:-1 163:-1 164:-1 165:-1 167:-1 168:-1 169:-1 170:-1 171:-1 173:-1 174:-1 175:-0.5 176:-1 177:-1 178:-1 179:-1 180:-1 181:-1 182:-1 183:-1 185:-1 186:-1 187:-1 188:-1 189:-1 190:-1 191:-1 192:-1 193:-1 194:-1 195:-1 196:-1 198:-1 199:-1 200:-1 201:-1 203:-1 204:-1 205:-1 206:-1 207:-1 208:-1 209:-1 210:-1 211:-1 213:-1 214:-0.846154 215:-0.5 216:-1 217:-1 218:-1 219:-1 220:-1 222:-1 223:-1 224:-1 227:-1 228:-1 229:-1 230:-1 231:-1 232:-1 233:-1 234:-1 236:-1 239:-1 240:-1 241:-1 242:-1 243:-1 244:-1 245:-1 246:-1 247:-1 250:-1 251:-1 252:-1 
-1.654592572296984 1:-0.6 2:-1 3:-1 5:-1 6:-1 7:-1 8:-1 9:-1 10:-1 12:-1 13:-1 14:-1 15:-1 17:-1 19:-1 21:-1 22:-1 24:-1 25:-0.6 26:-1 27:-1 28:-1 29:-1 30:-1 32:-1 33:-1 35:-1 38:-1 39:-1 40:-1 41:-1 42:1 43:-1 44:-1 45:-1 46:-1 47:-1 48:-1 50:-1 51:-1 52:-1 53:-1 54:-1 55:-1 57:-1 58:-1 59:-1 60:-1 61:-1 64:-1 65:-1 67:-1 69:-1 71:-1 72:-1 73:-1 74:-1 75:-1 76:-1 77:-1 78:-1 81:-1 83:-1 84:0.5 85:-1 86:-1 87:-1 88:-1 89:-1 90:-1 91:-1 92:-1 93:-1 96:-1 98:-1 100:-1 101:-1 103:-1 104:-1 105:-1 107:-1 108:-1 109:-1 110:-1 111:-1 112:-1 113:-1 114:-1 116:-1 117:-1 118:-1 119:-1 120:-1 121:-1 123:-1 124:-1 126:-1 127:-1 128:-1 129:-1 130:-1 132:-1 133:-1 134:-1 135:-1 136:-0.166667 137:-0.333333 138:-1 139:-1 140:-0.5 141:-1 142:-1 143:-1 144:-1 145:-1 146:-1 147:-1 148:-1 151:-1 152:-1 153:-1 154:-1 155:-1 156:-1 157:-1 158:-1 159:-1 161:-1 162:-1 163:-1 164:-1 165:-1 167:-1 168:-1 169:-1 170:-1 171:-1 173:-1 174:-1 175:-0.5 176:-1 177:-1 178:-1 179:-1 180:-1 181:-1 182:-1 183:-1 184:-1 185:-1 186:-1 187:-1 188:-1 189:-1 190:-1 191:-1 192:-1 193:-1 194:-1 195:-1 196:-1 197:-1 198:-1 199:-1 200:-1 201:-1 203:-1 204:-1 205:-1 206:-1 207:-1 208:-1 209:-1 210:-1 211:-1 213:-1 214:-0.692308 215:-1 216:-1 217:-1 218:-1 219:-1 220:-1 222:-1 223:-1 224:-1 227:-1 228:-1 229:-1 230:-1 231:-1 232:-1 233:-1 234:-1 236:-1 239:-1 240:-1 241:-1 242:-1 243:-1 244:-1 245:-1 246:-1 247:-1 250:-1 251:-1 252:-1 
12.56063047985339 1:-1 2:-1 3:-1 5:-1 6:-1 7:-1 8:-1 9:-1 10:-1 12:-1 13:-1 14:-1 15:-1 17:-1 19:-1 21:-1 22:-1 24:-1 25:-1 26:-1 27:-1 28:-1 29:-1 30:-1 32:-1 33:-1 35:-1 38:-1 39:-1 40:-1 41:-1 42:-1 43:-1 44:-1 45:-1 46:-1 47:-1 48:-1 50:-1 51:-1 52:-1 53:-1 54:-1 55:-1 57:-1 58:-1 59:-1 60:-1 61:-1 64:-1 65:-1 67:-1 69:-0.666667 71:-1 72:-1 73:-1 74:-1 75:-1 76:-1 77:-1 78:-1 81:1 83:-1 84:-1 85:1 86:-1 87:-1 88:-1 89:-1 90:-1 91:-1 92:-1 93:-1 96:-1 98:-1 100:-1 101:-1 103:-1 104:-1 105:-1 107:-1 108:-1 109:1 110:-1 111:-1 112:-1 113:-1 114:-1 116:-1 117:-1 118:-1 119:1 120:-1 121:-1 123:-1 124:-1 126:-1 127:-1 128:-1 129:-1 130:-1 132:1 133:-1 134:-1 135:-1 136:-1 137:-1 138:-1 139:-1 140:-1 141:-1 142:-1 143:-1 144:-1 145:-1 146:-1 147:-1 148:1 151:-1 152:-1 153:1 154:-1 155:-1 156:-1 157:-1 158:-1 159:-1 161:-1 162:-1 163:-1 164:-1 165:-1 167:-1 168:1 169:-1 170:-1 171:-1 173:-1 174:-1 176:-1 177:-1 178:-1 179:-1 181:-1 182:-1 183:-1 184:-1 185:-1 186:-1 187:-1 188:-1 189:-1 190:-1 191:-1 192:-1 193:-1 194:-1 195:-1 196:-1 197:-1 198:-1 199:-1 200:-1 201:-1 203:-1 204:-0.333333 205:-1 206:-1 207:-1 208:-1 209:-1 210:-1 211:1 213:-1 214:-1 215:-1 216:-1 217:-1 218:-1 219:-1 220:-1 222:-1 223:-1 224:-1 227:-1 228:-1 229:-1 230:-1 231:-1 232:-1 233:-1 234:-1 236:-1 239:-1 240:-1 241:-1 243:-1 244:-1 245:-1 246:-1 247:-1 250:-1 251:1 252:1 
-1.302068996315101 1:-1 2:-1 3:-1 5:-1 6:-1 7:-1 8:-1 9:-1 10:-1 12:-1 13:-1 14:-1 15:-1 17:-1 19:-1 21:-1 22:-1 24:-1 25:-1 26:-1 27:-1 28:-0.833333 29:-1 30:-1 32:-1 33:-1 35:-1 38:-1 39:-1 40:-1 41:-1 42:1 43:-1 44:-1 45:-1 46:-1 47:-1 48:-1 50:-1 51:-1 52:-1 53:-1 54:-1 55:-1 57:-1 58:-1 59:-1 60:-1 61:-1 64:-1 65:-1 67:-1 69:-1 71:-1 72:-1 73:-1 74:-1 75:-1 76:-1 77:-1 78:-1 81:-1 83:-1 84:0.5 85:-1 86:-1 87:-1 88:-1 89:-1 90:-1 91:-1 92:-1 93:-1 96:-1 98:-1 100:-1 101:-1 103:-1 104:-1 105:-1 107:-1 108:-1 109:-1 110:-1 111:-1 112:-1 113:-1 114:-1 116:-1 117:-1 118:-1 119:-1 120:-1 121:-1 123:-1 124:-1 126:-1 127:-1 128:-1 129:-1 130:-1 132:-1 133:-1 134:-1 135:-1 137:0.333333 138:-1 139:-1 140:-0.5 141:-1 142:-1 143:-1 144:-1 145:-1 146:-1 147:-1 148:-1 151:-1 152:-1 153:-1 154:-1 155:-1 156:-1 157:-1 158:-1 159:-1 161:-1 162:-1 163:-1 164:-1 165:-1 167:-1 168:-1 169:-1 170:-1 171:-1 173:-1 174:-1 175:-0.5 176:-1 177:-1 178:-1 179:-1 180:-1 181:-1 182:-1 183:-1 184:-1 185:-1 186:-1 187:-1 188:-1 189:-1 190:-1 191:-1 192:-1 193:-1 194:-1 195:-1 196:-1 197:-1 198:-1 199:-1 200:-1 201:-1 203:-1 204:-1 205:-1 206:-1 207:-1 208:-1 209:-1 210:-1 211:-1 213:-1 214:-0.692308 215:-1 216:-1 217:-1 218:-1 219:-1 220:-1 222:-1 223:-1 224:-1 227:-1 228:-1 229:-1 230:-1 231:-1 232:-1 233:-1 234:-1 236:-1 239:-1 240:-1 241:-1 242:-1 243:-1 244:-1 245:-1 246:-1 247:-1 250:-1 251:-1 252:-1 
-2.320727316837511 1:-1 2:-1 3:-1 5:-1 6:-1 7:-1 8:-1 9:-1 10:-1 12:-1 13:-1 14:-1 15:-1 17:-1 19:-1 21:-1 22:-1 24:-1 25:-1 26:-1 27:-1 28:-1 29:-1 30:-1 32:-1 33:-1 35:-1 38:-1 39:-1 40:-1 41:-1 42:-1 43:-1 44:-1 45:-1 46:-1 47:-1 48:-1 50:-1 51:-1 52:-1 53:-1 54:-1 55:-1 57:-1 58:-1 59:-1 60:-1 61:-1 64:-1 65:-1 67:-1 69:-1 71:-1 72:-1 73:-1 74:-1 75:-1 76:-1 77:-1 78:-1 81:-1 83:-1 84:-1 85:-1 87:-1 88:-1 89:1 90:-1 91:-1 92:-1 93:-1 96:-1 98:-1 100:-1 101:-1 103:-1 104:-1 105:-1 107:-1 108:-1 109:-1 110:-1 111:-1 112:-1 113:-1 114:-1 116:-1 117:-1 118:-1 119:-1 120:-1 121:-1 123:-1 124:-1 126:-1 127:-1 128:-1 129:-1 130:-1 132:-1 133:1 134:-1 135:-1 136:-0.666667 137:-1 138:-1 139:-1 140:-1 141:-1 142:-1 143:-1 144:-1 145:-1 146:-1 147:-1 148:-1 151:-1 152:-1 153:-1 154:-1 155:1 156:-1 157:-1 158:-1 159:-1 161:-1 162:-1 163:-1 164:-1 165:-1 167:-1 168:-1 169:-1 170:-1 171:-1 173:-1 174:-1 175:-0.5 176:-1 177:-1 178:-1 179:-1 180:-1 181:-1 182:-1 183:-1 184:-1 185:-1 186:-1 187:-1 188:-1 189:-1 190:-0.5 191:-1 192:-1 193:-1 194:-1 195:-1 196:-1 197:-1 198:-1 199:-1 200:-1 201:-1 203:-1 204:-1 205:-1 206:-1 207:-1 208:-1 209:1 210:-1 211:-1 213:-1 214:-1 215:-0.5 216:-1 217:-1 218:-1 219:-1 220:-1 222:-1 223:-1 224:-0.5 227:1 228:-1 229:-1 230:-1 231:-1 232:-1 233:-1 234:-1 236:-1 239:-1 240:-1 241:-1 242:-1 243:-1 244:-1 245:-1 246:-1 247:-1 250:-1 251:-1 252:-1 
-1.798911688863501 1:-1 2:-1 3:-1 5:-1 6:-1 7:-1 8:-1 9:-1 10:-1 12:-1 13:-1 14:-1 15:-1 17:-1 19:-1 21:-1 22:-1 24:-1 25:-1 26:-1 27:-1 28:-1 29:-1 30:-1 32:-1 33:-1 35:-1 38:-1 39:-1 40:-1 41:-1 42:-1 43:-1 44:-1 45:-1 46:-1 47:-1 48:-1 50:-1 51:-1 52:-1 53:-1 54:-1 55:-1 57:-1 58:-1 59:-1 60:-1 61:-1 64:-1 65:-1 67:-1 69:-1 71:-1 72:-1 73:-1 74:-1 75:-1 76:-1 77:-1 78:-1 81:-1 83:-1 84:-1 85:-1 87:-1 88:-1 89:-1 90:1 91:-1 92:-1 93:-1 96:-1 98:-1 100:-1 101:-1 103:-1 104:-1 105:-1 107:-1 108:-1 109:-1 110:-1 111:-1 112:-1 113:-1 114:-1 116:-1 117:-1 118:-1 119:1 120:-1 121:-1 123:-1 124:-1 126:-1 127:-1 128:-1 129:-1 130:-1 132:-1 133:1 134:-1 135:-1 136:-0.666667 137:-1 138:-1 139:-1 140:-1 141:-1 142:-1 143:-1 144:-1 145:-1 146:-1 147:-1 148:-1 151:-1 152:-1 153:-1 154:-1 155:-1 156:-1 157:-1 158:-1 159:-1 161:-1 162:-1 163:-1 164:-1 165:-1 167:-1 168:-1 169:-1 170:-1 171:-1 173:-1 174:-1 175:-0.5 176:-1 177:-1 178:-1 179:-1 180:-1 181:-1 182:-1 183:-1 184:-1 185:-1 186:-1 187:-1 188:-1 189:-1 190:-0.5 191:-1 192:-1 193:-1 194:-1 195:-1 196:-1 197:-1 198:-1 199:-1 200:-1 201:-1 203:-1 204:-1 205:-1 206:-1 207:-1 208:-1 209:1 210:-1 211:-1 213:-1 214:-1 215:-0.5 216:-1 217:-1 218:-1 219:-1 220:-1 222:-1 223:-1 224:-0.5 228:-1 229:-1 230:-1 231:-1 232:-1 233:-1 234:-1 236:-1 239:-1 240:-1 241:-1 242:-1 243:-1 244:-1 245:-1 246:-1 247:-1 250:-1 251:1 252:-1 
-2.30138384603393 1:-1 2:-1 3:-1 5:-1 6:-1 7:-1 8:-1 9:-1 10:-1 12:-1 13:-1 14:-1 15:-1 17:-1 19:-1 21:-1 22:-1 24:-1 25:-1 26:-1 27:-1 28:-1 29:-1 30:-1 32:-1 33:-1 35:-1 38:-1 39:-1 40:-1 41:-1 42:-1 43:-1 44:-1 45:-1 46:-1 47:-1 48:-1 50:-1 51:-1 52:-1 53:-1 54:-1 55:-1 57:-1 58:-1 59:-1 60:-1 61:-1 64:-1 65:-1 67:-1 69:-1 71:-1 72:-1 73:-1 74:-1 75:-1 76:-1 77:-1 78:-1 81:-1 83:-1 84:-1 85:-1 87:-1 88:-1 89:-1 90:-1 91:-1 92:-1 93:-1 96:-1 98:-1 100:-1 101:-1 103:-1 104:-1 105:-1 107:-1 108:-1 109:-1 110:-1 111:-1 112:-1 113:-1 114:-1 116:-1 117:-1 118:-1 119:-1 120:-1 121:-1 123:-1 124:-1 126:-1 128:-1 129:-1 130:-1 132:-1 133:1 134:-1 135:-1 136:-0.666667 137:-1 138:-1 139:-1 140:-1 141:-1 142:-1 143:-1 144:-1 145:-1 146:-1 147:-1 148:-1 151:-1 152:-1 153:1 154:-1 155:-1 156:1 157:-1 158:-1 159:-1 161:-1 162:-1 163:-1 164:-1 165:-1 167:-1 168:-1 169:-1 170:-1 171:-1 173:-1 174:-1 175:-0.5 176:-1 177:-1 178:-1 179:-1 180:-1 181:-1 182:-1 183:-1 184:-1 185:-1 186:-1 187:-1 188:-1 189:-1 190:-0.5 191:-1 192:-1 193:-1 194:-1 195:-1 196:-1 197:-1 198:-1 199:-1 200:-1 201:-1 203:-1 204:-0.333333 205:-1 206:-1 207:-1 208:-1 209:-1 210:-1 211:-1 213:-1 214:-1 215:-0.5 216:-1 217:-1 218:-1 219:-1 220:-1 222:-1 223:-1 224:-0.5 228:-1 229:-1 230:-1 231:-1 232:-1 233:-1 234:-1 236:-1 239:-1 240:-1 241:-1 242:-1 243:-1 244:-1 245:-1 246:-1 247:-1 250:-1 251:1 252:-1 
512 1:-1 2:-1 3:-1 5:-1 6:-1 7:-1 8:-1 9:-1 10:-1 12:-1 13:-1 14:-1 15:-1 17:-1 19:-1 21:-1 22:-1 24:-1 25:-1 26:-1 27:-1 28:-1 29:-1 30:-1 32:-1 33:-1 35:-1 38:-1 39:-1 40:-1 41:-1 42:-1 43:-1 44:-1 45:-1 46:-1 47:-1 48:-1 50:-1 51:-1 52:-1 53:-1 54:-1 55:-1 57:-1 58:-1 59:-1 60:-1 61:-1 64:-1 65:-1 67:-1 69:-1 71:-1 72:-1 73:-1 74:-1 75:-1 76:-1 77:-1 78:-1 81:-1 83:-1 84:-1 85:-1 86:-1 87:-1 88:-1 89:-1 90:-1 91:-1 92:-1 93:-1 96:-1 98:-1 100:-1 101:-1 103:-1 104:-1 105:-1 107:-1 108:-1 109:-1 110:-1 111:-1 112:-1 113:-1 114:-1 116:-1 117:-1 118:-1 119:-1 120:-1 121:-1 123:-1 124:-1 126:-1 127:-1 128:-1 129:-1 130:-1 132:-1 133:-1 134:-1 135:-1 136:-0.5 137:-1 138:-1 139:-1 141:-0.714286 142:-1 143:-1 144:-1 145:-1 146:-1 147:-1 148:-1 151:-1 152:-1 153:-1 154:-1 155:-1 156:-1 157:-1 158:-1 159:-1 161:-1 162:-1 163:-1 164:-1 165:-1 167:-1 168:-1 169:-1 170:-1 171:-1 173:-1 174:-1 175:-0.5 176:-1 177:-1 178:-1 179:-1 180:-1 181:-1 182:-1 183:-1 184:-1 185:-1 186:-1 187:-1 188:-1 189:-1 190:-0.5 191:-1 192:-1 193:-1 194:-1 195:-1 196:-1 197:-1 198:-1 199:-1 200:-1 201:-1 203:-1 204:-1 205:-1 206:-1 207:-1 208:-1 209:-1 210:-1 211:-1 213:-1 214:-1 215:-0.5 216:-1 217:-1 218:-0.714286 219:-1 220:-1 222:-1 223:-1 224:-0.5 227:-1 228:-1 229:-1 230:-1 231:-1 232:-1 233:-1 234:-1 236:-1 239:-1 240:-1 241:-1 242:-1 243:-1 244:-1 245:-1 246:-1 247:-1 250:-1 251:-1 252:-1 
-512 1:-1 2:-1 3:-1 5:-1 6:-1 7:-1 8:-1 9:-1 10:-1 12:-1 13:-1 14:-1 15:-1 17:-1 19:-1 21:-1 22:-1 24:-1 25:-1 26:-1 27:-1 28:-1 29:-1 30:-1 32:-1 33:-1 35:-1 38:-1 39:-1 40:-1 41:-1 42:-1 43:-1 44:-1 45:-1 46:-1 47:-1 48:-1 50:-1 51:-1 52:-1 53:-1 54:-1 55:-1 57:-1 58:-1 59:-1 60:-1 61:-1 64:-1 65:-1 67:-1 69:-1 71:-1 72:-1 73:-1 74:-1 75:-1 76:-1 77:-1 78:-1 81:-1 83:-1 84:-1 85:-1 86:-1 87:-1 88:-1 89:-1 90:-1 91:-1 92:-1 93:-1 96:-1 98:-1 100:-1 101:-1 103:-1 104:-1 105:-1 107:-1 108:-1 109:-1 110:-1 111:-1 112:-1 113:-1 114:-1 116:-1 117:-1 118:-1 119:-1 120:-1 121:-1 123:-1 124:-1 126:-1 127:-1 128:-1 129:-1 130:-1 132:-1 133:-1 134:-1 135:-1 136:-0.5 137:-1 138:-1 139:-1 141:-0.714286 142:-1 143:-1 144:-1 145:-1 146:-1 147:-1 148:-1 151:-1 152:-1 153:-1 154:-1 155:-1 156:-1 157:-1 158:-1 159:-1 161:-1 162:-1 163:-1 164:-1 165:-1 167:-1 168:-1 169:-1 170:-1 171:-1 173:-1 174:-1 175:-0.5 176:-1 177:-1 178:-1 179:-1 180:-1 181:-1 182:-1 183:-1 184:-1 185:-1 186:-1 187:-1 188:-1 189:-1 190:-0.5 191:-1 192:-1 193:-1 194:-1 195:-1 196:-1 197:-1 198:-1 199:-1 200:-1 201:-1 203:-1 204:-1 205:-1 206:-1 207:-1 208:-1 209:-1 210:-1 211:-1 213:-1 214:-1 215:-0.5 216:-1 217:-1 218:-0.714286 219:-1 220:-1 222:-1 223:-1 224:-0.5 227:-1 228:-1 229:-1 230:-1 231:-1 232:-1 233:-1 234:-1 236:-1 239:-1 240:-1 241:-1 242:-1 243:-1 244:-1 245:-1 246:-1 247:-1 250:-1 251:-1 252:-1 
-0.07225210382791274 1:-1 2:-1 3:-1 5:-1 6:-1 7:-1 8:-1 9:-1 10:-1 12:-1 13:-1 14:-1 15:-1 17:-1 19:-1 21:-1 22:-1 24:-1 25:-1 26:-1 27:-1 28:-1 29:-1 30:-1 32:-1 33:-1 35:-1 38:-1 39:-1 40:-1 41:-1 42:-1 43:-1 44:-1 45:-1 46:-1 47:-1 48:-1 50:-1 51:-1 52:-1 53:-1 54:-1 55:-1 57:-1 58:-1 59:-1 60:-1 61:-1 64:-1 65:-1 67:-1 69:-1 71:-1 72:-1 73:-1 74:-1 75:-1 76:-1 77:-1 78:-1 81:-1 83:-1 84:-1 85:-1 86:-1 87:-1 88:-1 89:-1 90:-1 91:-1 92:-1 93:-1 96:-1 98:-1 100:-1 101:-1 103:-1 104:-1 105:-1 107:-1 108:-1 109:-1 110:-1 111:-1 112:-1 113:-1 114:-1 116:-1 117:-1 118:-1 119:-1 120:-1 121:-1 123:-1 124:-1 126:-1 127:-1 128:-1 129:-1 130:-1 132:-1 133:-1 134:-1 135:-1 136:-0.5 137:-1 138:-1 139:-1 141:-0.714286 142:-1 143:-1 144:-1 145:-1 146:-1 147:-1 148:-1 151:-1 152:-1 153:-1 154:-1 155:-1 156:-1 157:-1 158:-1 159:-1 161:-1 162:-1 163:-1 164:-1 165:-1 167:-1 168:-1 169:-1 170:-1 171:-1 173:-1 174:-1 175:-0.5 176:-1 177:-1 178:-1 179:-1 180:-1 181:-1 182:-1 183:-1 184:-1 185:-1 186:-1 187:-1 188:-1 189:-1 190:-0.5 191:-1 192:-1 193:-1 194:-1 195:-1 196:-1 197:-1 198:-1 199:-1 200:-1 201:-1 203:-1 204:-1 205:-1 206:-1 207:-1 208:-1 209:-1 210:-1 211:-1 213:-1 214:-1 215:-0.5 216:-1 217:-1 218:-0.714286 219:-1 220:-1 222:-1 223:-1 224:-0.5 227:-1 228:-1 229:-1 230:-1 231:-1 232:-1 233:-1 234:-1 236:-1 239:-1 240:-1 241:-1 242:-1 243:-1 244:-1 245:-1 246:-1 247:-1 250:-1 251:-1 252:-1 
-2.032504642065036 1:-1 2:-1 3:-1 5:-1 6:-1 7:-1 8:-1 9:-1 10:-1 12:-1 13:-1 14:-1 15:-1 17:-1 19:-1 21:-1 22:-1 24:-1 25:-1 26:-1 27:-1 28:-1 29:-1 30:-1 32:-1 33:-1 35:-1 38:-1 39:-1 40:-1 41:-1 42:-1 43:-1 44:-1 45:-1 46:-1 47:-1 48:-1 50:-1 51:-1 52:-1 53:-1 54:-1 55:-1 57:-1 58:-1 59:-1 60:-1 61:-1 64:-1 65:-1 67:-1 69:-1 71:-1 72:-1 73:-1 74:-1 75:-1 76:-1 77:-1 78:-1 81:-1 83:-1 84:-1 85:-1 86:-1 87:-1 88:-1 89:-1 90:-1 91:-1 92:-1 93:-1 96:-1 98:-1 100:-1 101:-1 103:-1 104:-1 105:-1 107:-1 108:-1 109:-1 110:-1 111:-1 112:-1 113:-1 114:-1 116:-1 117:-1 118:-1 119:-1 120:-1 121:-1 123:-1 124:-1 126:-1 127:-1 128:-1 129:-1 130:-1 132:-1 133:-1 134:1 135:-1 136:-1 137:-1 138:-1 139:-1 140:-1 141:-1 142:-1 143:-1 144:-1 145:-1 146:-1 148:-1 151:-1 152:-1 153:-1 154:-1 155:-1 156:1 157:-1 158:-1 159:-1 161:-1 162:-1 163:-1 164:-1 165:-1 167:-1 168:-1 169:-1 170:-1 171:-1 173:-1 174:-1 175:-0.5 176:-1 177:-1 178:-1 179:-1 180:-1 181:-1 182:-1 183:-1 184:-1 185:-1 186:-1 187:-1 188:-1 189:-1 190:-0.5 191:-1 192:-1 193:-1 194:-1 195:-1 196:-1 197:-1 198:-1 199:-1 200:-1 201:-1 203:-1 204:-0.333333 205:-1 206:-1 207:-1 208:-1 209:-1 210:-1 211:-1 213:-1 214:-1 215:-0.5 216:-1 217:-1 218:-1 219:-1 220:-1 222:-1 223:-1 224:-0.5 227:-1 228:-1 229:-1 230:-1 231:-1 232:-1 233:-1 234:-1 236:-1 239:-1 240:-1 241:-1 242:-1 243:-1 244:-1 245:-1 246:-1 247:-1 250:-1 251:1 252:-1 
-0.2311147117308475 1:-1 2:-1 3:-1 5:-1 6:-1 7:-1 8:-1 9:-1 10:-1 12:-1 13:-1 14:-1 15:-1 17:-1 19:-1 21:-1 22:-1 24:-1 25:-1 26:-1 27:-1 28:-1 29:-1 30:-1 32:-1 33:-1 35:-1 38:-1 39:-1 40:-1 41:-1 42:1 43:-1 44:-1 45:-1 46:-1 47:-1 48:-1 50:-1 51:-1 52:-1 53:-1 54:-1 55:-1 57:-1 58:-1 59:-1 60:-1 61:-1 64:-1 65:-1 67:-1 69:-1 71:-1 72:-1 73:-1 74:-1 75:-1 76:-1 77:-1 78:-1 81:-1 83:-1 84:0.5 85:-1 86:-1 87:-1 88:-1 89:-1 90:-1 91:-1 92:-1 93:-1 96:-1 98:-1 100:-1 101:-1 103:-1 104:-1 105:-1 107:-1 108:-1 109:-1 110:-1 111:-1 112:-1 113:-1 114:-1 116:-1 117:-1 118:-1 119:-1 120:-1 121:-1 123:-1 124:-1 126:-1 127:-1 128:-1 129:-1 130:-1 132:-1 133:-1 134:-1 135:-1 136:0.166667 137:-0.333333 138:-1 139:-1 140:-0.5 141:-1 142:-1 143:-1 144:-1 145:-1 146:-1 147:-1 148:-1 151:-1 152:-1 153:-1 154:-1 155:-1 156:-1 157:-1 158:-1 159:-1 161:-1 162:-1 163:-1 164:-1 165:-1 167:-1 168:-1 169:-1 170:-1 171:-1 173:-1 174:-1 175:-0.5 176:-1 177:-1 178:-1 179:-1 180:-1 181:-1 182:-1 183:-1 184:-1 185:-1 186:-1 187:-1 188:-1 189:-1 190:-1 191:-1 192:-1 193:-1 194:-1 195:-1 196:-1 197:-1 198:-1 199:-1 200:-1 201:-1 203:-1 204:-1 205:-1 206:-1 207:-1 208:-1 209:-1 210:-1 211:-1 213:-1 214:-0.692308 215:-1 216:-1 217:-1 218:-1 219:-1 220:-1 222:-1 223:-1 224:-1 227:-1 228:-1 229:-1 230:-1 231:-1 232:-1 233:-1 234:-1 236:-1 239:-1 240:-1 241:-1 242:-1 243:-1 244:-1 245:-1 246:-1 247:-1 250:-1 251:-1 252:-1 
-2.027554819323859 1:-1 2:-1 3:-1 5:-1 6:-1 7:-1 8:-1 9:-1 10:-1 12:-1 13:-1 14:-1 15:-1 17:-1 19:-1 21:-1 22:-1 24:-1 25:-1 26:-1 27:-1 28:-0.666667 29:-1 30:-1 32:-1 33:-1 35:-1 38:-1 39:-1 40:-1 41:-1 42:-1 43:-1 44:-1 45:-1 46:-1 47:-1 48:-1 50:-1 51:-1 52:-1 53:-1 54:-1 55:-1 57:-1 58:-1 59:-1 60:-1 61:-1 64:-1 65:-1 67:-1 69:-1 71:-1 72:-1 73:-1 74:-1 75:-1 76:-1 77:-1 78:-1 81:-1 83:-1 84:-0.5 85:-1 86:-1 87:-1 88:-1 89:-1 90:-1 91:-1 92:-1 93:-1 96:-1 98:-1 100:-1 101:-1 103:-1 104:-1 105:-1 107:-1 108:-1 109:-1 110:-1 111:-1 112:-1 113:-1 114:-1 116:-1 117:-1 118:-1 119:-1 120:-1 121:-1 123:-1 124:-1 126:-1 127:-1 128:-1 129:-1 130:-1 132:-1 133:-1 134:-1 135:-1 136:0.166667 137:-0.333333 138:-1 139:-1 140:0.5 141:-1 142:-1 143:-1 144:-1 145:-1 146:-1 147:-1 148:-1 151:-1 152:-1 153:-1 154:-1 155:-1 156:-1 157:-1 158:-1 159:-1 161:-1 162:-1 163:-1 164:-1 165:-1 167:-1 168:-1 169:-1 170:-1 171:-1 173:-1 174:-1 175:-0.5 176:-1 177:1 178:-1 179:-1 180:-1 181:-1 182:-1 183:-1 184:-1 185:-1 186:-1 187:-1 188:-1 189:-1 190:-1 191:-1 192:-1 193:-1 194:-1 195:-1 196:-1 197:-1 198:-1 199:-1 200:-1 201:-1 203:-1 204:-1 205:-1 206:-1 207:-1 208:-1 209:-1 210:-1 211:-1 213:-1 214:-1 215:-1 216:-1 217:-1 218:-1 219:-1 220:-1 222:-1 223:-1 224:-1 227:-1 228:-1 229:-1 230:-1 231:-1 232:-1 233:-1 234:-1 236:-1 239:-1 240:-1 241:-1 242:-1 243:-1 244:-1 245:-1 246:-1 247:-1 250:-1 251:-1 252:-1 
18.15544514784291 1:-1 2:-1 3:-1 5:-1 6:-1 7:-1 8:-1 9:-1 10:-1 12:-1 13:-1 14:-1 15:-1 17:-1 19:-1 21:-1 22:-1 24:-1 25:-1 26:-1 27:-1 28:-1 29:-1 30:-1 32:-1 33:-1 35:-1 38:-1 39:-0.333333 40:-1 41:-1 42:-1 43:-1 45:-1 46:-1 47:-1 48:-1 50:-1 51:-1 52:-1 53:-1 54:-1 55:-1 57:-1 58:-1 59:-1 60:-1 61:-1 64:-1 65:-1 67:-1 69:-0.666667 71:-1 72:-1 73:-1 74:-1 75:-1 76:-1 77:-0.666667 78:-1 81:-1 83:-1 84:-1 85:-1 86:-1 87:-1 88:-1 89:-1 90:-1 91:-1 92:-1 93:-1 96:-1 98:-1 100:-1 101:-1 103:-1 104:-1 105:-1 107:-1 108:-1 109:-1 110:-1 111:-1 112:-1 113:-1 114:-1 116:-1 117:-1 118:-1 119:-1 120:-1 121:-1 123:-1 124:-1 126:-1 127:-1 128:-1 129:-1 130:-1 132:-1 133:-1 134:-1 135:-1 136:-1 137:-1 138:-1 139:-1 140:-1 141:-1 142:-1 143:-1 144:-1 145:-1 146:-1 147:-1 148:-1 151:-1 152:-1 153:-1 154:-1 155:-1 156:-1 157:-1 158:-1 159:-1 161:-1 162:-1 163:-1 164:-1 165:-1 167:-1 168:-1 169:-1 170:-1 171:-1 173:-1 174:-1 175:-0.5 176:-1 177:-1 178:-1 179:-1 180:-1 181:-1 182:-1 183:-1 184:-1 185:-1 186:-1 187:-1 188:-1 189:-1 190:-1 191:-1 192:-1 193:-1 194:-1 195:-1 196:-1 197:-1 198:-1 199:-1 200:-1 201:-1 203:-1 204:-1 205:-1 206:-1 207:-1 208:-1 209:-1 210:-1 211:-1 213:-1 214:-0.846154 215:-1 216:-1 217:-1 218:-0.714286 219:-1 220:-1 222:-1 223:-1 224:-1 227:-1 228:-1 229:-1 230:-1 231:-1 232:-1 233:-1 234:-1 236:-1 239:-1 240:-1 241:-1 242:-1 243:-1 244:-1 245:-1 246:-1 247:-1 250:-1 251:-1 252:-1 
-2.22228198579455 1:-1 2:-1 3:-1 5:-1 6:-1 7:-1 8:-1 9:-1 10:-1 12:-1 13:-1 14:-1 15:-1 17:-1 19:-1 21:-1 22:-1 24:-1 25:-1 26:-1 27:-1 28:-1 29:-1 30:-1 32:-1 33:-1 35:-1 38:-1 39:-1 40:-1 41:-1 42:-1 43:-1 44:-1 45:-1 46:-1 47:-1 48:-1 50:-1 51:-1 52:-1 53:-1 54:-1 55:-1 57:-1 58:-1 59:-1 60:-1 61:-1 64:-1 65:-1 67:-1 69:-1 71:-1 72:-1 73:-1 74:-1 75:-1 76:-1 77:-1 78:-1 81:-1 83:-1 84:-1 85:-1 86:-1 87:-1 88:-1 89:-1 90:-1 91:-1 92:-1 93:-1 96:-1 98:-1 100:-1 101:-1 103:-1 104:-1 105:-1 107:-1 108:-1 109:-1 110:-1 111:-1 112:-1 113:-1 114:-1 116:-1 117:-1 118:-1 119:-1 120:-1 121:-1 123:-1 124:-1 126:-1 127:-1 128:-1 129:-1 130:-1 132:-1 133:-1 134:-1 135:-1 136:-1 137:-1 138:-1 139:-1 140:-1 141:-1 142:-1 143:-1 144:-1 145:-1 146:-1 147:-1 148:-1 151:-1 152:-1 153:-1 154:-1 155:-1 156:-1 157:-1 158:-0.5 161:-1 162:-1 163:-1 164:-1 165:-1 167:-1 168:-1 169:-1 170:-1 171:-1 173:-1 174:-1 175:-0.5 176:-1 177:-1 178:-1 179:-1 180:-1 181:-1 182:-1 183:-1 184:-1 185:-1 186:-1 187:-1 188:-1 189:-1 190:-1 191:-1 192:-1 193:-1 194:-1 195:-1 196:-1 197:-1 198:-1 199:-1 200:-1 201:-1 203:-1 204:-0.333333 205:-1 206:-1 207:-1 208:-1 209:1 210:-1 211:-1 213:-1 214:-1 215:-1 216:-1 217:-1 218:-1 219:-1 220:-1 222:-1 223:-1 224:-1 227:-1 228:-1 229:-1 230:-1 231:-1 232:-1 233:-1 234:-1 236:-1 239:-1 240:-1 241:-1 242:-1 243:-1 244:-1 245:-1 246:-1 247:-1 250:-1 251:-1 252:-1 
-42.94169633152813 1:-1 2:-1 3:-1 5:-1 6:-1 7:-1 8:-1 9:-1 10:-1 12:-1 13:-1 14:-1 15:-1 17:-1 19:-1 21:-1 22:-1 24:-1 25:-1 26:-1 27:-1 28:-1 29:-1 30:-1 32:-1 33:-1 35:-1 38:-1 40:-1 41:-1 42:-1 43:-1 44:-1 45:-1 46:-1 47:-1 48:-1 50:-1 51:-1 52:-1 53:-1 54:-1 55:-1 57:-1 58:-1 59:-1 60:-1 61:-1 64:-1 65:-1 67:-1 69:-0.666667 71:-1 72:-1 73:-1 74:-1 75:-1 76:-1 77:-0.666667 78:-1 81:-1 83:-1 84:-1 85:-1 86:-1 87:-1 88:-1 89:-1 90:-1 91:-1 92:-1 93:-1 96:-1 98:-1 100:-1 101:-1 103:-1 104:-1 105:-1 107:-1 108:-1 109:-1 110:-1 111:-1 112:-1 113:-1 114:-1 116:-1 117:-1 118:-1 119:-1 120:-1 121:-1 123:-1 124:-1 126:-1 127:-1 128:-1 129:-1 130:-1 132:-1 133:-1 134:-1 135:-1 136:-1 137:-1 138:-1 139:-1 140:-1 141:-1 142:-1 143:-1 144:-1 145:-1 146:-1 147:-1 148:-1 151:-1 152:-1 153:-1 154:-1 155:-1 156:-1 157:-1 158:-1 159:-1 161:-1 162:-1 163:-1 164:-1 165:-1 167:-1 168:-1 169:-1 170:-1 171:-1 173:-1 174:-1 175:-0.5 176:-1 177:-1 178:-1 179:-1 180:-1 181:-1 182:-1 183:-1 184:-1 185:-1 186:-1 187:-1 188:-1 189:-1 190:-1 191:-1 192:-1 193:-1 194:-1 195:-1 196:-1 197:-1 198:-1 199:-1 200:-1 201:-1 203:-1 204:-1 205:-1 206:-1 207:-1 208:-1 209:-1 210:-1 211:-1 213:-1 214:-0.846154 215:-1 216:-1 217:-1 218:-0.714286 219:-1 220:-1 222:-1 223:-1 224:-1 227:-1 228:-1 229:-1 230:-1 231:-1 232:-1 233:-1 234:-1 236:-1 239:-1 240:-1 241:-1 242:-1 243:-1 244:-1 245:-1 246:-1 247:-1 250:-1 251:-1 252:-1 
-2.0502420921282 1:-1 2:-1 3:-1 5:-1 6:-1 7:-1 8:-1 9:-1 10:-1 12:-1 13:-1 14:-1 15:-1 17:-1 19:-1 21:-1 22:-1 24:-1 25:-1 26:-1 27:-1 28:-0.333333 29:-1 30:-1 32:-1 33:-1 35:-1 38:-1 39:-1 40:-1 41:-1 42:-1 43:-1 45:-1 46:-1 47:-1 48:-1 50:-1 51:-1 52:-1 53:-1 54:-0.6 55:-1 57:-0.666667 58:-1 59:-1 60:-1 61:-1 64:-1 65:-1 67:-1 69:-1 71:-1 72:-1 73:-1 74:-1 75:-1 76:-0.333333 77:-1 78:-1 81:-1 83:-1 84:-1 85:-1 86:-1 87:-1 88:-1 89:-1 90:-1 91:-1 92:-1 93:-1 96:-1 98:-1 100:-1 101:-1 103:-1 104:-1 105:-1 107:-1 108:-1 109:-1 110:-1 111:-1 112:-1 113:-1 114:-1 116:-1 117:-1 118:-1 119:-1 120:-1 121:-1 123:-1 124:-1 126:-1 127:-1 128:-1 129:-1 130:-1 132:-1 133:-1 134:-1 135:-1 136:-0.333333 137:-0.333333 138:-1 139:-1 140:-1 141:-0.714286 142:-1 143:-1 144:-1 145:-1 146:-1 147:-1 148:-1 151:-1 152:-1 153:-1 154:-1 155:-1 156:-1 157:-1 158:-1 159:-1 161:-1 162:-1 163:-1 164:-0.833333 165:-1 167:-1 168:-1 169:-1 170:-1 171:-1 173:-1 174:-1 175:-1 176:-1 177:-1 178:-1 179:-1 180:-1 181:-1 182:-1 183:-1 184:-1 185:-1 186:-1 187:-1 188:-1 189:-1 190:-1 191:-1 192:-1 193:-1 194:-1 195:-1 196:-1 197:-1 198:-1 199:-1 200:-1 201:-1 203:-1 204:-1 205:-1 206:-1 207:-1 208:-1 209:-1 210:-1 211:-1 213:-1 214:-1 215:-1 216:-1 218:-1 219:-0.714286 220:-1 222:-1 223:1 224:-1 227:-1 228:-1 229:-1 230:-1 231:-1 232:-1 233:-1 234:-1 236:-1 239:-1 240:-1 241:-1 242:-1 243:-1 244:-1 245:-1 246:-1 247:-1 250:1 251:-1 252:-1 
-2.169179124456246 1:-1 2:-1 3:-1 5:-1 6:-1 7:-1 8:-1 9:-1 10:-1 12:-1 13:-1 14:-1 15:-1 17:-1 19:-1 21:-1 22:-1 24:-1 25:-1 26:-1 27:-1 28:-0.5 29:-1 30:-1 32:-1 33:-1 35:-1 38:-1 39:-1 40:-1 41:-1 42:-1 43:-1 44:-1 45:-1 46:-1 47:-1 48:-1 50:-1 51:-1 52:-0.75 53:-1 54:-1 55:-1 57:-1 58:-1 59:-1 60:-1 61:-1 64:-1 65:-1 67:-1 69:-0.666667 71:-1 72:-1 73:-1 74:-1 75:-1 76:-1 77:-1 78:-1 81:-1 83:-1 84:-1 85:-1 86:-1 87:-1 88:-1 89:-1 90:-1 91:-1 92:-1 93:-1 96:-1 98:-1 100:-1 101:1 103:-1 104:-1 105:-1 107:-1 108:-1 109:-1 110:-1 111:-1 112:-1 113:-1 114:-1 116:-1 117:-1 118:-1 119:-1 120:-1 121:-1 123:-1 124:-1 126:-1 127:-1 128:-1 129:-1 130:-1 132:-1 133:-1 134:-1 135:-1 136:-1 137:-1 138:-1 139:-1 140:-1 141:-1 142:-1 143:-1 144:-1 145:-1 146:-1 147:-1 148:-1 151:-1 152:-1 153:-1 154:-1 155:-1 156:-1 157:-1 158:-1 159:1 161:-1 162:-1 163:-1 164:-0.833333 165:-1 167:-1 168:-1 169:-1 170:-1 171:-1 173:-1 174:-1 175:-1 176:-1 177:-1 178:-1 179:-1 181:-1 182:-1 183:-1 184:-1 185:-1 186:-1 187:-1 188:-1 189:-1 190:-1 191:-1 192:-1 193:-1 194:-1 195:-1 196:-1 197:-1 198:-1 199:-1 200:-1 201:-1 203:-1 204:1 205:-1 206:-1 207:-1 208:-1 209:-1 210:-1 211:-1 213:-1 214:-1 215:-1 216:-1 217:-1 218:-1 219:-1 220:-1 222:-1 223:-1 224:-1 227:-1 228:-1 229:-1 230:-1 231:-1 232:-1 233:-1 234:-1 236:-1 239:-1 240:-1 241:-1 242:-1 243:-1 244:-1 245:-1 246:-1 247:-1 250:-1 251:-1 252:-1 
-2.338728623740762 1:-1 2:-1 3:-1 5:-1 6:-1 7:-1 8:-1 9:-1 10:-1 12:-1 13:-1 14:-1 15:-1 17:-1 19:-1 21:-1 22:-1 24:-1 25:-1 26:-1 27:-1 28:-1 29:-1 30:-1 32:-1 33:-1 35:-1 38:-1 39:-1 40:-1 41:-1 42:-1 43:-1 44:-1 45:-1 46:-1 47:-1 48:-1 50:-1 51:-1 52:-1 53:-1 54:0.2 55:-1 57:-1 58:-1 59:-1 60:-1 61:-1 64:-1 65:-1 67:-1 69:-1 71:-1 72:-1 73:-1 74:1 75:-1 76:-0.666667 77:-1 78:-1 81:-1 83:-1 84:-1 85:-1 86:-1 87:-1 88:-1 89:-1 90:-1 91:-1 92:-1 93:-1 96:-1 98:-1 100:-1 101:-1 103:-1 104:-1 105:1 107:-1 108:-1 109:1 110:1 111:-1 112:-1 113:-1 114:-1 116:-1 117:-1 118:-1 119:-1 120:-1 121:-1 123:-1 124:-1 126:-1 127:-1 128:-1 129:-1 130:-1 132:-1 133:-1 134:-1 135:-1 136:-1 137:-1 138:-1 139:-1 140:-1 141:-1 142:-1 143:-1 144:-1 145:-1 146:-1 147:-1 148:-1 151:-1 152:-1 153:-1 154:-1 155:-1 156:-1 157:-1 158:-1 159:-1 161:-1 162:-1 163:-1 164:-1 165:-1 167:-1 168:-1 169:-1 170:-1 171:-1 173:-1 174:-1 175:-0.5 176:1 177:-1 178:-1 179:-1 180:-1 181:-0.666667 182:-1 183:-1 184:-1 185:-1 186:-1 187:-1 188:-1 189:-1 190:-1 191:-1 192:-1 193:-1 194:-1 195:-1 196:-1 197:-1 198:-1 199:-1 200:-1 201:-1 203:-1 204:-1 205:-1 206:-1 207:-1 208:-1 209:-1 210:-1 211:-1 213:-1 214:-0.846154 215:-1 216:-1 217:-1 218:-0.142857 219:-0.714286 220:-1 222:-1 223:-1 224:-1 227:-1 228:-1 229:-1 230:-1 231:-1 232:-1 233:-1 234:-1 236:-1 239:-1 240:-1 241:-1 242:-1 243:-1 244:-1 245:-1 246:-1 247:-1 250:-1 251:-1 252:-1 
-2.33457871812794 1:-1 2:-1 3:-1 5:-1 6:-1 7:-1 8:-1 9:-1 10:-1 12:-1 13:-1 14:-1 15:-1 17:-1 19:-1 21:-1 22:-1 24:-1 25:-1 26:-1 27:-1 28:-1 29:-1 30:-1 32:-1 33:-1 35:1 38:-1 39:-1 40:-1 41:-1 42:-1 43:-1 44:-1 45:-1 46:-1 47:-1 48:-1 50:-1 51:-1 52:-0.75 53:-1 54:-1 55:-1 57:-1 58:-1 59:-1 60:-1 61:-1 64:-1 65:-1 67:-1 69:-1 71:-1 72:-1 73:-1 74:-1 75:-1 76:-0.666667 77:-0.333333 78:-1 81:-1 83:-1 84:-1 85:-1 86:-1 87:-1 88:-1 89:-1 90:-1 91:-1 92:-1 93:-1 96:-1 98:-1 100:-1 101:-1 103:-1 104:-1 105:-1 107:-1 108:-1 109:-1 110:-1 111:-1 112:-1 113:-1 114:-1 116:-1 117:-1 118:-1 119:-1 120:-1 121:-1 123:-1 124:-1 126:-1 127:-1 128:-1 129:-1 130:-1 132:-1 133:-1 134:-1 135:-1 136:-1 137:-1 138:-1 139:-1 140:-1 141:-1 142:-1 143:-1 144:-1 145:-1 146:-1 147:-1 148:-1 151:-1 152:-1 153:-1 154:-1 155:-1 156:-1 157:-1 158:-1 159:-1 161:-1 162:-1 163:-1 164:-1 165:-1 167:-1 168:-1 169:1 170:-1 171:-1 173:1 174:-1 175:-0.5 176:-1 177:-1 178:-1 179:-1 180:-1 181:-1 182:-1 183:-1 184:-1 185:-1 186:-1 187:-1 188:-1 189:-1 190:-1 191:-1 192:-1 193:-1 194:-1 195:-1 196:-1 197:-1 198:-1 199:-1 200:-1 201:-1 203:-1 204:-1 205:-1 206:-1 207:-1 208:-1 209:-1 210:-1 211:-1 213:-1 214:-0.692308 215:-1 216:-1 217:-1 218:-0.714286 219:-0.714286 220:-1 222:-1 223:-1 224:-1 227:-1 228:-1 229:-1 230:-1 231:-1 232:-1 233:-1 234:-1 236:-1 239:-1 240:-1 241:-1 242:-1 243:-1 244:-1 245:-1 246:-1 247:-1 250:-1 251:-1 252:-1 
-1.082582805593697 1:-1 2:-1 3:-1 5:-1 6:-1 7:-1 8:-1 9:-1 10:-1 12:-1 13:-1 14:-1 15:-1 17:-1 19:-1 21:-1 22:-1 24:-1 25:-1 26:-1 27:-1 28:-1 29:-1 30:-1 32:-1 33:-1 35:-1 38:-1 39:-1 40:-1 41:-1 42:-1 43:-1 44:-1 45:-1 46:-1 47:-1 48:-1 50:-1 51:-1 52:-1 53:-1 54:-1 55:-1 57:-1 58:-1 59:-1 60:-1 61:-1 64:-1 65:-1 67:-1 69:-1 71:-1 72:-1 73:-1 74:-1 75:-1 76:-1 77:-1 78:-1 81:-1 83:-1 84:-1 85:-1 86:-1 87:-1 88:-1 89:-1 90:-1 91:-1 92:-1 93:-1 96:-1 98:-1 100:-1 101:-1 103:-1 104:-1 105:-1 107:-1 108:-1 109:-1 110:-1 111:-1 112:-1 113:-1 114:-1 116:-1 117:-1 118:-1 119:-1 120:-1 121:-1 123:-1 124:-1 126:-1 127:-1 128:-1 129:-1 130:-1 132:-1 133:-1 134:-1 135:-1 136:0.666667 137:-1 138:-1 139:-1 141:-1 142:-1 143:-1 144:-1 145:-1 146:-1 147:-1 148:-1 151:-1 152:-1 153:-1 154:-1 155:-1 156:-1 157:-1 158:-1 159:-1 161:-1 162:-1 163:-1 164:-1 165:-1 167:-1 168:-1 169:-1 170:-1 171:-1 173:-1 174:-1 175:-1 176:-1 177:1 178:-1 179:-1 180:-1 181:-1 182:-1 183:-1 184:-1 185:-1 186:-1 187:-1 188:-1 189:-1 190:-1 191:-1 192:-1 193:-1 194:-1 195:-1 196:-1 197:-1 198:-1 199:-1 200:-1 201:-1 203:-1 204:-1 205:-1 206:-1 207:-1 208:-1 209:-1 210:-1 211:-1 213:-1 214:-1 215:-1 216:-1 217:-1 218:-1 219:-1 220:-1 222:-1 223:-1 224:-1 227:-1 228:-1 229:-1 230:-1 231:-1 232:-1 233:-1 234:-1 236:-1 239:-1 240:-1 241:-1 242:-1 243:-1 244:-1 245:-1 246:-1 247:-1 250:-1 251:-1 252:-1 
-2.262794372011895 1:-1 2:-1 3:-1 5:-1 6:-1 7:-1 8:-1 9:-1 10:-1 12:-1 13:-1 14:-1 15:-1 17:-1 19:-1 21:-1 22:-1 24:-1 25:-1 26:-1 27:-1 28:-1 29:-1 30:-1 32:-1 33:-1 35:-1 38:-1 39:-1 40:-1 41:-1 42:-1 43:-1 44:-1 45:-1 46:-1 47:-1 48:-1 50:-1 51:-1 52:-1 53:-1 54:-1 55:-1 57:-1 58:-1 59:-1 60:-1 61:-1 64:-1 65:-1 67:-1 69:-1 71:-1 72:-1 73:-1 74:-1 75:-1 76:-1 77:-1 78:-1 81:-1 83:-1 84:-1 85:-1 86:-1 87:-1 88:-1 89:-1 90:-1 91:-1 92:-1 93:-1 96:-1 98:-1 100:-1 101:-1 103:-1 104:-0.333333 105:-1 107:-1 108:-1 109:-1 110:-1 111:-1 112:-1 113:-1 114:-1 116:-1 117:-1 118:-1 119:-1 120:-1 121:-1 123:-1 124:-1 126:-1 127:-1 128:-1 129:-1 130:-1 132:-1 133:-1 134:-1 135:-1 136:-1 137:-1 138:-1 139:-1 140:-1 141:-1 142:-1 143:-1 144:-1 145:-1 146:-1 147:-1 148:-1 151:-1 152:-1 153:-1 154:-1 155:-1 156:-1 157:-1 158:-1 159:-1 161:-1 162:-1 163:-1 164:-1 165:-1 167:-1 168:-1 169:-1 170:-1 171:-1 173:-1 174:-1 175:-1 176:-1 178:1 179:-1 180:-1 181:-1 182:-1 183:-1 184:-1 185:-1 186:-1 187:-1 188:-1 189:-1 190:-1 191:-1 192:-1 193:-1 194:-1 195:-1 196:-1 197:-1 198:-1 199:-1 200:-1 201:-1 203:-1 204:-1 205:-1 206:-1 207:-1 208:-1 209:-1 210:-1 211:-1 213:-1 214:-1 215:-1 216:-1 217:-1 218:-1 219:-1 220:-1 222:-1 223:-1 224:-0.5 227:-1 228:-1 229:-1 230:-1 231:-1 232:-1 233:-1 234:-1 236:-1 239:-1 240:-1 241:-1 242:-1 243:-1 244:-1 245:-1 246:-1 247:-1 250:-1 251:-1 252:-1 
-1.227766978141317 1:-1 2:-1 3:-1 5:-1 6:-1 7:-1 8:-1 9:-1 10:-1 12:-1 13:-1 14:-1 15:-1 17:-1 19:-1 21:-1 22:-1 24:-1 25:-1 26:-1 27:-1 28:-0.666667 29:-1 30:-1 32:-1 33:-1 35:-1 38:-1 39:-0.777778 40:-1 41:-1 42:-1 43:-1 44:-1 45:-1 46:-1 47:-1 48:-1 50:-1 51:-1 52:-1 53:-1 54:-1 55:-1 57:-1 58:-1 59:-1 60:-1 61:-1 64:-1 65:-1 67:-1 69:-0.333333 71:-1 72:-1 73:-1 74:-1 75:-1 76:-1 77:-1 78:-1 81:-1 83:-1 84:-1 85:-1 86:-1 87:-1 88:-1 89:-1 90:-1 91:-1 92:-1 93:-1 96:-1 98:-1 100:-1 101:-1 103:-1 104:-1 105:-1 107:-1 108:-1 109:-1 110:-1 111:-1 112:-1 113:-1 114:-1 116:-1 117:-1 118:-1 119:-1 120:-1 121:-1 123:-1 124:-1 126:-1 127:-1 128:-1 129:-1 130:-1 132:-1 133:-1 134:-1 135:-1 136:-1 137:-1 138:-1 139:-1 140:-1 141:-1 142:-1 143:-1 144:-1 145:-1 146:-1 147:-1 148:-1 151:-1 152:-1 153:-1 154:-1 155:-1 156:-1 157:-1 158:-1 159:-1 161:-1 162:-1 163:-1 164:-1 165:-1 167:-1 168:-1 169:-1 170:-1 171:-1 173:-1 174:-1 175:-1 176:-1 178:1 179:-1 180:-1 181:-1 182:-1 183:-1 184:-1 185:-1 186:-1 187:-1 188:-1 189:-1 190:-1 191:-1 192:-1 193:-1 194:-1 195:-1 196:-1 197:-1 198:-1 199:-1 200:-1 201:-1 203:-1 204:-1 205:-1 206:-1 207:-1 208:-1 209:-1 210:-1 211:-1 213:-1 214:-1 215:-1 216:-1 217:-1 218:-1 219:-1 220:-1 222:-1 223:-1 224:-0.5 227:-1 228:-1 229:-1 230:-1 231:-1 232:-1 233:-1 234:-1 236:-1 239:-1 240:-1 241:-1 242:-1 243:-1 244:-1 245:-1 246:-1 247:-1 250:-1 251:-1 252:-1 
-1.849237546478313 1:-1 2:-1 3:-1 5:-1 6:-1 7:-1 8:-1 9:-1 10:-1 12:-1 13:-1 14:-1 15:-1 17:-1 19:-1 21:-1 22:-1 24:-1 25:-1 26:-1 27:-1 28:-0.333333 29:-1 30:-1 32:-1 33:-1 35:-1 38:-1 39:-1 40:-1 41:-1 42:-1 43:-1 44:-1 45:-1 46:-1 47:-1 48:-1 50:-1 51:-1 52:-0.5 53:-1 54:-1 55:-1 57:-1 58:-1 59:-1 60:-1 61:-1 64:-1 65:-1 67:-1 69:-1 71:-1 72:-1 73:-1 74:-1 75:-1 76:-1 77:-1 78:-1 81:-1 83:-1 84:-1 85:-1 86:-1 87:-1 88:-1 89:-1 90:-1 91:-1 92:-1 93:-1 96:-1 98:-1 100:-1 101:-1 103:-1 104:-1 105:-1 107:-1 108:-1 109:-1 110:-1 111:-1 112:-1 113:-1 114:-1 116:-1 117:-1 118:-1 119:-1 120:-1 121:-1 123:-1 124:-1 126:-1 127:-1 128:-1 129:-1 130:-1 132:-1 133:-1 134:-1 135:-1 136:-1 137:-1 138:-1 139:-1 140:-1 141:-1 142:-1 143:-1 144:-1 145:-1 146:-1 147:-1 148:-1 151:-1 152:-1 153:-1 154:-1 155:-1 156:-1 157:-1 158:-1 159:-1 161:-1 162:-1 163:-1 164:-1 165:-1 167:-1 168:-1 169:-1 170:-1 171:-1 173:-1 174:-1 175:-1 176:-1 178:1 179:-1 180:-1 181:-1 182:-1 183:-1 184:-1 185:-1 186:-1 187:-1 188:-1 189:-1 190:-1 191:-1 192:-1 193:-1 194:-1 195:-1 196:-1 197:-1 198:-1 199:-1 200:-1 201:-1 203:-1 204:-1 205:-1 206:-1 207:-1 208:-1 209:-1 210:-1 211:-1 213:-1 214:-1 215:-1 216:-1 217:-1 218:-1 219:-1 220:-1 222:-1 223:-1 224:-0.5 227:-1 228:-1 229:-1 230:-1 231:-1 232:-1 233:-1 234:-1 236:-1 239:-1 240:-1 241:-1 242:-1 243:-1 244:-1 245:-1 246:-1 247:-1 250:-1 251:-1 252:-1 
40.86027825372194 1:-1 2:-1 3:-1 5:-1 6:-1 7:-1 8:-1 9:-1 12:-1 13:-1 14:-1 15:-1 17:-1 19:-1 21:-1 22:-1 24:-1 25:-1 26:-1 27:-1 28:-0.833333 29:-1 30:-1 32:-1 33:-1 35:-1 38:-1 39:-0.888889 40:-0.5 41:-1 42:-1 43:-1 44:-1 45:-1 46:-1 47:-1 48:-1 50:-1 51:-1 52:-0.75 53:-1 54:-0.6 55:-1 57:-1 58:-1 59:-1 60:-1 61:-1 64:-1 65:-1 67:-1 69:-1 71:-0.8 72:-1 73:-1 74:1 75:-1 76:-0.666667 77:-1 78:-1 81:-1 83:-1 84:-1 85:-1 86:-1 87:-1 88:-1 89:-1 90:-1 91:-1 92:-1 93:-1 96:-1 98:-1 100:-1 101:-1 103:-1 104:-1 105:-1 107:-1 108:-1 109:-1 110:1 111:-1 112:-1 113:-1 114:-1 116:-1 117:-1 118:-1 119:-1 120:-1 121:-1 123:-1 124:-1 126:-1 127:-1 128:-1 129:-1 130:-1 132:-1 133:-1 134:-1 135:-1 136:-1 137:-1 138:-1 139:-1 140:-1 141:-1 142:-1 143:-1 144:-1 145:-1 146:-1 147:-1 148:-1 151:-1 152:-1 153:-1 154:-1 155:-1 156:-1 157:-1 158:-1 159:-1 161:-1 162:-1 163:-1 164:-1 165:-1 167:-1 168:-1 169:-1 170:-1 171:-1 173:1 174:1 175:-1 176:-1 178:-1 179:-1 180:-0.5 181:-0.666667 182:-1 183:-1 184:-1 185:-1 186:-1 187:-1 188:-1 189:-1 190:-1 191:-1 192:-1 193:-1 194:-1 195:-1 196:-1 197:-1 198:-1 199:-1 200:-1 201:-1 203:-1 204:-1 205:-1 206:-1 207:-1 208:-1 209:-1 210:-1 211:-1 213:-1 214:-0.692308 215:-1 216:-1 217:-1 218:-0.714286 219:-0.714286 220:-1 222:-1 223:-1 224:-1 227:-1 228:-1 229:-1 230:-1 231:-1 232:-1 233:-1 234:-1 236:-1 239:-1 240:-1 241:-1 242:-1 243:-1 244:-1 245:-1 246:-1 247:-1 250:-1 251:-1 252:-1 
-0.4092814091134868 1:-1 2:-1 3:-1 5:-1 6:-1 7:-1 8:-1 9:-1 10:-1 12:-1 13:-1 14:-1 15:-1 17:-1 19:-1 21:-1 22:-1 24:-1 25:-1 26:-1 27:-1 28:-0.833333 29:-1 30:-1 32:-1 33:-1 35:-1 38:-1 39:-0.888889 40:-1 41:-1 42:-1 43:-1 44:-1 45:-1 46:-1 47:-1 48:-1 50:-1 51:-1 52:-1 53:-1 54:-1 55:-1 57:-1 58:-1 59:-1 60:-1 61:-1 64:-1 65:-1 67:-1 69:-1 71:-1 72:-1 73:-1 74:-1 75:-1 76:-0.333333 77:-1 78:-1 81:-1 83:-1 84:-0.5 85:-1 86:-1 87:-1 88:-1 89:-1 90:-1 91:-1 92:-1 93:-1 96:-1 98:-1 100:-1 101:-1 103:-1 104:-1 105:-1 107:-1 108:-1 109:-1 110:-1 111:-1 112:-1 113:-1 114:-1 116:-1 117:-1 118:-1 119:-1 120:-1 121:-1 123:-1 124:-1 126:-1 128:-1 129:-1 130:-1 132:-1 133:-1 134:-1 135:-1 136:-0.166667 137:-0.333333 138:-1 139:-1 140:-1 141:-1 142:-1 143:-1 144:-1 145:-1 146:-1 147:-1 148:-1 152:-1 153:-1 154:-1 155:-1 156:-1 157:-1 158:-0.5 161:-1 162:-1 163:-1 164:-1 165:-1 167:-1 168:-1 169:-1 170:-1 171:-1 173:-1 174:-1 175:-0.5 176:-1 177:-1 178:-1 179:-1 180:-1 181:-1 182:-1 183:-1 184:-1 185:-1 186:-1 187:-1 188:-1 189:-1 190:-1 191:-1 192:-1 193:-1 194:-1 195:-1 196:-1 197:-1 198:-1 199:-1 200:-1 201:-1 203:-1 204:0.333333 205:-1 206:-1 207:-1 208:1 210:-1 211:-1 213:-1 214:-1 215:-1 216:-1 217:-1 218:-1 219:-0.714286 220:-1 222:-1 223:-1 224:-1 227:-1 228:-1 229:-1 230:-1 231:-1 232:-1 233:-1 234:-1 236:-1 239:-1 240:-1 241:-1 242:-1 243:-1 244:-1 245:-1 246:-1 247:-1 250:-1 251:-1 252:-1 
-3.18214413058053 1:-1 2:-1 3:-1 5:-1 6:-1 7:-1 8:-1 9:-1 10:-1 12:-1 13:-1 14:-1 15:-1 17:-1 19:-1 21:-1 22:-1 24:-1 25:-1 26:-1 27:-1 28:-1 29:-1 30:-1 32:-1 33:-1 35:-1 38:-1 39:-1 40:-1 41:-1 42:-1 43:-1 44:-1 45:-1 46:-1 47:-1 48:-1 50:-1 51:-1 52:-1 53:-1 54:-1 55:-1 57:-1 58:-1 59:-1 60:-1 61:-1 64:-1 65:-1 67:-1 69:-1 71:-1 72:-1 73:-1 74:-1 75:-1 76:-1 77:-1 78:-1 81:-1 83:-1 84:-1 85:-1 86:-1 87:-1 88:-1 89:-1 90:-1 91:-1 92:-1 93:-1 96:-1 98:-1 100:-1 101:-1 103:-1 104:-1 105:-1 107:-1 108:-1 109:-1 110:-1 111:-1 112:-1 113:-1 114:-1 116:-1 117:-1 118:-1 119:-1 120:-1 121:-1 123:-1 124:-1 126:-1 127:-1 128:-1 129:-1 130:-1 132:-1 133:-1 134:-1 135:-1 137:-1 138:-1 139:-1 140:-1 141:-1 142:-1 143:-1 144:-1 145:-1 146:-1 147:-1 148:-1 151:-1 152:-1 153:-1 154:-1 155:-1 156:-1 157:-1 158:-1 159:-1 161:-1 162:-1 163:-1 164:-1 165:-1 167:-1 168:-1 169:-1 170:-1 171:-1 173:-1 174:-1 175:-1 176:-1 177:-1 178:-1 179:-1 180:-1 181:-1 182:-1 183:-1 184:-1 185:-1 186:-1 187:-1 188:-1 189:-1 190:-1 191:-1 192:-1 193:-1 194:-1 195:-1 196:-1 197:-1 198:-1 199:-1 200:-1 201:-1 203:-1 204:-1 205:-1 206:-1 207:-1 208:-1 209:-1 210:-1 211:-1 213:-1 214:-1 215:-1 216:-1 217:-1 218:-1 219:-1 220:-1 222:-1 223:-1 224:-1 227:-1 228:-1 229:-1 230:-1 231:-1 232:-1 233:-1 234:-1 236:-1 239:-1 240:-1 241:-1 242:-1 243:-1 244:-1 245:-1 246:-1 247:-1 250:-1 251:-1 252:-1 
-1.825101571325079 1:-1 2:-1 3:-1 5:-1 6:-1 7:-1 8:-1 9:-1 10:-1 12:-1 13:-1 14:-1 15:-1 17:-1 19:-1 21:-1 22:-1 24:-1 25:-1 26:-1 27:-1 28:-1 29:-1 30:-1 32:-1 33:-1 35:-1 38:-1 39:-1 40:-1 41:-1 42:-1 43:-1 44:-1 45:-1 46:-1 47:-1 48:-1 50:-1 51:-1 52:-1 53:-1 54:-1 55:-1 57:-1 58:-1 59:-1 60:-1 61:-1 64:-1 65:-1 67:-1 69:-1 71:-1 72:-1 73:-1 74:-1 75:-1 76:-1 77:-1 78:-1 81:-1 83:-1 84:-0.5 85:-1 86:-1 87:-1 88:-1 89:-1 90:-1 91:-1 92:-1 93:-1 96:-1 98:-1 100:-1 101:-1 103:-1 104:-1 105:-1 107:-1 108:-1 109:-1 110:-1 111:-1 112:-1 113:-1 114:-1 116:-1 117:-1 118:-1 119:-1 120:-1 121:-1 123:-1 124:-1 126:-0.333333 127:-1 128:-1 129:-1 130:-1 132:-1 133:-1 134:-1 135:-1 136:0.333333 137:-1 138:-1 139:-1 141:-1 142:-1 143:-1 144:-1 145:-1 146:-1 147:-1 148:-1 151:-1 152:-1 153:-1 154:-1 155:-1 156:-1 157:-1 158:-1 159:-1 161:-1 162:-1 163:-1 164:-1 165:-1 167:-1 168:-1 169:-1 170:-1 171:-1 173:-1 174:-1 176:-1 177:-1 178:-1 179:-1 180:-1 181:-1 182:-1 183:-1 184:-1 185:-1 186:-1 187:-1 188:-1 189:-1 190:-1 191:-1 192:-1 193:-1 194:-1 195:-1 196:-1 197:-1 198:-1 199:-1 200:-1 201:-1 203:-1 204:-1 205:-1 206:-1 207:-1 208:-1 209:-1 210:-1 211:-1 213:-1 214:-1 215:-1 216:-1 217:-1 218:-1 219:-1 220:-1 222:-1 223:-1 224:-1 227:-1 228:-1 229:-1 230:-1 231:-1 232:-1 233:-1 234:-1 236:-1 239:-1 240:-1 241:-1 242:-1 243:-1 244:-1 245:-1 246:-1 247:-1 250:-1 251:-1 252:-1 
-2.217554900133177 1:-1 2:-1 3:-1 5:-1 6:-1 7:-1 8:-1 9:-1 10:-1 12:-1 13:-1 14:-1 15:-1 17:-1 19:-1 21:-1 22:-1 24:-1 25:-1 26:-1 27:-1 28:-1 29:-1 30:-1 32:-1 33:-1 35:-1 38:-1 39:-1 40:-1 41:-1 42:-1 43:-1 44:-1 45:-1 46:-1 47:-1 48:-1 50:-1 51:-1 52:-1 53:-1 54:-1 55:-1 57:-1 58:-1 59:-1 60:-1 61:-1 64:-1 65:-1 67:-1 69:-1 71:-1 72:-1 73:-1 74:-1 75:-1 76:-1 77:-1 78:-1 81:-1 83:-1 84:-1 85:-1 86:-1 87:-1 88:-1 89:-1 90:-1 91:-1 92:-1 93:-1 96:-1 98:-1 100:-1 101:-1 103:-1 104:-1 105:-1 107:-1 108:-1 109:-1 110:-1 111:-1 112:-1 113:-1 114:-1 116:-1 117:-1 118:-1 119:-1 120:-1 121:-1 123:-1 124:-1 126:-1 127:-1 128:-1 129:-1 130:-1 132:-1 133:-1 134:-1 135:-1 136:1 137:-1 138:-1 139:-1 140:-1 141:-1 142:-1 143:1 144:-1 145:-1 146:-1 147:-1 148:-1 151:-1 152:-1 153:-1 154:-1 155:-1 156:-1 157:-1 158:-1 159:-1 161:-1 162:-1 163:-1 164:-1 165:-1 167:-1 168:-1 169:-1 170:-1 171:-1 173:-1 174:-1 175:-1 176:-1 177:-1 178:-1 179:-1 180:-1 181:-1 182:-1 183:-1 184:-1 185:-1 186:-1 187:-1 188:-1 189:-1 190:-1 191:-1 192:-1 193:-1 194:-1 195:-1 196:-1 197:-1 198:-1 199:-1 200:-1 201:-1 203:-1 204:-1 205:-1 206:-1 207:-1 208:-1 209:-1 210:-1 211:-1 213:-1 214:-1 215:-1 216:-1 217:-1 218:-1 219:-1 220:-1 222:-1 223:-1 224:-1 227:-1 228:-1 229:-1 230:-1 231:-1 232:-1 233:-1 234:-1 236:-1 239:-1 240:-1 241:-1 242:-1 243:-1 244:-1 245:-1 246:-1 247:-1 250:-1 251:-1 252:-1 
1.1042488216574 1:-1 2:-1 3:-1 5:-1 6:-1 7:-1 8:-1 9:-1 10:-1 12:-1 13:-1 14:-1 15:-1 17:-1 19:-1 21:-1 22:-1 24:-1 25:-1 26:-1 27:-1 28:-1 29:-1 30:-1 32:-1 33:-1 35:-1 38:-1 39:-1 40:-1 41:-1 42:-1 43:-1 44:-1 45:-1 46:-1 47:-1 48:-1 50:-1 51:-1 52:-1 53:-1 54:-1 55:-1 57:-1 58:-1 59:-1 60:-1 61:-1 64:-1 65:-1 67:-1 69:-1 71:-1 72:-1 73:-1 74:-1 75:-1 76:-1 77:-1 78:-1 81:-1 83:-1 84:-1 85:-1 86:-1 87:-1 88:-1 89:-1 90:-1 91:-1 92:-1 93:-1 96:-1 98:-1 100:-1 101:-1 103:-1 104:-1 105:-1 107:-1 108:-1 109:-1 110:-1 111:-1 112:-1 113:-1 114:-1 116:-1 117:-1 118:-1 119:-1 120:-1 121:-1 123:-1 124:-1 126:-1 127:-1 128:-1 129:-1 130:-1 132:-1 133:-1 134:-1 135:-1 136:-0.166667 137:-1 138:-1 139:-1 140:-1 141:-1 142:-1 143:-0.75 144:-1 146:-1 147:-1 148:-1 151:-1 153:-1 154:-1 155:-1 156:-1 157:-1 158:-1 159:-1 161:-1 162:-1 163:-1 164:-1 165:-1 167:-1 168:-1 169:-1 170:-1 171:-1 173:-1 174:-1 175:-1 176:-1 177:-1 178:-1 179:-1 180:-1 181:-1 182:-1 183:-1 184:-1 185:-1 186:-1 187:-1 188:-1 189:-1 190:-1 191:-1 192:-1 193:-1 194:-1 195:-1 196:-1 197:-1 198:-1 199:-1 200:-1 201:-1 203:-1 204:-1 205:-1 206:-1 207:-1 208:-1 209:-1 210:-1 211:-1 213:-1 214:-1 215:-1 216:-1 217:-1 218:-1 219:-1 220:-1 222:-1 223:-1 224:-1 228:-1 229:-1 230:-1 231:-1 232:-1 233:-1 234:-1 236:-1 239:-1 240:-1 241:-1 242:-1 243:-1 244:-1 245:-1 246:-1 247:-1 250:-1 251:-1 252:-1 
-2.321069570049639 1:-1 2:-1 3:-1 5:-1 6:-1 7:-1 8:-1 9:-1 10:-1 12:-1 13:-1 14:-1 15:-1 17:-1 19:-1 21:-1 22:-1 24:-1 25:-1 26:-1 27:-1 28:-1 29:-1 30:-1 32:-1 33:-1 35:-1 38:-1 39:-0.888889 40:-1 41:-1 42:-1 43:-1 44:-1 45:-1 46:-1 47:-1 48:-1 50:-1 51:-1 52:-1 53:-1 54:-1 55:-1 57:-1 58:-1 59:-1 60:-1 61:-1 64:-1 65:-1 67:-1 69:-0.666667 71:-0.8 72:-1 73:-1 74:-1 75:-1 76:-1 77:-1 78:-1 81:-1 83:-1 84:-1 85:-1 86:-1 87:-1 88:-1 89:-1 90:-1 91:-1 92:-1 93:-1 96:-1 98:-1 100:-1 101:-1 103:-1 104:-1 105:-1 107:-1 108:-1 109:-1 110:-1 111:-1 112:-1 113:-1 114:-1 116:-1 117:-1 118:-1 119:-1 120:-1 121:-1 123:-1 124:-1 126:-1 128:-1 129:-1 130:-1 132:-1 133:-1 134:-1 135:1 136:-0.166667 137:-0.333333 138:-1 139:-1 140:-1 141:-1 142:-1 143:-1 144:-1 145:-1 146:-1 147:-1 148:-1 151:-1 152:-1 153:-1 154:-1 155:-1 156:-1 157:-1 158:-1 159:-1 161:-1 162:-1 163:-1 164:-1 165:-1 167:-1 168:-1 169:-1 170:-1 171:-1 173:-1 174:-1 175:-0.5 176:-1 177:-1 178:-1 179:-1 180:-1 181:-1 182:-1 183:-1 184:-1 185:-1 186:-1 187:-1 188:-1 189:-1 190:-1 191:-1 192:-1 193:-1 194:-1 195:-1 196:-1 197:-1 198:-1 199:-1 200:-1 201:-1 203:1 204:-1 205:-1 206:-1 207:-1 208:-1 209:-1 210:-1 211:-1 213:1 214:-0.846154 215:-1 216:-1 217:-1 218:-0.714286 219:-1 220:-1 222:-1 223:-1 224:-1 227:-1 228:1 229:-1 230:-1 231:-1 232:-1 233:-1 234:-1 236:-1 239:-1 240:-1 241:-1 242:-1 243:-1 244:-1 245:-1 246:-1 247:-1 250:-1 251:-1 252:-1 
-2.171098044225139 1:-0.6 2:-1 3:-1 5:-1 6:-1 7:-1 8:-1 9:-1 10:-1 12:-1 13:-1 14:-1 15:-1 17:-1 19:-1 21:0.333333 22:-1 24:-1 25:-1 26:-1 27:-1 28:-1 29:-1 30:-1 32:-1 33:-1 35:-1 38:-1 39:-1 40:-1 41:-1 42:-1 43:-1 45:-1 46:-1 47:-1 48:-1 50:-1 51:-1 52:-1 53:-1 54:-1 55:-1 57:-1 58:-1 59:-1 60:-1 61:-1 64:-1 65:-1 67:-1 69:-1 71:-1 72:-1 73:-1 74:-1 75:-1 76:-0.333333 77:-1 78:-1 81:-1 83:-1 84:-1 85:-1 86:-1 87:-1 88:-1 89:-1 90:-1 91:-1 92:-1 93:-1 96:-1 98:-1 100:-1 101:-1 103:-1 104:-1 105:-1 107:-1 108:-1 109:-1 110:-1 111:-1 112:-1 113:-1 114:-1 116:-1 117:-1 118:-1 119:-1 120:-1 121:-1 123:-1 124:-1 126:-1 127:-1 128:-1 129:-1 130:-1 132:-1 133:-1 134:-1 135:-1 136:-1 137:-1 138:-1 139:-1 140:-1 141:-1 142:-1 143:-1 144:-1 145:-1 146:-1 147:-1 148:-1 151:-1 152:-1 153:-1 154:-1 155:-1 156:-1 157:-1 158:-1 159:-1 161:-1 162:-1 163:-1 164:-1 165:-1 167:-1 168:-1 169:-1 170:-1 171:-1 173:-1 174:-1 175:-1 176:-1 177:-1 178:-1 179:-1 180:-1 181:-1 182:-1 183:-1 184:-1 185:-1 186:-1 187:-1 188:-1 189:-1 190:-1 191:-1 192:-1 193:-1 194:-1 195:-1 196:-1 197:-1 198:-1 199:-1 200:-1 201:-1 203:-1 204:-1 205:-1 206:-1 207:-1 208:-1 209:-1 210:-1 211:-1 213:-1 214:-1 215:-1 216:-1 217:-1 218:-0.428571 219:-1 220:-1 222:-1 223:-1 224:-1 227:-1 228:-1 229:-1 230:-1 231:-1 232:-1 233:-1 234:-1 236:-1 239:-1 240:-1 241:-1 242:-1 243:-1 244:-1 245:-1 246:-1 247:-1 250:-1 251:-1 252:-1 
-1.799040571304878 1:-1 2:-1 3:-1 5:-1 6:-1 7:-1 8:-1 9:-1 10:-1 12:-1 13:-1 14:-1 15:-1 17:-1 19:-1 21:-1 22:-1 24:-1 25:-1 26:-1 27:-1 28:-1 29:-1 30:-1 32:-1 33:-1 35:-1 38:-1 39:-1 40:-1 41:-1 42:-1 43:-1 44:-1 45:-1 46:-1 47:-1 48:-1 50:-1 51:-1 52:-1 53:-1 54:-1 55:-1 57:-1 58:-1 59:-1 60:-1 61:-1 64:-1 65:-1 67:-1 69:-1 71:-1 72:-1 73:-1 74:-1 75:-1 76:-1 77:-1 78:-1 81:-1 83:-1 84:-1 85:-1 86:-1 87:-1 88:-1 89:-1 90:-1 91:-1 92:-1 93:-1 96:-1 98:-1 100:1 101:-1 103:-1 104:-1 105:-1 107:-1 108:-1 109:-1 110:-1 111:-1 112:-1 113:-1 114:-1 116:-1 117:-1 118:-1 119:-1 120:-1 121:-1 123:-1 124:-1 126:-1 127:-1 128:-1 129:-1 130:-1 132:-1 133:-1 134:-1 135:-1 136:-1 137:-1 138:-1 139:-1 140:-1 141:-1 142:-1 143:-1 144:-1 145:-1 146:-1 147:-1 148:-1 151:-1 152:-1 153:-1 154:-1 155:-1 156:-1 157:-1 158:-1 159:-1 161:-1 162:-1 163:-1 164:-0.666667 165:-1 167:-1 168:-1 169:-1 170:-1 171:-1 173:-1 174:-1 175:-1 176:-1 177:-1 178:-1 179:-1 180:-1 181:-1 182:-1 183:-1 184:-1 185:-1 186:-1 187:-1 188:-1 189:-1 190:-1 191:-1 192:-1 193:-1 194:-1 195:-1 196:-1 197:-1 198:-1 199:-1 200:-1 201:-1 203:-1 204:-1 205:-1 206:-1 207:-1 208:-1 209:-1 210:-1 211:-1 213:-1 214:-1 215:-1 216:-1 217:-1 218:-1 219:-0.714286 220:-1 222:-1 223:-1 224:-1 227:-1 228:-1 229:-1 230:-1 231:-1 232:-1 233:-1 234:-1 236:-1 239:-1 240:-1 241:-1 242:-1 243:-1 244:-1 245:-1 246:-1 247:-1 250:-1 251:-1 252:-1 
-1.27306421613727 1:-1 2:-1 3:-1 5:-1 6:-1 7:-1 8:-1 9:-1 10:-1 12:-1 13:-1 14:-1 15:-1 17:-1 19:-1 21:-1 22:-1 24:-1 25:-1 26:-1 27:-1 28:-1 29:-1 30:-1 32:-1 33:-1 35:-1 38:-1 39:-1 40:-1 41:-1 42:-1 43:-1 44:-1 45:-1 46:-1 47:-1 48:-1 50:-1 51:-1 52:-1 53:-1 54:-1 55:-1 57:-1 58:-1 59:-1 60:-1 61:-1 64:-1 65:-1 67:-1 69:-0.333333 71:-1 72:-1 73:-1 74:-1 75:-1 76:-0.333333 77:-1 78:-1 81:-1 83:-1 84:-1 85:-1 86:-1 87:1 88:1 89:-1 90:-1 91:-1 92:-1 93:-1 96:-1 98:-1 100:-1 101:-1 103:-1 104:-1 105:-1 107:-1 108:-1 109:-1 110:-1 111:-1 112:-1 113:-1 114:-1 116:-1 117:-1 118:-1 119:-1 120:-1 121:-1 123:-1 124:-1 126:-1 127:-1 128:-1 129:-1 130:-1 132:-1 133:-1 134:1 135:-1 137:-1 138:-1 139:-1 140:-1 141:-1 142:-1 143:-0.75 144:-0.5 145:-1 146:-1 147:-1 148:1 151:-1 152:-1 153:-1 154:-1 155:-1 156:-1 157:-1 158:-1 159:-1 161:-1 162:-1 163:-1 164:-1 165:-1 167:-1 168:-1 169:-1 170:-1 171:-1 173:-1 174:-1 175:-1 176:-1 177:-1 178:-1 179:-1 180:-1 181:-0.666667 182:-1 183:-1 184:-1 185:-1 186:-1 187:-1 188:-1 189:-1 190:-0.5 191:-1 192:-1 193:-1 194:-1 195:-1 196:-1 197:-1 198:-1 199:-1 200:-1 201:-1 203:-1 204:0.333333 205:-1 206:-1 207:-1 208:-1 209:-1 210:-1 211:-1 213:-1 214:-1 215:-0.5 216:-1 217:-1 218:-0.428571 219:-1 220:-1 222:-1 223:-1 224:-0.5 227:-1 228:-1 229:-1 230:-1 231:-1 232:-1 233:-1 234:-1 236:-1 239:-1 240:-1 241:-1 242:-1 243:-1 244:-1 245:-1 246:-1 247:-1 250:-1 251:1 252:-1 
-1.757388307731241 1:-1 2:-1 3:-1 5:-1 6:-1 7:-1 8:-1 9:-1 10:-1 12:-1 13:-1 14:-1 15:-1 17:-1 19:-1 21:-1 22:-1 24:-1 25:-1 26:-1 27:-1 28:-1 29:-1 30:-1 32:-1 33:-1 35:-1 38:-1 39:-1 40:-1 41:-1 42:1 43:-1 44:-1 45:-1 46:-1 47:-1 48:-1 50:-1 51:-1 52:-1 53:-1 54:-1 55:-1 57:-1 58:-1 59:-1 60:-1 61:-1 64:-1 65:-1 67:-1 69:-1 71:-1 72:-1 73:-1 74:-1 75:-1 76:-1 77:-1 78:-1 81:-1 83:-1 84:0.5 85:-1 86:-1 87:-1 88:-1 89:-1 90:-1 91:-1 92:-1 93:-1 96:-1 98:-1 100:-1 101:-1 103:-1 104:-1 105:-1 107:-1 108:-1 109:-1 110:-1 111:-1 112:-1 113:-1 114:-1 116:-1 117:-1 118:-1 119:-1 120:-1 121:-1 123:-1 124:-1 126:-1 127:-1 128:-1 129:-1 130:-1 132:-1 133:-1 134:-1 135:-1 136:-0.333333 137:-0.333333 138:-1 139:-1 140:1 141:-1 142:-1 143:-1 144:-1 145:-1 146:-1 147:-1 148:-1 151:-1 152:-1 153:-1 154:-1 155:-1 156:-1 157:-1 158:-1 159:-1 161:-1 162:-1 163:-1 164:-1 165:-1 167:-1 168:-1 169:-1 170:-1 171:-1 173:-1 174:-1 175:1 176:-1 177:-1 178:-1 179:-1 180:-1 181:-1 182:-1 183:-1 184:-1 185:-1 186:-1 187:-1 188:-1 189:-1 190:-1 191:-1 192:-1 193:-1 194:-1 195:-1 196:-1 197:-1 198:-1 199:-1 200:-1 201:-1 203:-1 204:-1 205:-1 206:-1 207:-1 208:-1 209:-1 210:-1 211:-1 213:-1 214:-0.692308 215:-1 216:-1 217:-1 218:-1 219:-1 220:-1 222:-1 223:-1 224:-1 227:-1 228:-1 229:-1 230:-1 231:-1 232:-1 233:-1 234:-1 236:-1 239:-1 240:-1 241:-1 242:-1 243:-1 244:-1 245:-1 246:-1 247:-1 250:-1 251:-1 252:-1 
0.2138272577212609 1:-1 2:-1 3:-1 5:-1 6:-1 7:-1 8:-1 9:-1 10:-1 12:-1 13:-1 14:-1 15:-1 17:-1 19:-1 21:-1 22:-1 24:-1 25:-1 26:-1 27:-1 28:-1 29:-1 30:-1 32:-1 33:-1 35:-1 38:-1 39:-1 40:-1 41:-1 42:-1 43:-1 44:-1 45:-1 46:-1 47:-1 48:-1 50:-1 51:-1 52:-1 53:-1 54:-1 55:-1 57:-1 58:-1 59:-1 60:-1 61:-1 64:-1 65:-1 67:-1 69:-0.333333 71:-1 72:-1 73:-1 74:-1 75:-1 76:-0.333333 77:-1 78:-1 81:-1 83:-1 84:-1 85:-1 86:-1 87:-1 88:-1 89:-1 90:-1 91:-1 92:-1 93:-1 96:-1 98:-1 100:-1 101:-1 103:-1 104:-0.666667 105:-1 107:-1 108:-1 109:-1 110:-1 111:-1 112:-1 113:-1 114:-1 116:-1 117:-1 118:-1 119:-1 120:-1 121:-1 123:-1 124:-1 126:-1 127:-1 128:-1 129:-1 130:-1 132:-1 133:-1 134:-1 135:-1 136:-0.5 137:-1 138:-1 139:-1 140:0.5 141:-1 142:-1 143:-1 144:-1 145:-1 146:-1 147:-1 148:-1 151:-1 152:-1 153:-1 154:-1 155:-1 156:-1 157:-1 158:-1 159:-1 161:-1 162:-1 163:-1 164:-1 165:-1 167:-1 168:-1 169:-1 170:-1 171:-1 173:-1 174:-1 175:-1 176:-1 177:-1 178:-1 179:-1 180:-0.5 181:-0.666667 182:-1 183:-1 184:-1 185:-1 186:-1 187:-1 188:-1 189:-1 190:-0.5 191:-1 192:-1 193:-1 194:-1 195:-1 196:-1 197:-1 198:-1 199:-1 200:-1 201:-1 203:-1 204:-1 205:-1 206:-1 207:-1 208:-1 209:-1 210:-1 211:-1 213:-1 214:-1 215:-0.5 216:-1 217:-1 218:-0.428571 219:-1 220:-1 222:-1 223:-1 224:-0.5 227:-1 228:-1 229:-1 230:-1 231:-1 232:-1 233:-1 234:-1 236:-1 239:-1 240:-1 241:-1 242:-1 243:-1 244:-1 245:-1 246:-1 247:-1 250:-1 251:-1 252:-1 
-1.913761999223456 1:-0.8 2:-1 3:-1 5:-1 6:-1 7:-1 8:-1 9:-1 10:-1 12:-1 13:-1 14:-1 15:-1 17:-1 19:-1 21:-1 22:-1 24:1 25:-1 26:-1 27:-1 28:-1 29:-1 30:-1 32:-1 33:-1 35:-1 38:-1 39:-1 40:-1 41:-1 42:-1 43:-1 44:-1 45:-1 46:-1 47:-1 48:-1 50:-1 51:-1 52:-1 53:-1 54:-1 55:-1 57:-1 58:-1 59:-1 60:-1 61:-1 64:-1 65:-1 67:-1 69:-1 71:-1 72:-1 73:-1 74:-1 75:-1 76:-1 77:-1 78:-1 81:-1 83:-1 84:-1 85:-1 86:-1 87:-1 88:-1 89:-1 90:-1 91:-1 92:-1 93:-1 96:-1 98:-1 100:-1 101:-1 103:-1 104:-1 105:-1 107:-1 108:-1 109:-1 110:-1 111:-1 112:-1 113:-1 114:-1 116:-1 117:-1 118:-1 119:-1 120:-1 121:-1 123:-1 124:-1 126:-1 127:-1 128:-1 129:-1 130:-1 132:-1 133:-1 134:-1 135:-1 136:-1 137:-1 138:-1 139:-1 140:-1 141:-1 142:-1 143:-1 144:-1 145:-1 146:-1 147:-1 148:-1 151:-1 152:-1 153:-1 154:-1 155:-1 156:-1 157:-1 158:-1 159:-1 161:-1 162:-1 163:-1 164:-0.666667 165:-1 167:-1 168:-1 169:-1 170:-1 171:-1 173:-1 174:-1 175:-1 176:-1 177:-1 178:-1 179:-1 180:-1 181:-1 182:-1 183:-1 184:-1 185:-1 186:-1 187:-1 188:-1 189:-1 190:-1 191:-1 192:-1 193:-1 194:-1 195:-1 196:-1 197:-1 198:-1 199:-1 200:-1 201:-1 203:-1 204:-1 205:-1 206:-1 207:-1 208:-1 209:-1 210:-1 211:-1 213:-1 214:-1 215:-1 216:-1 217:-1 218:-1 219:-1 220:-1 222:-1 223:-1 224:-1 227:-1 228:-1 229:-1 230:-1 231:-1 232:-1 233:-1 234:-1 236:-1 239:-1 240:-1 241:-1 242:-1 243:-1 244:-1 245:-1 246:-1 247:-1 250:-1 251:-1 252:-1 
-40.28520541582385 1:-0.8 2:-1 3:-1 5:-1 6:-1 7:-1 8:-1 9:-1 10:-1 12:-1 13:-1 14:-1 15:-1 17:-1 19:-1 21:-0.333333 22:-1 24:-1 25:-1 26:-1 27:-1 28:-0.833333 29:-1 30:-1 32:-1 33:-1 35:-1 38:-1 39:-1 40:-1 41:-1 42:-1 43:-1 44:-1 45:-1 46:-1 47:-1 48:-1 50:-1 51:-1 52:-1 53:-1 54:-1 55:-1 57:-1 58:-1 59:-1 60:-1 61:-1 64:-1 65:-1 67:-1 69:-1 71:-1 72:-1 73:-1 74:-1 75:-1 76:-1 77:-1 78:-1 81:-1 83:-1 84:-1 85:-1 86:-1 87:-1 88:-1 89:-1 90:-1 91:-1 92:-1 93:-1 96:-1 98:-1 100:-1 101:-1 103:-1 104:-1 105:-1 107:-1 108:-1 109:-1 110:-1 111:-1 112:-1 113:-1 114:-1 116:-1 117:-1 118:-1 119:-1 120:-1 121:-1 123:-1 124:-1 126:-1 127:-1 128:-1 129:-1 130:-1 132:-1 133:-1 134:-1 135:-1 136:-1 137:-1 138:-1 139:-1 140:-1 141:-1 142:-1 143:-1 144:-1 145:-1 146:-1 147:-1 148:-1 151:-1 152:-1 153:-1 154:-1 155:-1 156:-1 157:-1 158:-1 159:-1 161:-1 162:-1 163:-1 164:-1 165:-1 167:-1 168:-1 169:-1 170:-1 171:-1 173:-1 174:-1 175:-1 176:-1 177:-1 178:-1 179:-1 180:-1 181:-1 182:-1 183:-1 184:-1 185:-1 186:-1 187:-1 188:-1 189:-1 190:-1 191:-1 192:-1 193:-1 194:-1 195:-1 196:-1 197:-1 198:-1 199:-1 200:-1 201:-1 203:-1 204:-1 205:-1 206:-1 207:-1 208:-1 209:-1 210:-1 211:-1 213:-1 214:-1 215:-1 216:-1 217:-1 218:-1 219:-1 220:-1 222:-1 223:-1 224:-1 227:-1 228:-1 229:-1 230:-1 231:-1 232:-1 233:-1 234:-1 236:-1 239:-1 240:-1 241:-1 242:-1 243:-1 244:-1 245:-1 246:-1 247:-1 250:-1 251:-1 252:-1 
-2.246802732366779 1:-1 2:-1 3:-1 5:-1 6:-1 7:-1 8:-1 9:-1 10:-1 12:-1 13:-1 14:-1 15:-1 17:-1 19:-1 21:-1 22:-1 24:-1 25:-1 26:-1 27:-1 28:-0.5 30:-1 32:-1 33:-1 35:-1 38:-1 39:-0.333333 40:-0.5 41:-1 42:1 44:1 45:-1 46:-1 47:-1 50:-1 51:-1 52:-1 53:-1 54:-0.2 55:-1 57:-1 58:-1 59:-1 60:-1 61:-1 64:-1 65:-1 67:-1 69:-1 71:-1 72:-1 73:-1 74:-1 75:-1 76:-0.666667 77:-1 81:-1 83:-1 84:-1 85:-1 86:-1 87:-1 88:-1 89:-1 90:-1 91:-1 92:-1 93:-1 96:-1 98:-1 100:-1 101:-1 103:-1 104:-1 105:-1 107:-1 108:-1 109:-1 110:-1 111:-1 112:-1 113:-1 114:-1 116:-1 117:-1 118:-1 119:-1 120:-1 121:-1 123:-1 124:-1 126:-1 127:-1 128:-1 129:-1 130:-1 132:-1 133:-1 134:-1 135:-1 136:-1 137:-1 138:-1 139:-1 140:-1 141:-1 142:-1 143:-1 144:-1 145:-1 146:-1 147:-1 148:-1 151:-1 152:-1 153:-1 154:-1 155:-1 156:-1 157:-1 158:-1 159:-1 161:-1 162:-1 163:-1 164:-1 165:-1 167:-1 168:-1 169:-1 170:-1 171:-1 173:-1 174:-1 175:-1 176:-1 177:-1 178:-1 179:-1 180:-1 181:-1 182:-1 183:-1 184:-1 185:-1 186:-1 187:-1 188:-1 189:-1 190:-1 191:-1 192:-1 193:-1 194:-1 195:-1 196:-1 197:-1 198:-1 199:-1 200:-1 201:-1 203:-1 204:-1 205:-1 206:-1 207:-1 208:-1 209:-1 210:-1 211:-1 213:-1 214:-0.692308 215:-1 216:-1 217:-1 218:-0.428571 219:-0.428571 220:-1 222:-1 223:-1 224:-1 227:-1 228:-1 229:-1 230:-1 231:-1 232:-1 233:-1 234:-1 236:-1 239:-1 240:-1 241:-1 242:-1 243:-1 244:-1 245:-1 246:-1 247:-1 250:-1 251:-1 252:-1 
4.281406388644712 1:-1 2:-1 3:-1 5:1 6:-1 7:-1 8:-1 9:-1 10:-1 12:-1 13:-1 14:-1 15:-1 17:-1 19:-1 21:-1 22:-1 24:-1 25:-1 26:-1 27:-1 28:-1 29:-0.333333 30:-1 32:-1 33:-1 35:-1 38:-1 39:-1 40:-1 41:-1 42:-1 43:-1 44:-1 45:-1 46:-1 47:-1 48:-1 50:-1 51:-1 52:-1 53:-1 54:-1 55:-1 57:-1 58:-1 59:-1 60:-1 61:-1 64:-1 65:-1 67:-1 69:-1 71:-1 72:-1 73:-1 74:-1 75:-1 76:-1 77:-1 78:-1 81:-1 83:-1 84:-1 85:-1 86:-1 87:-1 88:-1 89:-1 90:-1 91:-1 92:-1 93:-1 96:-1 98:-1 100:-1 101:-1 103:-1 104:-1 105:-1 107:-1 108:-1 109:-1 110:-1 111:-1 112:-1 113:-1 114:-1 116:-1 117:-1 118:-1 119:-1 120:-1 121:-1 123:-1 124:-1 126:-1 127:-1 128:-1 129:-1 130:-1 132:-1 133:-1 134:-1 135:-1 136:-1 137:-1 138:-1 139:-1 140:-1 141:-1 142:-1 143:-1 144:-1 145:-1 146:-1 147:-1 148:-1 151:-1 152:-1 153:-1 154:-1 155:-1 156:-1 157:-1 158:-1 159:-1 161:-1 162:-1 163:-1 164:-1 165:-1 167:-1 168:-1 169:-1 170:-1 171:-1 173:-1 174:-1 175:-1 176:-1 177:-1 178:-1 179:-1 180:-1 181:-1 182:-1 183:-1 184:-1 185:-1 186:-1 187:-1 188:-1 189:-1 190:-1 191:-1 192:-1 193:-1 194:-1 195:-1 196:-1 197:-1 198:-1 199:-1 200:-1 201:-1 203:-1 204:-1 205:-1 206:-1 207:-1 208:-1 209:-1 210:-1 211:-1 213:-1 214:-1 215:-1 216:-1 217:-1 218:-1 219:-1 220:-1 222:-1 223:-1 224:-1 227:-1 228:-1 229:-1 230:-1 231:-1 232:-1 233:-1 234:-1 236:-1 239:-1 240:-1 241:-1 242:-1 243:-1 244:-1 245:-1 246:-1 247:-1 250:-1 251:-1 252:-1 
-30.57686868957934 1:-1 2:-1 3:-1 5:-1 6:-1 7:-1 8:-1 9:-1 10:-1 12:-1 13:-1 14:-1 15:-1 17:-1 19:-1 21:-1 22:-1 24:-1 25:-1 26:-1 27:-1 28:-0.5 29:-1 30:-1 32:-1 33:-1 35:-1 38:-1 39:-1 40:-1 41:-1 42:-1 43:-1 44:-1 45:-1 46:-1 47:-1 50:-1 51:-1 52:-1 53:-1 54:-1 55:-1 57:-1 58:-1 59:-1 60:-1 61:-1 64:-1 65:-1 67:-1 69:-1 71:-1 72:-1 73:-1 74:-1 75:-1 76:-1 77:-1 78:-1 81:-1 83:-1 84:-1 85:-1 86:-1 87:-1 88:-1 89:-1 90:-1 91:-1 92:-1 93:-1 96:-1 98:-1 100:-1 101:-1 103:-1 104:-1 105:-1 107:-1 108:-1 109:-1 110:-1 111:-1 112:-1 113:-1 114:-1 116:-1 117:-1 118:-1 119:-1 120:-1 121:-1 123:-1 124:-1 126:-1 127:-1 128:-1 129:-1 130:-1 132:-1 133:-1 134:-1 135:-1 136:-1 137:-1 138:-1 139:-1 140:-1 141:-1 142:-1 143:-1 144:-1 145:-1 146:-1 147:-1 148:-1 151:-1 152:-1 153:-1 154:-1 155:-1 156:-1 157:-1 158:-1 159:-1 161:-1 162:-1 163:-1 164:-1 165:-1 167:-1 168:-1 169:-1 170:-1 171:-1 173:-1 174:-1 175:-1 176:-1 177:-1 178:-1 179:-1 180:-1 181:-1 182:-1 183:-1 184:-1 185:-1 186:-1 187:-1 188:-1 189:-1 190:-1 191:-1 192:-1 193:-1 194:-1 195:-1 196:-1 197:-1 198:-1 199:-1 200:-1 201:-1 203:-1 204:-1 205:-1 206:-1 207:-1 208:-1 209:-1 210:-1 211:-1 213:-1 214:-1 215:-1 216:-1 217:-1 218:-0.714286 219:-1 220:-1 222:-1 223:-1 224:-1 227:-1 228:-1 229:-1 230:-1 231:-1 232:-1 233:-1 234:-1 236:-1 239:-1 240:-1 241:-1 242:-1 243:-1 244:-1 245:-1 246:-1 247:-1 250:-1 251:-1 252:-1 
0.331881545069051 1:-1 2:-1 3:-1 5:-1 6:-1 7:-1 8:-1 9:-1 10:-1 12:-1 13:-1 14:-1 15:-1 17:-1 19:-1 21:-1 22:-1 24:-1 25:-1 26:-1 27:-1 28:-0.833333 29:-1 30:-1 32:-1 33:-1 35:-1 38:-1 39:-0.777778 40:-1 41:-1 42:-1 43:-1 44:-1 45:-1 46:-1 47:-1 48:-1 50:-1 51:-1 52:-1 53:-1 54:-1 55:-1 57:-1 58:-1 59:-1 60:-1 61:-1 64:-1 65:-1 67:-1 69:-1 71:-1 72:-1 73:-1 74:-1 75:-1 76:-0.333333 77:-0.333333 78:-1 81:-1 83:-1 84:-0.5 85:-1 86:-1 87:-1 88:-1 89:-1 90:-1 91:-1 92:-1 93:-1 96:-1 98:-1 100:-1 101:-1 103:-1 104:-1 105:-1 107:-1 108:-1 109:-1 110:-1 111:-1 112:-1 113:-1 114:-1 116:-1 117:-1 118:-1 119:-1 120:-1 121:-1 123:-1 124:-1 126:-1 127:-1 128:-1 129:-1 130:-1 132:-1 133:-1 134:-1 135:-1 136:0.5 137:0.333333 138:-1 139:-1 140:-1 141:-1 142:-1 143:-1 144:-1 145:-1 146:-1 147:-1 148:-1 151:-1 152:-1 153:-1 154:-1 155:-1 156:-1 157:-1 158:-1 159:-1 161:-1 162:-1 163:-1 164:-1 165:-1 167:-1 168:-1 169:-1 170:-1 171:-1 173:-1 174:-1 175:-1 176:-1 177:-1 178:-1 179:-1 180:-1 181:-1 182:-1 183:-1 184:-1 185:-1 186:-1 187:-1 188:-1 189:-1 190:-1 191:-1 192:-1 193:-1 194:-1 195:-1 196:-1 197:-1 198:-1 199:-1 200:-1 201:-1 203:-1 204:-1 205:-1 206:-1 207:-1 208:-1 209:-1 210:-1 211:-1 213:-1 214:-0.692308 215:-1 216:-1 217:-1 218:-1 219:-0.428571 220:-1 222:-1 223:-1 224:-1 227:-1 228:-1 229:-1 230:-1 231:-1 232:-1 233:-1 234:-1 236:-1 239:-1 240:-1 241:-1 242:-1 243:-1 244:-1 245:-1 246:-1 247:-1 250:-1 251:-1 252:-1 
-0.05897701895718115 1:-1 2:-1 3:-1 5:-1 6:-1 7:-1 8:-1 9:-1 10:-1 12:-1 13:-1 14:-1 15:-1 17:-1 19:-1 21:-1 22:-1 24:-1 25:-1 26:-1 27:-1 28:-0.833333 29:-1 30:-1 32:-1 33:-1 35:-1 38:-1 39:-0.555556 40:-1 41:-1 42:-1 43:-1 44:-1 45:-1 46:-1 47:-1 48:-1 50:-1 51:-1 52:-1 53:-1 54:-1 55:-1 57:-1 58:-1 59:-1 60:-1 61:-1 64:-1 65:-1 67:-1 69:-0.333333 71:-1 72:-1 73:-1 74:-1 75:-1 76:-0.666667 77:-1 78:-1 81:-1 83:-1 84:-1 85:-1 86:-1 87:-1 88:-1 89:-1 90:-1 91:-1 92:-1 93:-1 96:-1 98:-1 100:-1 101:-1 103:-1 104:-1 105:-1 107:-1 108:-1 109:-1 110:-1 111:-1 112:-1 113:-1 114:-1 116:-1 117:-1 118:-1 119:-1 120:-1 121:-1 123:-1 124:-1 126:-1 127:-1 128:-1 129:-1 130:-1 132:-1 133:-1 134:-1 135:-1 136:-1 137:-1 138:-1 139:-1 140:-1 141:-1 142:-1 143:-1 144:-1 145:-1 146:-1 147:-1 148:-1 151:-1 152:-1 153:-1 154:-1 155:-1 156:-1 157:-1 158:-1 159:-1 161:-1 162:-1 163:-1 164:-1 165:-1 167:-1 168:-1 169:-1 170:-1 171:-1 173:-1 174:-1 175:-1 176:-1 177:-1 178:-1 179:-1 180:-1 181:-1 182:-1 183:-1 185:-1 186:-1 187:-1 188:-1 189:-1 190:-1 191:-1 192:-1 193:-1 194:-1 195:-1 196:-1 198:-1 199:-1 200:-1 201:-1 203:-1 204:-1 205:-1 206:-1 207:-1 208:-1 209:-1 210:-1 211:-1 213:-1 214:-1 215:-0.5 216:-1 217:-1 218:-0.714286 219:-1 220:-1 222:-1 223:-1 224:-1 227:-1 228:-1 229:-1 230:-1 231:-1 232:-1 233:-1 234:-1 236:-1 239:-1 240:-1 241:-1 242:-1 243:-1 244:-1 245:-1 246:-1 247:-1 250:-1 251:-1 252:-1 
0.5309598641977468 1:-1 2:-1 3:-1 5:-1 6:-1 7:-1 8:-1 9:-1 10:-1 12:-1 13:-1 14:-1 15:-1 17:-1 19:-1 21:-1 22:-1 24:-1 25:-1 26:-1 27:-1 28:-0.833333 29:-1 30:-1 32:-1 33:-1 35:-1 38:-1 39:-0.777778 40:-1 41:-1 42:-1 43:-1 44:-1 45:-1 46:-1 47:-1 48:-1 50:-1 51:-1 52:-1 53:-1 54:-1 55:-1 57:-1 58:-1 59:-1 60:-1 61:-1 64:-1 65:-1 67:-1 69:-0.666667 71:-1 72:-1 73:-1 74:-1 75:-1 76:-1 77:-1 78:-1 81:-1 83:-1 84:-1 85:-1 86:-1 87:-1 88:-1 89:-1 90:-1 91:-1 92:-1 93:-1 96:-1 98:-1 100:-1 101:-1 103:-1 104:-1 105:-1 107:-1 108:-1 109:-1 110:1 111:-1 112:-1 113:-1 114:-1 116:-1 117:-1 118:-1 119:-1 120:-1 121:-1 123:-1 124:-1 126:-1 127:-1 128:-1 129:-1 130:-1 132:-1 133:-1 134:-1 135:-1 136:-1 137:-1 138:-1 139:-1 140:-1 141:-1 142:-1 143:-1 144:-1 145:-1 146:-1 147:-1 148:-1 151:-1 152:-1 153:-1 154:-1 155:-1 156:-1 157:-1 158:-1 159:-1 161:-1 162:-1 163:-1 164:-1 165:-1 167:-1 168:-1 169:-1 170:-1 171:-1 173:-1 174:-1 175:-0.5 176:-1 177:-1 178:-1 179:-1 180:-1 181:-1 182:-1 183:-1 185:-1 186:-1 187:-1 188:-1 189:-1 190:-1 191:-1 192:-1 193:-1 194:-1 195:-1 196:-1 198:-1 199:-1 200:-1 201:-1 203:-1 204:-1 205:-1 206:-1 207:-1 208:-1 209:-1 210:-1 211:-1 213:-1 214:-0.846154 215:-0.5 216:-1 217:-1 218:-1 219:-1 220:-1 222:-1 223:-1 224:-1 227:-1 228:-1 229:-1 230:-1 231:-1 232:-1 233:-1 234:-1 236:-1 239:-1 240:-1 241:-1 242:-1 243:-1 244:-1 245:-1 246:-1 247:-1 250:-1 251:-1 252:-1 
-26.3092110954503 1:-1 2:-1 3:-1 5:-1 6:-1 7:-1 8:-1 9:-1 10:-1 12:-1 13:-1 14:-1 15:-1 17:-1 19:-1 21:-1 22:-1 24:-1 25:-1 26:-1 27:-1 28:-0.833333 29:-1 30:-1 32:-1 33:-1 35:-1 38:-1 39:-0.888889 40:-1 41:-1 42:-1 43:-1 44:-1 45:-1 46:-1 47:-1 48:-1 50:-1 51:-1 52:-1 53:-1 54:-0.6 55:-1 57:-1 58:-1 59:-1 60:-1 61:-1 64:-1 65:-1 67:-1 69:-1 71:-1 72:-1 73:-1 74:-1 75:-1 76:-1 77:-0.666667 78:-1 81:-1 83:-1 84:-1 85:-1 86:-1 87:-1 88:-1 89:-1 90:-1 91:-1 92:-1 93:-1 96:-1 98:-1 100:-1 101:-1 103:-1 104:-1 105:-1 107:-1 108:-1 109:-1 110:-1 111:-1 112:-1 113:-1 114:-1 116:-1 117:-1 118:-1 119:-1 120:-1 121:-1 123:-1 124:-1 126:-1 127:-1 128:-1 129:-1 130:-1 132:-1 133:-1 134:-1 135:-1 136:-1 137:-1 138:-1 139:-1 140:-1 141:-1 142:-1 143:-1 144:-1 145:-1 146:-1 147:-1 148:-1 151:-1 152:-1 153:-1 154:-1 155:-1 156:-1 157:-1 158:-1 159:-1 161:-1 162:-1 163:-1 164:-1 165:-1 167:-1 168:-1 169:-1 170:-1 171:-1 173:-1 174:-1 175:-1 176:-1 177:-1 178:-1 179:-1 180:-1 181:-1 182:-1 183:-1 184:-1 185:-1 186:-1 187:-1 188:-1 189:-1 190:-1 191:-1 192:-1 193:-1 194:-1 195:-1 196:-1 197:-1 198:-1 199:-1 200:-1 201:-1 203:-1 204:-1 205:-1 206:-1 207:-1 208:-1 209:-1 210:-1 211:-1 213:-1 214:-0.846154 215:-1 216:-1 217:-1 218:-1 219:-0.714286 220:-1 222:-1 223:-1 224:-1 227:-1 228:-1 229:-1 230:-1 231:-1 232:-1 233:-1 234:-1 236:-1 239:-1 240:-1 241:-1 242:-1 243:-1 244:-1 245:-1 246:-1 247:-1 250:-1 251:-1 252:-1 
0.5954768366575828 1:-1 2:-1 3:-1 5:-1 6:-1 7:-1 8:-1 9:-1 10:-1 12:-1 13:-1 14:-1 15:-1 17:-1 19:-1 21:-1 22:-1 24:-1 25:-1 26:-1 27:-1 28:-1 29:-0.333333 30:-1 32:-1 33:-1 35:-1 38:-1 39:-1 40:-1 41:-1 42:-1 43:-1 44:-1 45:-1 46:-1 47:-1 48:-1 50:-1 51:-1 52:-1 53:-1 54:-1 55:-1 57:-1 58:-1 59:-1 60:-1 61:-1 64:-1 65:-1 67:-1 69:-1 71:-1 72:-1 73:-1 74:-1 75:-1 76:-1 77:-0.666667 78:-1 81:-1 83:-1 84:-1 85:-1 86:-1 87:-1 88:-1 89:-1 90:-1 91:-1 92:-1 93:-1 96:-1 98:-1 100:-1 101:-1 103:-1 104:-1 105:-1 107:-1 108:-1 109:-1 110:-1 111:-1 112:-1 113:-1 114:-1 116:-1 117:-1 118:-1 119:-1 120:-1 121:-1 123:-1 124:-1 126:-1 127:-1 128:-1 129:-1 130:-1 132:-1 133:-1 134:-1 135:-1 136:-0.5 137:-0.333333 138:-1 139:-1 140:-1 141:-0.428571 142:-1 143:-1 144:-1 145:-1 146:-1 147:-1 148:-1 151:-1 152:-1 153:-1 154:-1 155:-1 156:-1 157:-1 158:-1 159:-1 161:-1 162:-1 163:-1 164:-1 165:-1 167:-1 168:-1 169:-1 170:-1 171:-1 173:-1 174:-1 175:-1 176:-1 177:-1 178:-1 179:-1 180:-1 181:-1 182:-1 183:-1 184:-1 185:-1 186:-1 187:-1 188:-1 189:-1 190:-1 191:-1 192:-1 193:-1 194:-1 195:-1 196:-1 197:-1 198:-1 199:-1 200:-1 201:-1 203:-1 204:-1 205:-1 206:-1 207:-1 208:-1 209:-1 210:-1 211:-1 213:-1 214:-0.846154 215:-1 216:-1 217:-1 218:-0.142857 219:-1 220:-1 222:-1 223:-1 224:-1 227:-1 228:-1 229:-1 230:-1 231:-1 232:-1 233:-1 234:-1 236:-1 239:-1 240:-1 241:-1 242:-1 243:-1 244:-1 245:-1 246:-1 247:-1 250:-1 251:-1 252:-1 
-2.12930775612878 1:-1 2:-1 3:-1 5:-1 6:-1 7:-1 8:-1 9:-1 10:-1 12:-1 13:-1 14:-1 15:-1 17:-1 19:-1 21:-1 22:-1 24:-1 25:-1 26:-1 27:-1 28:-1 29:-0.333333 30:-1 32:-1 33:-1 35:-1 38:-1 39:-0.777778 40:-1 41:-1 42:-1 43:-0.333333 44:-1 45:-1 46:-1 47:-1 48:-1 50:-1 51:-1 52:-1 53:-1 54:-1 55:-1 57:-1 58:1 59:-1 60:-1 61:1 64:-1 65:-1 67:-1 69:-1 71:-0.6 72:-1 73:-1 74:-1 75:-1 76:-1 77:-1 78:-1 81:-1 83:-1 84:-1 85:-1 86:-1 87:-1 88:-1 89:-1 90:-1 91:-1 92:-1 93:-1 96:-1 98:-1 100:-1 101:-1 103:-1 104:-1 105:-1 107:-1 108:-1 109:-1 110:-1 111:-1 112:-1 113:-1 114:-1 116:-1 117:-1 118:-1 119:-1 120:-1 121:-1 123:-1 124:-1 126:-1 127:-1 128:-1 129:-1 130:-1 132:-1 133:-1 134:-1 135:-1 136:-1 137:-1 138:-1 139:-1 140:-1 141:-1 142:-1 143:-1 144:-1 145:-1 146:-1 147:-1 148:-1 151:-1 152:-1 153:-1 154:-1 155:-1 156:-1 157:-1 158:-1 159:-1 161:-1 162:-1 163:-1 164:-0.333333 165:-1 167:-1 168:-1 169:-1 170:-1 171:-1 173:-1 174:-1 175:-1 176:-1 177:-1 178:-1 179:-1 180:-1 181:-1 182:-1 183:-1 184:-1 185:-1 186:-1 187:1 188:-1 189:-1 190:-1 191:-1 192:-1 193:-1 194:-1 195:-1 196:-1 197:-1 198:-1 199:-1 200:-1 201:-1 203:-1 204:-1 205:-1 206:-1 207:-1 208:-1 209:-1 210:-1 211:-1 213:-1 214:-0.692308 215:-1 216:-1 217:-1 218:-1 219:-1 220:-1 222:-1 223:-1 224:-1 227:-1 228:-1 229:-1 230:-1 231:-1 232:-1 233:-1 234:-1 236:-1 239:-1 240:-1 241:-1 242:-1 243:-1 244:-1 245:1 246:-1 247:-1 250:-1 251:-1 252:-1 
4.38084128561982 1:-1 2:-1 3:-1 5:-1 6:-1 7:-1 8:-1 9:-1 10:-1 12:-1 13:-1 14:-1 15:-1 17:-1 19:-1 21:-1 22:-1 24:-1 25:-1 26:-1 27:-1 28:-1 29:-0.333333 30:-1 32:-1 33:-1 35:-1 38:-1 39:-0.777778 40:-1 41:-1 42:-1 43:-0.333333 44:-1 45:-1 46:-1 47:-1 48:-1 50:-1 51:-1 52:-1 53:-1 54:-1 55:-1 57:-1 58:-1 59:-1 60:-1 61:-1 64:-1 65:-1 67:-1 69:-1 71:-0.6 72:-1 73:-1 74:-1 75:-1 76:-1 77:-1 78:-1 81:-1 83:-1 84:-1 85:-1 86:-1 87:-1 88:-1 89:-1 90:-1 91:-1 92:-1 93:-1 96:1 98:-1 100:-1 101:-1 103:-1 104:-1 105:-1 107:-1 108:-1 109:-1 110:-1 111:-1 112:-1 113:-1 114:-1 116:-1 117:-1 118:-1 119:-1 120:-1 121:-1 123:-1 124:-1 126:-1 127:-1 128:-1 129:-1 130:-1 132:-1 133:-1 134:-1 135:-1 136:-1 137:-1 138:-1 139:-1 140:-1 141:-1 142:-1 143:-1 144:-1 145:-1 146:-1 147:-1 148:-1 151:-1 152:-1 153:-1 154:-1 155:-1 156:-1 157:-1 158:-1 159:-1 161:-1 162:-1 163:-1 164:-0.5 165:-1 167:-1 168:-1 169:-1 170:-1 171:-1 173:-1 174:-1 175:-1 176:-1 177:-1 178:-1 179:-1 180:-1 181:-1 182:-1 183:-1 184:-1 185:-1 186:-1 187:1 188:-1 189:-1 190:-1 191:-1 192:-1 193:-1 194:-1 195:-1 196:-1 197:-1 198:-1 199:-1 200:-1 201:-1 203:-1 204:-1 205:-1 206:-1 207:-1 208:-1 209:-1 210:-1 211:-1 213:-1 214:-0.692308 215:-1 216:-1 217:-1 218:-1 219:-1 220:-1 222:-1 223:-1 224:-1 227:-1 228:-1 229:-1 230:-1 231:-1 232:-1 233:-1 234:-1 236:-1 239:-1 240:-1 241:-1 242:-1 243:-1 244:-1 245:1 246:-1 247:-1 250:-1 251:-1 252:-1 
-2.001269175535919 1:-1 2:-1 3:-1 5:-1 6:-1 7:-1 8:-1 9:-1 10:-1 12:-1 13:-1 14:-1 15:-1 17:-1 19:-1 21:-1 22:-1 24:-1 25:-1 26:-1 27:-1 28:-1 29:-1 30:-1 32:-1 33:-1 35:-1 38:-1 39:-1 40:-1 41:-1 42:-1 43:-1 44:-1 45:-1 46:-1 47:-1 48:-1 50:-1 51:-1 52:-1 53:-1 54:-1 55:-1 57:-1 58:-1 59:-1 60:-1 61:-1 64:-1 65:-1 67:-1 69:-1 71:-1 72:-1 73:-1 74:-1 75:-1 76:-1 77:-1 78:-1 81:-1 83:-1 84:-1 85:-1 86:-1 87:-1 88:-1 89:-1 90:-1 91:-1 92:-1 93:-1 96:-1 98:-1 100:-1 101:-1 103:-1 104:-0.666667 105:-1 107:-1 108:-1 109:-1 110:-1 111:-1 112:-1 113:-1 116:-1 117:-1 118:-1 119:-1 120:-1 121:-1 123:-1 124:-1 126:-1 127:-1 128:-1 129:-1 130:-1 132:-1 133:-1 134:-1 135:-1 136:0.166667 137:-1 138:-1 139:-1 140:-1 141:-0.714286 142:-1 143:-0.5 144:-1 145:-1 146:-1 147:-1 148:-1 151:-1 152:-1 153:-1 154:-1 155:-1 156:-1 157:-1 158:-1 159:-1 161:-1 162:-1 163:-1 164:-1 165:-1 167:-1 168:-1 169:-1 170:-1 171:-1 173:-1 174:-1 175:-1 176:-1 177:-1 178:-1 179:-1 180:-0.5 181:-1 182:-1 183:-1 184:-1 185:-1 186:-1 187:-1 188:-1 189:-1 190:-1 191:-1 192:-1 193:-1 194:-1 195:-1 196:-1 197:-1 198:-1 199:-1 200:-1 201:-1 203:-1 204:-1 205:-1 206:-1 207:-1 208:-1 209:-1 210:-1 211:-1 213:-1 214:-0.846154 215:-1 216:-1 217:-1 218:-1 219:-0.714286 220:-1 222:-1 223:-1 224:-1 227:-1 228:-1 229:-1 230:-1 231:-1 232:-1 233:-1 234:-1 236:-1 239:-1 240:-1 241:-1 242:-1 243:-1 244:-1 245:-1 246:-1 247:-1 250:-1 251:-1 252:-1 
-2.167717032587141 1:-1 2:-1 3:-1 5:-1 6:-1 7:-1 8:-1 9:-1 10:-1 12:-1 13:-1 14:-1 15:-1 17:-1 19:-1 21:-1 22:-1 24:-1 25:-1 26:-1 27:-1 28:-1 29:-1 30:-1 32:-1 33:-1 35:-1 38:-1 39:-1 40:-1 41:-1 42:-1 43:-1 44:-1 45:-1 46:-1 47:-1 48:-1 50:-1 51:-1 52:-1 53:-1 54:-1 55:-1 57:-1 58:-1 59:-1 60:-1 61:-1 64:-1 65:-1 67:-1 69:-1 71:-1 72:-1 73:-1 74:-1 75:-1 76:-1 77:-1 78:-1 81:-1 83:-1 84:-1 85:-1 86:-1 87:-1 88:-1 89:-1 90:-1 91:-1 92:-1 93:1 96:-1 98:-1 100:-1 101:-1 103:-1 104:-1 105:-1 107:-1 108:-1 109:-1 110:-1 111:-1 112:-1 113:-1 114:-1 116:-1 117:-1 118:-1 119:-1 120:-1 121:-1 123:-1 124:-1 126:-1 127:-1 128:-1 129:-1 130:-1 132:-1 133:-1 134:-1 135:-1 136:-1 137:-1 138:-1 139:-1 140:-1 141:-1 142:-1 143:-1 144:-1 145:-1 146:-1 147:-1 148:-1 151:-1 152:-1 153:-1 154:-1 155:-1 156:-1 157:-1 158:-1 159:-1 161:-1 162:-1 163:-1 164:-0.333333 165:-1 167:-1 168:-1 169:-1 170:-1 171:-1 173:-1 174:-1 175:-1 176:-1 177:-1 178:-1 179:-1 180:-1 181:-1 182:-1 183:-1 184:-1 185:-1 186:-1 187:-1 188:-1 189:-1 190:-1 191:-1 192:-1 193:-1 194:-1 195:-1 196:-1 197:-1 198:-1 199:-1 200:-1 201:-1 203:-1 204:-1 205:-1 206:-1 207:-1 208:-1 209:-1 210:-1 211:-1 213:-1 214:-1 215:-1 216:-1 217:-1 218:-1 219:-1 220:-1 222:-1 223:-1 224:-1 227:-1 228:-1 229:-1 230:-1 231:-1 232:-1 233:-1 234:-1 236:-1 239:-1 240:-1 241:-1 242:-1 243:-1 244:-1 245:-1 246:-1 247:-1 250:-1 251:-1 252:-1 
-0.5448482304979468 1:-1 2:-1 3:-1 5:-1 6:-1 7:-1 8:-1 9:-1 10:-1 12:-1 13:-1 14:-1 15:-1 17:-1 19:-1 21:-1 22:-1 24:-1 25:-1 26:-1 27:-1 28:-1 29:-1 30:-1 32:-1 33:-1 35:-1 38:-1 39:-1 40:-1 41:-1 42:-1 43:-1 44:-1 45:-1 46:-1 47:-1 48:-1 50:-1 51:-1 52:-1 53:-1 54:-1 55:-1 57:-1 58:-1 59:-1 60:-1 61:-1 64:-1 65:-1 67:-1 69:-0.666667 71:-1 72:-1 73:-1 74:-1 75:-1 76:-1 77:-0.666667 78:-1 81:-1 83:-1 84:-1 85:-1 86:-1 87:-1 88:-1 89:-1 90:-1 91:-1 92:-1 93:-1 96:-1 98:-1 100:-1 101:-1 103:-1 104:-1 105:-1 107:-1 108:-1 109:-1 110:1 111:-1 112:-1 113:-1 114:-1 116:-1 117:-1 118:-1 119:-1 120:-1 121:-1 123:-1 124:-1 126:-1 127:-1 128:-1 129:-1 130:-1 132:-1 133:-1 134:-1 135:-1 136:-1 137:-1 138:-1 139:-1 140:-1 141:-1 142:-1 143:-1 144:-1 145:-1 146:-1 147:-1 148:-1 151:-1 152:-1 153:-1 154:-1 155:-1 156:-1 157:-1 158:-1 159:-1 161:-1 162:-1 163:-1 164:-1 165:-1 167:-1 168:-1 169:-1 170:-1 171:-1 173:-1 174:-1 175:-0.5 176:-1 177:-1 178:-1 179:-1 180:-1 181:-1 182:-1 183:-1 185:-1 186:-1 187:-1 188:-1 189:-1 190:-1 191:-1 192:-1 193:-1 194:-1 195:-1 196:-1 198:-1 199:-1 200:-1 201:-1 203:-1 204:-1 205:-1 206:-1 207:-1 208:-1 209:-1 210:-1 211:-1 213:-1 214:-0.692308 215:-0.5 216:-1 217:-1 218:-0.714286 219:-1 220:-1 222:-1 223:-1 224:-1 227:-1 228:-1 229:-1 230:-1 231:-1 232:-1 233:-1 234:-1 236:-1 239:-1 240:-1 241:-1 242:-1 243:-1 244:-1 245:-1 246:-1 247:-1 250:-1 251:-1 252:-1 
-42.31859461834191 1:-1 2:-1 3:-1 5:-1 6:-1 7:-1 8:-1 9:-1 10:-1 12:-1 13:-1 14:-1 15:-1 17:-1 19:-1 21:-1 22:-1 24:-1 25:-1 26:-1 27:-1 28:-1 29:-1 30:-1 32:-1 33:-1 35:-1 38:-1 39:-1 40:-1 41:-1 42:-1 43:-1 44:-1 45:-1 46:-1 47:-1 48:-1 50:-1 51:-1 52:-1 53:-1 54:-1 55:-1 57:-1 58:-1 59:-1 60:-1 61:-1 64:-1 65:-1 67:-1 69:-1 71:-1 72:-1 73:-1 74:-1 75:-1 76:-1 77:-1 78:-1 81:-1 83:-1 84:-1 85:-1 86:-1 87:-1 88:-1 89:-1 90:-1 91:-1 92:-1 93:-1 96:-1 98:-1 100:-1 101:-1 103:-1 104:-1 105:-1 107:-1 108:-1 109:-1 110:-1 111:-1 112:-1 113:-1 114:-1 116:-1 117:-1 118:-1 119:-1 120:-1 121:-1 123:-1 124:-1 126:-1 127:-1 128:-1 129:-1 130:-1 132:-1 133:-1 134:-1 135:-1 136:-0.333333 137:-1 138:-1 139:-1 140:-1 141:-0.428571 142:-1 143:-1 144:-1 145:-1 146:-1 147:-1 148:-1 151:-1 152:-1 153:-1 154:-1 155:-1 156:-1 157:-1 158:-1 159:-1 161:-1 162:-1 163:-1 164:-1 165:-1 167:-1 168:-1 169:-1 170:-1 171:-1 173:-1 174:-1 175:-1 176:-1 177:-1 178:-1 179:-1 180:-1 181:-1 182:-1 183:-1 184:-1 185:-1 186:-1 187:-1 188:-1 189:-1 190:-1 191:-1 192:-1 193:-1 194:-1 195:-1 196:-1 197:-1 198:-1 199:-1 200:-1 201:-1 203:-1 204:-1 205:-1 206:-1 207:-1 208:-1 209:-1 210:-1 211:-1 213:-1 214:-1 215:-1 216:-1 217:-1 218:-0.428571 219:-1 220:-1 222:-1 223:-1 224:-1 227:-1 228:-1 229:-1 230:-1 231:-1 232:-1 233:-1 234:-1 236:-1 239:-1 240:-1 241:-1 242:-1 243:-1 244:-1 245:-1 246:-1 247:-1 250:-1 251:-1 252:-1 
-3.456988399827958 1:-1 2:-1 3:-1 5:-1 6:-1 7:-1 8:-1 9:-1 10:-1 12:-1 13:-1 14:-1 15:-1 17:-1 19:-1 21:-1 22:-1 24:-1 25:-1 26:-1 27:-1 28:-1 29:-1 30:-1 32:-1 33:-1 35:-1 38:-1 39:-0.666667 40:-1 41:-1 42:-1 43:-1 44:-1 45:-1 46:-1 47:-1 48:-1 50:-1 51:-1 52:-1 53:-1 54:-1 55:-1 57:-0.333333 58:-1 59:-1 60:-1 61:-1 64:-1 65:-1 67:-1 69:-0.333333 71:-1 72:-1 73:-1 74:-1 75:-1 76:-1 77:-0.666667 78:-1 81:-1 83:-1 84:-1 85:-1 86:-1 87:-1 88:-1 89:-1 90:-1 91:-1 92:-1 93:-1 96:-1 98:-1 100:-1 101:-1 103:-1 104:-1 105:-1 107:-1 108:-1 109:-1 110:-1 111:-1 112:-1 113:-1 114:-1 116:-1 117:-1 118:-1 119:-1 120:-1 121:-1 123:-1 124:-1 126:-1 127:-1 128:-1 129:-1 130:-1 132:-1 133:-1 134:-1 135:-1 136:-0.333333 137:-0.333333 138:-1 139:-1 140:-0.5 141:-1 142:-1 143:-1 144:-1 145:-1 146:-1 147:-1 148:-1 151:-1 152:-1 153:-1 154:-1 155:-1 156:-1 157:-1 158:-1 159:-1 161:-1 162:-1 163:-1 164:-0.666667 165:-1 167:-1 168:-1 169:-1 170:-1 171:-1 173:-1 174:-1 175:-1 176:-1 177:-1 178:-1 179:-1 180:-1 181:-0.666667 182:-1 183:-1 184:-1 185:-1 186:-1 187:-1 188:-1 189:-1 190:-1 191:-1 192:-1 193:-1 194:-1 195:-1 196:-1 197:-1 198:-1 199:-1 200:-1 201:-1 203:-1 204:-1 205:-1 206:-1 207:-1 208:-1 209:-1 210:-1 211:-1 213:-1 214:-0.846154 215:-1 216:-1 217:-1 218:-0.714286 219:-1 220:-1 222:-1 223:-1 224:-1 227:-1 228:-1 229:-1 230:-1 231:-1 232:-1 233:-1 234:-1 236:-1 239:-1 240:-1 241:-1 242:-1 243:-1 244:-1 245:-1 246:-1 247:-1 250:-1 251:-1 252:-1 
-2.234379011429897 1:-1 2:-1 3:-1 5:-1 6:-1 7:-1 8:-1 9:-1 10:-1 12:-1 13:-1 14:-1 15:-1 17:-1 19:-1 21:-1 22:-1 24:-1 25:-1 26:-1 27:-1 28:-1 29:-1 30:1 32:-1 33:-1 35:-1 38:-1 39:-1 40:-1 41:-1 42:-1 43:-0.333333 44:-1 45:-0.5 46:-1 47:-1 48:-1 50:-1 52:-1 53:-1 54:-1 55:-1 57:-1 58:-1 59:-1 60:-1 61:-1 64:-1 65:-1 67:-1 69:-1 71:-1 72:-1 73:-1 74:-1 75:-1 76:-1 77:-0.333333 78:-1 81:-1 83:-1 84:-1 85:-1 86:-1 87:-1 88:-1 89:-1 90:-1 91:-1 92:-1 93:-1 96:-1 98:-1 100:-1 101:-1 103:-1 104:-1 105:-1 107:-1 108:-1 109:-1 110:-1 111:-1 112:-1 113:-1 114:-1 116:-1 117:-1 118:-1 119:-1 120:-1 121:-1 123:-1 124:-1 126:-1 127:-1 128:-1 129:-1 130:-1 132:-1 133:-1 134:-1 135:-1 136:-1 137:-1 138:-1 139:-1 140:-1 141:-1 142:-1 143:-1 144:-1 145:-1 146:-1 147:-1 148:-1 151:-1 152:-1 153:-1 154:-1 155:-1 156:-1 157:-1 158:-1 159:-1 161:-1 162:-1 163:-1 165:-1 167:-1 168:-1 169:-1 170:-1 171:-1 173:-1 174:-1 175:-1 176:-1 177:-1 178:-1 179:-1 180:-1 181:-1 182:-1 183:-1 184:-1 185:-1 186:-1 187:-1 188:-1 189:-1 190:-1 191:-1 192:-1 193:-1 194:-1 195:-1 196:-1 197:-1 198:-1 199:-1 200:-1 201:-1 203:-1 204:-1 205:-1 206:-1 207:-1 208:-1 209:-1 210:-1 211:-1 213:-1 214:-0.692308 215:-1 216:-1 217:-1 218:-0.428571 219:-1 220:-1 222:-1 223:-1 224:-1 227:-1 228:-1 229:-1 230:-1 231:-1 232:-1 233:-1 234:-1 236:-1 239:-1 240:-1 241:-1 242:-1 243:-1 244:-1 245:-1 246:-1 247:-1 250:-1 251:-1 252:-1 
