svm_type c_svc
kernel_type rbf
gamma 0.01
nr_class 2
total_sv 2791
rho 0.43321820575726744
label 1 0
nr_sv 1365 1426
SV
1.0 1:21.0 2:1.0 4:1.0 5:2.0 6:1.0 7:13.0 12:1.0 13:1.0 14:1.0 15:5.0 17:5.0 19:1.0 23:1.0 24:1.0 25:1.0 26:3.0 28:3.0 30:1.0 31:1.0 32:1.0 
1.0 1:9.0 2:2.0 3:2.0 7:3.0 17:1.0 36:1.0 38:1.0 40:1.0 41:1.0 42:1.0 44:1.0 45:1.0 47:1.0 48:1.0 49:1.0 51:1.0 52:1.0 55:1.0 56:1.0 
1.0 1:10.0 2:2.0 3:2.0 7:4.0 17:2.0 37:1.0 68:1.0 69:1.0 70:1.0 112:1.0 
0.45347365377207133 1:11.0 2:2.0 3:3.0 7:5.0 17:1.0 36:1.0 41:1.0 44:1.0 57:1.0 67:1.0 89:1.0 145:1.0 
1.0 1:7.0 2:2.0 3:1.0 7:5.0 17:3.0 30:1.0 36:1.0 44:2.0 114:1.0 144:1.0 145:1.0 156:1.0 258:1.0 261:1.0 
1.0 1:19.0 2:1.0 3:4.0 5:1.0 7:5.0 9:2.0 10:2.0 15:1.0 17:2.0 28:1.0 36:2.0 37:1.0 39:1.0 41:1.0 44:1.0 62:1.0 68:1.0 69:1.0 112:1.0 114:1.0 122:1.0 173:1.0 215:1.0 220:1.0 225:1.0 261:1.0 
0.3796270877299053 1:12.0 2:5.0 6:3.0 37:2.0 39:2.0 46:2.0 70:2.0 114:1.0 142:4.0 393:1.0 397:1.0 398:1.0 401:1.0 415:1.0 416:1.0 
1.0 1:9.0 2:2.0 7:1.0 36:2.0 37:1.0 39:1.0 43:1.0 46:1.0 53:1.0 57:2.0 319:2.0 392:2.0 419:1.0 420:1.0 421:1.0 423:1.0 424:1.0 425:1.0 426:1.0 427:1.0 429:1.0 430:1.0 432:1.0 433:1.0 
1.0 1:4.0 3:1.0 39:1.0 41:1.0 113:1.0 172:1.0 181:1.0 215:1.0 225:1.0 452:1.0 453:1.0 
1.0 1:6.0 2:4.0 61:6.0 176:2.0 392:2.0 461:3.0 462:1.0 463:1.0 464:1.0 465:1.0 466:1.0 467:1.0 468:1.0 469:1.0 
1.0 1:10.0 2:1.0 3:1.0 7:4.0 36:1.0 37:1.0 44:2.0 62:1.0 68:1.0 69:1.0 112:1.0 114:2.0 122:2.0 153:1.0 155:1.0 157:1.0 169:1.0 171:1.0 222:2.0 304:1.0 513:1.0 515:1.0 516:1.0 
1.0 1:10.0 2:1.0 5:2.0 57:2.0 59:2.0 173:2.0 174:4.0 176:1.0 177:2.0 185:2.0 576:1.0 577:1.0 579:1.0 580:1.0 581:1.0 582:1.0 583:1.0 585:1.0 586:1.0 587:1.0 588:1.0 
0.8152313077055122 1:28.0 2:1.0 3:10.0 5:2.0 7:2.0 9:3.0 10:3.0 11:1.0 22:1.0 37:3.0 39:2.0 41:2.0 59:1.0 62:1.0 68:5.0 69:2.0 114:2.0 122:2.0 173:2.0 215:2.0 225:2.0 263:3.0 264:2.0 271:2.0 272:1.0 277:2.0 281:2.0 296:2.0 297:1.0 491:1.0 593:1.0 784:1.0 799:1.0 836:1.0 
1.0 1:10.0 2:1.0 3:5.0 10:2.0 11:1.0 22:1.0 39:3.0 41:2.0 63:1.0 67:1.0 68:1.0 85:1.0 89:1.0 263:1.0 264:2.0 281:1.0 379:1.0 383:2.0 392:1.0 634:1.0 651:1.0 738:1.0 743:1.0 799:1.0 869:1.0 
1.0 1:6.0 3:3.0 10:2.0 39:1.0 68:1.0 112:2.0 157:1.0 263:1.0 783:1.0 
0.6187841780388905 1:17.0 2:4.0 3:1.0 6:2.0 7:7.0 17:3.0 37:1.0 41:1.0 61:2.0 62:1.0 67:1.0 89:1.0 114:2.0 121:1.0 122:2.0 131:2.0 142:4.0 151:3.0 168:2.0 176:1.0 184:1.0 203:1.0 222:1.0 324:2.0 396:1.0 461:1.0 962:2.0 971:2.0 974:1.0 
1.0 1:8.0 2:1.0 7:3.0 36:1.0 37:2.0 39:2.0 44:1.0 46:2.0 222:1.0 392:1.0 425:1.0 691:1.0 746:1.0 754:1.0 848:1.0 1121:1.0 1125:1.0 
1.0 1:12.0 2:2.0 4:1.0 6:2.0 7:5.0 17:2.0 39:1.0 70:1.0 141:2.0 142:2.0 149:1.0 151:1.0 166:1.0 168:1.0 323:1.0 324:1.0 337:1.0 524:1.0 530:1.0 1141:1.0 
1.0 1:9.0 2:3.0 3:2.0 6:2.0 7:4.0 10:1.0 11:1.0 17:2.0 22:1.0 41:1.0 142:2.0 151:2.0 168:2.0 176:1.0 391:1.0 395:2.0 962:2.0 971:2.0 1270:1.0 1271:1.0 
1.0 1:12.0 2:3.0 3:4.0 5:1.0 6:1.0 7:2.0 10:1.0 15:1.0 39:1.0 41:2.0 61:1.0 69:2.0 70:2.0 112:1.0 144:1.0 145:1.0 156:1.0 215:1.0 225:1.0 230:1.0 231:1.0 250:1.0 251:1.0 254:1.0 262:1.0 529:1.0 530:1.0 1100:1.0 1264:1.0 1269:1.0 
1.0 1:4.0 57:2.0 420:2.0 980:4.0 1304:3.0 1305:1.0 1306:3.0 1307:1.0 
1.0 1:9.0 3:2.0 7:4.0 9:1.0 10:1.0 19:2.0 20:1.0 32:2.0 37:1.0 39:1.0 41:1.0 63:1.0 85:1.0 132:1.0 134:1.0 222:2.0 1062:1.0 1211:1.0 1215:1.0 1216:1.0 1232:1.0 1357:1.0 
1.0 1:7.0 2:1.0 3:3.0 7:4.0 9:1.0 10:1.0 11:1.0 17:2.0 19:1.0 21:1.0 22:1.0 35:1.0 36:1.0 44:1.0 145:1.0 178:1.0 179:1.0 191:1.0 192:1.0 261:1.0 351:1.0 366:1.0 367:1.0 370:1.0 378:1.0 
1.0 1:34.0 2:5.0 3:10.0 5:1.0 7:15.0 9:4.0 10:2.0 11:2.0 15:1.0 17:2.0 21:2.0 22:2.0 35:2.0 36:5.0 37:1.0 44:3.0 57:2.0 65:4.0 68:2.0 141:4.0 149:3.0 166:2.0 222:1.0 277:2.0 392:1.0 419:2.0 425:1.0 436:1.0 593:1.0 688:4.0 692:4.0 746:1.0 752:1.0 754:1.0 873:1.0 1029:2.0 1308:2.0 1387:2.0 1391:2.0 1408:2.0 1423:1.0 1424:1.0 1425:1.0 1426:3.0 1427:1.0 1431:2.0 1432:1.0 1438:3.0 1439:1.0 1448:2.0 1449:1.0 1450:1.0 1451:1.0 1452:1.0 1453:1.0 1454:1.0 
0.7402735107750393 1:13.0 2:1.0 3:4.0 5:1.0 7:7.0 9:1.0 10:1.0 15:1.0 17:3.0 28:2.0 36:1.0 41:1.0 44:1.0 63:1.0 85:1.0 145:1.0 173:2.0 178:1.0 179:1.0 191:1.0 192:1.0 222:2.0 351:1.0 366:1.0 367:1.0 370:1.0 378:1.0 611:1.0 612:1.0 618:1.0 620:1.0 1062:1.0 1084:1.0 1089:1.0 1392:1.0 
0.19053613852948717 1:14.0 2:1.0 3:5.0 5:1.0 7:8.0 15:2.0 36:1.0 37:1.0 39:1.0 44:2.0 46:1.0 57:1.0 65:2.0 112:1.0 145:1.0 178:1.0 179:1.0 191:1.0 192:1.0 222:2.0 350:1.0 351:1.0 364:1.0 365:1.0 366:1.0 367:1.0 419:1.0 847:2.0 1039:1.0 1040:1.0 1042:1.0 1423:1.0 1426:2.0 1545:1.0 1551:1.0 1553:1.0 1554:1.0 1557:1.0 
0.13087210272135252 1:28.0 2:1.0 3:11.0 5:2.0 7:3.0 9:3.0 10:4.0 11:2.0 15:1.0 17:1.0 19:1.0 21:1.0 22:2.0 35:1.0 37:3.0 39:1.0 41:3.0 59:1.0 68:4.0 69:3.0 112:1.0 157:1.0 173:1.0 215:3.0 217:1.0 225:3.0 263:3.0 264:1.0 271:2.0 277:2.0 296:2.0 392:1.0 491:1.0 783:1.0 784:1.0 786:2.0 789:1.0 801:1.0 803:1.0 805:1.0 806:1.0 810:1.0 813:1.0 825:1.0 841:1.0 900:2.0 1099:1.0 1130:1.0 1571:1.0 1575:1.0 1591:1.0 1592:1.0 
0.45835686037576656 1:21.0 2:4.0 3:2.0 4:2.0 6:2.0 7:4.0 17:2.0 37:1.0 39:1.0 41:2.0 61:4.0 62:2.0 111:1.0 114:1.0 122:1.0 141:2.0 142:2.0 149:1.0 151:1.0 166:1.0 168:1.0 215:2.0 225:2.0 323:1.0 324:1.0 337:1.0 519:1.0 520:1.0 521:1.0 536:1.0 965:4.0 1141:1.0 1145:1.0 1150:1.0 1151:1.0 1639:1.0 1640:1.0 
1.0 1:14.0 5:2.0 7:6.0 15:2.0 39:1.0 173:2.0 379:1.0 383:1.0 668:2.0 672:2.0 1084:2.0 1474:2.0 1651:1.0 1653:1.0 1654:1.0 1655:1.0 1656:1.0 1657:1.0 1658:1.0 1659:1.0 1661:1.0 1662:1.0 1664:1.0 1665:1.0 
1.0 1:20.0 3:6.0 10:2.0 37:4.0 41:2.0 68:2.0 111:4.0 215:2.0 216:2.0 225:2.0 263:4.0 379:2.0 1710:1.0 1711:1.0 1712:1.0 1713:1.0 1714:1.0 1715:1.0 1716:1.0 1717:1.0 1718:1.0 1719:1.0 1720:1.0 1721:1.0 1722:1.0 1723:1.0 1724:1.0 1725:1.0 1726:1.0 1727:1.0 1728:1.0 1729:1.0 1730:1.0 1731:1.0 1732:1.0 1733:1.0 1734:1.0 1735:1.0 
1.0 1:7.0 2:1.0 3:4.0 7:3.0 36:1.0 37:1.0 41:1.0 63:1.0 68:1.0 84:1.0 85:1.0 132:1.0 133:1.0 134:1.0 137:1.0 145:1.0 178:1.0 179:1.0 191:1.0 192:1.0 222:1.0 348:1.0 351:1.0 366:1.0 367:1.0 691:1.0 737:1.0 1466:1.0 1471:1.0 
1.0 1:18.0 2:2.0 7:14.0 17:6.0 30:2.0 36:4.0 44:8.0 176:2.0 190:4.0 210:4.0 261:4.0 322:2.0 335:4.0 338:4.0 1748:1.0 
1.0 1:10.0 2:1.0 3:1.0 4:1.0 5:1.0 7:2.0 10:1.0 15:1.0 70:1.0 111:2.0 114:1.0 263:2.0 390:1.0 402:1.0 1281:1.0 1722:1.0 
1.0 1:17.0 2:1.0 3:3.0 5:2.0 7:9.0 10:1.0 15:4.0 17:3.0 28:2.0 30:1.0 36:1.0 39:1.0 41:2.0 44:2.0 67:1.0 89:1.0 176:1.0 187:1.0 190:1.0 215:1.0 225:1.0 263:2.0 1561:1.0 1715:1.0 1719:1.0 1722:1.0 1732:1.0 1749:1.0 1815:1.0 1817:1.0 1818:1.0 
1.0 1:5.0 2:1.0 3:2.0 69:4.0 179:2.0 306:2.0 1867:1.0 1868:1.0 1871:1.0 1872:1.0 1873:1.0 
0.11101810028018516 1:16.0 2:2.0 3:4.0 5:2.0 7:4.0 36:2.0 37:4.0 69:4.0 145:2.0 178:2.0 179:2.0 191:2.0 192:2.0 305:4.0 350:2.0 351:2.0 365:2.0 366:2.0 367:2.0 691:4.0 2071:1.0 2072:3.0 2073:1.0 2074:3.0 2075:3.0 2076:3.0 2077:1.0 
1.0 1:14.0 2:1.0 3:5.0 7:9.0 9:1.0 17:3.0 19:2.0 30:1.0 36:1.0 39:1.0 44:2.0 112:1.0 145:1.0 178:1.0 179:1.0 191:1.0 192:1.0 231:1.0 350:1.0 351:1.0 362:2.0 364:1.0 365:1.0 366:1.0 367:1.0 1242:1.0 1244:2.0 2104:1.0 2112:1.0 2116:1.0 2119:1.0 
1.0 1:3.0 3:2.0 39:2.0 57:1.0 65:2.0 132:1.0 2078:1.0 2082:2.0 2140:1.0 2141:1.0 2142:1.0 2144:1.0 2146:1.0 
0.8197550596208694 1:17.0 2:2.0 3:3.0 4:3.0 6:2.0 10:1.0 11:1.0 22:1.0 37:2.0 39:1.0 41:2.0 69:4.0 111:1.0 141:1.0 142:1.0 215:2.0 216:1.0 221:1.0 224:1.0 225:2.0 241:1.0 305:1.0 306:2.0 519:1.0 521:1.0 523:1.0 526:1.0 528:1.0 531:1.0 534:1.0 537:1.0 539:1.0 543:1.0 544:1.0 547:1.0 550:1.0 716:1.0 1145:1.0 1617:1.0 1620:1.0 1629:1.0 1638:1.0 2237:1.0 
1.0 1:4.0 3:1.0 39:1.0 41:1.0 111:2.0 551:1.0 555:1.0 2382:1.0 
1.0 1:25.0 2:4.0 3:8.0 4:3.0 5:2.0 6:2.0 7:4.0 9:3.0 10:3.0 11:3.0 15:1.0 19:1.0 21:2.0 22:3.0 35:2.0 36:1.0 37:2.0 39:1.0 41:3.0 46:1.0 63:1.0 68:2.0 84:1.0 85:1.0 215:2.0 216:1.0 222:1.0 225:2.0 277:1.0 392:2.0 425:1.0 521:1.0 528:1.0 550:1.0 1508:1.0 1614:1.0 1617:1.0 2233:1.0 
1.0 1:60.0 2:19.0 3:21.0 4:2.0 6:6.0 8:1.0 10:5.0 37:1.0 39:5.0 41:8.0 46:1.0 57:2.0 59:5.0 61:7.0 67:7.0 68:8.0 69:6.0 70:1.0 89:7.0 112:2.0 157:2.0 174:2.0 176:8.0 177:2.0 263:11.0 307:1.0 308:1.0 316:1.0 379:1.0 383:1.0 392:5.0 462:2.0 711:1.0 722:1.0 783:2.0 791:2.0 799:6.0 855:2.0 900:4.0 907:2.0 917:2.0 937:1.0 964:2.0 994:1.0 1020:1.0 1099:1.0 1130:1.0 1264:1.0 1269:1.0 1282:1.0 1345:2.0 1683:3.0 1846:1.0 1932:2.0 1947:2.0 1955:2.0 1974:2.0 1997:3.0 2012:3.0 2066:1.0 2233:2.0 2352:6.0 2488:1.0 2490:1.0 2498:1.0 2521:1.0 2522:1.0 2524:1.0 2539:1.0 2546:1.0 2553:1.0 2605:1.0 2606:2.0 2607:1.0 
1.0 1:16.0 2:1.0 3:3.0 7:9.0 17:3.0 30:1.0 36:1.0 39:2.0 41:2.0 44:2.0 57:1.0 63:1.0 67:1.0 85:1.0 89:1.0 419:2.0 420:1.0 886:1.0 1254:1.0 1354:1.0 1545:4.0 1809:1.0 2301:2.0 2630:1.0 2633:1.0 2636:1.0 2640:1.0 2644:1.0 
1.0 1:15.0 3:3.0 39:3.0 41:2.0 68:1.0 69:2.0 111:2.0 264:1.0 379:2.0 383:1.0 470:2.0 486:1.0 491:1.0 493:2.0 551:2.0 555:2.0 2215:1.0 2228:2.0 2652:1.0 2653:1.0 2666:1.0 2667:1.0 
1.0 1:10.0 7:7.0 17:3.0 132:1.0 133:1.0 134:1.0 137:1.0 141:2.0 149:3.0 166:2.0 348:1.0 436:1.0 448:2.0 1045:1.0 1046:1.0 1047:1.0 1048:1.0 1050:1.0 1053:1.0 
0.08284948739927309 1:21.0 5:2.0 7:12.0 15:2.0 17:4.0 28:2.0 37:1.0 69:1.0 141:4.0 149:5.0 166:2.0 173:1.0 222:1.0 434:1.0 436:2.0 445:1.0 448:1.0 1084:1.0 1085:1.0 1086:1.0 1087:1.0 1088:1.0 1089:1.0 1091:1.0 1225:2.0 1228:1.0 1336:1.0 1528:1.0 2130:1.0 
0.3095250658426222 1:18.0 2:2.0 3:3.0 7:9.0 9:3.0 10:2.0 11:2.0 17:2.0 19:3.0 20:1.0 21:2.0 22:2.0 34:1.0 35:2.0 36:2.0 68:1.0 141:2.0 149:3.0 166:2.0 277:1.0 368:1.0 369:1.0 377:1.0 436:1.0 448:1.0 688:2.0 692:2.0 1342:1.0 1387:1.0 1391:1.0 1431:1.0 1448:1.0 2123:1.0 2281:1.0 
1.0 1:3.0 3:4.0 11:3.0 1242:1.0 1244:3.0 2101:1.0 2327:1.0 2328:2.0 2330:1.0 2334:1.0 2759:2.0 2760:2.0 2761:2.0 2762:2.0 
1.0 1:2.0 2:1.0 132:2.0 134:2.0 2147:1.0 2148:1.0 2151:1.0 2802:1.0 2803:1.0 2804:1.0 2805:1.0 
0.7056107452518686 1:9.0 2:4.0 3:5.0 6:1.0 8:1.0 10:1.0 68:2.0 70:1.0 112:3.0 114:1.0 145:1.0 157:2.0 176:1.0 178:1.0 179:1.0 191:1.0 192:1.0 390:1.0 402:1.0 589:1.0 711:1.0 2770:1.0 2777:1.0 2892:1.0 2905:1.0 2908:1.0 
1.0 1:8.0 3:3.0 7:4.0 9:1.0 10:1.0 11:1.0 17:2.0 19:1.0 22:1.0 28:1.0 37:1.0 41:1.0 63:1.0 68:1.0 85:1.0 222:1.0 272:1.0 277:1.0 297:1.0 612:1.0 620:1.0 738:1.0 742:1.0 743:1.0 1393:1.0 2701:1.0 2704:1.0 
1.0 1:12.0 3:4.0 39:3.0 112:3.0 172:6.0 181:6.0 1242:1.0 1244:3.0 2101:1.0 2327:1.0 2328:1.0 2329:3.0 2330:1.0 2332:1.0 2334:1.0 2973:5.0 2974:2.0 2975:2.0 2976:2.0 2977:5.0 2978:2.0 2979:2.0 2980:2.0 2981:2.0 2982:2.0 2983:2.0 2984:2.0 2985:2.0 
1.0 1:13.0 2:4.0 5:1.0 6:2.0 7:6.0 15:2.0 17:3.0 28:2.0 30:1.0 37:1.0 70:1.0 114:1.0 142:1.0 390:1.0 391:1.0 392:1.0 399:1.0 400:1.0 402:1.0 403:1.0 417:1.0 418:1.0 710:1.0 712:1.0 715:1.0 1029:1.0 1844:1.0 1915:1.0 1921:1.0 1923:1.0 1925:1.0 2017:1.0 2669:2.0 
1.0 1:3.0 3:1.0 41:1.0 113:1.0 172:1.0 181:1.0 451:1.0 455:1.0 456:1.0 551:1.0 555:1.0 3081:1.0 3082:1.0 
1.0 1:17.0 3:6.0 7:1.0 9:3.0 10:4.0 11:1.0 21:1.0 22:1.0 35:1.0 41:1.0 63:1.0 68:1.0 69:2.0 85:1.0 111:1.0 173:2.0 220:1.0 263:1.0 269:2.0 379:1.0 470:2.0 471:1.0 480:1.0 783:1.0 788:1.0 799:1.0 998:1.0 1062:1.0 1098:1.0 1786:1.0 
1.0 1:15.0 3:1.0 5:2.0 7:5.0 15:1.0 37:3.0 39:2.0 41:1.0 46:1.0 113:1.0 222:3.0 470:1.0 474:1.0 475:1.0 551:1.0 554:1.0 555:1.0 562:1.0 792:1.0 1792:1.0 3247:1.0 
1.0 1:21.0 2:1.0 5:3.0 7:13.0 15:4.0 17:7.0 28:6.0 30:1.0 59:2.0 61:1.0 62:1.0 173:2.0 222:2.0 1089:2.0 2763:2.0 2768:2.0 2933:2.0 3429:1.0 3433:1.0 3435:1.0 3437:1.0 3439:1.0 
1.0 1:19.0 2:3.0 3:1.0 5:1.0 7:4.0 10:1.0 15:2.0 36:1.0 39:1.0 44:2.0 62:1.0 111:4.0 114:2.0 122:2.0 216:2.0 470:2.0 510:1.0 511:1.0 512:1.0 513:2.0 514:1.0 516:2.0 842:1.0 843:1.0 845:1.0 846:2.0 1720:1.0 2147:2.0 2148:2.0 2151:2.0 3416:2.0 3423:2.0 3463:1.0 3474:1.0 
1.0 1:7.0 3:2.0 10:2.0 39:1.0 69:2.0 112:3.0 263:1.0 307:1.0 308:1.0 316:1.0 473:1.0 476:1.0 904:1.0 932:1.0 1703:1.0 1704:1.0 
1.0 1:9.0 2:1.0 3:4.0 7:4.0 17:1.0 36:1.0 37:1.0 41:1.0 44:1.0 63:1.0 68:1.0 84:1.0 85:1.0 111:2.0 145:1.0 178:1.0 179:1.0 191:1.0 192:1.0 222:1.0 350:1.0 351:1.0 365:1.0 366:1.0 367:1.0 691:1.0 842:1.0 843:1.0 1068:1.0 1517:1.0 1907:1.0 2205:1.0 2815:1.0 3314:1.0 3315:1.0 3317:1.0 3318:1.0 
1.0 1:1.0 2:2.0 3:2.0 41:1.0 179:1.0 392:1.0 1860:1.0 1861:1.0 1862:1.0 3516:1.0 3517:1.0 
1.0 1:3.0 3:1.0 10:1.0 112:1.0 263:1.0 668:1.0 672:1.0 1703:1.0 1704:1.0 3523:1.0 
1.0 1:15.0 2:1.0 3:1.0 5:2.0 7:10.0 15:4.0 17:6.0 28:4.0 30:2.0 41:1.0 61:1.0 67:1.0 89:1.0 132:1.0 134:1.0 176:1.0 964:1.0 2167:1.0 2171:1.0 3432:1.0 3439:2.0 3536:1.0 
1.0 1:9.0 2:1.0 3:2.0 39:4.0 68:1.0 69:2.0 179:1.0 263:1.0 589:2.0 597:4.0 799:1.0 1254:1.0 1255:1.0 3543:1.0 3545:1.0 3547:1.0 3549:1.0 3550:3.0 
1.0 1:14.0 2:1.0 3:1.0 7:9.0 17:3.0 30:1.0 36:1.0 39:1.0 41:1.0 44:2.0 57:1.0 67:1.0 89:1.0 176:1.0 187:1.0 190:1.0 419:2.0 420:1.0 886:1.0 1545:4.0 1808:1.0 1809:1.0 1819:1.0 1820:1.0 1821:1.0 1822:1.0 1823:1.0 2301:2.0 2344:2.0 2630:2.0 2636:2.0 2640:2.0 2643:1.0 2644:2.0 
0.017375353443115013 1:15.0 2:1.0 3:2.0 5:2.0 7:9.0 15:4.0 17:3.0 28:2.0 30:1.0 36:1.0 39:1.0 41:1.0 44:2.0 67:1.0 69:1.0 89:1.0 179:1.0 308:1.0 1029:2.0 1030:2.0 1254:1.0 1255:1.0 1257:1.0 1262:1.0 1308:2.0 2625:1.0 2669:2.0 3565:1.0 
1.0 1:6.0 3:4.0 10:1.0 41:1.0 68:2.0 111:1.0 112:1.0 157:1.0 215:1.0 216:2.0 224:1.0 225:1.0 1721:1.0 1786:1.0 
1.0 1:2.0 2:1.0 61:2.0 176:1.0 3619:3.0 3620:1.0 
0.23578374631342972 1:5.0 3:1.0 68:1.0 112:1.0 157:1.0 172:3.0 181:3.0 486:1.0 1558:3.0 1562:3.0 3621:1.0 3622:2.0 3624:2.0 3626:2.0 
1.0 1:33.0 3:2.0 10:1.0 39:3.0 41:1.0 63:1.0 69:17.0 85:1.0 111:4.0 112:1.0 113:1.0 116:1.0 306:14.0 307:1.0 308:1.0 313:12.0 314:1.0 315:1.0 316:1.0 379:1.0 381:1.0 388:1.0 470:5.0 474:2.0 475:1.0 990:1.0 993:1.0 1131:1.0 1405:1.0 2651:1.0 3646:1.0 3648:1.0 
1.0 1:17.0 2:5.0 3:3.0 4:1.0 5:1.0 6:1.0 7:8.0 15:2.0 17:2.0 36:1.0 37:1.0 41:2.0 63:1.0 67:1.0 68:1.0 84:1.0 85:1.0 89:1.0 141:1.0 142:1.0 149:1.0 151:1.0 166:1.0 168:1.0 222:2.0 321:1.0 323:1.0 334:1.0 337:1.0 688:1.0 737:1.0 741:2.0 1737:1.0 1745:1.0 1746:1.0 1747:1.0 3020:1.0 3021:1.0 3696:1.0 
1.0 1:5.0 2:1.0 6:1.0 7:3.0 17:1.0 70:1.0 132:1.0 134:1.0 530:1.0 1281:1.0 2251:1.0 2259:1.0 3603:1.0 
1.0 1:9.0 2:1.0 6:1.0 7:5.0 70:1.0 141:1.0 142:1.0 149:2.0 323:1.0 397:1.0 530:1.0 668:1.0 672:1.0 744:1.0 1281:1.0 1402:1.0 1403:1.0 1404:1.0 1651:1.0 1654:1.0 1655:1.0 1656:1.0 1665:1.0 
1.0 1:5.0 2:1.0 3:2.0 59:1.0 69:4.0 145:1.0 178:1.0 179:1.0 191:1.0 192:1.0 306:2.0 1129:2.0 3793:1.0 3796:1.0 
1.0 1:13.0 2:3.0 3:4.0 7:5.0 17:3.0 30:1.0 36:1.0 39:1.0 41:1.0 44:2.0 57:1.0 62:1.0 65:2.0 67:1.0 89:1.0 114:2.0 122:1.0 251:2.0 252:1.0 255:1.0 258:2.0 261:2.0 1423:1.0 1424:1.0 1426:2.0 1427:1.0 1614:2.0 3181:1.0 3844:1.0 
0.04163828160828734 1:7.0 2:2.0 7:3.0 36:1.0 44:1.0 57:1.0 132:1.0 134:1.0 141:1.0 392:1.0 425:1.0 746:1.0 754:1.0 1436:1.0 1465:1.0 2249:1.0 2250:1.0 2251:1.0 2252:1.0 2254:1.0 2256:1.0 2257:1.0 2258:1.0 2259:1.0 2264:1.0 2268:1.0 2269:1.0 
1.0 1:9.0 2:1.0 3:1.0 6:1.0 7:5.0 9:1.0 17:1.0 19:1.0 68:1.0 70:1.0 141:1.0 142:1.0 149:1.0 151:1.0 277:1.0 323:1.0 337:1.0 397:1.0 530:1.0 1281:1.0 1403:1.0 1404:1.0 1410:1.0 1422:1.0 3749:1.0 
1.0 1:10.0 2:2.0 5:1.0 6:2.0 7:5.0 13:1.0 17:1.0 70:3.0 529:1.0 530:3.0 1281:1.0 1990:2.0 1991:1.0 2233:1.0 2401:1.0 3603:1.0 4076:1.0 4080:1.0 
1.0 1:10.0 3:1.0 39:3.0 41:1.0 69:3.0 215:1.0 225:1.0 379:3.0 383:3.0 494:2.0 1479:1.0 1494:2.0 3096:1.0 3105:1.0 3643:1.0 
1.0 1:3.0 3:3.0 39:1.0 57:1.0 65:2.0 112:1.0 231:1.0 319:1.0 1423:1.0 1426:2.0 1542:1.0 1546:2.0 4112:1.0 
1.0 1:7.0 3:1.0 39:1.0 41:1.0 69:3.0 111:2.0 306:1.0 307:1.0 308:1.0 315:1.0 316:1.0 551:1.0 555:1.0 1094:1.0 1096:1.0 1112:1.0 2382:1.0 2384:1.0 2387:1.0 2389:1.0 
1.0 1:4.0 2:5.0 3:2.0 41:2.0 61:1.0 67:2.0 89:2.0 176:1.0 964:1.0 1183:1.0 1312:1.0 1317:1.0 3021:1.0 
1.0 1:8.0 3:1.0 10:1.0 69:4.0 111:1.0 112:1.0 113:1.0 119:1.0 263:1.0 306:2.0 1096:1.0 1098:1.0 1702:1.0 1703:1.0 1704:1.0 1705:1.0 1706:1.0 1707:1.0 1708:1.0 3154:1.0 3161:1.0 3905:1.0 4053:1.0 
1.0 1:8.0 2:2.0 3:1.0 7:4.0 17:1.0 36:2.0 39:1.0 41:1.0 44:2.0 54:1.0 67:1.0 89:1.0 176:1.0 187:1.0 190:1.0 210:1.0 392:1.0 425:1.0 693:1.0 746:1.0 754:1.0 1781:1.0 1808:1.0 1809:1.0 1820:1.0 1821:1.0 1822:1.0 1823:1.0 2232:1.0 
0.34266934654582937 1:16.0 2:3.0 3:3.0 4:2.0 6:3.0 7:1.0 10:1.0 11:1.0 22:1.0 37:1.0 39:1.0 41:2.0 70:2.0 111:1.0 141:2.0 142:2.0 215:2.0 216:1.0 221:1.0 224:1.0 225:2.0 241:1.0 323:1.0 324:1.0 519:1.0 521:1.0 522:1.0 523:1.0 525:1.0 526:1.0 527:1.0 528:1.0 529:1.0 530:1.0 531:1.0 534:1.0 536:1.0 537:1.0 539:1.0 542:1.0 543:1.0 544:1.0 545:1.0 546:1.0 547:1.0 548:1.0 549:1.0 550:1.0 1145:1.0 1616:1.0 1617:1.0 1620:1.0 1625:1.0 1629:1.0 1634:1.0 1638:1.0 2367:1.0 2376:1.0 
1.0 1:6.0 2:3.0 3:4.0 39:1.0 41:3.0 67:1.0 89:1.0 114:2.0 176:2.0 1254:1.0 1264:1.0 1269:1.0 1809:1.0 1860:1.0 1862:1.0 2624:1.0 2628:1.0 2638:1.0 2639:1.0 4255:1.0 
1.0 1:8.0 3:1.0 5:1.0 7:5.0 10:1.0 15:2.0 17:3.0 28:2.0 30:1.0 112:1.0 263:1.0 1703:1.0 1704:1.0 1807:1.0 1815:2.0 
0.7759743504754353 1:17.0 3:2.0 7:9.0 10:1.0 17:4.0 37:1.0 39:1.0 41:1.0 63:1.0 85:1.0 112:1.0 116:1.0 141:4.0 149:4.0 166:4.0 435:1.0 436:2.0 448:2.0 1054:1.0 1352:1.0 1354:1.0 1360:1.0 1361:1.0 1370:1.0 1523:1.0 1524:2.0 1535:2.0 1540:2.0 4302:1.0 
1.0 1:3.0 111:1.0 132:2.0 134:2.0 1211:1.0 1216:1.0 4308:1.0 
1.0 1:12.0 2:1.0 5:2.0 7:9.0 15:3.0 17:5.0 28:3.0 30:1.0 36:1.0 44:1.0 261:1.0 392:1.0 425:1.0 1029:1.0 1371:1.0 1375:1.0 2669:2.0 3450:1.0 4204:1.0 4207:1.0 
0.6403881910822581 1:14.0 2:1.0 7:6.0 17:2.0 59:1.0 69:2.0 114:1.0 141:2.0 149:2.0 173:2.0 176:1.0 222:2.0 436:1.0 448:2.0 757:2.0 762:1.0 766:2.0 770:2.0 1685:2.0 2189:1.0 4255:1.0 4346:1.0 4347:1.0 
1.0 1:12.0 3:4.0 5:2.0 7:2.0 10:1.0 15:1.0 37:2.0 39:1.0 41:2.0 63:1.0 85:1.0 112:1.0 116:1.0 222:1.0 551:1.0 554:1.0 555:1.0 562:1.0 1056:1.0 1057:2.0 1352:1.0 1354:1.0 1360:1.0 1361:1.0 1370:1.0 3247:1.0 3248:1.0 3256:1.0 3257:1.0 3258:1.0 4300:1.0 4304:1.0 
0.84002134872068 1:6.0 2:3.0 3:4.0 6:1.0 8:1.0 61:1.0 68:2.0 70:1.0 112:2.0 145:1.0 157:2.0 178:1.0 179:1.0 191:1.0 192:1.0 390:1.0 711:1.0 1677:1.0 1681:1.0 2885:1.0 2887:1.0 2888:1.0 2891:1.0 2901:1.0 2904:1.0 2906:1.0 2907:1.0 
1.0 1:13.0 2:1.0 3:5.0 7:2.0 9:2.0 10:2.0 36:1.0 37:1.0 39:1.0 41:2.0 61:1.0 62:1.0 63:1.0 68:1.0 84:1.0 85:1.0 215:1.0 225:1.0 276:1.0 368:1.0 470:1.0 593:1.0 641:1.0 642:1.0 661:1.0 1001:1.0 1027:1.0 1028:1.0 1769:1.0 1770:1.0 1787:1.0 1794:1.0 2399:2.0 2771:1.0 4401:1.0 4413:1.0 
1.0 1:12.0 2:3.0 3:2.0 41:2.0 61:4.0 62:2.0 67:1.0 69:5.0 89:1.0 176:1.0 306:3.0 589:1.0 654:1.0 965:2.0 1860:1.0 1862:1.0 1934:1.0 1949:1.0 1959:1.0 4437:1.0 4439:1.0 4443:1.0 4447:1.0 4451:1.0 
1.0 1:8.0 2:2.0 7:5.0 17:3.0 30:1.0 36:1.0 39:1.0 44:2.0 61:1.0 251:1.0 252:1.0 258:2.0 261:2.0 642:1.0 1312:1.0 
1.0 1:17.0 2:1.0 3:2.0 5:2.0 7:9.0 15:4.0 17:3.0 28:2.0 30:1.0 36:1.0 39:1.0 41:2.0 44:2.0 67:1.0 89:1.0 111:2.0 176:1.0 187:1.0 190:1.0 215:1.0 221:1.0 225:1.0 241:1.0 842:1.0 843:1.0 845:1.0 846:2.0 1561:1.0 1569:2.0 1808:1.0 1809:1.0 1818:2.0 1819:1.0 1820:1.0 1821:1.0 1822:1.0 1823:1.0 
0.3739086799334679 1:19.0 2:2.0 7:3.0 17:1.0 39:2.0 59:1.0 61:2.0 62:1.0 69:2.0 70:1.0 111:1.0 114:1.0 122:1.0 141:1.0 142:1.0 148:1.0 151:1.0 173:2.0 222:1.0 308:1.0 379:1.0 390:1.0 470:1.0 474:1.0 975:1.0 1685:1.0 2477:1.0 2487:1.0 2651:1.0 3992:1.0 4031:1.0 
1.0 1:4.0 2:3.0 3:1.0 6:1.0 70:2.0 114:1.0 145:1.0 390:1.0 391:1.0 401:1.0 402:1.0 1666:1.0 1669:1.0 
1.0 1:14.0 2:2.0 7:8.0 17:4.0 36:2.0 44:2.0 57:2.0 261:2.0 392:2.0 419:2.0 420:2.0 421:2.0 425:2.0 980:2.0 1304:2.0 1545:2.0 2301:2.0 4545:1.0 4546:1.0 4547:1.0 4548:1.0 4549:1.0 4550:1.0 4551:1.0 4552:1.0 4553:1.0 
0.0669899840488735 1:18.0 2:1.0 3:2.0 5:2.0 7:5.0 15:1.0 36:1.0 37:4.0 44:1.0 69:6.0 145:1.0 178:1.0 179:1.0 191:1.0 192:1.0 305:4.0 306:2.0 350:1.0 351:1.0 365:1.0 366:1.0 367:1.0 691:1.0 792:1.0 797:2.0 847:1.0 1381:1.0 1671:1.0 2072:2.0 2075:1.0 2076:2.0 2380:2.0 2815:1.0 3247:2.0 4593:1.0 4594:1.0 
1.0 1:3.0 2:2.0 57:1.0 61:2.0 176:2.0 461:2.0 4613:1.0 4616:1.0 4618:1.0 
1.0 1:10.0 2:1.0 3:1.0 39:4.0 41:1.0 57:1.0 59:2.0 62:1.0 132:2.0 134:2.0 420:1.0 980:1.0 2066:4.0 3106:1.0 3113:1.0 4307:1.0 4311:1.0 4671:1.0 4679:1.0 4682:3.0 
1.0 1:16.0 3:3.0 5:2.0 7:9.0 9:1.0 10:2.0 11:1.0 15:4.0 17:3.0 19:2.0 20:1.0 21:1.0 22:1.0 28:2.0 30:1.0 32:2.0 33:1.0 34:1.0 35:1.0 41:1.0 215:1.0 225:1.0 263:2.0 1561:1.0 1569:2.0 1715:1.0 1719:1.0 1722:1.0 1732:1.0 1749:1.0 1807:1.0 1810:1.0 1811:1.0 1812:1.0 1813:1.0 1814:1.0 1816:1.0 4688:1.0 
1.0 1:6.0 2:1.0 3:1.0 10:1.0 39:2.0 61:2.0 176:1.0 263:2.0 462:1.0 1099:2.0 2038:2.0 4705:1.0 4707:1.0 4708:1.0 4709:1.0 
1.0 1:5.0 3:1.0 39:2.0 41:1.0 132:1.0 134:1.0 470:1.0 474:2.0 551:1.0 555:1.0 3106:1.0 3113:1.0 4711:1.0 4717:1.0 
1.0 1:8.0 3:1.0 7:5.0 17:3.0 28:2.0 30:1.0 37:1.0 41:1.0 69:1.0 132:1.0 134:1.0 222:2.0 304:1.0 310:2.0 1170:1.0 1173:1.0 1174:1.0 
1.0 1:21.0 2:1.0 6:1.0 7:13.0 17:4.0 141:6.0 142:2.0 149:6.0 151:2.0 166:4.0 323:2.0 324:1.0 336:1.0 434:2.0 435:1.0 436:2.0 445:2.0 448:2.0 1141:2.0 1336:2.0 1337:2.0 4800:1.0 4801:1.0 4802:1.0 4804:1.0 
0.36025069504774226 1:12.0 2:3.0 3:2.0 7:8.0 36:4.0 44:8.0 145:1.0 176:1.0 178:1.0 179:1.0 190:2.0 191:1.0 192:1.0 322:1.0 335:2.0 338:4.0 350:1.0 351:1.0 364:1.0 365:1.0 366:1.0 367:1.0 373:2.0 392:1.0 425:1.0 746:1.0 754:1.0 849:1.0 1748:1.0 2712:2.0 
1.0 1:18.0 2:2.0 3:1.0 7:9.0 9:1.0 17:2.0 19:1.0 36:2.0 37:2.0 39:2.0 44:1.0 46:2.0 68:1.0 141:2.0 149:3.0 166:2.0 222:1.0 277:1.0 369:1.0 377:1.0 436:1.0 448:1.0 688:2.0 692:2.0 694:1.0 706:1.0 1039:1.0 1042:1.0 1342:1.0 1381:1.0 2123:1.0 2204:1.0 2281:1.0 2723:1.0 2724:1.0 2725:1.0 2726:1.0 2727:1.0 2728:1.0 2729:1.0 2952:1.0 4861:1.0 
1.0 1:6.0 2:3.0 3:7.0 7:2.0 9:1.0 36:3.0 68:1.0 145:3.0 178:3.0 179:3.0 191:3.0 192:3.0 277:1.0 350:1.0 351:3.0 365:1.0 366:3.0 367:3.0 370:2.0 378:2.0 693:2.0 1473:1.0 4883:1.0 4885:1.0 
1.0 1:16.0 5:2.0 7:10.0 15:2.0 17:4.0 28:2.0 141:2.0 149:2.0 173:2.0 222:2.0 436:1.0 448:2.0 762:1.0 770:2.0 1084:2.0 1089:2.0 2189:1.0 2191:2.0 2274:2.0 2278:2.0 2279:2.0 3391:1.0 
0.19155301478142447 1:14.0 5:2.0 7:7.0 15:2.0 17:2.0 28:2.0 39:1.0 173:2.0 222:1.0 379:1.0 383:1.0 668:1.0 672:1.0 1084:2.0 1089:1.0 1474:2.0 1651:1.0 1652:1.0 1653:1.0 1654:1.0 1655:1.0 1656:1.0 1657:2.0 1658:1.0 1659:1.0 1660:1.0 1661:1.0 1662:1.0 1663:1.0 1664:1.0 1665:1.0 
0.2846613588863289 1:4.0 2:2.0 3:1.0 39:2.0 61:2.0 144:1.0 145:1.0 156:1.0 251:1.0 254:1.0 262:1.0 642:2.0 1157:2.0 1165:1.0 4454:2.0 4460:2.0 4904:1.0 
1.0 1:14.0 3:1.0 5:2.0 7:8.0 15:2.0 17:4.0 28:4.0 41:1.0 69:1.0 173:2.0 215:1.0 222:2.0 225:1.0 271:1.0 296:1.0 789:2.0 1085:2.0 1086:1.0 1091:2.0 1606:2.0 1646:1.0 4905:1.0 4906:1.0 
1.0 1:19.0 3:11.0 5:1.0 7:4.0 9:6.0 10:3.0 19:2.0 37:1.0 41:1.0 68:7.0 112:1.0 157:1.0 215:1.0 220:2.0 225:1.0 263:4.0 269:2.0 271:1.0 277:3.0 296:1.0 346:1.0 438:1.0 450:1.0 783:1.0 788:1.0 791:1.0 799:3.0 874:1.0 884:1.0 900:1.0 907:1.0 917:1.0 1788:2.0 1790:1.0 1803:2.0 1804:1.0 1806:1.0 1997:2.0 2012:2.0 2498:1.0 2505:1.0 2539:1.0 2546:1.0 2552:1.0 2553:1.0 2566:1.0 
0.4159097922566826 1:18.0 3:3.0 7:7.0 9:1.0 19:1.0 37:2.0 68:3.0 111:2.0 141:4.0 149:4.0 222:1.0 263:2.0 277:1.0 434:2.0 436:1.0 437:1.0 438:1.0 446:1.0 447:1.0 449:1.0 450:1.0 799:2.0 842:1.0 1213:1.0 1225:1.0 1227:1.0 1336:1.0 1342:1.0 1753:1.0 1996:1.0 2007:1.0 2011:1.0 4211:1.0 4892:1.0 4893:1.0 4894:1.0 4895:1.0 4896:1.0 4897:1.0 4898:1.0 4899:1.0 4900:1.0 4901:1.0 4902:1.0 4903:1.0 
0.02184926777076107 1:16.0 2:5.0 3:6.0 7:7.0 36:5.0 44:6.0 61:2.0 62:1.0 68:2.0 112:2.0 120:2.0 145:2.0 157:2.0 178:2.0 179:2.0 191:2.0 192:2.0 350:1.0 351:2.0 365:1.0 366:2.0 367:2.0 373:1.0 510:1.0 688:2.0 689:1.0 692:2.0 693:1.0 696:1.0 700:1.0 704:1.0 707:1.0 1379:1.0 1677:2.0 1680:2.0 1681:2.0 1885:1.0 2741:2.0 2742:2.0 2946:1.0 2950:1.0 3559:1.0 4990:1.0 
1.0 1:5.0 2:6.0 3:1.0 6:4.0 142:1.0 179:1.0 391:1.0 392:1.0 403:1.0 710:1.0 711:1.0 712:1.0 713:1.0 715:1.0 719:1.0 721:1.0 726:1.0 730:1.0 735:1.0 937:1.0 943:1.0 2495:1.0 2835:1.0 3515:1.0 3518:1.0 3714:1.0 3719:1.0 
1.0 1:2.0 2:2.0 114:2.0 251:3.0 255:4.0 1312:1.0 4455:2.0 
1.0 1:11.0 2:3.0 3:2.0 7:5.0 17:3.0 30:1.0 36:1.0 39:1.0 41:1.0 44:2.0 67:1.0 89:1.0 114:1.0 145:1.0 251:2.0 252:1.0 255:1.0 258:2.0 261:2.0 1614:2.0 1666:1.0 1669:1.0 3181:1.0 3823:1.0 3824:1.0 3825:1.0 3827:1.0 3831:1.0 3832:1.0 3834:1.0 3836:1.0 3838:1.0 3840:1.0 
0.45550081324599573 1:6.0 2:2.0 3:4.0 7:4.0 17:2.0 36:2.0 44:2.0 145:2.0 178:2.0 179:2.0 191:2.0 192:2.0 261:2.0 351:2.0 366:2.0 367:2.0 2946:2.0 2947:2.0 2950:2.0 5053:1.0 
1.0 1:18.0 2:1.0 3:4.0 5:2.0 7:10.0 15:4.0 17:6.0 28:4.0 30:2.0 37:2.0 39:1.0 41:1.0 145:1.0 178:1.0 179:1.0 191:1.0 192:1.0 215:1.0 225:1.0 454:1.0 1029:2.0 1056:1.0 1879:1.0 1888:1.0 1904:1.0 1905:1.0 2669:4.0 3060:1.0 4815:1.0 
1.0 1:16.0 3:3.0 7:9.0 17:1.0 57:1.0 65:2.0 141:6.0 149:7.0 419:1.0 436:3.0 448:2.0 1212:2.0 1222:3.0 1225:3.0 1423:1.0 1424:1.0 1425:1.0 1426:2.0 1427:1.0 1428:1.0 1429:1.0 1437:1.0 1438:2.0 1439:1.0 1545:1.0 2670:1.0 2671:1.0 
1.0 1:20.0 2:3.0 3:1.0 6:1.0 7:6.0 36:2.0 39:4.0 44:2.0 61:4.0 62:2.0 142:2.0 151:2.0 324:1.0 510:2.0 641:4.0 642:4.0 661:4.0 1055:2.0 1056:1.0 1885:2.0 4188:2.0 4189:4.0 5122:1.0 5123:1.0 5124:1.0 5126:1.0 5127:1.0 5128:1.0 5129:1.0 5130:1.0 5131:1.0 
1.0 1:6.0 2:1.0 3:1.0 10:1.0 39:1.0 61:3.0 62:1.0 112:2.0 118:2.0 120:2.0 640:1.0 641:1.0 642:1.0 660:1.0 661:1.0 932:1.0 4116:1.0 5138:1.0 5139:1.0 
1.0 1:3.0 3:1.0 68:1.0 69:1.0 112:1.0 155:1.0 157:1.0 171:1.0 172:1.0 181:1.0 1558:1.0 1562:1.0 5146:1.0 
0.0841966489804414 1:12.0 2:3.0 3:1.0 6:2.0 7:6.0 9:1.0 17:2.0 36:1.0 68:1.0 142:4.0 151:2.0 168:2.0 277:1.0 324:2.0 369:1.0 377:1.0 392:1.0 425:1.0 745:1.0 962:4.0 970:2.0 971:2.0 974:2.0 1775:1.0 1780:1.0 1908:1.0 1909:1.0 1910:1.0 1912:1.0 
0.5228244159209166 1:13.0 2:3.0 4:2.0 6:2.0 7:2.0 36:1.0 37:1.0 39:3.0 44:1.0 46:1.0 62:1.0 114:2.0 122:2.0 142:2.0 151:1.0 396:1.0 511:1.0 516:2.0 716:2.0 962:1.0 1145:2.0 2096:1.0 2177:1.0 2178:2.0 2179:1.0 2180:1.0 2182:1.0 2183:1.0 2185:1.0 2186:2.0 2188:2.0 4397:1.0 
1.0 1:7.0 2:2.0 3:2.0 7:3.0 17:1.0 36:2.0 37:1.0 41:1.0 44:2.0 54:1.0 63:1.0 68:1.0 84:1.0 85:1.0 392:2.0 425:2.0 695:2.0 708:2.0 1737:1.0 1746:1.0 1747:1.0 3450:2.0 5204:1.0 
0.2051135566648378 1:7.0 2:1.0 3:5.0 7:2.0 41:1.0 63:1.0 68:1.0 84:1.0 85:1.0 111:2.0 145:1.0 178:1.0 179:1.0 191:1.0 192:1.0 1056:1.0 1068:1.0 1879:1.0 1886:1.0 1888:1.0 1902:1.0 1904:1.0 1905:1.0 3030:1.0 3031:1.0 3033:1.0 3034:1.0 3046:1.0 3047:1.0 3048:1.0 3049:1.0 3050:1.0 3060:1.0 3314:1.0 3315:1.0 3317:1.0 3318:1.0 4815:1.0 
0.2098061681652293 1:8.0 2:1.0 3:2.0 7:4.0 17:2.0 36:1.0 44:1.0 57:2.0 132:2.0 134:2.0 145:1.0 178:1.0 179:1.0 191:1.0 192:1.0 261:1.0 351:1.0 366:1.0 367:1.0 419:1.0 668:1.0 672:1.0 1545:1.0 2283:2.0 2285:1.0 2286:1.0 2287:1.0 2288:1.0 2293:2.0 2294:1.0 2295:1.0 2297:1.0 2298:1.0 2299:1.0 2301:1.0 5239:1.0 
1.0 1:16.0 2:4.0 3:3.0 5:2.0 6:2.0 7:7.0 10:1.0 11:1.0 15:3.0 22:1.0 41:1.0 142:2.0 151:1.0 176:1.0 179:1.0 391:1.0 395:2.0 668:1.0 672:1.0 962:2.0 1264:1.0 1265:1.0 1266:1.0 1267:1.0 1268:1.0 1269:1.0 1270:1.0 1271:2.0 1272:1.0 1273:1.0 1274:1.0 1275:1.0 1276:1.0 1277:1.0 1651:1.0 1654:2.0 1655:1.0 1656:1.0 1662:2.0 1665:1.0 1863:1.0 5070:1.0 5244:1.0 5254:1.0 
0.18845621836285126 1:20.0 3:3.0 5:1.0 7:7.0 10:1.0 17:2.0 37:1.0 39:1.0 68:2.0 69:1.0 141:4.0 149:3.0 166:2.0 173:1.0 222:1.0 263:4.0 308:1.0 435:1.0 436:1.0 448:1.0 799:2.0 1213:1.0 1524:1.0 1535:1.0 1540:1.0 1722:1.0 1749:1.0 1994:1.0 1995:1.0 1996:1.0 1997:1.0 2002:1.0 2003:1.0 2006:1.0 2007:1.0 2008:1.0 2011:1.0 2012:1.0 2934:1.0 5033:1.0 
1.0 1:9.0 3:1.0 5:1.0 7:5.0 15:2.0 17:3.0 28:2.0 30:1.0 41:1.0 111:1.0 172:1.0 181:1.0 451:1.0 456:1.0 551:1.0 555:1.0 843:1.0 3082:1.0 3085:1.0 3499:2.0 
0.9104338206793784 1:9.0 2:2.0 3:2.0 7:3.0 36:2.0 37:1.0 38:2.0 39:1.0 40:2.0 41:2.0 42:1.0 44:1.0 45:2.0 46:1.0 47:2.0 48:2.0 52:1.0 55:2.0 56:2.0 222:1.0 693:1.0 694:1.0 706:1.0 
1.0 1:14.0 2:1.0 3:2.0 7:4.0 36:1.0 37:1.0 41:1.0 44:2.0 61:2.0 62:1.0 63:1.0 68:1.0 69:3.0 84:1.0 85:1.0 132:2.0 134:2.0 222:2.0 304:1.0 305:1.0 306:1.0 309:1.0 311:1.0 510:1.0 513:2.0 515:2.0 1131:1.0 1132:1.0 1138:1.0 1139:1.0 1140:1.0 1211:2.0 1216:2.0 1406:1.0 1885:1.0 1887:2.0 1889:2.0 1901:2.0 1903:2.0 1906:2.0 4755:1.0 4988:1.0 
0.5542341198677451 1:10.0 2:6.0 61:10.0 176:4.0 392:2.0 461:8.0 462:4.0 463:2.0 464:2.0 465:6.0 466:4.0 467:2.0 468:2.0 469:2.0 
1.0 1:14.0 2:3.0 3:3.0 7:2.0 36:2.0 37:2.0 39:2.0 59:2.0 61:1.0 68:1.0 69:2.0 112:1.0 145:1.0 157:1.0 176:2.0 178:1.0 179:1.0 191:1.0 192:1.0 305:1.0 351:1.0 366:1.0 367:1.0 590:1.0 693:1.0 758:1.0 769:1.0 1129:1.0 1381:1.0 1525:1.0 1536:1.0 2066:2.0 2509:1.0 2512:1.0 2807:1.0 3155:1.0 3164:1.0 3165:2.0 
0.03493402110678209 1:14.0 2:3.0 5:1.0 7:9.0 15:2.0 17:3.0 28:2.0 30:1.0 36:1.0 37:1.0 39:1.0 44:2.0 46:1.0 61:1.0 222:2.0 688:1.0 696:1.0 1039:1.0 1040:1.0 1042:1.0 1183:1.0 2952:2.0 3432:1.0 3439:2.0 3671:1.0 3675:1.0 5510:1.0 
1.0 1:12.0 2:1.0 3:2.0 7:7.0 9:1.0 10:1.0 17:3.0 19:1.0 41:1.0 114:1.0 141:2.0 149:3.0 166:2.0 176:1.0 436:1.0 448:2.0 1264:1.0 1267:1.0 1269:1.0 1276:1.0 1408:1.0 1447:1.0 4254:1.0 4255:1.0 4266:1.0 4534:1.0 5262:1.0 
1.0 1:5.0 2:1.0 3:2.0 10:1.0 39:1.0 41:1.0 62:1.0 112:1.0 114:2.0 122:2.0 230:1.0 231:1.0 250:1.0 1264:1.0 1269:1.0 1286:1.0 1303:1.0 5263:1.0 5278:1.0 5535:1.0 
1.0 1:7.0 3:1.0 7:3.0 37:1.0 41:1.0 132:3.0 133:2.0 134:3.0 136:1.0 137:2.0 222:1.0 348:1.0 349:1.0 361:1.0 363:1.0 553:1.0 561:1.0 1170:1.0 1172:1.0 1173:1.0 1174:1.0 1180:1.0 1181:1.0 1310:1.0 
1.0 1:32.0 3:11.0 5:1.0 7:4.0 9:1.0 10:4.0 15:2.0 19:2.0 39:5.0 41:3.0 63:2.0 68:4.0 69:3.0 85:2.0 111:3.0 112:1.0 115:1.0 126:1.0 157:1.0 215:1.0 225:1.0 263:4.0 264:2.0 277:1.0 281:1.0 379:1.0 438:1.0 450:1.0 470:1.0 474:1.0 486:2.0 491:1.0 493:2.0 783:1.0 791:1.0 793:1.0 799:1.0 842:1.0 843:1.0 845:1.0 900:1.0 907:1.0 917:1.0 1032:2.0 1033:1.0 1068:1.0 1095:2.0 1352:1.0 1354:1.0 1360:1.0 1361:1.0 1997:1.0 2012:1.0 2205:1.0 2206:1.0 2208:2.0 2493:1.0 2498:1.0 2508:1.0 2539:1.0 2553:1.0 2649:1.0 2650:1.0 5554:1.0 5571:1.0 5572:1.0 
0.36887531017829134 1:10.0 2:4.0 3:8.0 7:4.0 36:4.0 141:2.0 145:4.0 178:4.0 179:4.0 191:4.0 192:4.0 350:2.0 351:4.0 365:2.0 366:4.0 367:4.0 436:1.0 693:2.0 1409:2.0 1420:2.0 1436:2.0 3166:1.0 3167:1.0 5118:2.0 5590:1.0 5591:1.0 5592:1.0 
1.0 1:2.0 3:3.0 11:1.0 57:1.0 65:2.0 668:3.0 672:3.0 1423:1.0 1426:2.0 1542:1.0 5594:1.0 5597:2.0 5601:1.0 5602:2.0 
1.0 1:3.0 3:2.0 39:1.0 41:2.0 215:1.0 225:1.0 454:1.0 551:1.0 555:1.0 5613:1.0 5614:1.0 
1.0 1:7.0 7:5.0 17:3.0 28:2.0 30:1.0 37:1.0 132:1.0 134:1.0 222:2.0 1211:1.0 1215:1.0 1216:1.0 1232:1.0 1353:1.0 1359:1.0 1362:1.0 5637:1.0 
0.1900867978150514 1:34.0 2:7.0 3:8.0 5:1.0 7:19.0 9:2.0 15:2.0 17:3.0 19:2.0 30:1.0 36:7.0 37:1.0 44:8.0 57:2.0 65:4.0 68:2.0 141:2.0 222:2.0 261:2.0 277:2.0 392:1.0 419:2.0 425:1.0 436:1.0 438:1.0 450:1.0 688:6.0 692:6.0 696:4.0 704:4.0 707:4.0 709:2.0 1029:2.0 1030:2.0 1033:1.0 1308:4.0 1423:2.0 1424:2.0 1425:2.0 1426:4.0 1427:2.0 1432:1.0 1433:1.0 1434:2.0 1435:2.0 1438:4.0 1439:2.0 1449:1.0 1455:1.0 1456:1.0 1457:1.0 1459:2.0 1460:2.0 2618:2.0 2919:2.0 5510:4.0 
0.5100134184594365 1:12.0 2:4.0 6:2.0 7:2.0 36:1.0 37:2.0 39:2.0 46:2.0 70:2.0 142:1.0 222:1.0 392:1.0 425:1.0 710:2.0 1281:1.0 1917:1.0 2177:1.0 2185:1.0 3051:1.0 3273:1.0 3274:1.0 3275:1.0 3276:1.0 3277:1.0 3279:1.0 3281:1.0 3283:1.0 3284:1.0 3288:1.0 3289:1.0 3292:1.0 3293:1.0 
1.0 1:16.0 2:2.0 3:2.0 5:2.0 7:8.0 15:2.0 17:4.0 28:2.0 36:2.0 41:2.0 44:2.0 176:2.0 215:2.0 225:2.0 261:2.0 276:2.0 300:2.0 924:2.0 1614:2.0 1615:2.0 1632:2.0 5681:1.0 5682:1.0 5683:1.0 5684:1.0 5685:1.0 5686:1.0 5687:1.0 5688:1.0 
0.2180984512008975 1:20.0 3:2.0 7:10.0 17:4.0 37:2.0 68:2.0 112:2.0 141:6.0 149:6.0 157:2.0 166:4.0 434:1.0 436:1.0 445:1.0 448:1.0 1213:1.0 1225:1.0 1227:1.0 1336:1.0 1523:2.0 1524:2.0 1525:2.0 1527:1.0 1528:1.0 1530:1.0 1533:2.0 1534:2.0 1535:2.0 1536:2.0 
0.529267364249085 1:20.0 2:1.0 5:2.0 7:8.0 15:2.0 17:4.0 28:4.0 59:3.0 62:1.0 69:5.0 173:2.0 222:2.0 306:3.0 654:1.0 1089:2.0 1129:2.0 2763:2.0 2768:2.0 2933:2.0 3429:2.0 3435:2.0 3437:2.0 5727:1.0 5730:1.0 5731:1.0 
1.0 1:7.0 2:1.0 3:1.0 7:4.0 9:1.0 10:1.0 11:1.0 17:2.0 19:1.0 21:1.0 22:1.0 35:1.0 36:1.0 44:1.0 261:1.0 392:1.0 425:1.0 1387:1.0 1390:1.0 1391:1.0 1393:1.0 1775:1.0 1776:1.0 1780:1.0 
0.8267473189181989 1:16.0 2:2.0 6:1.0 7:3.0 17:1.0 59:1.0 61:1.0 62:1.0 69:2.0 70:1.0 114:1.0 122:1.0 141:1.0 142:1.0 148:1.0 151:1.0 172:1.0 173:2.0 181:1.0 222:1.0 323:1.0 337:1.0 379:2.0 397:1.0 975:1.0 1558:1.0 1562:1.0 1685:1.0 2017:1.0 2021:1.0 2023:1.0 3369:1.0 3816:1.0 3992:1.0 4031:1.0 4470:1.0 4471:1.0 4475:1.0 4485:1.0 4486:1.0 
1.0 1:20.0 2:2.0 3:1.0 5:1.0 7:6.0 15:1.0 17:2.0 28:1.0 36:1.0 37:2.0 39:3.0 41:1.0 44:1.0 46:1.0 57:1.0 61:4.0 62:1.0 176:1.0 215:1.0 222:1.0 225:1.0 271:1.0 296:1.0 419:2.0 420:1.0 461:1.0 590:1.0 640:1.0 641:2.0 642:2.0 660:2.0 661:2.0 886:1.0 965:1.0 1545:1.0 2301:1.0 2350:1.0 2747:1.0 2758:1.0 
0.6622494269774056 1:20.0 7:12.0 17:4.0 141:8.0 149:8.0 434:4.0 436:2.0 445:4.0 448:4.0 1212:2.0 1219:4.0 1222:2.0 2671:4.0 5791:1.0 
1.0 1:1.0 2:2.0 3:1.0 114:1.0 179:1.0 688:1.0 5825:1.0 5826:1.0 
1.0 1:5.0 2:1.0 3:2.0 10:1.0 11:1.0 22:1.0 41:1.0 63:1.0 85:1.0 113:1.0 470:1.0 471:1.0 475:1.0 480:1.0 738:1.0 743:1.0 2147:1.0 2148:1.0 2151:1.0 3416:1.0 3422:1.0 3423:1.0 
0.9874222554052471 1:10.0 2:3.0 3:3.0 7:4.0 11:2.0 17:2.0 28:1.0 36:1.0 41:1.0 44:1.0 57:2.0 67:1.0 89:1.0 173:1.0 222:1.0 251:1.0 261:1.0 688:1.0 1242:1.0 1244:2.0 2308:1.0 2760:2.0 3130:1.0 3671:1.0 3675:1.0 3822:1.0 4866:1.0 5208:1.0 5220:1.0 5259:1.0 5265:1.0 5266:1.0 5268:1.0 5282:1.0 5905:1.0 5916:1.0 5917:1.0 
1.0 1:6.0 2:2.0 3:5.0 7:3.0 9:1.0 17:1.0 19:1.0 36:2.0 44:1.0 68:1.0 145:2.0 178:2.0 179:2.0 191:2.0 192:2.0 277:1.0 351:2.0 366:2.0 367:2.0 369:1.0 377:1.0 2062:1.0 2946:1.0 2950:1.0 3269:1.0 5053:1.0 
1.0 1:14.0 3:3.0 7:7.0 9:3.0 17:2.0 19:1.0 68:3.0 141:4.0 149:3.0 166:2.0 277:3.0 435:1.0 436:1.0 448:1.0 874:1.0 884:1.0 1408:3.0 1447:1.0 
0.6185768839845012 1:16.0 2:3.0 3:3.0 5:2.0 7:7.0 15:1.0 17:2.0 28:1.0 36:2.0 38:1.0 41:1.0 44:2.0 61:1.0 62:1.0 67:1.0 89:1.0 114:1.0 122:1.0 145:1.0 178:1.0 179:1.0 191:1.0 192:1.0 273:1.0 350:1.0 351:1.0 365:1.0 366:1.0 367:1.0 373:1.0 668:1.0 672:1.0 1651:1.0 1654:1.0 1656:1.0 1863:1.0 2815:1.0 2825:1.0 3607:1.0 3617:1.0 4689:1.0 4722:1.0 4736:1.0 5837:1.0 5839:1.0 5843:1.0 6002:1.0 6006:1.0 6008:1.0 
1.0 1:37.0 2:4.0 3:10.0 5:1.0 7:18.0 9:2.0 15:1.0 19:3.0 36:4.0 37:4.0 39:3.0 44:4.0 46:3.0 57:3.0 65:6.0 68:1.0 141:2.0 149:1.0 222:3.0 277:1.0 369:1.0 377:1.0 419:3.0 422:1.0 436:1.0 688:4.0 692:4.0 694:2.0 696:1.0 704:1.0 706:2.0 707:1.0 792:1.0 1029:2.0 1039:1.0 1040:1.0 1042:1.0 1308:2.0 1342:1.0 1381:1.0 1385:2.0 1423:3.0 1424:2.0 1425:2.0 1426:6.0 1427:2.0 1428:1.0 1435:1.0 1437:1.0 1438:4.0 1439:2.0 1542:1.0 1543:2.0 1544:1.0 1545:2.0 1549:1.0 1551:2.0 1553:2.0 1554:2.0 2618:2.0 2723:1.0 2727:1.0 2728:1.0 2729:1.0 4861:2.0 4877:2.0 4878:2.0 4879:2.0 4880:2.0 5162:1.0 6041:1.0 6042:1.0 
1.0 1:8.0 2:1.0 3:5.0 7:3.0 10:1.0 36:1.0 37:1.0 41:2.0 44:1.0 63:2.0 85:2.0 145:1.0 173:1.0 178:1.0 179:1.0 191:1.0 192:1.0 222:1.0 350:1.0 351:1.0 365:1.0 366:1.0 367:1.0 611:1.0 612:2.0 620:2.0 691:1.0 847:1.0 2815:1.0 3734:1.0 5196:1.0 5201:1.0 6049:1.0 
0.13271973857733757 1:18.0 2:5.0 3:3.0 4:1.0 5:1.0 6:1.0 7:8.0 10:1.0 11:1.0 15:2.0 17:2.0 22:1.0 36:1.0 37:1.0 41:2.0 63:1.0 67:1.0 85:1.0 89:1.0 141:1.0 142:1.0 149:1.0 151:1.0 166:1.0 168:1.0 222:2.0 321:1.0 323:1.0 334:1.0 337:1.0 612:1.0 620:1.0 688:1.0 737:1.0 738:1.0 739:1.0 740:1.0 741:2.0 742:1.0 743:1.0 3020:1.0 3021:1.0 3671:1.0 3672:1.0 3673:1.0 3674:1.0 3675:1.0 3676:1.0 3677:1.0 3678:1.0 3679:1.0 3680:1.0 3681:1.0 3682:1.0 3683:1.0 3684:1.0 3685:1.0 3686:1.0 3687:1.0 3688:1.0 3689:1.0 3690:1.0 3691:1.0 3692:1.0 3693:1.0 3694:1.0 3695:1.0 3696:2.0 
1.0 1:5.0 2:3.0 6:1.0 7:3.0 17:1.0 392:2.0 711:2.0 722:2.0 2158:2.0 2166:2.0 3280:2.0 6078:1.0 6079:1.0 
1.0 1:10.0 3:2.0 7:4.0 17:2.0 28:2.0 69:3.0 173:2.0 222:2.0 263:1.0 305:1.0 306:1.0 1085:1.0 1091:1.0 1098:1.0 1994:1.0 2945:1.0 4594:1.0 5439:1.0 
1.0 1:2.0 2:1.0 3:2.0 39:1.0 41:1.0 67:1.0 89:1.0 179:1.0 1809:1.0 3515:1.0 3518:1.0 6140:1.0 6141:1.0 
0.7853920111097562 1:18.0 2:2.0 3:2.0 5:1.0 7:7.0 15:1.0 17:3.0 28:1.0 37:1.0 41:2.0 57:1.0 61:2.0 62:1.0 67:1.0 89:1.0 114:2.0 121:1.0 122:2.0 131:2.0 173:1.0 176:1.0 184:1.0 203:1.0 215:1.0 222:2.0 225:1.0 271:1.0 296:1.0 419:2.0 420:1.0 461:1.0 886:1.0 964:1.0 965:1.0 976:1.0 977:1.0 978:1.0 979:1.0 1545:1.0 2301:1.0 2971:1.0 5767:2.0 5768:1.0 5773:1.0 5777:1.0 5778:1.0 5781:2.0 5782:1.0 
1.0 1:11.0 2:1.0 3:2.0 5:1.0 7:4.0 9:1.0 10:1.0 11:1.0 15:2.0 19:2.0 20:1.0 21:1.0 22:1.0 32:2.0 33:1.0 34:1.0 35:1.0 39:1.0 41:1.0 61:1.0 67:1.0 89:1.0 172:1.0 176:1.0 181:1.0 964:1.0 2973:1.0 2977:1.0 2978:1.0 3432:1.0 3533:1.0 3541:1.0 3542:1.0 3602:2.0 
0.25239390292706787 1:10.0 2:2.0 3:3.0 6:1.0 7:3.0 36:1.0 37:1.0 44:1.0 68:1.0 69:1.0 70:1.0 112:1.0 141:1.0 142:1.0 145:1.0 146:1.0 148:1.0 149:1.0 153:1.0 155:1.0 157:1.0 165:1.0 169:1.0 171:1.0 178:1.0 179:1.0 191:1.0 192:1.0 323:1.0 350:1.0 351:1.0 365:1.0 366:1.0 367:1.0 397:1.0 745:1.0 2017:1.0 2018:1.0 2021:1.0 2023:1.0 2097:1.0 3803:1.0 
1.0 1:8.0 2:2.0 6:2.0 7:4.0 17:2.0 70:2.0 142:2.0 151:2.0 168:2.0 397:2.0 401:2.0 415:2.0 962:2.0 971:2.0 2317:2.0 6195:1.0 
0.852028001745598 1:17.0 3:5.0 7:6.0 9:3.0 10:3.0 11:1.0 17:1.0 19:1.0 21:1.0 22:1.0 35:1.0 37:1.0 41:1.0 63:1.0 68:1.0 84:1.0 85:1.0 141:4.0 149:3.0 434:1.0 445:1.0 593:1.0 1213:1.0 1227:1.0 1408:1.0 1417:1.0 1737:1.0 1746:1.0 1747:1.0 1769:1.0 1770:1.0 2399:1.0 4401:2.0 4413:1.0 4415:1.0 4534:1.0 4872:1.0 5516:1.0 5521:1.0 5623:1.0 
0.8863377708753966 1:12.0 2:3.0 3:4.0 4:2.0 7:4.0 17:2.0 39:1.0 41:1.0 61:1.0 67:1.0 68:1.0 89:1.0 112:1.0 142:2.0 151:2.0 157:1.0 168:2.0 176:1.0 179:2.0 964:1.0 1145:1.0 1677:1.0 1681:1.0 1932:1.0 1947:1.0 6217:1.0 6218:1.0 6219:1.0 6221:1.0 6224:1.0 6226:1.0 6229:1.0 
1.0 1:10.0 3:2.0 39:3.0 41:2.0 111:3.0 215:2.0 225:2.0 470:1.0 486:1.0 493:3.0 2957:1.0 4461:2.0 5952:1.0 5975:1.0 5977:1.0 6251:2.0 
1.0 1:9.0 3:1.0 5:1.0 7:5.0 10:1.0 15:2.0 17:3.0 28:2.0 30:1.0 39:1.0 112:1.0 264:1.0 279:1.0 280:1.0 281:1.0 632:1.0 648:2.0 
0.7594011959424743 1:7.0 2:2.0 7:3.0 17:1.0 36:1.0 44:1.0 57:1.0 132:1.0 134:1.0 141:1.0 149:1.0 392:1.0 425:1.0 2249:1.0 2250:1.0 2251:1.0 2252:1.0 2253:1.0 2254:1.0 2256:1.0 2257:1.0 2258:1.0 2259:1.0 2261:1.0 2263:1.0 2264:1.0 2265:1.0 2268:1.0 2269:1.0 2270:1.0 
1.0 1:16.0 5:2.0 7:6.0 15:1.0 17:2.0 28:2.0 37:2.0 39:3.0 46:2.0 173:2.0 222:1.0 379:1.0 383:1.0 792:1.0 1084:2.0 1089:1.0 1121:2.0 1125:2.0 1381:1.0 1474:2.0 1652:1.0 1657:1.0 1660:1.0 1663:1.0 4890:1.0 4891:1.0 6296:1.0 
0.19122780833491332 1:18.0 3:1.0 7:9.0 17:1.0 37:1.0 39:1.0 68:1.0 141:6.0 149:6.0 263:1.0 436:4.0 448:2.0 799:1.0 1099:1.0 1212:2.0 1222:2.0 1225:4.0 1807:1.0 2670:2.0 2671:1.0 2921:2.0 4543:2.0 6298:1.0 
1.0 1:6.0 2:1.0 3:2.0 7:4.0 9:1.0 19:2.0 36:1.0 44:2.0 68:1.0 145:1.0 277:1.0 438:1.0 450:1.0 1033:1.0 1666:1.0 1667:1.0 1668:1.0 1669:1.0 1675:1.0 1676:1.0 2919:2.0 4316:1.0 4317:2.0 
1.0 1:7.0 2:2.0 7:3.0 36:1.0 44:1.0 57:1.0 70:1.0 141:1.0 392:1.0 425:1.0 746:1.0 754:1.0 1436:1.0 1465:1.0 2249:1.0 2250:1.0 2252:1.0 2256:1.0 3892:1.0 3893:1.0 3897:1.0 3899:1.0 
1.0 1:6.0 2:2.0 3:1.0 41:1.0 111:4.0 215:1.0 225:1.0 1863:1.0 4148:1.0 4149:1.0 4156:1.0 4461:2.0 5952:1.0 5977:1.0 6345:1.0 6348:1.0 6350:1.0 
1.0 1:16.0 2:1.0 3:2.0 5:1.0 7:9.0 15:1.0 17:5.0 28:2.0 30:1.0 36:1.0 41:2.0 44:2.0 111:1.0 173:1.0 176:1.0 190:1.0 210:2.0 215:2.0 221:1.0 222:1.0 225:2.0 241:1.0 261:2.0 789:2.0 1606:2.0 1614:1.0 1615:1.0 1621:1.0 1632:1.0 5682:1.0 
1.0 1:4.0 3:3.0 41:2.0 63:1.0 68:1.0 84:1.0 85:1.0 172:2.0 181:2.0 451:2.0 456:2.0 551:1.0 555:1.0 3082:1.0 3085:1.0 5141:1.0 5144:1.0 5145:1.0 
0.017200894817036946 1:22.0 7:14.0 17:4.0 141:8.0 149:10.0 166:4.0 434:4.0 436:3.0 445:2.0 448:2.0 1212:1.0 1222:1.0 1223:1.0 1224:2.0 1225:4.0 1336:2.0 4654:1.0 
0.41439970546568694 1:9.0 2:3.0 3:5.0 39:1.0 41:3.0 59:1.0 61:2.0 62:1.0 63:1.0 67:2.0 68:1.0 69:2.0 84:1.0 85:1.0 89:2.0 144:1.0 145:1.0 156:1.0 251:1.0 254:1.0 262:1.0 1129:1.0 1282:1.0 1344:1.0 1809:1.0 2084:1.0 2093:1.0 2094:1.0 5466:1.0 5467:1.0 5473:1.0 5474:1.0 5477:1.0 
1.0 1:10.0 3:3.0 5:1.0 7:3.0 9:2.0 10:2.0 11:1.0 15:1.0 19:1.0 21:1.0 22:1.0 35:1.0 68:1.0 69:1.0 112:1.0 263:1.0 270:1.0 277:1.0 872:1.0 873:1.0 874:1.0 880:1.0 882:1.0 884:1.0 1702:1.0 1703:1.0 1704:1.0 1706:1.0 1707:1.0 2399:1.0 2430:1.0 3087:1.0 3089:1.0 3091:1.0 
0.011384640477665105 1:6.0 2:1.0 3:2.0 41:1.0 57:1.0 59:1.0 63:1.0 68:1.0 79:1.0 84:1.0 85:1.0 103:1.0 104:1.0 132:5.0 134:5.0 392:1.0 420:1.0 980:1.0 1130:1.0 2284:1.0 2292:1.0 3106:1.0 3108:1.0 3109:1.0 3110:1.0 3113:1.0 3119:1.0 3123:1.0 4331:1.0 4335:1.0 4337:1.0 4338:1.0 6164:1.0 6166:3.0 6549:2.0 
0.5683627911860646 1:12.0 2:1.0 3:1.0 7:7.0 9:2.0 10:1.0 19:3.0 20:1.0 36:1.0 44:2.0 132:2.0 133:2.0 134:2.0 136:1.0 137:2.0 345:1.0 346:1.0 347:1.0 348:1.0 349:1.0 352:1.0 353:1.0 354:1.0 355:1.0 356:1.0 357:1.0 358:1.0 359:1.0 360:2.0 361:1.0 363:1.0 392:1.0 425:1.0 746:1.0 754:1.0 849:1.0 1364:2.0 
0.4492825240164213 1:22.0 7:14.0 17:4.0 141:8.0 149:8.0 166:4.0 434:4.0 435:2.0 436:4.0 441:2.0 445:2.0 448:2.0 1223:2.0 1225:4.0 1336:2.0 5711:2.0 5712:2.0 
1.0 1:6.0 3:2.0 68:2.0 111:4.0 263:2.0 799:2.0 1753:2.0 3937:2.0 4894:2.0 4903:2.0 6583:1.0 6584:1.0 6585:1.0 
1.0 1:2.0 2:2.0 3:1.0 39:1.0 61:1.0 179:1.0 642:1.0 688:1.0 5824:1.0 5826:1.0 5828:1.0 5830:1.0 6586:1.0 
0.25342065656919405 1:16.0 7:10.0 17:4.0 57:1.0 141:4.0 149:5.0 166:3.0 177:1.0 436:1.0 448:1.0 1225:1.0 2249:2.0 3893:1.0 6592:2.0 
0.5023512407234206 1:27.0 2:1.0 3:10.0 5:2.0 7:3.0 9:3.0 10:3.0 11:1.0 15:1.0 17:1.0 19:1.0 21:1.0 22:1.0 35:1.0 37:3.0 39:1.0 41:3.0 59:1.0 68:4.0 69:4.0 112:1.0 157:1.0 173:1.0 215:3.0 217:1.0 225:3.0 263:2.0 264:1.0 271:2.0 277:2.0 296:2.0 392:1.0 491:1.0 783:1.0 784:1.0 786:2.0 789:1.0 801:1.0 803:1.0 805:1.0 810:1.0 813:1.0 825:1.0 900:2.0 1097:1.0 1099:1.0 1116:1.0 1130:1.0 1571:1.0 1573:1.0 1574:1.0 1575:2.0 1576:1.0 1577:1.0 1578:1.0 1579:1.0 1580:1.0 1584:1.0 1585:1.0 1586:1.0 1587:1.0 1588:1.0 1589:1.0 1590:1.0 1591:2.0 1592:2.0 1593:1.0 1594:1.0 1595:1.0 1596:1.0 1599:1.0 1600:1.0 1601:1.0 1602:1.0 1605:1.0 1606:1.0 1607:1.0 1611:1.0 1612:1.0 3370:1.0 3376:1.0 3991:1.0 4018:1.0 
1.0 1:18.0 2:2.0 3:4.0 7:8.0 10:2.0 36:2.0 37:2.0 39:2.0 41:2.0 44:4.0 63:2.0 85:2.0 112:2.0 116:2.0 222:4.0 688:2.0 692:2.0 696:2.0 704:2.0 707:2.0 1352:2.0 1354:2.0 1360:2.0 1361:2.0 1370:2.0 1548:2.0 1557:4.0 4300:2.0 4304:2.0 5190:2.0 5510:4.0 6611:1.0 
0.8015641624006127 1:22.0 3:8.0 5:3.0 7:4.0 9:2.0 10:1.0 11:1.0 15:1.0 17:1.0 19:1.0 22:1.0 37:3.0 39:1.0 41:3.0 63:1.0 68:4.0 69:2.0 85:1.0 215:2.0 225:2.0 263:1.0 264:1.0 271:2.0 277:2.0 296:2.0 308:1.0 379:1.0 491:1.0 738:1.0 743:1.0 784:1.0 786:1.0 789:1.0 792:1.0 799:1.0 805:1.0 813:1.0 815:1.0 819:1.0 825:1.0 1480:1.0 1485:1.0 1571:1.0 1575:1.0 1592:1.0 1600:1.0 1606:1.0 1646:1.0 1790:1.0 1804:1.0 2931:1.0 3988:1.0 4023:1.0 
1.0 1:3.0 2:1.0 3:2.0 41:1.0 57:1.0 59:1.0 63:1.0 68:1.0 79:1.0 84:1.0 85:1.0 103:1.0 104:1.0 392:1.0 980:1.0 981:1.0 984:1.0 1130:1.0 4331:2.0 4337:1.0 4338:1.0 
0.2056946660551428 1:20.0 3:3.0 7:7.0 10:1.0 17:2.0 37:2.0 39:1.0 68:2.0 69:1.0 141:4.0 149:3.0 166:2.0 173:1.0 222:1.0 263:4.0 308:1.0 434:2.0 436:1.0 445:1.0 448:1.0 799:2.0 1223:1.0 1722:1.0 1749:1.0 1995:1.0 1996:1.0 1997:1.0 2002:1.0 2003:1.0 2006:1.0 2007:1.0 2008:1.0 2011:1.0 2012:1.0 2192:1.0 2203:1.0 4211:1.0 4893:1.0 5113:1.0 5329:1.0 5331:1.0 5333:1.0 5339:1.0 6632:1.0 
1.0 1:26.0 2:4.0 3:2.0 6:2.0 7:12.0 8:2.0 17:4.0 41:2.0 67:2.0 89:2.0 141:2.0 142:4.0 151:4.0 168:4.0 173:4.0 222:4.0 962:2.0 971:2.0 1327:2.0 1843:2.0 2986:2.0 4178:2.0 4646:2.0 6403:2.0 6719:1.0 6720:1.0 6721:1.0 6722:1.0 6723:1.0 6724:1.0 6725:1.0 6726:1.0 6727:1.0 6728:1.0 6729:1.0 6730:1.0 6731:1.0 6732:1.0 6733:1.0 6734:1.0 
1.0 1:3.0 3:1.0 68:1.0 69:1.0 112:1.0 132:1.0 134:1.0 155:1.0 157:1.0 171:1.0 1211:1.0 1216:1.0 1875:1.0 1878:1.0 6735:1.0 
1.0 1:12.0 2:1.0 3:3.0 7:4.0 9:1.0 10:1.0 19:2.0 20:1.0 36:1.0 39:2.0 41:1.0 44:2.0 67:1.0 68:1.0 69:1.0 89:1.0 112:1.0 176:1.0 187:1.0 190:1.0 227:1.0 230:1.0 231:1.0 250:1.0 263:1.0 360:2.0 609:1.0 610:1.0 799:1.0 918:1.0 928:1.0 1099:1.0 1819:1.0 2622:1.0 5724:2.0 6057:1.0 6060:1.0 6061:1.0 
1.0 1:19.0 3:3.0 10:1.0 39:5.0 41:2.0 63:1.0 69:2.0 85:1.0 111:2.0 113:1.0 119:1.0 215:1.0 225:1.0 263:1.0 379:2.0 470:3.0 474:3.0 486:1.0 493:2.0 1095:1.0 2651:1.0 3154:1.0 3161:1.0 3939:1.0 3953:2.0 3988:1.0 4023:1.0 6497:1.0 6508:1.0 6696:1.0 6777:1.0 
0.3196066831145046 1:12.0 2:1.0 3:2.0 7:9.0 9:2.0 10:1.0 17:3.0 19:4.0 20:2.0 30:1.0 36:1.0 44:2.0 145:1.0 346:1.0 356:2.0 360:2.0 1363:1.0 1393:2.0 1572:2.0 1666:1.0 1667:1.0 1668:1.0 1669:1.0 1675:1.0 1676:1.0 4316:1.0 4317:2.0 
1.0 1:10.0 2:1.0 3:1.0 39:4.0 41:1.0 57:1.0 59:2.0 62:1.0 132:3.0 134:3.0 420:1.0 980:1.0 2066:4.0 2285:1.0 2293:2.0 3106:1.0 3113:1.0 3114:1.0 3128:2.0 4668:1.0 4669:1.0 4670:1.0 4671:2.0 4672:1.0 4673:1.0 4674:1.0 4677:1.0 4678:1.0 4679:2.0 4680:1.0 4681:1.0 4682:4.0 
1.0 1:16.0 2:2.0 3:4.0 7:8.0 9:1.0 10:2.0 11:1.0 17:2.0 19:1.0 20:1.0 22:1.0 36:2.0 37:1.0 39:1.0 41:2.0 44:2.0 46:1.0 176:2.0 190:2.0 210:2.0 222:1.0 368:1.0 691:1.0 1039:1.0 1042:1.0 1264:2.0 1267:2.0 1268:1.0 1269:2.0 1275:1.0 1276:2.0 1277:1.0 1517:1.0 1572:1.0 2953:1.0 3269:1.0 5262:1.0 6356:1.0 6854:1.0 6859:1.0 
0.5864932450896285 1:15.0 3:2.0 5:2.0 7:8.0 10:1.0 15:2.0 17:4.0 28:4.0 41:1.0 112:1.0 132:1.0 134:1.0 173:2.0 222:2.0 379:1.0 613:1.0 1089:2.0 1657:2.0 2933:2.0 4891:2.0 6880:1.0 6886:1.0 
1.0 1:7.0 2:1.0 3:1.0 7:3.0 9:1.0 36:1.0 37:1.0 39:1.0 44:1.0 46:1.0 68:1.0 222:1.0 277:1.0 369:1.0 377:1.0 392:1.0 425:1.0 593:1.0 1039:1.0 1042:1.0 1775:1.0 1780:1.0 2952:1.0 6355:1.0 
1.0 1:9.0 2:3.0 3:3.0 6:1.0 39:4.0 57:1.0 59:1.0 72:1.0 112:2.0 132:1.0 134:1.0 231:2.0 1242:1.0 1244:3.0 2066:2.0 2109:2.0 2120:2.0 2307:1.0 2308:1.0 2313:1.0 2314:2.0 2315:1.0 2324:2.0 2325:1.0 2326:2.0 2713:1.0 2717:1.0 6923:1.0 
1.0 1:20.0 2:1.0 3:2.0 5:2.0 7:3.0 36:1.0 37:6.0 69:8.0 145:1.0 178:1.0 179:1.0 191:1.0 192:1.0 305:6.0 306:2.0 350:1.0 351:1.0 365:1.0 366:1.0 367:1.0 691:2.0 797:1.0 1381:1.0 2071:2.0 2072:3.0 2073:1.0 2074:2.0 2075:2.0 2076:3.0 2077:1.0 2380:2.0 4592:1.0 4594:1.0 
1.0 1:6.0 2:3.0 57:1.0 61:6.0 1242:1.0 2308:1.0 4951:3.0 6964:2.0 6966:5.0 6968:2.0 6970:5.0 
1.0 1:17.0 2:3.0 3:2.0 7:7.0 9:2.0 10:1.0 17:3.0 19:2.0 36:2.0 37:1.0 41:1.0 44:1.0 61:2.0 62:1.0 67:1.0 89:1.0 114:2.0 121:1.0 122:2.0 131:2.0 176:2.0 184:1.0 203:1.0 222:1.0 261:1.0 322:1.0 346:1.0 461:1.0 964:1.0 965:1.0 976:1.0 977:1.0 978:1.0 979:1.0 1387:2.0 1390:2.0 1393:1.0 1571:1.0 2913:1.0 3562:1.0 5208:1.0 5220:1.0 
0.9233547979181318 1:11.0 3:1.0 5:1.0 7:4.0 10:1.0 15:2.0 37:1.0 39:1.0 46:1.0 69:2.0 112:1.0 222:2.0 263:1.0 305:1.0 309:1.0 872:1.0 1039:1.0 1040:1.0 1042:1.0 1098:1.0 1702:1.0 1703:1.0 1704:1.0 1705:1.0 1706:1.0 1707:1.0 1840:2.0 6986:1.0 
0.3115800446220823 1:18.0 3:1.0 7:11.0 9:1.0 17:2.0 19:1.0 68:1.0 141:6.0 149:7.0 166:2.0 277:1.0 434:4.0 436:2.0 437:1.0 438:1.0 445:1.0 446:1.0 447:1.0 448:1.0 449:1.0 450:1.0 1223:1.0 1224:2.0 1225:2.0 1336:2.0 1342:1.0 4654:2.0 4976:1.0 
1.0 1:12.0 2:5.0 5:1.0 6:3.0 7:5.0 15:2.0 17:3.0 28:2.0 30:1.0 61:1.0 142:1.0 392:1.0 710:1.0 711:1.0 713:1.0 717:1.0 722:1.0 733:1.0 937:2.0 943:1.0 1931:1.0 1935:1.0 2495:1.0 2831:1.0 2835:1.0 2854:1.0 2855:1.0 2856:1.0 2860:1.0 2861:1.0 2863:1.0 2986:1.0 3432:1.0 3439:2.0 
1.0 1:3.0 3:2.0 68:2.0 112:1.0 157:1.0 263:1.0 799:1.0 896:1.0 898:1.0 907:1.0 917:1.0 6996:1.0 
0.17108747958600753 1:13.0 2:2.0 4:1.0 6:1.0 7:4.0 17:1.0 36:1.0 37:1.0 44:1.0 69:4.0 141:1.0 142:1.0 149:1.0 305:1.0 306:2.0 392:1.0 425:1.0 716:1.0 744:1.0 781:1.0 2270:1.0 2369:1.0 2370:1.0 2379:1.0 2380:1.0 2381:1.0 2921:1.0 3973:1.0 3978:1.0 3979:1.0 4595:1.0 
0.3791531367857519 1:17.0 2:4.0 3:4.0 7:1.0 9:1.0 10:1.0 36:2.0 41:2.0 61:4.0 62:2.0 63:1.0 68:1.0 84:1.0 85:1.0 114:2.0 122:1.0 173:1.0 215:1.0 225:1.0 251:2.0 255:1.0 276:1.0 470:1.0 668:1.0 672:1.0 965:4.0 1001:1.0 1027:1.0 1028:1.0 1623:1.0 1640:2.0 1641:1.0 1642:1.0 1651:1.0 1653:1.0 1656:1.0 1787:1.0 1794:1.0 1885:1.0 2771:1.0 2818:1.0 2824:1.0 4400:1.0 4407:1.0 4414:1.0 7072:1.0 
0.35989326294630714 1:19.0 2:1.0 3:4.0 4:1.0 5:2.0 6:1.0 7:5.0 9:3.0 10:3.0 11:3.0 15:1.0 19:1.0 20:1.0 21:3.0 22:3.0 32:1.0 34:1.0 35:3.0 37:1.0 41:1.0 70:1.0 141:2.0 215:1.0 225:1.0 271:1.0 296:1.0 436:1.0 437:1.0 524:1.0 530:1.0 789:1.0 873:1.0 1059:1.0 1143:1.0 1154:1.0 1570:1.0 2399:1.0 2430:1.0 5287:1.0 7004:1.0 7005:1.0 
1.0 1:15.0 2:2.0 39:1.0 57:1.0 69:8.0 70:2.0 114:1.0 306:6.0 307:1.0 308:1.0 313:4.0 314:1.0 315:1.0 316:1.0 390:2.0 402:1.0 420:1.0 937:1.0 980:1.0 3501:1.0 3503:1.0 3822:1.0 4502:2.0 6168:1.0 
1.0 1:10.0 2:1.0 6:1.0 7:5.0 17:1.0 37:1.0 39:1.0 46:1.0 70:1.0 141:1.0 142:1.0 149:2.0 222:1.0 397:1.0 530:1.0 744:1.0 781:1.0 1281:1.0 1402:1.0 1403:1.0 1404:1.0 1845:1.0 1858:1.0 2367:1.0 3461:1.0 
1.0 1:7.0 7:5.0 17:3.0 28:2.0 30:1.0 37:1.0 172:1.0 181:1.0 222:2.0 1558:1.0 1562:1.0 6706:1.0 6707:1.0 6708:1.0 6709:1.0 6710:1.0 7193:1.0 
1.0 1:9.0 2:1.0 3:2.0 5:1.0 7:4.0 15:1.0 17:2.0 28:2.0 41:2.0 62:1.0 67:2.0 89:2.0 132:1.0 134:1.0 173:1.0 222:1.0 3778:2.0 5448:2.0 7195:1.0 7199:1.0 7200:1.0 7201:1.0 
1.0 1:16.0 2:1.0 5:2.0 7:9.0 15:4.0 17:3.0 28:2.0 30:1.0 36:1.0 44:2.0 62:1.0 111:2.0 114:2.0 122:2.0 510:1.0 511:1.0 512:1.0 513:2.0 514:1.0 516:2.0 842:2.0 843:2.0 844:2.0 845:2.0 846:2.0 3499:2.0 
1.0 1:9.0 2:1.0 7:2.0 36:1.0 37:3.0 39:3.0 46:3.0 392:1.0 425:1.0 694:2.0 706:2.0 1039:1.0 1042:1.0 1380:1.0 1381:2.0 1382:1.0 1383:2.0 1384:1.0 4881:2.0 
0.6972616422217603 1:8.0 2:1.0 3:5.0 7:4.0 9:1.0 11:2.0 19:2.0 36:1.0 44:2.0 57:1.0 145:1.0 178:1.0 179:1.0 191:1.0 192:1.0 350:1.0 351:1.0 362:2.0 364:1.0 365:1.0 366:1.0 367:1.0 1242:1.0 1244:3.0 2108:1.0 2119:2.0 2307:1.0 2308:1.0 2313:1.0 2315:1.0 2325:1.0 2760:2.0 7269:1.0 7272:1.0 7274:1.0 
0.12725526833047832 1:20.0 2:1.0 3:6.0 7:4.0 9:4.0 10:4.0 11:2.0 19:1.0 21:2.0 22:2.0 35:2.0 36:1.0 37:1.0 41:2.0 62:1.0 67:1.0 89:1.0 114:1.0 122:1.0 141:4.0 149:1.0 215:1.0 225:1.0 434:1.0 443:1.0 593:1.0 1408:1.0 1436:1.0 1769:1.0 1770:1.0 1881:1.0 2124:1.0 2399:2.0 2430:1.0 4401:2.0 4413:1.0 4415:1.0 4722:1.0 4736:1.0 4872:1.0 6200:2.0 6202:1.0 6204:1.0 6207:1.0 6208:1.0 6401:1.0 6404:1.0 
1.0 1:6.0 2:2.0 3:2.0 111:4.0 179:2.0 1863:2.0 5070:2.0 5245:2.0 5247:2.0 5255:2.0 6345:4.0 7370:1.0 7371:1.0 7372:3.0 7373:1.0 
1.0 1:14.0 2:3.0 3:6.0 41:4.0 57:1.0 59:2.0 61:1.0 63:2.0 67:2.0 68:2.0 69:2.0 79:1.0 84:2.0 85:2.0 89:2.0 103:1.0 104:1.0 132:5.0 134:5.0 176:2.0 392:1.0 420:1.0 918:1.0 928:1.0 964:1.0 980:1.0 1128:1.0 1129:1.0 1130:1.0 1133:1.0 1135:1.0 1136:1.0 1258:1.0 1683:1.0 1955:1.0 1974:1.0 2081:1.0 2084:1.0 2089:1.0 2092:1.0 2093:1.0 2094:1.0 2284:1.0 2285:1.0 2292:1.0 2293:2.0 3106:2.0 3108:1.0 3109:1.0 3110:1.0 3111:1.0 3112:1.0 3113:2.0 3114:1.0 3119:1.0 3121:1.0 3122:1.0 3123:1.0 3124:1.0 3125:1.0 3126:1.0 3127:1.0 3128:2.0 
0.520137525269506 1:16.0 2:2.0 3:4.0 7:8.0 36:2.0 141:6.0 145:2.0 149:4.0 178:2.0 179:2.0 191:2.0 192:2.0 350:2.0 351:2.0 365:2.0 366:2.0 367:2.0 436:4.0 1212:2.0 1225:4.0 1436:4.0 2670:2.0 5118:4.0 6310:4.0 6311:2.0 
1.0 1:17.0 3:6.0 7:1.0 9:3.0 10:4.0 11:1.0 21:1.0 22:1.0 35:1.0 41:2.0 63:1.0 69:3.0 85:1.0 112:1.0 173:2.0 215:1.0 220:1.0 225:1.0 269:2.0 379:1.0 470:2.0 471:1.0 473:1.0 480:1.0 783:1.0 788:1.0 901:1.0 998:1.0 1062:1.0 1100:1.0 1365:1.0 3213:1.0 3214:1.0 3216:1.0 3217:1.0 3219:1.0 3225:1.0 3227:1.0 3228:1.0 3229:1.0 3232:1.0 3233:1.0 3235:1.0 3241:1.0 6497:1.0 6508:1.0 
1.0 1:3.0 3:1.0 68:1.0 112:1.0 132:2.0 134:2.0 157:1.0 1211:1.0 1216:1.0 2167:1.0 2169:1.0 2171:1.0 2175:1.0 7426:1.0 
1.0 1:10.0 2:2.0 6:2.0 7:6.0 17:2.0 70:2.0 530:2.0 1281:2.0 2233:2.0 2397:2.0 2401:2.0 3603:2.0 4077:2.0 4083:2.0 4084:2.0 7436:1.0 7437:1.0 7438:1.0 
1.0 1:8.0 2:3.0 6:1.0 7:4.0 17:2.0 114:1.0 142:2.0 151:2.0 168:2.0 390:1.0 391:1.0 392:1.0 395:1.0 399:1.0 400:1.0 402:1.0 403:1.0 412:1.0 417:1.0 418:1.0 962:1.0 971:1.0 1843:1.0 1852:1.0 4645:1.0 4646:1.0 
0.765514191930013 1:19.0 2:1.0 3:3.0 5:1.0 7:5.0 9:2.0 10:1.0 15:1.0 17:2.0 28:1.0 36:2.0 37:1.0 39:1.0 41:1.0 44:1.0 62:1.0 68:1.0 69:1.0 113:1.0 114:1.0 122:1.0 173:1.0 215:1.0 220:1.0 225:1.0 261:1.0 263:1.0 265:1.0 266:1.0 267:1.0 268:1.0 269:1.0 270:1.0 271:1.0 272:1.0 273:1.0 274:1.0 276:1.0 277:1.0 282:1.0 283:1.0 284:1.0 285:1.0 286:1.0 288:1.0 289:1.0 290:1.0 291:1.0 293:1.0 295:1.0 296:1.0 297:1.0 298:1.0 300:1.0 470:1.0 474:1.0 475:1.0 6768:1.0 
1.0 1:9.0 2:1.0 3:2.0 7:4.0 17:2.0 36:1.0 44:1.0 57:2.0 132:2.0 134:2.0 145:1.0 178:1.0 179:1.0 191:1.0 192:1.0 261:1.0 351:1.0 366:1.0 367:1.0 419:1.0 668:3.0 672:3.0 1545:1.0 2283:2.0 2284:1.0 2286:1.0 2287:1.0 2288:1.0 2289:1.0 2292:1.0 2294:1.0 2295:1.0 2296:1.0 2297:1.0 2298:1.0 2299:1.0 2301:1.0 3106:1.0 3113:1.0 3330:1.0 3346:3.0 7508:2.0 
0.6670332000008292 1:14.0 2:2.0 3:4.0 7:8.0 9:1.0 10:1.0 11:1.0 17:3.0 19:1.0 21:1.0 22:1.0 30:1.0 35:1.0 36:2.0 41:1.0 44:2.0 67:1.0 89:1.0 145:1.0 173:1.0 176:1.0 178:1.0 179:1.0 184:1.0 187:1.0 190:1.0 191:1.0 192:1.0 202:1.0 203:1.0 210:2.0 222:1.0 261:2.0 351:1.0 366:1.0 367:1.0 370:1.0 378:1.0 1387:1.0 1388:1.0 1391:1.0 1819:1.0 4689:1.0 4820:1.0 4830:1.0 
1.0 1:6.0 2:1.0 7:4.0 36:1.0 44:2.0 132:1.0 133:1.0 134:1.0 137:1.0 348:2.0 349:1.0 363:1.0 392:1.0 425:1.0 746:1.0 754:1.0 849:1.0 1311:1.0 4074:2.0 7553:1.0 
1.0 1:14.0 7:9.0 17:2.0 132:1.0 133:1.0 134:1.0 137:1.0 141:4.0 149:3.0 166:2.0 348:1.0 349:1.0 363:1.0 435:2.0 436:4.0 444:3.0 448:2.0 772:1.0 1054:2.0 
1.0 1:5.0 3:4.0 41:2.0 63:2.0 68:2.0 84:2.0 85:2.0 132:3.0 134:3.0 470:1.0 1001:1.0 1027:1.0 1028:1.0 2801:1.0 2804:2.0 3106:1.0 3113:1.0 7569:1.0 
1.0 1:2.0 2:1.0 132:1.0 134:1.0 172:1.0 181:1.0 2147:1.0 2148:1.0 2151:1.0 7593:1.0 7594:1.0 
1.0 1:12.0 2:1.0 3:1.0 7:6.0 9:2.0 10:1.0 19:2.0 20:1.0 36:1.0 44:2.0 132:3.0 133:3.0 134:3.0 136:2.0 137:3.0 346:1.0 347:2.0 349:1.0 356:1.0 357:2.0 358:2.0 360:2.0 363:1.0 392:1.0 425:1.0 746:1.0 754:1.0 849:1.0 1364:2.0 1841:1.0 6366:1.0 6367:1.0 6368:1.0 6369:2.0 
1.0 1:9.0 2:1.0 6:1.0 7:5.0 17:1.0 70:1.0 141:1.0 142:1.0 149:2.0 397:1.0 530:1.0 668:1.0 672:1.0 744:1.0 781:1.0 1281:1.0 1402:1.0 1403:1.0 1404:1.0 1651:1.0 1654:1.0 1656:1.0 5292:1.0 5293:1.0 5297:1.0 5300:1.0 
1.0 1:3.0 2:1.0 3:2.0 39:1.0 69:1.0 132:1.0 134:1.0 145:1.0 178:1.0 179:1.0 191:1.0 192:1.0 308:1.0 7625:1.0 
1.0 1:13.0 3:3.0 10:2.0 39:3.0 41:1.0 63:1.0 69:5.0 85:1.0 112:2.0 116:1.0 263:1.0 306:3.0 313:1.0 381:1.0 388:1.0 486:1.0 492:1.0 493:3.0 904:1.0 1131:1.0 1405:1.0 1703:1.0 1704:1.0 3480:1.0 3481:1.0 3482:1.0 3483:1.0 3667:1.0 3670:1.0 7638:2.0 
1.0 1:8.0 2:2.0 3:1.0 7:5.0 17:3.0 30:1.0 36:1.0 39:1.0 41:1.0 44:2.0 67:1.0 89:1.0 261:2.0 1183:2.0 1809:1.0 7693:1.0 
1.0 1:10.0 2:1.0 3:3.0 7:6.0 9:1.0 17:2.0 19:1.0 36:1.0 68:1.0 141:2.0 145:1.0 149:3.0 166:2.0 178:1.0 179:1.0 191:1.0 192:1.0 277:1.0 351:1.0 366:1.0 367:1.0 369:1.0 377:1.0 436:1.0 448:1.0 1342:1.0 2123:1.0 2281:1.0 2726:1.0 2729:1.0 
1.0 1:10.0 2:1.0 3:5.0 11:2.0 39:3.0 41:1.0 61:2.0 62:1.0 67:1.0 89:1.0 132:1.0 134:1.0 216:1.0 641:2.0 642:2.0 661:2.0 1242:1.0 1244:3.0 1961:1.0 1986:2.0 2101:1.0 2327:1.0 2328:1.0 2330:1.0 2334:1.0 2759:2.0 2760:2.0 2761:2.0 2762:2.0 3106:1.0 3113:1.0 3468:1.0 
1.0 1:17.0 2:1.0 3:4.0 6:1.0 7:2.0 9:1.0 10:1.0 37:2.0 39:2.0 41:1.0 63:1.0 68:2.0 69:4.0 84:1.0 85:1.0 112:1.0 141:1.0 142:1.0 146:1.0 153:1.0 264:1.0 277:1.0 308:2.0 437:1.0 438:1.0 450:1.0 473:1.0 593:1.0 1132:1.0 1139:1.0 1140:1.0 1499:1.0 1505:1.0 2233:1.0 2237:1.0 2238:1.0 2367:1.0 4198:1.0 5329:1.0 5339:1.0 6616:1.0 6628:1.0 
0.6969459914210101 1:14.0 2:1.0 5:2.0 7:9.0 15:4.0 17:3.0 28:2.0 30:1.0 36:1.0 44:2.0 111:2.0 392:1.0 425:1.0 746:1.0 754:1.0 842:2.0 843:2.0 844:2.0 845:2.0 846:2.0 848:2.0 849:1.0 3499:2.0 
1.0 1:9.0 2:3.0 3:1.0 5:1.0 6:1.0 7:2.0 15:1.0 59:1.0 61:1.0 69:2.0 70:2.0 144:1.0 145:1.0 156:1.0 251:1.0 254:1.0 262:1.0 529:1.0 530:1.0 1129:1.0 1280:1.0 1281:1.0 1282:1.0 1283:1.0 1293:1.0 1294:1.0 1296:1.0 
1.0 1:8.0 2:1.0 39:2.0 57:2.0 61:2.0 62:1.0 113:1.0 132:1.0 134:1.0 420:1.0 641:2.0 642:2.0 661:2.0 980:1.0 3106:1.0 3113:1.0 4611:1.0 4674:1.0 7813:1.0 
1.0 1:4.0 2:2.0 3:1.0 41:1.0 61:1.0 111:1.0 113:1.0 119:1.0 176:1.0 392:1.0 1860:1.0 1861:1.0 1862:1.0 4640:1.0 4692:1.0 4702:1.0 4703:1.0 5302:1.0 5306:1.0 
0.3095428000495522 1:22.0 3:1.0 5:1.0 7:12.0 10:1.0 15:1.0 17:6.0 28:2.0 141:4.0 149:4.0 166:4.0 173:3.0 222:1.0 263:2.0 434:2.0 445:2.0 1084:1.0 1089:1.0 1524:2.0 1535:2.0 1722:1.0 1749:2.0 1994:1.0 2932:1.0 2935:1.0 2937:1.0 2938:1.0 2941:1.0 2945:1.0 3857:1.0 3863:1.0 3865:2.0 
0.4090925788001255 1:21.0 2:1.0 3:3.0 5:1.0 6:1.0 7:9.0 10:1.0 17:2.0 68:2.0 141:4.0 142:2.0 149:4.0 151:1.0 166:2.0 173:1.0 222:1.0 263:4.0 323:1.0 324:1.0 434:1.0 435:1.0 436:1.0 445:1.0 448:1.0 744:1.0 799:2.0 1141:1.0 1336:1.0 1337:1.0 1722:1.0 1749:1.0 1992:1.0 1993:1.0 1994:1.0 1995:1.0 1996:1.0 1997:1.0 1998:1.0 1999:1.0 2000:1.0 2001:1.0 2002:1.0 2003:1.0 2004:1.0 2006:1.0 2007:1.0 2008:1.0 2009:1.0 2011:1.0 2012:1.0 4800:1.0 4801:1.0 4802:1.0 4804:1.0 7239:1.0 
0.9047766284081502 1:36.0 2:6.0 3:9.0 5:1.0 7:19.0 9:2.0 15:2.0 19:2.0 36:6.0 37:1.0 41:2.0 44:8.0 57:1.0 63:2.0 65:2.0 68:4.0 84:2.0 85:2.0 141:2.0 149:1.0 173:2.0 222:2.0 272:2.0 277:2.0 297:2.0 419:1.0 688:6.0 692:6.0 696:4.0 704:4.0 707:2.0 1029:2.0 1030:2.0 1308:4.0 1423:1.0 1424:1.0 1425:1.0 1426:2.0 1427:1.0 1435:1.0 1438:2.0 1439:1.0 1543:1.0 1545:1.0 1737:2.0 1746:2.0 1747:2.0 2123:2.0 2618:2.0 2701:2.0 2704:2.0 2706:2.0 2736:2.0 2738:2.0 2739:2.0 4689:2.0 5162:1.0 5510:4.0 6183:2.0 7885:1.0 7886:1.0 7889:1.0 7890:1.0 
0.2652642411054092 1:22.0 5:2.0 7:10.0 15:2.0 17:4.0 37:2.0 39:2.0 46:2.0 141:4.0 149:4.0 166:2.0 173:2.0 436:1.0 448:2.0 762:1.0 770:2.0 1524:2.0 1535:2.0 2189:1.0 2279:2.0 3391:1.0 5309:2.0 5319:2.0 6865:2.0 7894:1.0 7895:1.0 7896:1.0 7897:1.0 7898:1.0 
1.0 1:3.0 3:2.0 41:2.0 69:1.0 551:2.0 555:2.0 6474:2.0 6478:2.0 7905:1.0 7906:1.0 
1.0 1:4.0 2:2.0 4:1.0 7:1.0 39:1.0 57:1.0 175:1.0 392:1.0 1145:1.0 2250:1.0 2252:1.0 
1.0 1:26.0 2:2.0 7:18.0 17:4.0 36:4.0 44:6.0 141:4.0 149:6.0 166:4.0 176:2.0 190:4.0 322:2.0 335:2.0 338:4.0 436:4.0 448:4.0 767:2.0 1436:2.0 1748:2.0 2923:2.0 5720:2.0 5721:2.0 5722:2.0 5723:2.0 
0.1562879078698333 1:20.0 5:2.0 7:11.0 15:2.0 17:2.0 141:4.0 149:3.0 173:2.0 436:3.0 448:2.0 668:1.0 672:1.0 762:1.0 770:2.0 1651:1.0 1654:1.0 1655:1.0 1656:1.0 1665:1.0 2189:1.0 2192:2.0 2274:2.0 2279:2.0 2922:1.0 2933:2.0 2970:2.0 3391:1.0 3752:1.0 6865:2.0 7956:1.0 
0.6386495100921668 1:17.0 2:2.0 5:2.0 7:8.0 15:4.0 36:2.0 44:4.0 62:2.0 69:1.0 114:4.0 122:4.0 510:2.0 511:2.0 512:2.0 513:4.0 514:2.0 515:4.0 516:4.0 872:2.0 1086:1.0 4913:2.0 7791:1.0 
1.0 1:55.0 2:17.0 3:21.0 4:1.0 6:6.0 8:1.0 10:5.0 37:1.0 39:4.0 41:8.0 46:1.0 57:3.0 59:5.0 61:3.0 67:7.0 68:8.0 69:3.0 70:2.0 89:7.0 112:2.0 157:2.0 174:1.0 176:6.0 177:2.0 263:11.0 319:2.0 379:1.0 383:1.0 392:5.0 711:1.0 722:1.0 783:2.0 791:2.0 799:6.0 855:2.0 900:4.0 907:2.0 917:2.0 937:1.0 964:2.0 980:1.0 994:1.0 1020:1.0 1099:1.0 1130:1.0 1264:1.0 1269:1.0 1683:3.0 1846:1.0 1932:1.0 1947:1.0 1955:2.0 1974:2.0 1997:3.0 2012:3.0 2066:1.0 2233:2.0 2352:2.0 2488:2.0 2489:1.0 2490:2.0 2491:1.0 2492:1.0 2493:1.0 2494:1.0 2495:1.0 2496:1.0 2497:1.0 2498:2.0 2499:1.0 2500:1.0 2501:1.0 2502:1.0 2503:1.0 2504:1.0 2505:1.0 2506:1.0 2507:1.0 2508:1.0 2509:1.0 2510:1.0 2511:1.0 2512:1.0 2513:1.0 2514:1.0 2515:1.0 2516:1.0 2517:1.0 2518:1.0 2519:1.0 2520:1.0 2521:1.0 2522:1.0 2523:1.0 2524:1.0 2525:1.0 2527:1.0 2528:1.0 2529:1.0 2530:1.0 2531:1.0 2532:1.0 2533:1.0 2534:1.0 2535:1.0 2536:1.0 2537:1.0 2538:1.0 2539:2.0 2540:1.0 2541:1.0 2542:1.0 2543:1.0 2544:1.0 2545:1.0 2546:2.0 2547:1.0 2548:1.0 2549:1.0 2550:1.0 2551:1.0 2552:1.0 2553:2.0 2554:1.0 2555:1.0 2556:1.0 2557:1.0 2558:1.0 2559:1.0 2560:1.0 2561:1.0 2562:1.0 2563:1.0 2564:1.0 2565:1.0 2566:1.0 2567:1.0 2568:1.0 2569:1.0 2570:1.0 2571:1.0 2572:1.0 2573:1.0 2574:1.0 2575:1.0 2576:1.0 2577:1.0 2578:1.0 2579:1.0 2580:1.0 2581:1.0 2582:1.0 2583:1.0 2584:1.0 2585:1.0 2586:1.0 2587:1.0 2588:1.0 2589:1.0 2590:1.0 2591:1.0 2592:1.0 2593:1.0 2594:1.0 2595:1.0 2596:1.0 7999:1.0 8012:1.0 
1.0 1:8.0 2:5.0 61:8.0 176:3.0 392:2.0 461:6.0 462:3.0 463:2.0 464:2.0 465:4.0 466:3.0 467:2.0 468:2.0 469:2.0 
1.0 1:5.0 2:1.0 6:1.0 7:2.0 70:1.0 132:2.0 133:1.0 134:2.0 137:1.0 348:1.0 530:1.0 1281:1.0 2251:1.0 2259:1.0 3631:1.0 3632:1.0 3641:1.0 3642:1.0 3738:1.0 3744:1.0 
1.0 1:7.0 2:2.0 3:2.0 7:4.0 17:1.0 36:1.0 37:1.0 44:1.0 145:1.0 178:1.0 179:1.0 191:1.0 192:1.0 222:1.0 350:1.0 351:1.0 365:1.0 366:1.0 367:1.0 691:1.0 1517:1.0 1907:1.0 2147:1.0 2148:1.0 2151:1.0 2815:1.0 4123:1.0 4124:1.0 4128:1.0 4129:1.0 
0.23109661453976887 1:18.0 2:2.0 3:3.0 5:1.0 7:7.0 9:2.0 10:1.0 15:1.0 17:3.0 19:1.0 28:1.0 37:1.0 41:2.0 61:2.0 62:1.0 67:1.0 89:1.0 114:2.0 121:1.0 122:2.0 131:2.0 173:1.0 176:1.0 184:1.0 203:1.0 215:1.0 217:1.0 218:2.0 222:2.0 225:1.0 271:1.0 296:1.0 346:1.0 461:1.0 964:1.0 965:1.0 976:1.0 977:1.0 978:1.0 979:1.0 1393:1.0 1611:1.0 1682:1.0 2971:1.0 4327:1.0 8228:1.0 
1.0 1:9.0 3:4.0 132:6.0 134:6.0 263:3.0 1211:6.0 1216:6.0 1242:1.0 1244:3.0 2101:1.0 2327:1.0 2328:1.0 2330:1.0 2334:1.0 2837:3.0 6760:6.0 6764:6.0 8232:2.0 8234:2.0 8235:2.0 8236:5.0 
1.0 1:26.0 2:5.0 3:6.0 6:1.0 7:6.0 10:2.0 17:2.0 36:3.0 39:2.0 41:2.0 44:2.0 61:4.0 62:2.0 63:2.0 69:1.0 85:2.0 112:2.0 114:2.0 116:2.0 118:2.0 120:2.0 121:1.0 122:2.0 127:2.0 131:2.0 141:2.0 142:2.0 145:1.0 149:1.0 151:1.0 166:1.0 168:1.0 176:1.0 178:1.0 179:1.0 191:1.0 192:1.0 320:1.0 321:1.0 323:1.0 324:1.0 331:1.0 333:1.0 334:1.0 337:1.0 351:1.0 366:1.0 367:1.0 1344:1.0 1345:1.0 1352:2.0 1354:2.0 1360:2.0 1361:2.0 1370:2.0 1409:1.0 1420:1.0 1885:1.0 2350:1.0 2352:1.0 2354:1.0 2356:1.0 2357:1.0 2361:1.0 2364:1.0 2365:1.0 2366:1.0 4595:1.0 7535:1.0 7536:1.0 7537:1.0 7538:1.0 7540:1.0 7541:1.0 7542:1.0 8239:1.0 8240:1.0 
1.0 1:11.0 2:1.0 3:3.0 7:3.0 9:2.0 10:1.0 11:1.0 19:1.0 21:1.0 22:1.0 35:1.0 37:1.0 39:1.0 41:1.0 61:1.0 67:1.0 68:1.0 89:1.0 172:1.0 176:1.0 181:1.0 222:1.0 277:1.0 593:1.0 874:1.0 882:1.0 884:1.0 964:1.0 2399:1.0 2430:1.0 2973:1.0 2977:1.0 2978:1.0 3089:1.0 3091:1.0 3432:1.0 3533:1.0 3541:1.0 3602:1.0 6156:1.0 6157:1.0 6158:1.0 6159:1.0 6160:1.0 6161:1.0 6162:1.0 6163:1.0 
1.0 1:14.0 2:5.0 3:3.0 6:2.0 39:1.0 41:2.0 61:5.0 62:2.0 63:1.0 68:1.0 70:1.0 84:1.0 85:1.0 173:1.0 176:1.0 215:1.0 225:1.0 391:1.0 461:2.0 462:1.0 470:1.0 641:1.0 642:1.0 661:1.0 721:1.0 965:2.0 1001:1.0 1027:1.0 1028:1.0 1787:1.0 1794:1.0 1927:1.0 2017:1.0 2771:1.0 4399:1.0 4400:1.0 4412:1.0 4414:1.0 4500:1.0 8205:2.0 8206:1.0 8273:1.0 
1.0 1:8.0 2:1.0 3:2.0 5:1.0 7:5.0 15:2.0 17:3.0 28:2.0 30:1.0 111:1.0 145:1.0 178:1.0 179:1.0 191:1.0 192:1.0 843:1.0 2771:1.0 3499:2.0 6640:1.0 6641:1.0 6645:1.0 6646:1.0 6647:1.0 
0.2558312216995748 1:18.0 3:5.0 7:6.0 9:3.0 10:4.0 11:2.0 17:1.0 19:1.0 21:1.0 22:2.0 35:1.0 37:1.0 41:1.0 63:1.0 85:1.0 141:4.0 149:3.0 434:1.0 445:1.0 593:1.0 612:1.0 620:1.0 738:1.0 742:1.0 743:1.0 1213:1.0 1227:1.0 1408:1.0 1417:1.0 1769:1.0 1770:1.0 2399:1.0 4401:2.0 4413:1.0 4415:1.0 4534:1.0 4872:1.0 5516:1.0 5521:1.0 5623:1.0 6200:1.0 6201:1.0 6202:1.0 6203:1.0 6204:1.0 6205:1.0 6207:1.0 6208:1.0 6209:1.0 6210:1.0 6212:1.0 
1.0 1:6.0 2:5.0 6:3.0 114:1.0 142:1.0 390:1.0 392:1.0 402:1.0 710:1.0 717:1.0 722:1.0 733:1.0 937:2.0 943:1.0 1927:1.0 1931:1.0 1935:1.0 2495:1.0 2835:1.0 2854:1.0 2860:1.0 2863:1.0 
0.09269849245843814 1:15.0 5:2.0 7:7.0 15:1.0 17:2.0 28:2.0 37:1.0 39:2.0 46:1.0 173:2.0 222:3.0 379:1.0 383:1.0 792:1.0 1039:1.0 1042:1.0 1084:2.0 1089:1.0 1474:2.0 1652:1.0 1657:1.0 1660:1.0 1663:1.0 1840:1.0 2202:1.0 2204:1.0 4890:2.0 4891:1.0 6292:1.0 
0.8891683990857716 1:14.0 7:9.0 17:4.0 132:1.0 133:1.0 134:1.0 137:1.0 141:4.0 149:4.0 166:4.0 435:1.0 436:2.0 448:2.0 1046:2.0 1054:1.0 2674:2.0 8452:1.0 8453:1.0 
1.0 1:8.0 3:2.0 7:2.0 9:2.0 10:2.0 11:2.0 21:2.0 22:2.0 35:2.0 132:2.0 133:2.0 134:2.0 137:2.0 345:2.0 347:2.0 358:2.0 2471:2.0 7048:2.0 8456:1.0 8457:1.0 8458:1.0 
0.06885536781434638 1:16.0 2:1.0 3:7.0 7:5.0 9:3.0 10:2.0 17:1.0 19:1.0 36:1.0 37:1.0 41:1.0 63:1.0 68:2.0 84:1.0 85:1.0 141:4.0 145:1.0 149:1.0 178:1.0 179:1.0 191:1.0 192:1.0 277:1.0 351:1.0 366:1.0 367:1.0 434:1.0 445:1.0 593:1.0 1408:1.0 1409:1.0 1410:1.0 1418:1.0 1420:1.0 1422:1.0 1436:1.0 1737:1.0 1746:1.0 1747:1.0 1769:1.0 1770:1.0 2399:1.0 3960:1.0 4401:2.0 4413:1.0 4415:1.0 4534:1.0 4872:1.0 5623:1.0 6200:1.0 6202:1.0 6204:1.0 6207:1.0 6208:1.0 6210:1.0 6211:1.0 6401:1.0 6404:1.0 
1.0 1:11.0 2:3.0 3:3.0 7:5.0 17:3.0 30:1.0 36:1.0 41:2.0 44:2.0 59:1.0 63:1.0 67:1.0 68:1.0 69:2.0 79:1.0 84:1.0 85:1.0 89:1.0 103:1.0 104:1.0 261:2.0 392:1.0 1128:1.0 1129:1.0 1130:1.0 1133:1.0 1135:1.0 1136:1.0 1183:2.0 1258:1.0 7409:1.0 7687:1.0 7688:1.0 7689:1.0 7691:1.0 7692:1.0 7693:2.0 
1.0 1:14.0 3:2.0 5:2.0 7:8.0 15:2.0 17:4.0 28:4.0 39:1.0 173:2.0 222:2.0 264:1.0 281:1.0 1084:2.0 1089:2.0 5439:1.0 6088:1.0 6091:1.0 6520:2.0 8484:1.0 8485:1.0 8487:1.0 
1.0 1:3.0 2:3.0 3:2.0 41:2.0 67:1.0 89:1.0 176:1.0 1183:1.0 1860:1.0 1862:1.0 1936:1.0 3020:1.0 3021:1.0 4151:1.0 4162:1.0 4817:1.0 7872:1.0 
0.5850568519902178 1:12.0 2:1.0 7:6.0 17:2.0 59:2.0 141:2.0 149:2.0 173:2.0 176:1.0 222:2.0 436:1.0 448:2.0 576:2.0 578:1.0 762:1.0 770:2.0 2189:1.0 8536:1.0 8538:1.0 8539:1.0 8540:1.0 
1.0 1:7.0 2:4.0 3:2.0 10:1.0 39:3.0 41:1.0 59:1.0 61:1.0 63:1.0 85:1.0 264:1.0 281:3.0 392:1.0 635:1.0 688:1.0 1130:1.0 4149:1.0 4215:1.0 4218:1.0 4219:1.0 4229:1.0 4841:1.0 4846:3.0 
0.8270553462774778 1:15.0 2:1.0 3:2.0 5:1.0 7:9.0 15:2.0 17:3.0 28:2.0 30:1.0 36:1.0 37:1.0 41:1.0 44:2.0 111:2.0 179:1.0 222:2.0 842:2.0 843:2.0 844:2.0 845:2.0 846:2.0 1254:1.0 1255:1.0 2625:1.0 3499:2.0 3565:2.0 4887:1.0 4889:1.0 5340:1.0 5341:1.0 5342:1.0 5344:1.0 5345:1.0 5346:1.0 5347:1.0 
1.0 1:5.0 2:1.0 61:2.0 62:1.0 114:1.0 122:1.0 132:2.0 134:2.0 1211:2.0 1216:2.0 1623:1.0 1642:1.0 1887:2.0 1889:2.0 1903:2.0 1906:2.0 8568:1.0 
0.39948118559663026 1:14.0 2:1.0 3:1.0 5:2.0 7:9.0 15:4.0 17:3.0 28:2.0 30:1.0 36:1.0 39:1.0 41:1.0 44:2.0 67:1.0 89:1.0 176:1.0 187:1.0 190:1.0 1029:2.0 1030:2.0 1308:2.0 1808:1.0 1809:1.0 1818:2.0 1819:1.0 1820:1.0 1821:1.0 1822:1.0 1823:1.0 2669:2.0 
1.0 1:2.0 3:3.0 11:1.0 57:1.0 65:2.0 319:1.0 1423:1.0 1426:2.0 1542:1.0 4106:2.0 4108:1.0 4111:1.0 4112:2.0 5596:2.0 5598:1.0 5603:1.0 
0.21768566471480857 1:11.0 2:2.0 3:1.0 6:1.0 7:5.0 36:1.0 39:1.0 41:1.0 44:1.0 67:1.0 70:1.0 89:1.0 141:1.0 142:1.0 149:1.0 151:1.0 176:1.0 187:1.0 190:1.0 323:1.0 397:1.0 530:1.0 744:1.0 780:1.0 1281:1.0 1402:1.0 1403:1.0 1404:1.0 1436:1.0 1808:1.0 1809:1.0 1820:1.0 1821:1.0 1822:1.0 1823:1.0 3749:1.0 6260:1.0 
1.0 1:9.0 3:2.0 10:2.0 39:1.0 69:4.0 112:3.0 263:1.0 306:2.0 307:1.0 308:1.0 314:1.0 315:1.0 316:1.0 473:1.0 476:1.0 484:1.0 904:1.0 932:1.0 1703:1.0 1704:1.0 3441:1.0 3480:1.0 3481:1.0 3482:1.0 3483:1.0 3484:1.0 3485:1.0 3486:1.0 
1.0 1:4.0 3:4.0 39:2.0 57:1.0 65:2.0 112:2.0 231:2.0 1542:2.0 4107:2.0 4113:2.0 8653:1.0 8654:1.0 8656:1.0 8657:1.0 8658:1.0 
1.0 1:8.0 5:1.0 7:5.0 15:2.0 17:3.0 28:2.0 30:1.0 172:2.0 181:2.0 1558:1.0 1562:1.0 2973:1.0 2977:1.0 8198:1.0 8203:2.0 
1.0 1:3.0 2:2.0 3:1.0 39:1.0 61:1.0 69:1.0 179:1.0 308:1.0 688:1.0 4478:1.0 4497:1.0 5824:1.0 5826:1.0 5828:1.0 5830:1.0 6586:1.0 6589:1.0 
1.0 1:10.0 3:2.0 7:6.0 9:2.0 17:1.0 19:2.0 68:2.0 141:2.0 149:2.0 277:2.0 436:1.0 437:1.0 438:1.0 447:1.0 448:1.0 449:1.0 450:1.0 1408:1.0 1410:1.0 1418:1.0 1422:1.0 3960:1.0 4534:1.0 5991:1.0 
1.0 1:26.0 3:14.0 5:2.0 7:5.0 9:2.0 10:4.0 15:2.0 17:2.0 28:2.0 37:2.0 41:2.0 68:8.0 112:3.0 157:1.0 173:1.0 215:2.0 225:2.0 263:7.0 269:1.0 271:2.0 277:1.0 296:2.0 593:1.0 783:2.0 786:1.0 788:1.0 789:3.0 791:2.0 799:6.0 810:1.0 819:1.0 900:1.0 901:2.0 904:2.0 1525:1.0 1536:1.0 1575:1.0 1592:1.0 1606:2.0 1644:2.0 1646:1.0 1826:1.0 1837:1.0 1997:3.0 2012:3.0 2498:1.0 2505:2.0 2539:1.0 2552:1.0 2566:2.0 4929:1.0 4932:1.0 4935:2.0 4938:1.0 
1.0 1:7.0 7:5.0 17:3.0 28:2.0 30:1.0 37:1.0 132:3.0 134:3.0 222:2.0 6164:1.0 6166:3.0 8736:1.0 8738:2.0 
1.0 1:3.0 3:1.0 41:1.0 111:1.0 113:1.0 119:1.0 551:1.0 555:1.0 2384:2.0 2389:1.0 8739:1.0 
0.9985653378910442 1:17.0 3:4.0 7:6.0 9:3.0 17:2.0 19:2.0 37:1.0 39:1.0 41:1.0 68:3.0 69:1.0 141:4.0 149:2.0 215:1.0 225:1.0 277:3.0 308:1.0 1279:1.0 1292:1.0 1410:2.0 1422:2.0 1524:2.0 1535:2.0 3960:2.0 4534:2.0 5985:1.0 5996:1.0 8742:1.0 8745:1.0 8747:1.0 8750:1.0 
1.0 1:9.0 3:2.0 7:5.0 9:1.0 10:2.0 17:3.0 19:2.0 20:1.0 30:1.0 112:2.0 227:1.0 263:1.0 904:1.0 1393:2.0 1572:2.0 1703:1.0 1704:1.0 2622:1.0 3480:1.0 3481:1.0 3482:1.0 3483:1.0 5421:1.0 5422:1.0 
1.0 1:10.0 2:2.0 3:7.0 10:1.0 41:2.0 62:1.0 67:1.0 68:2.0 69:1.0 89:1.0 112:2.0 157:1.0 176:1.0 263:2.0 470:1.0 799:1.0 907:1.0 917:1.0 1860:1.0 1862:1.0 1934:1.0 1936:1.0 1949:1.0 2036:1.0 2048:1.0 2498:1.0 2553:1.0 2770:1.0 2771:1.0 2773:1.0 2774:1.0 2783:1.0 2834:1.0 4399:1.0 5439:1.0 6088:1.0 6091:1.0 7348:1.0 7366:1.0 7367:1.0 7744:1.0 7746:1.0 7747:1.0 7748:1.0 7749:1.0 7751:1.0 7755:1.0 
1.0 1:7.0 2:2.0 7:3.0 17:1.0 36:1.0 44:1.0 57:1.0 70:1.0 141:1.0 149:1.0 392:1.0 425:1.0 2249:1.0 2250:1.0 2252:1.0 2253:1.0 2256:1.0 2270:1.0 6275:1.0 6277:1.0 6278:1.0 6279:1.0 6331:1.0 6332:1.0 6333:1.0 6338:1.0 6339:1.0 
1.0 1:3.0 3:2.0 41:1.0 63:1.0 68:1.0 84:1.0 85:1.0 111:1.0 132:1.0 134:1.0 3314:1.0 3317:1.0 3318:1.0 4307:1.0 4310:1.0 4311:1.0 4315:1.0 8791:1.0 
1.0 1:4.0 3:1.0 10:1.0 39:2.0 263:2.0 1099:2.0 1722:2.0 8794:3.0 8795:1.0 
0.8114187205864046 1:12.0 2:1.0 3:7.0 5:1.0 7:3.0 15:1.0 36:1.0 37:1.0 39:1.0 46:1.0 61:2.0 62:1.0 68:1.0 132:2.0 134:2.0 222:1.0 694:1.0 706:1.0 1211:2.0 1216:2.0 1242:2.0 1885:1.0 1887:2.0 1889:2.0 1901:2.0 1903:2.0 1906:2.0 2100:2.0 2101:2.0 2107:2.0 2827:4.0 4397:1.0 4689:1.0 6188:1.0 8808:1.0 8810:3.0 8813:1.0 8817:3.0 8818:1.0 
0.5821402434159977 1:4.0 3:3.0 41:2.0 63:1.0 68:1.0 84:1.0 85:1.0 132:2.0 134:2.0 551:1.0 555:1.0 3106:2.0 3113:2.0 4713:1.0 4718:1.0 7562:1.0 7570:1.0 7571:1.0 
0.6931551605793889 1:16.0 2:2.0 3:3.0 4:2.0 6:2.0 10:1.0 11:1.0 22:1.0 37:2.0 41:2.0 69:4.0 70:1.0 111:1.0 141:1.0 142:1.0 215:2.0 216:1.0 221:1.0 224:1.0 225:2.0 241:1.0 305:1.0 306:2.0 519:1.0 520:1.0 521:1.0 523:1.0 524:1.0 525:1.0 526:1.0 528:1.0 531:1.0 533:1.0 534:1.0 537:1.0 538:1.0 539:1.0 543:1.0 544:1.0 547:1.0 550:1.0 716:1.0 2237:1.0 2369:1.0 2370:1.0 2373:1.0 2377:1.0 2378:1.0 2379:1.0 2380:1.0 2381:1.0 
0.604799170503515 1:20.0 2:2.0 3:2.0 5:1.0 7:6.0 15:1.0 17:2.0 28:1.0 36:1.0 37:2.0 39:2.0 41:1.0 44:1.0 57:1.0 61:4.0 62:1.0 68:1.0 112:1.0 157:1.0 176:1.0 215:1.0 222:1.0 225:1.0 271:1.0 296:1.0 419:2.0 420:1.0 461:1.0 590:1.0 640:1.0 641:2.0 642:2.0 660:2.0 661:2.0 886:1.0 965:1.0 1525:1.0 1536:1.0 1545:1.0 2301:1.0 2350:1.0 5765:1.0 5766:1.0 5767:1.0 5768:1.0 5769:1.0 5771:1.0 5772:1.0 5773:1.0 5775:1.0 5776:1.0 5777:1.0 5778:1.0 5780:1.0 5781:1.0 5782:1.0 5783:1.0 5784:1.0 
0.6918869254628842 1:24.0 2:1.0 3:6.0 7:9.0 9:2.0 10:2.0 17:3.0 36:1.0 39:2.0 41:2.0 44:1.0 63:2.0 85:2.0 141:8.0 145:1.0 149:5.0 166:2.0 178:1.0 179:1.0 191:1.0 192:1.0 351:1.0 366:1.0 367:1.0 434:4.0 440:2.0 445:3.0 1062:2.0 1212:2.0 1219:2.0 1352:2.0 1354:2.0 1358:2.0 1360:2.0 1361:2.0 1408:1.0 1409:1.0 1419:1.0 1420:1.0 1447:1.0 2671:1.0 3799:1.0 5644:1.0 6200:2.0 8891:1.0 
1.0 1:1.0 2:1.0 3:2.0 132:1.0 134:1.0 145:1.0 178:1.0 179:1.0 191:1.0 192:1.0 7194:1.0 7198:1.0 8892:1.0 8893:1.0 
1.0 1:9.0 2:1.0 3:3.0 10:1.0 11:1.0 22:1.0 39:2.0 41:2.0 57:1.0 59:1.0 63:1.0 67:1.0 85:1.0 89:1.0 172:1.0 176:1.0 181:1.0 420:1.0 738:1.0 743:1.0 980:2.0 1305:1.0 1683:1.0 1808:1.0 1809:1.0 1822:1.0 1823:1.0 2973:1.0 2977:1.0 2978:1.0 3107:1.0 3108:1.0 3117:1.0 3120:1.0 8543:1.0 8550:1.0 
1.0 1:9.0 2:1.0 3:1.0 5:1.0 7:5.0 15:2.0 17:3.0 28:2.0 30:1.0 41:1.0 61:1.0 67:1.0 89:1.0 132:1.0 134:1.0 176:1.0 964:1.0 1211:1.0 1216:1.0 3432:1.0 3439:2.0 3533:1.0 3541:1.0 3542:1.0 
0.003176825103221424 1:20.0 5:2.0 7:11.0 15:2.0 17:2.0 141:4.0 149:4.0 173:2.0 222:1.0 436:2.0 448:2.0 668:1.0 672:1.0 762:1.0 770:2.0 1228:1.0 1524:1.0 1651:1.0 1654:1.0 1655:1.0 1656:1.0 1665:1.0 2189:1.0 2274:1.0 2279:2.0 2682:1.0 2933:1.0 3391:1.0 3752:1.0 3857:1.0 6533:1.0 6865:2.0 6868:1.0 6869:1.0 6870:1.0 7955:1.0 7958:1.0 7960:1.0 
1.0 1:10.0 2:1.0 3:1.0 5:1.0 7:4.0 15:2.0 39:1.0 41:1.0 61:1.0 67:1.0 89:1.0 132:1.0 133:1.0 134:1.0 137:1.0 172:1.0 176:1.0 181:1.0 348:2.0 349:1.0 363:1.0 964:1.0 1310:2.0 1311:1.0 2973:1.0 2977:1.0 2978:1.0 3432:1.0 3533:1.0 3541:1.0 3542:1.0 6156:1.0 6157:1.0 6158:1.0 6159:1.0 6160:1.0 6161:1.0 6162:1.0 6163:1.0 8971:1.0 
1.0 1:23.0 2:5.0 3:2.0 4:1.0 5:1.0 7:4.0 15:1.0 17:2.0 28:1.0 39:2.0 41:2.0 59:1.0 61:4.0 62:1.0 67:1.0 69:4.0 72:1.0 89:1.0 114:1.0 173:1.0 176:2.0 215:1.0 225:1.0 271:1.0 296:1.0 306:1.0 462:1.0 668:1.0 672:1.0 711:1.0 1129:1.0 1145:1.0 1282:1.0 1344:2.0 1345:1.0 1651:1.0 1654:1.0 1656:1.0 2066:1.0 2352:1.0 2364:1.0 2606:1.0 2825:1.0 3027:1.0 3043:1.0 4150:1.0 6018:1.0 6029:1.0 6030:1.0 6906:1.0 7963:1.0 8131:1.0 
0.7667543188207965 1:3.0 39:1.0 172:2.0 181:2.0 1558:1.0 1562:1.0 2973:1.0 2977:1.0 2978:1.0 8660:2.0 8665:1.0 9026:1.0 
1.0 1:19.0 2:1.0 3:1.0 5:1.0 7:8.0 9:1.0 10:1.0 15:2.0 19:2.0 20:1.0 32:2.0 36:1.0 37:1.0 38:1.0 39:2.0 44:2.0 69:3.0 112:1.0 222:2.0 227:1.0 304:1.0 307:1.0 308:2.0 316:1.0 473:1.0 476:1.0 515:2.0 2622:1.0 3021:1.0 3487:1.0 3488:1.0 3682:1.0 5329:1.0 5339:1.0 5431:1.0 5437:2.0 8514:1.0 9043:1.0 
0.20740539888053955 1:11.0 2:3.0 3:7.0 7:4.0 10:1.0 36:2.0 44:4.0 68:3.0 112:1.0 144:1.0 145:2.0 156:1.0 178:1.0 179:1.0 191:1.0 192:1.0 251:1.0 252:1.0 254:1.0 262:1.0 263:3.0 350:1.0 351:1.0 364:1.0 365:1.0 366:1.0 367:1.0 373:2.0 799:3.0 904:1.0 1826:1.0 1837:1.0 1997:1.0 2012:1.0 2770:1.0 2777:1.0 2833:1.0 2858:1.0 7136:1.0 7137:1.0 7139:1.0 7142:1.0 7143:1.0 7145:2.0 8727:1.0 
0.8170106280048434 1:5.0 2:2.0 3:3.0 7:1.0 37:1.0 41:1.0 57:1.0 67:1.0 89:1.0 145:1.0 174:1.0 175:1.0 177:1.0 178:1.0 179:1.0 182:1.0 185:1.0 186:1.0 188:1.0 189:1.0 191:1.0 192:1.0 198:1.0 200:1.0 201:1.0 204:1.0 205:1.0 207:1.0 208:1.0 392:1.0 855:1.0 4324:1.0 4329:1.0 4330:1.0 
1.0 1:13.0 3:2.0 5:1.0 7:8.0 9:2.0 10:1.0 15:1.0 17:4.0 19:2.0 28:2.0 68:1.0 173:1.0 217:2.0 222:1.0 263:1.0 346:1.0 799:1.0 1393:2.0 1611:2.0 7585:1.0 9066:1.0 9067:1.0 9069:1.0 
1.0 1:13.0 2:2.0 3:4.0 5:1.0 7:6.0 9:1.0 19:1.0 36:2.0 41:1.0 44:2.0 67:1.0 68:1.0 89:1.0 132:2.0 133:2.0 134:2.0 137:2.0 145:1.0 176:1.0 178:1.0 179:1.0 184:1.0 187:1.0 191:1.0 192:1.0 203:1.0 277:1.0 348:1.0 349:1.0 350:1.0 351:1.0 359:1.0 363:1.0 365:1.0 366:1.0 367:1.0 373:1.0 1682:1.0 1736:1.0 1743:1.0 1790:1.0 1804:1.0 2707:1.0 2708:1.0 3334:1.0 4326:1.0 4975:1.0 5165:1.0 5998:1.0 
1.0 1:9.0 2:1.0 6:1.0 7:5.0 17:1.0 70:1.0 132:1.0 133:1.0 134:1.0 137:1.0 141:1.0 142:1.0 149:2.0 348:1.0 397:1.0 530:1.0 744:1.0 781:1.0 1053:1.0 1281:1.0 1402:1.0 1403:1.0 1404:1.0 2349:1.0 2351:1.0 2359:1.0 2363:1.0 6111:1.0 
0.6072527547482645 1:14.0 2:4.0 3:4.0 4:1.0 7:4.0 10:1.0 17:2.0 39:3.0 41:1.0 70:1.0 142:2.0 151:2.0 168:2.0 179:2.0 264:1.0 281:3.0 1183:1.0 1264:1.0 1269:1.0 3020:1.0 3021:1.0 4817:1.0 4841:1.0 4846:3.0 6217:2.0 6218:2.0 6219:1.0 6221:2.0 6224:1.0 6226:2.0 6229:1.0 
0.6869960580088519 1:12.0 2:1.0 3:2.0 7:7.0 17:2.0 36:1.0 39:1.0 41:1.0 44:1.0 67:1.0 89:1.0 141:2.0 149:3.0 166:2.0 179:1.0 436:2.0 448:2.0 767:1.0 1254:1.0 1255:1.0 1436:1.0 1809:1.0 2625:1.0 2628:1.0 2638:1.0 2639:1.0 2923:1.0 3563:1.0 3569:1.0 4977:1.0 4978:1.0 5720:1.0 
1.0 1:10.0 2:1.0 3:4.0 10:1.0 39:2.0 41:3.0 67:1.0 89:1.0 111:2.0 112:1.0 176:1.0 215:2.0 216:1.0 224:1.0 225:2.0 230:1.0 231:1.0 250:1.0 526:1.0 1614:1.0 1621:1.0 1808:1.0 1809:1.0 1822:1.0 1823:1.0 3180:1.0 3575:1.0 3586:1.0 6357:1.0 
0.1762110095249801 1:22.0 3:1.0 5:3.0 7:12.0 10:1.0 15:2.0 17:4.0 28:2.0 141:4.0 149:4.0 166:2.0 173:1.0 263:2.0 434:2.0 436:2.0 445:1.0 448:1.0 1084:1.0 1089:1.0 1223:1.0 1225:2.0 1336:1.0 1722:1.0 1749:2.0 1994:2.0 2192:1.0 2933:1.0 2937:2.0 2938:1.0 2941:1.0 2942:1.0 2945:1.0 2958:1.0 2970:1.0 4210:1.0 8480:1.0 
0.03309350836761559 1:21.0 2:1.0 6:1.0 7:11.0 17:4.0 70:2.0 141:8.0 149:4.0 166:4.0 434:6.0 435:2.0 436:1.0 439:2.0 440:4.0 441:1.0 445:4.0 525:1.0 529:1.0 530:1.0 548:1.0 1143:1.0 4433:1.0 5287:1.0 5542:1.0 6975:1.0 7078:1.0 7079:1.0 
0.04521385985649458 1:10.0 3:1.0 5:1.0 7:4.0 10:1.0 15:2.0 37:1.0 39:1.0 46:1.0 69:1.0 112:1.0 222:2.0 263:1.0 270:1.0 872:1.0 1039:1.0 1040:1.0 1042:1.0 1702:1.0 1703:1.0 1704:1.0 1706:1.0 1707:1.0 1840:2.0 6510:1.0 6511:1.0 6986:2.0 8636:1.0 
1.0 1:8.0 2:1.0 3:4.0 7:4.0 17:2.0 28:1.0 36:1.0 37:1.0 41:1.0 44:1.0 63:1.0 68:1.0 69:1.0 84:1.0 85:1.0 145:1.0 178:1.0 179:1.0 191:1.0 192:1.0 222:1.0 261:1.0 351:1.0 366:1.0 367:1.0 758:1.0 769:1.0 1132:1.0 1139:1.0 1140:1.0 1179:1.0 2807:1.0 
0.2311590641295108 1:20.0 2:1.0 3:4.0 7:4.0 9:4.0 10:4.0 11:2.0 19:1.0 21:2.0 22:2.0 35:2.0 36:1.0 37:1.0 61:1.0 62:1.0 69:1.0 114:1.0 122:1.0 141:4.0 149:1.0 434:1.0 443:1.0 593:1.0 1344:1.0 1408:1.0 1436:1.0 1769:1.0 1770:1.0 1881:1.0 2399:2.0 2430:1.0 2808:1.0 4401:2.0 4413:1.0 4415:1.0 4872:1.0 5113:1.0 6200:2.0 6202:1.0 6204:1.0 6207:1.0 6208:1.0 6401:1.0 6404:1.0 7280:1.0 7281:1.0 7285:1.0 7286:1.0 7289:1.0 7290:1.0 
1.0 1:10.0 2:1.0 6:1.0 7:5.0 37:1.0 39:1.0 46:1.0 70:1.0 141:1.0 142:1.0 149:1.0 151:1.0 222:1.0 323:1.0 397:1.0 530:1.0 744:1.0 780:1.0 1039:1.0 1042:1.0 1281:1.0 1402:1.0 1403:1.0 1404:1.0 2921:1.0 3749:1.0 4214:1.0 4948:1.0 
1.0 1:3.0 2:1.0 3:4.0 41:1.0 61:1.0 63:1.0 68:1.0 69:1.0 84:1.0 85:1.0 145:1.0 178:1.0 179:1.0 191:1.0 192:1.0 1132:1.0 1139:1.0 1140:1.0 7450:1.0 7452:1.0 7453:1.0 8851:1.0 8857:1.0 
1.0 1:6.0 3:3.0 7:3.0 9:3.0 19:2.0 68:3.0 220:1.0 277:3.0 438:1.0 450:1.0 874:2.0 883:1.0 884:2.0 2920:1.0 3753:1.0 4937:1.0 
0.43011894688018776 1:13.0 2:1.0 3:2.0 6:1.0 7:4.0 37:2.0 68:2.0 70:1.0 111:2.0 141:1.0 142:1.0 149:2.0 222:1.0 263:2.0 397:1.0 520:1.0 530:1.0 744:1.0 799:2.0 842:1.0 1281:1.0 1402:1.0 1403:1.0 1404:1.0 1753:1.0 1996:1.0 2007:1.0 2009:1.0 2011:1.0 4893:1.0 4894:1.0 4900:1.0 4901:1.0 4902:1.0 4903:1.0 7164:1.0 7167:1.0 
0.16520531798399757 1:5.0 3:2.0 41:1.0 63:1.0 68:1.0 84:1.0 85:1.0 132:5.0 134:5.0 470:1.0 2801:2.0 2804:4.0 3106:1.0 3113:1.0 7560:1.0 7561:2.0 7562:1.0 7567:1.0 7568:1.0 7569:4.0 7570:1.0 7571:1.0 9210:1.0 
0.6942888993769026 1:16.0 3:5.0 5:1.0 7:5.0 9:5.0 10:4.0 11:3.0 19:2.0 20:2.0 21:3.0 22:3.0 34:2.0 35:3.0 37:1.0 41:1.0 215:1.0 217:1.0 218:1.0 220:2.0 225:1.0 235:2.0 269:2.0 271:1.0 296:1.0 346:1.0 873:1.0 1570:1.0 1788:1.0 2735:1.0 3241:1.0 4924:1.0 4925:1.0 7585:1.0 8230:1.0 
0.4840136105139218 1:14.0 2:1.0 5:2.0 7:8.0 15:4.0 36:1.0 44:2.0 111:2.0 132:1.0 133:1.0 134:1.0 137:1.0 348:2.0 349:1.0 363:1.0 392:1.0 425:1.0 746:1.0 754:1.0 842:2.0 843:2.0 844:2.0 845:2.0 846:2.0 848:2.0 849:1.0 1310:2.0 1311:1.0 4807:2.0 
0.592723805140764 1:14.0 2:1.0 3:3.0 7:8.0 9:2.0 10:1.0 19:4.0 20:2.0 36:1.0 39:1.0 41:1.0 44:2.0 67:1.0 89:1.0 132:1.0 133:1.0 134:1.0 137:1.0 179:1.0 346:1.0 348:2.0 349:1.0 356:2.0 359:2.0 360:2.0 363:1.0 1254:1.0 1255:1.0 1311:1.0 1363:1.0 1809:1.0 2625:1.0 2628:1.0 2638:1.0 2639:1.0 3563:1.0 3566:1.0 3569:1.0 4977:1.0 4978:1.0 9241:1.0 9242:1.0 
0.5456055089112676 1:18.0 2:2.0 5:3.0 7:12.0 15:6.0 36:2.0 37:1.0 44:4.0 222:2.0 392:2.0 425:2.0 746:2.0 754:2.0 848:4.0 849:2.0 1029:4.0 1030:4.0 1308:4.0 2668:4.0 
0.9353894204622325 1:12.0 2:1.0 3:1.0 5:2.0 7:9.0 15:3.0 17:4.0 28:2.0 30:1.0 36:1.0 44:1.0 145:1.0 1029:2.0 1030:1.0 1517:1.0 1666:1.0 1667:1.0 1668:1.0 1669:1.0 1674:1.0 1675:1.0 1676:1.0 2669:3.0 4689:1.0 
0.11920387494828609 1:7.0 2:1.0 3:1.0 7:4.0 9:1.0 10:1.0 11:1.0 19:2.0 20:1.0 21:1.0 22:1.0 33:1.0 34:1.0 35:1.0 36:1.0 44:2.0 360:2.0 392:1.0 425:1.0 746:1.0 754:1.0 849:1.0 1364:2.0 
1.0 1:12.0 2:3.0 3:4.0 7:4.0 36:1.0 37:1.0 41:2.0 44:2.0 59:1.0 63:1.0 67:1.0 68:2.0 69:2.0 79:1.0 84:1.0 85:1.0 89:1.0 103:1.0 104:1.0 112:1.0 157:1.0 222:2.0 392:1.0 1128:1.0 1129:1.0 1130:1.0 1133:1.0 1135:1.0 1136:1.0 1183:2.0 1258:1.0 1525:1.0 1536:1.0 1548:1.0 1557:2.0 5788:1.0 5789:1.0 7409:1.0 7687:1.0 7688:1.0 7689:1.0 7691:1.0 7692:1.0 8467:1.0 8468:1.0 8469:1.0 8470:1.0 8471:1.0 9296:1.0 
1.0 1:7.0 5:1.0 7:3.0 15:1.0 132:5.0 133:2.0 134:5.0 136:1.0 137:2.0 348:1.0 349:1.0 361:1.0 363:1.0 1310:1.0 5541:1.0 5581:1.0 5585:1.0 6164:1.0 6166:3.0 8734:1.0 8738:3.0 
1.0 1:6.0 2:1.0 7:4.0 36:1.0 44:2.0 132:1.0 133:1.0 134:1.0 137:1.0 348:2.0 349:1.0 363:1.0 392:1.0 425:1.0 746:1.0 754:1.0 849:1.0 1311:1.0 4074:2.0 7553:2.0 
1.0 1:9.0 2:1.0 6:1.0 7:5.0 17:1.0 70:1.0 141:1.0 142:1.0 149:1.0 151:1.0 323:1.0 337:1.0 397:1.0 530:1.0 668:1.0 672:1.0 1281:1.0 1403:1.0 1404:1.0 1651:1.0 1654:1.0 1656:1.0 3749:1.0 6867:1.0 6877:1.0 
1.0 1:22.0 3:8.0 10:5.0 39:5.0 41:3.0 63:3.0 69:2.0 85:3.0 111:1.0 112:2.0 116:1.0 263:1.0 264:1.0 279:1.0 280:1.0 379:3.0 380:2.0 381:2.0 382:2.0 383:4.0 384:2.0 386:2.0 388:2.0 389:4.0 470:2.0 783:1.0 1095:1.0 1352:1.0 1354:1.0 1360:1.0 1361:1.0 1370:1.0 1786:1.0 1791:1.0 3217:1.0 3220:1.0 3650:1.0 
1.0 1:5.0 2:5.0 6:4.0 142:1.0 392:1.0 710:1.0 711:1.0 712:1.0 713:1.0 717:1.0 722:1.0 733:1.0 937:2.0 943:2.0 1931:1.0 2495:2.0 2835:1.0 2860:1.0 2861:1.0 2863:1.0 4995:1.0 4996:1.0 4999:1.0 
1.0 1:9.0 2:1.0 3:1.0 6:1.0 7:5.0 9:1.0 17:1.0 19:1.0 68:1.0 70:1.0 141:1.0 142:1.0 149:2.0 277:1.0 397:1.0 530:1.0 744:1.0 781:1.0 1281:1.0 1402:1.0 1403:1.0 1404:1.0 4526:1.0 4529:1.0 4531:1.0 4534:1.0 
0.39917004519038324 1:7.0 2:1.0 3:3.0 7:4.0 36:1.0 37:1.0 41:1.0 44:2.0 145:1.0 178:1.0 179:1.0 191:1.0 192:1.0 222:2.0 350:1.0 351:1.0 364:1.0 365:1.0 366:1.0 367:1.0 551:1.0 554:1.0 555:1.0 562:1.0 847:2.0 9126:1.0 9130:1.0 9533:1.0 9554:1.0 
1.0 1:13.0 2:3.0 7:10.0 17:6.0 30:2.0 36:2.0 44:4.0 176:2.0 190:2.0 210:4.0 261:4.0 6534:1.0 7341:1.0 9555:1.0 9558:1.0 9559:1.0 
1.0 1:17.0 2:1.0 3:4.0 6:1.0 7:2.0 9:1.0 10:1.0 19:1.0 37:2.0 39:2.0 41:1.0 63:1.0 68:2.0 69:4.0 84:1.0 85:1.0 112:1.0 141:1.0 142:1.0 146:1.0 149:1.0 153:1.0 264:1.0 272:1.0 277:1.0 297:1.0 308:2.0 473:1.0 1132:1.0 1139:1.0 1140:1.0 1499:1.0 1505:1.0 2233:1.0 2237:1.0 2238:1.0 2367:1.0 5329:1.0 5339:1.0 6616:1.0 6628:1.0 7724:1.0 7725:1.0 7726:1.0 7728:1.0 7729:1.0 7730:1.0 7731:1.0 7732:1.0 7733:1.0 7734:1.0 7736:1.0 7738:1.0 
0.17223547003333242 1:23.0 3:2.0 7:11.0 10:1.0 17:3.0 37:1.0 39:1.0 41:1.0 63:1.0 85:1.0 112:1.0 116:1.0 141:8.0 149:8.0 166:2.0 434:2.0 436:2.0 445:1.0 448:2.0 1212:2.0 1213:2.0 1219:1.0 1222:2.0 1224:1.0 1225:2.0 1227:1.0 1352:1.0 1354:1.0 1360:1.0 1361:1.0 1370:1.0 1523:1.0 1535:1.0 2670:1.0 2671:1.0 3865:1.0 4300:1.0 4301:1.0 4303:1.0 4304:1.0 5785:1.0 5786:1.0 5787:1.0 
0.08878018854059459 1:12.0 2:1.0 3:3.0 7:7.0 17:2.0 36:1.0 44:1.0 141:2.0 145:1.0 149:1.0 166:1.0 178:1.0 179:1.0 191:1.0 192:1.0 350:1.0 351:1.0 365:1.0 366:1.0 367:1.0 1055:2.0 1056:1.0 1436:1.0 3066:2.0 3805:1.0 4743:2.0 4744:2.0 5125:1.0 5701:1.0 5704:2.0 5705:1.0 5706:1.0 5708:1.0 5710:1.0 6391:1.0 
1.0 1:9.0 2:1.0 6:1.0 7:5.0 17:1.0 70:1.0 132:1.0 133:1.0 134:1.0 137:1.0 141:1.0 142:1.0 149:1.0 151:1.0 323:1.0 337:1.0 348:1.0 397:1.0 530:1.0 1045:1.0 1047:1.0 1050:1.0 1281:1.0 1403:1.0 1404:1.0 3749:1.0 6109:1.0 
1.0 1:16.0 2:3.0 3:3.0 5:1.0 6:2.0 7:8.0 10:1.0 11:1.0 15:2.0 17:3.0 22:1.0 28:2.0 30:1.0 37:1.0 41:2.0 142:2.0 151:1.0 176:1.0 215:1.0 222:1.0 225:1.0 271:1.0 296:1.0 391:1.0 395:2.0 962:2.0 1264:1.0 1265:1.0 1266:1.0 1267:1.0 1268:1.0 1269:1.0 1270:1.0 1271:2.0 1272:1.0 1273:1.0 1274:1.0 1275:1.0 1276:1.0 1277:1.0 1561:2.0 1569:2.0 1844:1.0 5256:1.0 5257:1.0 5382:1.0 5383:1.0 
1.0 1:11.0 2:1.0 3:4.0 7:4.0 11:2.0 17:2.0 28:2.0 41:2.0 57:2.0 62:1.0 67:2.0 89:2.0 173:2.0 222:2.0 1242:1.0 1244:2.0 2308:1.0 2760:2.0 3130:1.0 3778:2.0 3822:1.0 5259:1.0 5264:1.0 5265:1.0 5266:1.0 5268:1.0 5279:1.0 5282:1.0 5448:2.0 5905:2.0 5915:1.0 5916:2.0 5917:2.0 7195:2.0 7199:2.0 7201:2.0 9809:1.0 
1.0 1:4.0 2:2.0 3:3.0 39:1.0 41:2.0 67:1.0 89:1.0 114:1.0 176:1.0 179:1.0 1254:1.0 1255:1.0 1809:1.0 1860:1.0 1862:1.0 2628:1.0 2638:1.0 2639:1.0 4251:1.0 4253:1.0 4255:1.0 4261:1.0 4262:1.0 4265:1.0 
1.0 1:9.0 2:2.0 3:2.0 7:4.0 36:1.0 37:1.0 39:1.0 41:1.0 44:2.0 67:1.0 68:1.0 89:1.0 112:1.0 157:1.0 222:2.0 1183:2.0 1525:1.0 1536:1.0 1548:1.0 1557:2.0 1809:1.0 5788:1.0 5789:1.0 7687:1.0 7688:1.0 7689:1.0 7690:1.0 7691:1.0 7692:1.0 7694:1.0 7695:1.0 7696:1.0 7697:1.0 9296:2.0 
1.0 1:10.0 2:3.0 6:3.0 7:4.0 8:1.0 17:2.0 57:1.0 142:2.0 151:2.0 168:2.0 174:1.0 177:1.0 962:2.0 971:2.0 1327:2.0 2233:1.0 2524:1.0 5884:1.0 5890:1.0 9824:1.0 9827:1.0 
0.15087122810073708 1:5.0 3:2.0 10:2.0 39:1.0 112:3.0 230:1.0 231:1.0 250:1.0 263:1.0 904:1.0 932:1.0 961:1.0 1703:1.0 1704:1.0 3480:1.0 3481:1.0 3482:1.0 3483:1.0 3484:1.0 
1.0 1:17.0 2:4.0 3:1.0 7:8.0 36:4.0 39:1.0 41:1.0 44:8.0 62:2.0 67:1.0 89:1.0 114:3.0 122:3.0 510:2.0 511:1.0 512:1.0 514:1.0 516:2.0 688:2.0 692:2.0 696:2.0 704:2.0 707:2.0 1809:1.0 2741:4.0 2742:4.0 4722:1.0 4736:1.0 6480:1.0 6489:1.0 6490:1.0 
1.0 1:9.0 3:2.0 5:1.0 7:5.0 15:2.0 17:3.0 28:2.0 30:1.0 39:2.0 264:1.0 281:2.0 632:1.0 648:2.0 5439:1.0 5452:1.0 5453:1.0 5456:2.0 6088:1.0 6091:1.0 8483:1.0 8490:1.0 
1.0 1:14.0 5:2.0 7:10.0 15:4.0 17:6.0 28:4.0 30:2.0 57:2.0 980:2.0 2283:2.0 9252:2.0 9863:1.0 9864:1.0 9865:1.0 9866:1.0 9867:3.0 9868:1.0 
1.0 1:6.0 3:2.0 39:2.0 41:2.0 69:2.0 215:2.0 225:2.0 308:2.0 8743:2.0 8751:2.0 9869:1.0 9870:1.0 9871:1.0 9872:1.0 
1.0 1:9.0 5:1.0 7:5.0 15:2.0 17:3.0 28:2.0 30:1.0 57:1.0 132:1.0 134:1.0 420:1.0 980:2.0 1211:1.0 1216:1.0 1305:1.0 9863:1.0 9867:2.0 
0.8017644953072438 1:22.0 3:8.0 5:2.0 7:3.0 9:5.0 10:3.0 19:1.0 37:2.0 39:2.0 41:1.0 68:4.0 69:2.0 111:1.0 215:1.0 217:1.0 220:1.0 222:1.0 225:1.0 264:2.0 269:1.0 271:1.0 277:2.0 281:2.0 296:1.0 305:1.0 346:1.0 490:1.0 491:2.0 783:1.0 788:1.0 796:1.0 831:1.0 1786:1.0 1788:2.0 1790:1.0 1804:1.0 3152:1.0 3220:1.0 3221:1.0 3232:1.0 4925:1.0 4927:1.0 4933:1.0 8222:1.0 8226:1.0 9925:1.0 
1.0 1:2.0 2:4.0 176:1.0 392:1.0 2148:1.0 6534:1.0 7341:1.0 7353:1.0 9557:1.0 9928:1.0 
1.0 1:1.0 172:2.0 181:2.0 9941:2.0 9942:3.0 
1.0 1:17.0 2:4.0 3:2.0 5:1.0 7:4.0 15:1.0 17:2.0 28:1.0 36:1.0 38:1.0 41:2.0 44:1.0 51:1.0 61:2.0 62:2.0 67:2.0 89:2.0 111:2.0 114:2.0 121:1.0 122:2.0 131:2.0 176:1.0 261:1.0 461:1.0 470:1.0 964:1.0 965:1.0 977:1.0 978:1.0 979:1.0 2771:1.0 2828:1.0 2843:1.0 3648:1.0 5208:1.0 5220:1.0 7195:1.0 7199:1.0 7744:1.0 7755:1.0 
0.023320261905428755 1:10.0 3:2.0 5:1.0 7:4.0 9:1.0 10:2.0 11:1.0 15:2.0 19:2.0 20:1.0 21:1.0 22:1.0 32:2.0 33:1.0 34:1.0 35:1.0 69:1.0 112:1.0 263:1.0 270:1.0 872:1.0 880:2.0 1702:1.0 1703:1.0 1704:1.0 1706:1.0 1707:1.0 6510:1.0 6511:1.0 8636:1.0 
0.9884081487587468 1:12.0 2:1.0 3:3.0 7:3.0 9:2.0 10:2.0 11:2.0 19:1.0 21:2.0 22:2.0 35:2.0 37:1.0 39:1.0 41:1.0 61:1.0 67:1.0 89:1.0 172:1.0 176:1.0 181:1.0 222:1.0 593:1.0 964:1.0 2399:2.0 2420:1.0 2430:2.0 2973:1.0 2977:1.0 2978:1.0 3432:1.0 3533:1.0 3541:1.0 3602:1.0 6156:1.0 6157:1.0 6158:1.0 6159:1.0 6160:1.0 6161:1.0 6162:1.0 6163:1.0 6340:1.0 6341:1.0 8241:1.0 8242:1.0 
1.0 1:7.0 5:1.0 7:3.0 15:1.0 132:5.0 133:2.0 134:5.0 135:2.0 137:2.0 140:2.0 348:1.0 5165:1.0 5180:1.0 5181:1.0 5183:1.0 6164:1.0 6166:3.0 8733:1.0 8734:1.0 8737:1.0 8738:3.0 
1.0 1:10.0 2:2.0 5:2.0 6:2.0 7:4.0 70:4.0 529:2.0 530:4.0 1029:2.0 1990:4.0 1991:2.0 4076:4.0 7656:4.0 10010:1.0 
1.0 1:5.0 3:3.0 10:1.0 41:1.0 63:1.0 68:1.0 85:1.0 111:1.0 115:1.0 126:1.0 132:1.0 134:1.0 470:1.0 783:1.0 1161:1.0 1211:1.0 1216:1.0 5019:1.0 9405:1.0 
0.38127166190962225 1:14.0 2:4.0 3:2.0 5:2.0 7:4.0 36:4.0 41:2.0 44:4.0 173:2.0 215:2.0 225:2.0 271:2.0 296:2.0 392:4.0 425:4.0 695:2.0 708:2.0 2711:4.0 4204:2.0 4207:2.0 4831:4.0 4834:2.0 4837:4.0 4838:4.0 
0.13599582615768788 1:8.0 2:2.0 3:1.0 7:3.0 10:1.0 11:1.0 22:1.0 36:1.0 44:1.0 57:1.0 141:1.0 149:1.0 392:1.0 425:1.0 746:1.0 752:1.0 754:1.0 2249:1.0 2250:1.0 2252:1.0 2256:1.0 2306:1.0 3892:1.0 5887:1.0 8294:1.0 8295:1.0 8296:1.0 8297:1.0 8298:1.0 8299:1.0 8300:1.0 8301:1.0 8303:1.0 8304:1.0 8305:1.0 8307:1.0 
1.0 1:1.0 132:2.0 134:2.0 10043:2.0 10044:3.0 
1.0 1:2.0 57:1.0 420:1.0 980:2.0 10054:3.0 10055:1.0 
1.0 1:8.0 3:1.0 7:4.0 10:1.0 17:2.0 28:2.0 112:2.0 173:2.0 222:2.0 932:1.0 4300:2.0 10056:1.0 10057:1.0 10058:1.0 10059:1.0 
0.9850052404525113 1:22.0 2:4.0 3:6.0 5:2.0 7:4.0 9:2.0 19:2.0 36:2.0 37:2.0 41:2.0 44:2.0 61:6.0 68:4.0 112:2.0 157:2.0 176:4.0 215:2.0 225:2.0 271:2.0 277:2.0 296:2.0 461:4.0 462:2.0 465:2.0 590:2.0 784:2.0 809:2.0 1677:2.0 1681:2.0 1790:2.0 1804:2.0 2350:2.0 2813:2.0 4936:2.0 5776:2.0 6223:2.0 6235:2.0 6631:2.0 10061:1.0 10062:1.0 10063:1.0 10064:1.0 10065:1.0 10066:1.0 10067:1.0 
0.7830657176471352 1:15.0 5:2.0 7:7.0 15:1.0 17:3.0 28:2.0 37:1.0 39:2.0 46:1.0 173:2.0 222:3.0 379:1.0 383:1.0 1084:1.0 1089:1.0 1474:2.0 1652:1.0 1660:1.0 1663:1.0 2971:1.0 3249:1.0 3261:1.0 4419:1.0 4890:1.0 4891:2.0 
1.0 1:6.0 2:1.0 3:2.0 7:3.0 36:1.0 44:1.0 132:2.0 133:2.0 134:2.0 135:2.0 137:2.0 140:2.0 145:1.0 178:1.0 179:1.0 191:1.0 192:1.0 348:1.0 350:1.0 351:1.0 365:1.0 366:1.0 367:1.0 3334:1.0 3397:1.0 5183:1.0 5998:1.0 7487:1.0 7489:1.0 
0.08603239170030152 1:22.0 7:14.0 17:6.0 141:8.0 149:6.0 166:6.0 434:6.0 435:2.0 436:2.0 439:2.0 440:4.0 441:2.0 444:2.0 445:4.0 448:2.0 
0.28949132340880324 1:20.0 3:7.0 5:1.0 7:4.0 9:4.0 10:5.0 11:2.0 17:1.0 19:1.0 21:1.0 22:2.0 35:1.0 37:1.0 41:2.0 63:1.0 85:1.0 111:1.0 173:2.0 215:1.0 217:1.0 220:1.0 222:1.0 225:1.0 269:2.0 271:1.0 296:1.0 346:1.0 379:1.0 611:1.0 612:1.0 618:1.0 620:1.0 738:1.0 742:1.0 743:1.0 783:1.0 786:1.0 788:1.0 1571:1.0 1611:1.0 1786:1.0 1788:1.0 3213:1.0 3214:1.0 3215:1.0 3217:1.0 3218:1.0 3220:1.0 3221:1.0 3224:1.0 3226:1.0 3227:1.0 3230:1.0 3231:1.0 3232:1.0 3233:1.0 3237:1.0 3238:1.0 3241:1.0 9222:1.0 
1.0 1:6.0 3:1.0 10:1.0 69:4.0 263:2.0 306:2.0 1098:2.0 1238:2.0 1722:1.0 9550:2.0 9552:1.0 10192:1.0 10193:1.0 
0.7304732782497595 1:16.0 2:4.0 3:2.0 7:8.0 36:4.0 44:8.0 61:2.0 68:2.0 112:2.0 157:2.0 176:2.0 190:2.0 338:4.0 688:2.0 692:2.0 696:2.0 704:2.0 707:2.0 1677:2.0 1681:2.0 2350:2.0 2741:4.0 5321:2.0 6223:2.0 6235:2.0 6263:2.0 6266:2.0 
0.3938452737310368 1:20.0 2:1.0 3:1.0 5:3.0 7:12.0 15:4.0 17:5.0 28:4.0 30:1.0 36:1.0 41:1.0 44:1.0 67:1.0 69:1.0 89:1.0 173:2.0 176:1.0 184:1.0 187:1.0 190:1.0 202:1.0 203:1.0 222:1.0 691:1.0 1084:2.0 1085:2.0 1086:1.0 1087:2.0 1088:1.0 1089:1.0 1090:1.0 1091:1.0 1670:1.0 1671:1.0 1818:1.0 4820:1.0 7526:1.0 9265:1.0 9266:1.0 10248:1.0 
1.0 1:11.0 3:2.0 7:4.0 17:2.0 28:2.0 39:1.0 41:2.0 111:1.0 173:2.0 215:2.0 221:1.0 222:2.0 225:2.0 241:1.0 470:1.0 474:1.0 789:2.0 1606:2.0 1787:1.0 1794:1.0 2957:1.0 6361:1.0 6697:1.0 6739:1.0 6744:1.0 
1.0 1:23.0 3:3.0 5:1.0 7:9.0 9:2.0 10:2.0 15:1.0 17:4.0 19:3.0 20:2.0 30:1.0 39:4.0 41:1.0 63:1.0 85:1.0 111:1.0 112:1.0 116:1.0 346:1.0 356:1.0 379:2.0 470:1.0 474:2.0 486:1.0 493:2.0 873:1.0 1363:1.0 1393:2.0 1548:1.0 1571:1.0 1572:3.0 2651:1.0 3939:1.0 3953:2.0 3988:1.0 4023:1.0 4300:1.0 4634:1.0 5192:1.0 6611:1.0 6765:1.0 6766:1.0 6767:1.0 6772:1.0 6773:1.0 6774:1.0 6775:1.0 6777:2.0 6778:1.0 
1.0 1:15.0 3:1.0 5:2.0 7:5.0 15:1.0 37:3.0 39:2.0 46:1.0 68:1.0 112:1.0 113:1.0 157:1.0 222:3.0 470:1.0 474:1.0 475:1.0 792:1.0 1525:1.0 1536:1.0 1792:1.0 3247:2.0 3249:1.0 3250:1.0 3252:1.0 3254:1.0 3255:1.0 3256:1.0 3259:1.0 3260:1.0 3261:1.0 3262:1.0 3263:1.0 3264:1.0 3265:1.0 10056:1.0 
1.0 1:5.0 3:3.0 39:2.0 57:1.0 65:2.0 69:1.0 263:1.0 308:1.0 319:1.0 1099:1.0 1423:1.0 1426:2.0 1542:1.0 3998:1.0 4043:1.0 4106:1.0 4108:1.0 4111:1.0 4112:2.0 
1.0 1:18.0 3:4.0 5:2.0 7:6.0 9:2.0 15:2.0 17:2.0 19:2.0 39:1.0 41:2.0 68:2.0 69:2.0 173:2.0 215:2.0 225:2.0 271:1.0 272:2.0 277:2.0 296:1.0 297:2.0 307:1.0 308:1.0 316:1.0 379:1.0 784:2.0 813:1.0 1100:1.0 1571:2.0 2931:2.0 4086:1.0 4092:1.0 4891:2.0 6631:2.0 6880:2.0 10280:1.0 10282:1.0 
1.0 1:16.0 3:2.0 5:1.0 7:9.0 9:1.0 10:2.0 15:2.0 17:5.0 19:1.0 28:3.0 30:1.0 69:1.0 112:2.0 173:1.0 217:1.0 222:1.0 227:1.0 263:1.0 310:2.0 872:1.0 904:1.0 1086:1.0 1393:1.0 1611:1.0 1703:1.0 1704:1.0 3156:1.0 3158:1.0 3480:1.0 3481:1.0 3482:1.0 3483:1.0 4908:1.0 4911:1.0 4913:1.0 5422:1.0 
1.0 1:5.0 2:1.0 3:3.0 39:1.0 41:1.0 61:1.0 67:1.0 68:2.0 89:1.0 112:1.0 157:1.0 176:1.0 263:1.0 799:1.0 964:1.0 1099:1.0 1677:1.0 1681:1.0 6223:1.0 6234:1.0 6235:1.0 6789:1.0 6809:1.0 
0.1810883757255169 1:14.0 2:1.0 3:5.0 6:1.0 7:2.0 9:4.0 10:4.0 11:2.0 21:2.0 22:2.0 35:2.0 141:2.0 142:1.0 437:1.0 1056:1.0 1057:1.0 1066:1.0 1067:1.0 1769:1.0 1770:1.0 2396:1.0 2399:1.0 3954:1.0 4401:2.0 4413:1.0 4415:1.0 4526:1.0 9444:1.0 9473:1.0 
0.187262269192301 1:12.0 2:5.0 3:1.0 4:1.0 6:3.0 7:1.0 37:1.0 39:1.0 68:1.0 70:1.0 112:1.0 114:1.0 142:4.0 157:1.0 390:1.0 391:1.0 392:1.0 393:2.0 394:1.0 395:1.0 397:1.0 399:1.0 400:1.0 402:1.0 403:1.0 404:1.0 407:1.0 411:1.0 412:1.0 417:1.0 418:1.0 716:1.0 962:1.0 1145:1.0 1525:1.0 1536:1.0 1844:1.0 1846:1.0 3424:1.0 3428:1.0 5638:1.0 5806:1.0 5807:1.0 5810:1.0 5811:1.0 5812:1.0 
0.4006029392842312 1:16.0 2:2.0 3:4.0 5:2.0 7:6.0 9:2.0 10:2.0 11:2.0 15:2.0 21:2.0 22:2.0 35:2.0 36:2.0 38:2.0 40:2.0 41:2.0 44:2.0 45:2.0 47:2.0 48:2.0 55:2.0 56:2.0 873:2.0 1029:2.0 1308:2.0 1387:2.0 1391:2.0 1453:2.0 1454:2.0 10371:1.0 10372:1.0 10373:1.0 10374:1.0 10375:1.0 
1.0 1:3.0 3:1.0 41:1.0 113:1.0 132:1.0 134:1.0 551:1.0 555:1.0 3106:1.0 3113:1.0 4713:2.0 4718:1.0 7810:1.0 10403:1.0 
1.0 1:20.0 2:1.0 3:4.0 5:1.0 7:3.0 9:4.0 10:4.0 11:2.0 21:2.0 22:2.0 35:2.0 37:1.0 59:1.0 61:1.0 62:1.0 69:2.0 114:1.0 122:1.0 173:3.0 593:2.0 797:1.0 873:1.0 1059:1.0 1084:1.0 1085:1.0 1344:1.0 1685:1.0 1769:1.0 1770:1.0 2399:3.0 2430:2.0 2808:1.0 3992:1.0 4031:1.0 4401:2.0 4413:1.0 4415:1.0 6340:2.0 8585:1.0 9206:1.0 10420:1.0 
1.0 1:7.0 2:1.0 3:4.0 7:4.0 17:2.0 28:1.0 36:1.0 37:1.0 41:1.0 44:1.0 63:1.0 68:1.0 84:1.0 85:1.0 145:1.0 178:1.0 179:1.0 191:1.0 192:1.0 222:1.0 261:1.0 351:1.0 366:1.0 367:1.0 758:1.0 769:1.0 1179:1.0 1737:1.0 1746:1.0 1747:1.0 3445:1.0 3448:1.0 3449:1.0 
0.04914819415064327 1:20.0 2:1.0 3:2.0 7:7.0 17:2.0 36:1.0 37:2.0 69:4.0 141:6.0 145:1.0 149:4.0 178:1.0 179:1.0 191:1.0 192:1.0 305:2.0 306:2.0 351:1.0 366:1.0 367:1.0 436:1.0 448:1.0 1212:2.0 1213:2.0 1409:1.0 1420:1.0 1436:1.0 1535:2.0 2123:1.0 2281:1.0 2380:2.0 2671:2.0 3800:1.0 3804:1.0 4656:2.0 4659:2.0 4665:2.0 4914:1.0 6310:1.0 8569:1.0 10430:1.0 
1.0 1:8.0 2:1.0 7:3.0 36:1.0 37:2.0 39:2.0 44:1.0 46:2.0 222:1.0 392:1.0 425:1.0 694:1.0 695:1.0 706:1.0 708:1.0 1039:1.0 1042:1.0 1381:1.0 2204:1.0 2709:1.0 2952:1.0 4881:1.0 
0.28110849977626406 1:12.0 2:3.0 3:5.0 7:7.0 9:1.0 19:2.0 36:4.0 44:4.0 68:1.0 145:2.0 176:1.0 178:2.0 179:2.0 190:1.0 191:2.0 192:2.0 277:1.0 322:1.0 335:1.0 350:1.0 351:2.0 365:1.0 366:2.0 367:2.0 373:1.0 438:1.0 450:1.0 693:1.0 1033:1.0 1379:1.0 2919:2.0 2946:1.0 2950:1.0 3554:1.0 3555:1.0 3556:1.0 3558:1.0 3559:1.0 5724:2.0 9702:1.0 
1.0 1:9.0 2:1.0 3:3.0 5:1.0 7:4.0 15:1.0 17:2.0 28:1.0 36:1.0 41:1.0 44:1.0 111:2.0 145:1.0 178:1.0 179:1.0 191:1.0 192:1.0 261:1.0 351:1.0 366:1.0 367:1.0 551:1.0 555:1.0 842:1.0 1179:1.0 1372:1.0 1378:1.0 2382:1.0 2384:1.0 2387:1.0 2389:1.0 4295:1.0 4296:1.0 4297:1.0 4299:1.0 6063:1.0 
1.0 1:7.0 2:1.0 3:4.0 5:1.0 7:4.0 15:2.0 36:1.0 41:1.0 44:2.0 63:1.0 68:1.0 84:1.0 85:1.0 145:1.0 178:1.0 179:1.0 191:1.0 192:1.0 350:1.0 351:1.0 364:1.0 365:1.0 366:1.0 367:1.0 737:1.0 847:2.0 1737:1.0 1745:1.0 1746:1.0 1747:1.0 3697:1.0 5663:2.0 
0.5666251370131377 1:9.0 2:3.0 3:1.0 7:4.0 17:1.0 37:1.0 61:1.0 114:1.0 144:1.0 145:1.0 156:1.0 173:1.0 222:2.0 251:1.0 254:1.0 255:1.0 262:1.0 792:1.0 2147:1.0 2148:1.0 2151:1.0 2971:1.0 3432:1.0 3439:1.0 4123:1.0 4124:1.0 4128:1.0 4129:1.0 8196:1.0 8493:1.0 8756:1.0 8761:1.0 8762:1.0 9054:1.0 9056:1.0 9057:1.0 
1.0 1:10.0 3:5.0 5:1.0 7:4.0 15:1.0 17:2.0 28:2.0 41:2.0 57:1.0 65:2.0 111:1.0 173:1.0 215:2.0 222:1.0 225:2.0 789:1.0 1423:1.0 1424:1.0 1426:2.0 1427:1.0 1606:1.0 2125:1.0 2137:1.0 2959:1.0 2967:1.0 2972:1.0 3173:1.0 10475:1.0 
0.1501967336672622 1:14.0 2:2.0 3:2.0 7:8.0 9:2.0 10:1.0 19:4.0 20:2.0 36:2.0 39:1.0 41:1.0 44:4.0 67:1.0 89:1.0 176:1.0 187:1.0 190:1.0 346:1.0 356:2.0 360:4.0 392:1.0 425:1.0 746:1.0 754:1.0 849:1.0 1363:1.0 1364:2.0 1808:1.0 1809:1.0 1819:1.0 1820:1.0 1821:1.0 1822:1.0 1823:1.0 5724:2.0 
0.5744645698247873 1:15.0 3:5.0 5:2.0 7:4.0 9:3.0 37:1.0 39:1.0 41:2.0 46:1.0 68:3.0 173:2.0 215:2.0 220:1.0 225:2.0 271:2.0 272:1.0 277:3.0 296:2.0 297:1.0 438:1.0 450:1.0 593:1.0 784:2.0 789:2.0 813:1.0 814:1.0 815:1.0 873:1.0 1039:1.0 1042:1.0 1108:1.0 1110:1.0 1381:1.0 1646:1.0 1790:1.0 1804:1.0 5719:1.0 6582:1.0 6630:2.0 7172:1.0 8714:1.0 9084:1.0 9085:1.0 
1.0 1:12.0 2:2.0 3:5.0 7:2.0 9:2.0 10:2.0 36:1.0 37:1.0 39:1.0 41:2.0 61:1.0 63:1.0 68:1.0 84:1.0 85:1.0 215:1.0 225:1.0 251:1.0 276:1.0 368:1.0 593:1.0 642:1.0 1769:1.0 1770:1.0 1863:1.0 2399:2.0 3020:1.0 4401:2.0 4406:1.0 4410:1.0 4411:1.0 4413:2.0 4415:1.0 4454:1.0 4460:1.0 
1.0 1:10.0 2:2.0 7:4.0 36:2.0 44:4.0 62:2.0 114:4.0 122:4.0 510:2.0 511:2.0 512:2.0 514:2.0 516:4.0 2742:4.0 
0.4658780259706208 1:9.0 3:4.0 112:3.0 172:6.0 181:6.0 1242:1.0 1244:3.0 1558:3.0 1562:3.0 2101:1.0 2327:1.0 2328:1.0 2329:3.0 2330:1.0 2332:1.0 2334:1.0 2973:3.0 2974:3.0 2977:3.0 2979:3.0 8660:3.0 8665:3.0 10549:2.0 10550:2.0 10551:2.0 10552:2.0 10553:2.0 
1.0 1:8.0 2:1.0 3:1.0 7:4.0 9:1.0 17:1.0 19:1.0 36:1.0 39:1.0 44:1.0 61:1.0 68:1.0 176:1.0 190:1.0 210:1.0 277:1.0 368:1.0 438:1.0 450:1.0 642:1.0 2350:1.0 3269:1.0 3451:1.0 4859:1.0 4860:1.0 5320:1.0 5322:1.0 5323:1.0 5324:1.0 6261:1.0 
1.0 1:9.0 2:1.0 6:1.0 7:4.0 70:1.0 141:1.0 142:1.0 149:1.0 397:1.0 530:1.0 668:2.0 672:2.0 1281:1.0 1403:1.0 1404:1.0 1651:2.0 1654:2.0 1656:2.0 5292:1.0 5293:1.0 5297:1.0 5300:1.0 6867:1.0 6877:1.0 7607:1.0 9392:1.0 9395:1.0 9396:1.0 
0.4428873578184766 1:11.0 3:2.0 5:1.0 7:4.0 9:1.0 10:2.0 11:1.0 15:2.0 19:2.0 20:1.0 21:1.0 22:1.0 32:2.0 33:1.0 34:1.0 35:1.0 69:2.0 112:1.0 263:1.0 305:1.0 309:1.0 872:1.0 880:2.0 1098:1.0 1702:1.0 1703:1.0 1704:1.0 1705:1.0 1706:1.0 1707:1.0 6985:1.0 6987:1.0 
1.0 1:12.0 2:1.0 3:1.0 5:2.0 7:9.0 15:3.0 17:5.0 28:3.0 30:1.0 36:1.0 44:1.0 145:1.0 261:1.0 1029:1.0 1371:1.0 1375:1.0 1666:1.0 1668:1.0 1669:1.0 1676:1.0 2669:2.0 4320:1.0 
1.0 1:10.0 2:1.0 4:1.0 6:1.0 7:6.0 17:2.0 39:1.0 141:1.0 142:1.0 149:2.0 151:1.0 166:1.0 168:1.0 323:1.0 337:1.0 716:1.0 744:1.0 781:1.0 1145:1.0 2401:1.0 3747:1.0 10684:1.0 10694:1.0 
0.5901887572318419 1:13.0 2:1.0 3:3.0 5:1.0 6:1.0 7:4.0 10:1.0 68:2.0 70:1.0 141:1.0 142:1.0 149:2.0 173:1.0 222:1.0 263:4.0 397:1.0 530:1.0 744:1.0 799:2.0 1281:1.0 1402:1.0 1403:1.0 1404:1.0 1722:1.0 1749:1.0 1992:1.0 1993:1.0 1994:1.0 1995:1.0 1996:1.0 1997:1.0 1998:1.0 1999:1.0 2001:1.0 2002:1.0 2003:1.0 2006:1.0 2007:1.0 2008:1.0 2009:1.0 2011:1.0 2012:1.0 7164:1.0 
0.034423721981064546 1:3.0 132:3.0 134:3.0 1211:2.0 1216:2.0 2167:1.0 2169:2.0 2171:1.0 2175:2.0 10760:1.0 10761:1.0 
1.0 1:8.0 3:1.0 7:4.0 17:1.0 37:2.0 39:1.0 41:1.0 46:1.0 132:1.0 134:1.0 222:2.0 1039:1.0 1042:1.0 1170:1.0 1172:1.0 1173:1.0 1174:1.0 1180:1.0 1181:1.0 1381:1.0 2204:1.0 2971:1.0 6356:1.0 7126:1.0 7128:1.0 
1.0 1:8.0 2:1.0 3:1.0 7:3.0 9:1.0 10:1.0 11:1.0 19:1.0 21:1.0 22:1.0 35:1.0 36:1.0 37:1.0 39:1.0 46:1.0 222:1.0 392:1.0 425:1.0 691:1.0 1039:1.0 1042:1.0 1387:1.0 1391:1.0 1775:1.0 1776:1.0 1780:1.0 2953:1.0 4980:1.0 7528:1.0 
0.19488870513939632 1:15.0 2:1.0 3:1.0 5:2.0 7:8.0 9:1.0 10:1.0 11:1.0 15:4.0 19:2.0 20:1.0 21:1.0 22:1.0 32:2.0 33:1.0 34:1.0 35:1.0 36:1.0 44:2.0 111:2.0 392:1.0 425:1.0 746:1.0 754:1.0 842:2.0 843:2.0 844:2.0 845:2.0 846:2.0 848:2.0 849:1.0 2208:2.0 
0.19585482807723484 1:7.0 2:2.0 3:4.0 41:1.0 61:2.0 63:1.0 68:1.0 69:1.0 84:1.0 85:1.0 112:1.0 132:2.0 134:2.0 1132:1.0 1139:1.0 1140:1.0 1211:2.0 1216:2.0 1242:1.0 1244:1.0 1889:2.0 1906:2.0 2101:1.0 4950:1.0 4951:1.0 4953:1.0 4954:1.0 4955:1.0 4956:2.0 4958:1.0 4964:2.0 4967:2.0 
1.0 1:11.0 2:1.0 7:7.0 17:3.0 36:1.0 38:1.0 44:1.0 57:1.0 141:2.0 149:3.0 166:2.0 436:1.0 448:2.0 2123:1.0 2270:1.0 2281:1.0 2726:1.0 4611:1.0 10235:1.0 10238:1.0 10239:1.0 10243:1.0 
1.0 1:10.0 3:3.0 5:1.0 7:4.0 9:1.0 10:1.0 11:1.0 15:2.0 19:2.0 20:1.0 21:1.0 22:1.0 32:2.0 33:1.0 34:1.0 35:1.0 41:1.0 63:1.0 68:1.0 84:1.0 85:1.0 111:1.0 172:1.0 181:1.0 451:1.0 456:1.0 3314:1.0 3317:1.0 3318:1.0 10813:1.0 
1.0 1:14.0 2:1.0 3:3.0 7:7.0 9:2.0 10:1.0 19:3.0 20:1.0 36:1.0 39:1.0 41:1.0 44:2.0 67:1.0 89:1.0 132:2.0 133:2.0 134:2.0 136:1.0 137:2.0 179:1.0 345:1.0 346:1.0 347:1.0 348:1.0 349:1.0 352:1.0 353:1.0 354:1.0 355:1.0 356:1.0 357:1.0 358:1.0 359:1.0 360:2.0 361:1.0 363:1.0 1254:1.0 1255:1.0 1809:1.0 2625:1.0 2628:1.0 2638:1.0 2639:1.0 3563:1.0 3566:1.0 3569:1.0 4977:1.0 4978:1.0 9241:2.0 
