svm_type c_svc
kernel_type rbf
gamma 0.001953125
nr_class 2
total_sv 2418
rho 1.4936198479455955
label 0 1
nr_sv 1192 1226
SV
4.333751273247524 1:9.0 2:2.0 3:2.0 7:3.0 17:1.0 36:2.0 37:1.0 38:2.0 39:1.0 40:2.0 41:2.0 42:2.0 43:1.0 44:2.0 45:2.0 46:1.0 47:2.0 48:2.0 49:2.0 50:1.0 51:2.0 52:2.0 53:1.0 54:1.0 55:2.0 56:2.0 
10.0 1:7.0 2:2.0 3:1.0 7:5.0 17:3.0 30:1.0 36:1.0 44:2.0 114:1.0 144:1.0 145:1.0 156:1.0 251:1.0 252:1.0 253:1.0 254:1.0 255:1.0 256:1.0 257:1.0 258:2.0 259:1.0 260:1.0 261:2.0 262:1.0 
2.8201270475461833 1:12.0 2:1.0 3:3.0 7:7.0 9:2.0 10:1.0 19:3.0 20:1.0 36:1.0 44:2.0 132:2.0 133:2.0 134:2.0 136:1.0 137:2.0 145:1.0 178:1.0 179:1.0 191:1.0 192:1.0 345:1.0 346:1.0 347:1.0 348:1.0 349:1.0 350:1.0 351:1.0 352:1.0 353:1.0 354:1.0 355:1.0 356:1.0 357:1.0 358:1.0 359:1.0 360:2.0 361:1.0 362:2.0 363:1.0 364:1.0 365:1.0 366:1.0 367:1.0 
10.0 1:6.0 2:2.0 3:5.0 7:3.0 9:1.0 36:2.0 44:2.0 68:1.0 145:2.0 178:2.0 179:2.0 191:2.0 192:2.0 277:1.0 350:1.0 351:2.0 365:1.0 366:2.0 367:2.0 368:1.0 369:1.0 370:1.0 371:1.0 372:1.0 373:1.0 374:1.0 375:1.0 376:1.0 377:1.0 378:1.0 
6.41866440114274 1:9.0 2:2.0 7:1.0 36:2.0 37:1.0 39:1.0 43:1.0 46:1.0 53:1.0 57:2.0 319:2.0 392:2.0 419:2.0 420:2.0 421:2.0 422:1.0 423:2.0 424:2.0 425:2.0 426:2.0 427:2.0 428:1.0 429:2.0 430:2.0 431:1.0 432:2.0 433:2.0 
10.0 1:4.0 3:1.0 39:1.0 41:1.0 113:1.0 172:1.0 181:1.0 215:1.0 225:1.0 451:1.0 452:2.0 453:2.0 454:1.0 455:1.0 456:1.0 457:1.0 458:1.0 459:1.0 460:1.0 
10.0 1:6.0 2:4.0 61:6.0 176:2.0 392:2.0 461:4.0 462:2.0 463:2.0 464:2.0 465:2.0 466:2.0 467:2.0 468:2.0 469:2.0 
10.0 1:10.0 2:1.0 3:1.0 7:4.0 36:1.0 37:1.0 44:2.0 62:1.0 68:1.0 69:1.0 112:1.0 114:2.0 122:2.0 153:1.0 155:1.0 157:1.0 169:1.0 171:1.0 222:2.0 304:1.0 510:1.0 511:1.0 512:1.0 513:2.0 514:1.0 515:2.0 516:2.0 517:1.0 518:1.0 
3.130735213775266 1:15.0 2:3.0 3:3.0 4:1.0 6:3.0 7:1.0 10:1.0 11:1.0 22:1.0 37:1.0 41:2.0 70:3.0 111:1.0 141:2.0 142:2.0 215:2.0 216:1.0 221:1.0 224:1.0 225:2.0 241:1.0 323:1.0 324:1.0 519:1.0 520:1.0 521:1.0 522:2.0 523:1.0 524:1.0 525:2.0 526:1.0 527:1.0 528:1.0 529:1.0 530:1.0 531:1.0 532:1.0 533:1.0 534:1.0 535:1.0 536:1.0 537:1.0 538:1.0 539:1.0 540:1.0 541:1.0 542:1.0 543:1.0 544:1.0 545:1.0 546:1.0 547:1.0 548:1.0 549:1.0 550:1.0 
3.882314093437686 1:10.0 2:1.0 5:2.0 57:2.0 59:2.0 173:2.0 174:4.0 176:1.0 177:2.0 185:2.0 576:2.0 577:2.0 578:1.0 579:2.0 580:2.0 581:2.0 582:2.0 583:2.0 584:1.0 585:2.0 586:2.0 587:2.0 588:2.0 
2.270475213860199 1:28.0 2:1.0 3:10.0 5:2.0 7:2.0 9:3.0 10:3.0 11:1.0 22:1.0 37:3.0 39:2.0 41:2.0 59:1.0 62:1.0 68:5.0 69:2.0 114:2.0 122:2.0 173:2.0 215:2.0 225:2.0 263:3.0 264:2.0 271:2.0 272:1.0 277:2.0 281:2.0 296:2.0 297:1.0 491:1.0 593:1.0 783:1.0 784:2.0 785:1.0 786:1.0 787:1.0 788:1.0 789:1.0 790:1.0 791:1.0 792:1.0 793:1.0 794:1.0 795:1.0 796:1.0 797:1.0 798:1.0 799:2.0 800:1.0 801:1.0 802:1.0 803:1.0 804:1.0 805:1.0 806:1.0 807:1.0 808:1.0 809:1.0 810:1.0 811:1.0 812:1.0 813:1.0 814:1.0 815:1.0 816:1.0 817:1.0 818:1.0 819:1.0 820:1.0 821:1.0 822:1.0 823:1.0 824:1.0 825:1.0 826:1.0 827:1.0 828:1.0 829:1.0 830:1.0 831:1.0 832:1.0 833:1.0 834:1.0 835:1.0 836:2.0 837:1.0 838:1.0 839:1.0 840:1.0 841:1.0 
7.306949457522014 1:10.0 2:1.0 3:5.0 10:2.0 11:1.0 22:1.0 39:3.0 41:2.0 63:1.0 67:1.0 68:1.0 85:1.0 89:1.0 263:1.0 264:2.0 281:1.0 379:1.0 383:2.0 392:1.0 634:1.0 651:1.0 738:1.0 743:1.0 799:1.0 850:1.0 851:1.0 852:1.0 853:1.0 854:1.0 855:1.0 856:1.0 857:1.0 858:1.0 859:1.0 860:1.0 861:1.0 862:1.0 863:1.0 864:1.0 865:1.0 866:1.0 867:1.0 868:1.0 869:2.0 
10.0 1:6.0 3:3.0 10:2.0 39:1.0 68:1.0 112:2.0 157:1.0 263:1.0 783:1.0 896:1.0 897:1.0 898:1.0 899:1.0 900:1.0 901:1.0 902:1.0 903:1.0 904:1.0 905:1.0 906:1.0 907:1.0 908:1.0 909:1.0 910:1.0 911:1.0 912:1.0 913:1.0 914:1.0 915:1.0 916:1.0 917:1.0 
10.0 1:8.0 2:1.0 7:3.0 36:1.0 37:2.0 39:2.0 44:1.0 46:2.0 222:1.0 392:1.0 425:1.0 691:1.0 746:1.0 754:1.0 848:1.0 1121:2.0 1122:1.0 1123:1.0 1124:1.0 1125:2.0 1126:1.0 1127:1.0 
10.0 1:12.0 2:2.0 4:1.0 6:2.0 7:5.0 17:2.0 39:1.0 70:1.0 141:2.0 142:2.0 149:1.0 151:1.0 166:1.0 168:1.0 323:1.0 324:1.0 337:1.0 524:1.0 530:1.0 1141:2.0 1142:1.0 1143:1.0 1144:1.0 1145:1.0 1146:1.0 1147:1.0 1148:1.0 1149:1.0 1150:1.0 1151:1.0 1152:1.0 1153:1.0 1154:1.0 1155:1.0 1156:1.0 
7.646456454303236 1:9.0 2:3.0 3:2.0 6:2.0 7:4.0 10:1.0 11:1.0 17:2.0 22:1.0 41:1.0 142:2.0 151:2.0 168:2.0 176:1.0 391:1.0 395:2.0 962:2.0 971:2.0 1264:1.0 1265:1.0 1266:1.0 1267:1.0 1268:1.0 1269:1.0 1270:2.0 1271:2.0 1272:1.0 1273:1.0 1274:1.0 1275:1.0 1276:1.0 1277:1.0 
0.4374964801609527 1:12.0 2:3.0 3:4.0 5:1.0 6:1.0 7:2.0 10:1.0 15:1.0 39:1.0 41:2.0 61:1.0 69:2.0 70:2.0 112:1.0 144:1.0 145:1.0 156:1.0 215:1.0 225:1.0 230:1.0 231:1.0 250:1.0 251:1.0 254:1.0 262:1.0 529:1.0 530:1.0 1100:1.0 1264:1.0 1269:1.0 1278:1.0 1279:1.0 1280:1.0 1281:1.0 1282:1.0 1283:1.0 1284:1.0 1285:1.0 1286:1.0 1287:1.0 1288:1.0 1289:1.0 1290:1.0 1291:1.0 1292:1.0 1293:1.0 1294:1.0 1295:1.0 1296:1.0 1297:1.0 1298:1.0 1299:1.0 1300:1.0 1301:1.0 1302:1.0 1303:1.0 
9.758829392046438 1:4.0 57:2.0 420:2.0 980:4.0 1304:4.0 1305:2.0 1306:4.0 1307:2.0 
2.8299912655900736 1:12.0 2:1.0 5:2.0 7:8.0 15:4.0 36:1.0 44:2.0 132:1.0 133:1.0 134:1.0 137:1.0 348:2.0 349:1.0 363:1.0 392:1.0 425:1.0 746:1.0 754:1.0 848:2.0 849:1.0 1029:2.0 1030:2.0 1308:2.0 1309:2.0 1310:2.0 1311:1.0 
10.0 1:9.0 3:2.0 7:4.0 9:1.0 10:1.0 19:2.0 20:1.0 32:2.0 37:1.0 39:1.0 41:1.0 63:1.0 85:1.0 132:1.0 134:1.0 222:2.0 1062:1.0 1211:1.0 1215:1.0 1216:1.0 1232:1.0 1352:1.0 1353:1.0 1354:1.0 1355:1.0 1356:1.0 1357:2.0 1358:1.0 1359:1.0 1360:1.0 1361:1.0 1362:1.0 
10.0 1:7.0 2:1.0 3:3.0 7:4.0 9:1.0 10:1.0 11:1.0 17:2.0 19:1.0 21:1.0 22:1.0 35:1.0 36:1.0 44:1.0 145:1.0 178:1.0 179:1.0 191:1.0 192:1.0 261:1.0 351:1.0 366:1.0 367:1.0 370:1.0 378:1.0 1387:1.0 1388:1.0 1389:1.0 1390:1.0 1391:1.0 1392:1.0 1393:1.0 
9.39809867341663 1:34.0 2:5.0 3:10.0 5:1.0 7:15.0 9:4.0 10:2.0 11:2.0 15:1.0 17:2.0 21:2.0 22:2.0 35:2.0 36:5.0 37:1.0 44:3.0 57:2.0 65:4.0 68:2.0 141:4.0 149:3.0 166:2.0 222:1.0 277:2.0 392:1.0 419:2.0 425:1.0 436:1.0 593:1.0 688:4.0 692:4.0 746:1.0 752:1.0 754:1.0 873:1.0 1029:2.0 1308:2.0 1387:2.0 1391:2.0 1408:2.0 1423:2.0 1424:2.0 1425:2.0 1426:4.0 1427:2.0 1428:1.0 1429:1.0 1430:1.0 1431:3.0 1432:2.0 1433:1.0 1434:1.0 1435:1.0 1436:1.0 1437:1.0 1438:4.0 1439:2.0 1440:1.0 1441:1.0 1442:1.0 1443:1.0 1444:1.0 1445:1.0 1446:1.0 1447:1.0 1448:3.0 1449:2.0 1450:2.0 1451:2.0 1452:2.0 1453:2.0 1454:2.0 1455:1.0 1456:1.0 1457:1.0 1458:1.0 1459:1.0 1460:1.0 1461:1.0 1462:1.0 1463:1.0 1464:1.0 1465:1.0 
8.281179274454793 1:13.0 2:1.0 3:4.0 5:1.0 7:7.0 9:1.0 10:1.0 15:1.0 17:3.0 28:2.0 36:1.0 41:1.0 44:1.0 63:1.0 85:1.0 145:1.0 173:2.0 178:1.0 179:1.0 191:1.0 192:1.0 222:2.0 351:1.0 366:1.0 367:1.0 370:1.0 378:1.0 611:1.0 612:1.0 618:1.0 620:1.0 1062:1.0 1084:1.0 1089:1.0 1392:1.0 1508:1.0 1509:1.0 1510:1.0 1511:1.0 1512:1.0 1513:1.0 1514:1.0 1515:1.0 1516:1.0 1517:1.0 1518:1.0 
1.0091802537477246 1:28.0 2:1.0 3:11.0 5:2.0 7:3.0 9:3.0 10:4.0 11:2.0 15:1.0 17:1.0 19:1.0 21:1.0 22:2.0 35:1.0 37:3.0 39:1.0 41:3.0 59:1.0 68:4.0 69:3.0 112:1.0 157:1.0 173:1.0 215:3.0 217:1.0 225:3.0 263:3.0 264:1.0 271:2.0 277:2.0 296:2.0 392:1.0 491:1.0 783:1.0 784:1.0 786:2.0 789:1.0 801:1.0 803:1.0 805:1.0 806:1.0 810:1.0 813:1.0 825:1.0 841:1.0 900:2.0 1099:1.0 1130:1.0 1571:1.0 1573:1.0 1574:1.0 1575:2.0 1576:1.0 1577:1.0 1578:1.0 1579:1.0 1580:1.0 1581:1.0 1582:1.0 1583:1.0 1584:1.0 1585:1.0 1586:1.0 1587:1.0 1588:1.0 1589:1.0 1590:1.0 1591:2.0 1592:2.0 1593:1.0 1594:1.0 1595:1.0 1596:1.0 1597:1.0 1598:1.0 1599:1.0 1600:1.0 1601:1.0 1602:1.0 1603:1.0 1604:1.0 1605:1.0 1606:1.0 1607:1.0 1608:1.0 1609:1.0 1610:1.0 1611:1.0 1612:1.0 1613:1.0 
0.5761800068019206 1:21.0 2:4.0 3:2.0 4:2.0 6:2.0 7:4.0 17:2.0 37:1.0 39:1.0 41:2.0 61:4.0 62:2.0 111:1.0 114:1.0 122:1.0 141:2.0 142:2.0 149:1.0 151:1.0 166:1.0 168:1.0 215:2.0 225:2.0 323:1.0 324:1.0 337:1.0 519:1.0 520:1.0 521:1.0 536:1.0 965:4.0 1141:1.0 1145:1.0 1150:1.0 1151:1.0 1614:1.0 1615:1.0 1616:1.0 1617:1.0 1618:1.0 1619:1.0 1620:1.0 1621:1.0 1622:1.0 1623:1.0 1624:1.0 1625:1.0 1626:1.0 1627:1.0 1628:1.0 1629:1.0 1630:1.0 1631:1.0 1632:1.0 1633:1.0 1634:1.0 1635:1.0 1636:1.0 1637:1.0 1638:1.0 1639:2.0 1640:2.0 1641:1.0 1642:1.0 
1.193722632146459 1:15.0 3:3.0 5:2.0 7:6.0 9:1.0 15:1.0 17:2.0 28:2.0 37:1.0 39:1.0 41:2.0 46:1.0 68:1.0 173:2.0 215:2.0 222:3.0 225:2.0 271:2.0 277:1.0 296:2.0 784:1.0 789:3.0 796:1.0 810:1.0 819:1.0 831:1.0 1600:1.0 1606:2.0 1643:1.0 1644:2.0 1645:1.0 1646:1.0 1647:1.0 1648:1.0 1649:1.0 1650:1.0 
2.593701579151596 1:14.0 5:2.0 7:6.0 15:2.0 39:1.0 173:2.0 379:1.0 383:1.0 668:2.0 672:2.0 1084:2.0 1474:2.0 1651:2.0 1652:1.0 1653:2.0 1654:2.0 1655:2.0 1656:2.0 1657:2.0 1658:2.0 1659:2.0 1660:1.0 1661:2.0 1662:2.0 1663:1.0 1664:2.0 1665:2.0 
1.205004379095156 1:20.0 3:6.0 10:2.0 37:4.0 41:2.0 68:2.0 111:4.0 215:2.0 216:2.0 225:2.0 263:4.0 379:2.0 1710:2.0 1711:2.0 1712:2.0 1713:2.0 1714:2.0 1715:2.0 1716:2.0 1717:2.0 1718:2.0 1719:2.0 1720:2.0 1721:2.0 1722:2.0 1723:2.0 1724:2.0 1725:2.0 1726:2.0 1727:2.0 1728:2.0 1729:2.0 1730:2.0 1731:2.0 1732:2.0 1733:2.0 1734:2.0 1735:2.0 
10.0 1:7.0 2:1.0 3:4.0 7:3.0 36:1.0 37:1.0 41:1.0 63:1.0 68:1.0 84:1.0 85:1.0 132:1.0 133:1.0 134:1.0 137:1.0 145:1.0 178:1.0 179:1.0 191:1.0 192:1.0 222:1.0 348:1.0 351:1.0 366:1.0 367:1.0 691:1.0 737:1.0 1466:1.0 1471:1.0 1736:1.0 1737:1.0 1738:1.0 1739:1.0 1740:1.0 1741:1.0 1742:1.0 1743:1.0 1744:1.0 1745:1.0 1746:1.0 1747:1.0 
10.0 1:18.0 2:2.0 7:14.0 17:6.0 30:2.0 36:4.0 44:8.0 176:2.0 190:4.0 210:4.0 261:4.0 322:2.0 335:4.0 338:4.0 1748:2.0 
6.9461640614205935 1:10.0 2:1.0 3:1.0 4:1.0 5:1.0 7:2.0 10:1.0 15:1.0 70:1.0 111:2.0 114:1.0 263:2.0 390:1.0 402:1.0 1281:1.0 1722:1.0 1749:1.0 1750:1.0 1751:1.0 1752:1.0 1753:1.0 1754:1.0 1755:1.0 1756:1.0 1757:1.0 1758:1.0 1759:1.0 1760:1.0 1761:1.0 1762:1.0 1763:1.0 1764:1.0 1765:1.0 1766:1.0 1767:1.0 1768:1.0 
5.580852618533722 1:5.0 2:1.0 3:2.0 69:4.0 179:2.0 306:2.0 1863:1.0 1864:1.0 1865:1.0 1866:1.0 1867:2.0 1868:2.0 1869:1.0 1870:1.0 1871:2.0 1872:2.0 1873:2.0 
8.474616708928963 1:11.0 2:4.0 6:2.0 7:5.0 17:2.0 114:1.0 141:1.0 142:2.0 149:1.0 151:1.0 166:1.0 168:1.0 323:1.0 337:1.0 390:1.0 391:1.0 392:1.0 399:1.0 400:1.0 402:1.0 403:1.0 417:1.0 418:1.0 710:1.0 712:1.0 715:1.0 744:1.0 781:1.0 1915:1.0 1916:1.0 1917:1.0 1918:1.0 1919:1.0 1920:1.0 1921:1.0 1922:1.0 1923:1.0 1924:1.0 1925:1.0 1926:1.0 
3.930527014719047 1:14.0 2:1.0 3:5.0 7:9.0 9:1.0 17:3.0 19:2.0 30:1.0 36:1.0 39:1.0 44:2.0 112:1.0 145:1.0 178:1.0 179:1.0 191:1.0 192:1.0 231:1.0 350:1.0 351:1.0 362:2.0 364:1.0 365:1.0 366:1.0 367:1.0 1242:1.0 1244:2.0 2099:1.0 2100:1.0 2101:1.0 2102:1.0 2103:1.0 2104:2.0 2105:1.0 2106:1.0 2107:1.0 2108:1.0 2109:1.0 2110:1.0 2111:1.0 2112:2.0 2113:1.0 2114:1.0 2115:1.0 2116:2.0 2117:1.0 2118:1.0 2119:2.0 2120:1.0 
10.0 1:3.0 3:2.0 39:2.0 57:1.0 65:2.0 132:1.0 2078:1.0 2082:2.0 2138:1.0 2139:1.0 2140:2.0 2141:2.0 2142:2.0 2143:1.0 2144:2.0 2145:1.0 2146:2.0 
1.5685600201961145 1:17.0 2:2.0 3:3.0 4:3.0 6:2.0 10:1.0 11:1.0 22:1.0 37:2.0 39:1.0 41:2.0 69:4.0 111:1.0 141:1.0 142:1.0 215:2.0 216:1.0 221:1.0 224:1.0 225:2.0 241:1.0 305:1.0 306:2.0 519:1.0 521:1.0 523:1.0 526:1.0 528:1.0 531:1.0 534:1.0 537:1.0 539:1.0 543:1.0 544:1.0 547:1.0 550:1.0 716:1.0 1145:1.0 1617:1.0 1620:1.0 1629:1.0 1638:1.0 2237:1.0 2367:1.0 2368:1.0 2369:1.0 2370:1.0 2371:1.0 2372:1.0 2373:1.0 2374:1.0 2375:1.0 2376:1.0 2377:1.0 2378:1.0 2379:1.0 2380:1.0 2381:1.0 
10.0 1:4.0 3:1.0 39:1.0 41:1.0 111:2.0 551:1.0 555:1.0 2382:2.0 2383:1.0 2384:1.0 2385:1.0 2386:1.0 2387:1.0 2388:1.0 2389:1.0 
5.2439847205875045 1:25.0 2:4.0 3:8.0 4:3.0 5:2.0 6:2.0 7:4.0 9:3.0 10:3.0 11:3.0 15:1.0 19:1.0 21:2.0 22:3.0 35:2.0 36:1.0 37:2.0 39:1.0 41:3.0 46:1.0 63:1.0 68:2.0 84:1.0 85:1.0 215:2.0 216:1.0 222:1.0 225:2.0 277:1.0 392:2.0 425:1.0 521:1.0 528:1.0 550:1.0 1508:1.0 1614:1.0 1617:1.0 2233:1.0 2390:1.0 2391:1.0 2392:1.0 2393:1.0 2394:1.0 2395:1.0 2396:1.0 2397:1.0 2398:1.0 2399:1.0 2400:1.0 2401:1.0 2402:1.0 2403:1.0 2404:1.0 2405:1.0 2406:1.0 2407:1.0 2408:1.0 2409:1.0 2410:1.0 2411:1.0 2412:1.0 2413:1.0 2414:1.0 2415:1.0 2416:1.0 2417:1.0 2418:1.0 2419:1.0 2420:1.0 2421:1.0 2422:1.0 2423:1.0 2424:1.0 2425:1.0 2426:1.0 2427:1.0 2428:1.0 2429:1.0 2430:1.0 2431:1.0 2432:1.0 2433:1.0 2434:1.0 2435:1.0 2436:1.0 2437:1.0 2438:1.0 2439:1.0 2440:1.0 2441:1.0 
2.530523211137705 1:16.0 2:1.0 3:3.0 7:9.0 17:3.0 30:1.0 36:1.0 39:2.0 41:2.0 44:2.0 57:1.0 63:1.0 67:1.0 85:1.0 89:1.0 419:2.0 420:1.0 886:1.0 1254:1.0 1354:1.0 1545:4.0 1809:1.0 2301:2.0 2624:1.0 2625:1.0 2626:1.0 2627:1.0 2628:1.0 2629:1.0 2630:2.0 2631:1.0 2632:1.0 2633:2.0 2634:1.0 2635:1.0 2636:2.0 2637:1.0 2638:1.0 2639:1.0 2640:2.0 2641:1.0 2642:1.0 2643:1.0 2644:2.0 
4.94753548774426 1:15.0 3:3.0 39:3.0 41:2.0 68:1.0 69:2.0 111:2.0 264:1.0 379:2.0 383:1.0 470:2.0 486:1.0 491:1.0 493:2.0 551:2.0 555:2.0 2215:1.0 2228:2.0 2645:1.0 2646:1.0 2647:1.0 2648:1.0 2649:1.0 2650:1.0 2651:1.0 2652:2.0 2653:2.0 2654:1.0 2655:1.0 2656:1.0 2657:1.0 2658:1.0 2659:1.0 2660:1.0 2661:1.0 2662:1.0 2663:1.0 2664:1.0 2665:1.0 2666:2.0 2667:2.0 
10.0 1:10.0 7:7.0 17:3.0 132:1.0 133:1.0 134:1.0 137:1.0 141:2.0 149:3.0 166:2.0 348:1.0 436:1.0 448:2.0 1045:1.0 1046:1.0 1047:1.0 1048:1.0 1050:1.0 1053:1.0 2672:1.0 2673:1.0 2674:1.0 
10.0 1:21.0 5:2.0 7:12.0 15:2.0 17:4.0 28:2.0 37:1.0 69:1.0 141:4.0 149:5.0 166:2.0 173:1.0 222:1.0 434:1.0 436:2.0 445:1.0 448:1.0 1084:1.0 1085:1.0 1086:1.0 1087:1.0 1088:1.0 1089:1.0 1091:1.0 1225:2.0 1228:1.0 1336:1.0 1528:1.0 2130:1.0 2675:1.0 2676:1.0 2677:1.0 2678:1.0 2679:1.0 2680:1.0 2681:1.0 2682:1.0 
4.519724711046454 1:18.0 2:2.0 3:3.0 7:9.0 9:3.0 10:2.0 11:2.0 17:2.0 19:3.0 20:1.0 21:2.0 22:2.0 34:1.0 35:2.0 36:2.0 68:1.0 141:2.0 149:3.0 166:2.0 277:1.0 368:1.0 369:1.0 377:1.0 436:1.0 448:1.0 688:2.0 692:2.0 1342:1.0 1387:1.0 1391:1.0 1431:1.0 1448:1.0 2123:1.0 2281:1.0 2723:1.0 2724:1.0 2725:1.0 2726:1.0 2727:1.0 2728:1.0 2729:1.0 2730:1.0 2731:1.0 2732:1.0 2733:1.0 2734:1.0 2735:1.0 
10.0 1:3.0 3:4.0 11:3.0 1242:1.0 1244:3.0 2101:1.0 2327:1.0 2328:2.0 2330:1.0 2334:1.0 2759:3.0 2760:3.0 2761:3.0 2762:3.0 
10.0 1:2.0 2:1.0 132:2.0 134:2.0 2147:1.0 2148:1.0 2151:1.0 2801:1.0 2802:2.0 2803:2.0 2804:2.0 2805:2.0 2806:1.0 
10.0 1:8.0 3:3.0 7:4.0 9:1.0 10:1.0 11:1.0 17:2.0 19:1.0 22:1.0 28:1.0 37:1.0 41:1.0 63:1.0 68:1.0 85:1.0 222:1.0 272:1.0 277:1.0 297:1.0 612:1.0 620:1.0 738:1.0 742:1.0 743:1.0 1393:1.0 2701:1.0 2704:1.0 2928:1.0 2929:1.0 2930:1.0 2931:1.0 
2.209148278198996 1:20.0 3:2.0 5:3.0 7:9.0 17:3.0 41:2.0 111:1.0 141:2.0 149:2.0 166:2.0 173:2.0 215:2.0 222:2.0 225:2.0 436:2.0 448:2.0 470:1.0 789:1.0 1084:1.0 1089:1.0 1606:1.0 2125:1.0 2137:1.0 2922:2.0 2933:1.0 2954:1.0 2955:1.0 2956:1.0 2957:1.0 2958:2.0 2959:1.0 2960:1.0 2961:1.0 2962:1.0 2963:1.0 2964:1.0 2965:1.0 2966:1.0 2967:1.0 2968:1.0 2969:1.0 2970:1.0 2971:1.0 2972:1.0 
0.14177497819635668 1:12.0 3:4.0 39:3.0 112:3.0 172:6.0 181:6.0 1242:1.0 1244:3.0 2101:1.0 2327:1.0 2328:1.0 2329:3.0 2330:1.0 2332:1.0 2334:1.0 2973:6.0 2974:3.0 2975:3.0 2976:3.0 2977:6.0 2978:3.0 2979:3.0 2980:3.0 2981:3.0 2982:3.0 2983:3.0 2984:3.0 2985:3.0 
10.0 1:13.0 2:4.0 5:1.0 6:2.0 7:6.0 15:2.0 17:3.0 28:2.0 30:1.0 37:1.0 70:1.0 114:1.0 142:1.0 390:1.0 391:1.0 392:1.0 399:1.0 400:1.0 402:1.0 403:1.0 417:1.0 418:1.0 710:1.0 712:1.0 715:1.0 1029:1.0 1844:1.0 1915:1.0 1921:1.0 1923:1.0 1925:1.0 2017:1.0 2669:2.0 3051:1.0 3052:1.0 3053:1.0 3054:1.0 3055:1.0 3056:1.0 3057:1.0 3058:1.0 3059:1.0 
5.266366462918019 1:3.0 3:1.0 41:1.0 113:1.0 172:1.0 181:1.0 451:1.0 455:1.0 456:1.0 551:1.0 555:1.0 3081:2.0 3082:2.0 3083:1.0 3084:1.0 3085:1.0 
9.027521141905483 1:15.0 3:1.0 5:2.0 7:5.0 15:1.0 37:3.0 39:2.0 41:1.0 46:1.0 113:1.0 222:3.0 470:1.0 474:1.0 475:1.0 551:1.0 554:1.0 555:1.0 562:1.0 792:1.0 1792:1.0 3247:2.0 3248:1.0 3249:1.0 3250:1.0 3251:1.0 3252:1.0 3253:1.0 3254:1.0 3255:1.0 3256:1.0 3257:1.0 3258:1.0 3259:1.0 3260:1.0 3261:1.0 3262:1.0 3263:1.0 3264:1.0 3265:1.0 
1.9052412626946413 1:21.0 2:1.0 5:3.0 7:13.0 15:4.0 17:7.0 28:6.0 30:1.0 59:2.0 61:1.0 62:1.0 173:2.0 222:2.0 1089:2.0 2763:2.0 2768:2.0 2933:2.0 3429:2.0 3430:1.0 3431:1.0 3432:1.0 3433:2.0 3434:1.0 3435:2.0 3436:1.0 3437:2.0 3438:1.0 3439:2.0 
6.197607319958398 1:19.0 2:3.0 3:1.0 5:1.0 7:4.0 10:1.0 15:2.0 36:1.0 39:1.0 44:2.0 62:1.0 111:4.0 114:2.0 122:2.0 216:2.0 470:2.0 510:1.0 511:1.0 512:1.0 513:2.0 514:1.0 516:2.0 842:1.0 843:1.0 845:1.0 846:2.0 1720:1.0 2147:2.0 2148:2.0 2151:2.0 3416:2.0 3423:2.0 3462:1.0 3463:2.0 3464:1.0 3465:1.0 3466:1.0 3467:1.0 3468:1.0 3469:1.0 3470:1.0 3471:1.0 3472:1.0 3473:1.0 3474:2.0 3475:1.0 3476:1.0 3477:1.0 3478:1.0 3479:1.0 
10.0 1:9.0 2:1.0 3:4.0 7:4.0 17:1.0 36:1.0 37:1.0 41:1.0 44:1.0 63:1.0 68:1.0 84:1.0 85:1.0 111:2.0 145:1.0 178:1.0 179:1.0 191:1.0 192:1.0 222:1.0 350:1.0 351:1.0 365:1.0 366:1.0 367:1.0 691:1.0 842:1.0 843:1.0 1068:1.0 1517:1.0 1907:1.0 2205:1.0 2815:1.0 3314:1.0 3315:1.0 3317:1.0 3318:1.0 3497:1.0 3498:1.0 3499:1.0 3500:1.0 
10.0 1:1.0 2:2.0 3:2.0 41:1.0 179:1.0 392:1.0 1860:1.0 1861:1.0 1862:1.0 3515:1.0 3516:2.0 3517:2.0 3518:1.0 3519:1.0 3520:1.0 3521:1.0 
8.553028233284039 1:3.0 3:1.0 10:1.0 112:1.0 263:1.0 668:1.0 672:1.0 1703:1.0 1704:1.0 3522:1.0 3523:2.0 3524:1.0 3525:1.0 3526:1.0 3527:1.0 3528:1.0 3529:1.0 
10.0 1:15.0 2:1.0 3:1.0 5:2.0 7:10.0 15:4.0 17:6.0 28:4.0 30:2.0 41:1.0 61:1.0 67:1.0 89:1.0 132:1.0 134:1.0 176:1.0 964:1.0 2167:1.0 2171:1.0 3432:1.0 3439:2.0 3530:1.0 3531:1.0 3532:1.0 3533:1.0 3534:1.0 3535:1.0 3536:2.0 3537:1.0 3538:1.0 3539:1.0 3540:1.0 3541:1.0 3542:1.0 
10.0 1:9.0 2:1.0 3:2.0 39:4.0 68:1.0 69:2.0 179:1.0 263:1.0 589:2.0 597:4.0 799:1.0 1254:1.0 1255:1.0 3543:2.0 3544:1.0 3545:2.0 3546:1.0 3547:2.0 3548:1.0 3549:2.0 3550:4.0 3551:1.0 3552:1.0 3553:1.0 
10.0 1:14.0 2:1.0 3:1.0 7:9.0 17:3.0 30:1.0 36:1.0 39:1.0 41:1.0 44:2.0 57:1.0 67:1.0 89:1.0 176:1.0 187:1.0 190:1.0 419:2.0 420:1.0 886:1.0 1545:4.0 1808:1.0 1809:1.0 1819:1.0 1820:1.0 1821:1.0 1822:1.0 1823:1.0 2301:2.0 2344:2.0 2630:2.0 2636:2.0 2640:2.0 2643:1.0 2644:2.0 
3.8924695532403812 1:12.0 2:3.0 3:5.0 7:7.0 9:1.0 17:2.0 19:1.0 36:4.0 44:3.0 68:1.0 145:2.0 176:1.0 178:2.0 179:2.0 191:2.0 192:2.0 261:1.0 277:1.0 322:1.0 350:1.0 351:2.0 365:1.0 366:2.0 367:2.0 369:1.0 373:1.0 377:1.0 693:1.0 1379:1.0 1393:1.0 2062:1.0 2913:1.0 2946:1.0 2950:1.0 3554:1.0 3555:1.0 3556:1.0 3557:1.0 3558:1.0 3559:1.0 3560:1.0 3561:1.0 3562:1.0 
4.837623746745923 1:15.0 2:1.0 3:2.0 5:2.0 7:9.0 15:4.0 17:3.0 28:2.0 30:1.0 36:1.0 39:1.0 41:1.0 44:2.0 67:1.0 69:1.0 89:1.0 179:1.0 308:1.0 1029:2.0 1030:2.0 1254:1.0 1255:1.0 1257:1.0 1262:1.0 1308:2.0 2625:1.0 2669:2.0 3563:1.0 3564:1.0 3565:2.0 3566:1.0 3567:1.0 3568:1.0 3569:1.0 3570:1.0 3571:1.0 
10.0 1:6.0 3:4.0 10:1.0 41:1.0 68:2.0 111:1.0 112:1.0 157:1.0 215:1.0 216:2.0 224:1.0 225:1.0 1721:1.0 1786:1.0 3572:1.0 3573:1.0 3574:1.0 3575:1.0 3576:1.0 3577:1.0 3578:1.0 3579:1.0 3580:1.0 3581:1.0 3582:1.0 3583:1.0 3584:1.0 3585:1.0 3586:1.0 3587:1.0 
10.0 1:2.0 2:1.0 61:2.0 176:1.0 3619:4.0 3620:2.0 
7.9831248679931175 1:33.0 3:2.0 10:1.0 39:3.0 41:1.0 63:1.0 69:17.0 85:1.0 111:4.0 112:1.0 113:1.0 116:1.0 306:14.0 307:1.0 308:1.0 313:12.0 314:1.0 315:1.0 316:1.0 379:1.0 381:1.0 388:1.0 470:5.0 474:2.0 475:1.0 990:1.0 993:1.0 1131:1.0 1405:1.0 2651:1.0 3646:2.0 3647:1.0 3648:2.0 3649:1.0 3650:1.0 3651:1.0 3652:1.0 3653:1.0 3654:1.0 3655:1.0 3656:1.0 3657:1.0 3658:1.0 3659:1.0 3660:1.0 3661:1.0 3662:1.0 3663:1.0 3664:1.0 3665:1.0 3666:1.0 3667:1.0 3668:1.0 3669:1.0 3670:1.0 
3.8387973445406685 1:17.0 2:5.0 3:3.0 4:1.0 5:1.0 6:1.0 7:8.0 15:2.0 17:2.0 36:1.0 37:1.0 41:2.0 63:1.0 67:1.0 68:1.0 84:1.0 85:1.0 89:1.0 141:1.0 142:1.0 149:1.0 151:1.0 166:1.0 168:1.0 222:2.0 321:1.0 323:1.0 334:1.0 337:1.0 688:1.0 737:1.0 741:2.0 1737:1.0 1745:1.0 1746:1.0 1747:1.0 3020:1.0 3021:1.0 3671:1.0 3672:1.0 3673:1.0 3674:1.0 3675:1.0 3676:1.0 3677:1.0 3678:1.0 3679:1.0 3680:1.0 3681:1.0 3682:1.0 3683:1.0 3684:1.0 3685:1.0 3686:1.0 3687:1.0 3688:1.0 3689:1.0 3690:1.0 3691:1.0 3692:1.0 3693:1.0 3694:1.0 3695:1.0 3696:2.0 3697:1.0 
10.0 1:5.0 2:1.0 6:1.0 7:3.0 17:1.0 70:1.0 132:1.0 134:1.0 530:1.0 1281:1.0 2251:1.0 2259:1.0 3603:1.0 3736:1.0 3737:1.0 3738:1.0 3739:1.0 3740:1.0 3741:1.0 3742:1.0 3743:1.0 3744:1.0 
4.632115530701888 1:9.0 2:1.0 6:1.0 7:5.0 70:1.0 141:1.0 142:1.0 149:2.0 323:1.0 397:1.0 530:1.0 668:1.0 672:1.0 744:1.0 1281:1.0 1402:1.0 1403:1.0 1404:1.0 1651:1.0 1654:1.0 1655:1.0 1656:1.0 1665:1.0 3745:1.0 3746:1.0 3747:1.0 3748:1.0 3749:1.0 3750:1.0 3751:1.0 3752:1.0 
10.0 1:5.0 2:1.0 3:2.0 59:1.0 69:4.0 145:1.0 178:1.0 179:1.0 191:1.0 192:1.0 306:2.0 1129:2.0 3789:1.0 3790:1.0 3791:1.0 3792:1.0 3793:2.0 3794:1.0 3795:1.0 3796:2.0 
1.6140552725869928 1:13.0 2:3.0 3:4.0 7:5.0 17:3.0 30:1.0 36:1.0 39:1.0 41:1.0 44:2.0 57:1.0 62:1.0 65:2.0 67:1.0 89:1.0 114:2.0 122:1.0 251:2.0 252:1.0 255:1.0 258:2.0 261:2.0 1423:1.0 1424:1.0 1426:2.0 1427:1.0 1614:2.0 3181:1.0 3822:1.0 3823:1.0 3824:1.0 3825:1.0 3826:1.0 3827:1.0 3828:1.0 3829:1.0 3830:1.0 3831:1.0 3832:1.0 3833:1.0 3834:1.0 3835:1.0 3836:1.0 3837:1.0 3838:1.0 3839:1.0 3840:1.0 3841:1.0 3842:1.0 3843:1.0 3844:2.0 3845:1.0 
0.7818333575698326 1:7.0 2:2.0 7:3.0 36:1.0 44:1.0 57:1.0 132:1.0 134:1.0 141:1.0 392:1.0 425:1.0 746:1.0 754:1.0 1436:1.0 1465:1.0 2249:1.0 2250:1.0 2251:1.0 2252:1.0 2254:1.0 2256:1.0 2257:1.0 2258:1.0 2259:1.0 2264:1.0 2268:1.0 2269:1.0 3892:1.0 3893:1.0 3894:1.0 3895:1.0 3896:1.0 3897:1.0 3898:1.0 3899:1.0 
10.0 1:9.0 2:1.0 3:1.0 6:1.0 7:5.0 9:1.0 17:1.0 19:1.0 68:1.0 70:1.0 141:1.0 142:1.0 149:1.0 151:1.0 277:1.0 323:1.0 337:1.0 397:1.0 530:1.0 1281:1.0 1403:1.0 1404:1.0 1410:1.0 1422:1.0 3749:1.0 3954:1.0 3955:1.0 3956:1.0 3957:1.0 3958:1.0 3959:1.0 3960:1.0 
10.0 1:10.0 2:2.0 5:1.0 6:2.0 7:5.0 13:1.0 17:1.0 70:3.0 529:1.0 530:3.0 1281:1.0 1990:2.0 1991:1.0 2233:1.0 2401:1.0 3603:1.0 4075:1.0 4076:2.0 4077:1.0 4078:1.0 4079:1.0 4080:2.0 4081:1.0 4082:1.0 4083:1.0 4084:1.0 
10.0 1:10.0 3:1.0 39:3.0 41:1.0 69:3.0 215:1.0 225:1.0 379:3.0 383:3.0 494:2.0 1479:1.0 1494:2.0 3096:1.0 3105:1.0 3643:1.0 4085:1.0 4086:1.0 4087:1.0 4088:1.0 4089:1.0 4090:1.0 4091:1.0 4092:1.0 4093:1.0 4094:1.0 
4.039454741537942 1:3.0 3:3.0 39:1.0 57:1.0 65:2.0 112:1.0 231:1.0 319:1.0 1423:1.0 1426:2.0 1542:1.0 1546:2.0 4106:1.0 4107:1.0 4108:1.0 4109:1.0 4110:1.0 4111:1.0 4112:2.0 4113:1.0 
10.0 1:7.0 3:1.0 39:1.0 41:1.0 69:3.0 111:2.0 306:1.0 307:1.0 308:1.0 315:1.0 316:1.0 551:1.0 555:1.0 1094:1.0 1096:1.0 1112:1.0 2382:1.0 2384:1.0 2387:1.0 2389:1.0 4145:1.0 4146:1.0 4147:1.0 
10.0 1:8.0 3:1.0 10:1.0 69:4.0 111:1.0 112:1.0 113:1.0 119:1.0 263:1.0 306:2.0 1096:1.0 1098:1.0 1702:1.0 1703:1.0 1704:1.0 1705:1.0 1706:1.0 1707:1.0 1708:1.0 3154:1.0 3161:1.0 3905:1.0 4053:1.0 4190:1.0 4191:1.0 
10.0 1:8.0 2:2.0 3:1.0 7:4.0 17:1.0 36:2.0 39:1.0 41:1.0 44:2.0 54:1.0 67:1.0 89:1.0 176:1.0 187:1.0 190:1.0 210:1.0 392:1.0 425:1.0 693:1.0 746:1.0 754:1.0 1781:1.0 1808:1.0 1809:1.0 1820:1.0 1821:1.0 1822:1.0 1823:1.0 2232:1.0 4192:1.0 4193:1.0 
0.5347634915514778 1:16.0 2:3.0 3:3.0 4:2.0 6:3.0 7:1.0 10:1.0 11:1.0 22:1.0 37:1.0 39:1.0 41:2.0 70:2.0 111:1.0 141:2.0 142:2.0 215:2.0 216:1.0 221:1.0 224:1.0 225:2.0 241:1.0 323:1.0 324:1.0 519:1.0 521:1.0 522:1.0 523:1.0 525:1.0 526:1.0 527:1.0 528:1.0 529:1.0 530:1.0 531:1.0 534:1.0 536:1.0 537:1.0 539:1.0 542:1.0 543:1.0 544:1.0 545:1.0 546:1.0 547:1.0 548:1.0 549:1.0 550:1.0 1145:1.0 1616:1.0 1617:1.0 1620:1.0 1625:1.0 1629:1.0 1634:1.0 1638:1.0 2367:1.0 2376:1.0 4230:1.0 4231:1.0 
7.142954614857254 1:6.0 2:3.0 3:4.0 39:1.0 41:3.0 67:1.0 89:1.0 114:2.0 176:2.0 1254:1.0 1264:1.0 1269:1.0 1809:1.0 1860:1.0 1862:1.0 2624:1.0 2628:1.0 2638:1.0 2639:1.0 4249:1.0 4250:1.0 4251:1.0 4252:1.0 4253:1.0 4254:1.0 4255:2.0 4256:1.0 4257:1.0 4258:1.0 4259:1.0 4260:1.0 4261:1.0 4262:1.0 4263:1.0 4264:1.0 4265:1.0 4266:1.0 
1.9140262094794498 1:6.0 2:2.0 3:4.0 7:3.0 36:2.0 44:1.0 145:2.0 178:2.0 179:2.0 191:2.0 192:2.0 350:1.0 351:2.0 365:1.0 366:2.0 367:2.0 693:1.0 896:1.0 898:1.0 1379:1.0 4267:1.0 4268:1.0 4269:1.0 4270:1.0 4271:1.0 4272:1.0 4273:1.0 4274:1.0 4275:1.0 4276:1.0 4277:1.0 4278:1.0 
10.0 1:8.0 3:1.0 5:1.0 7:5.0 10:1.0 15:2.0 17:3.0 28:2.0 30:1.0 112:1.0 263:1.0 1703:1.0 1704:1.0 1807:1.0 1815:2.0 4286:1.0 4287:1.0 4288:1.0 4289:1.0 4290:1.0 
4.122711892083061 1:3.0 111:1.0 132:2.0 134:2.0 1211:1.0 1216:1.0 4307:1.0 4308:2.0 4309:1.0 4310:1.0 4311:1.0 4312:1.0 4313:1.0 4314:1.0 4315:1.0 
10.0 1:12.0 2:1.0 5:2.0 7:9.0 15:3.0 17:5.0 28:3.0 30:1.0 36:1.0 44:1.0 261:1.0 392:1.0 425:1.0 1029:1.0 1371:1.0 1375:1.0 2669:2.0 3450:1.0 4204:1.0 4207:1.0 4318:1.0 4319:1.0 4320:1.0 
3.6337879152644805 1:14.0 2:1.0 7:6.0 17:2.0 59:1.0 69:2.0 114:1.0 141:2.0 149:2.0 173:2.0 176:1.0 222:2.0 436:1.0 448:2.0 757:2.0 762:1.0 766:2.0 770:2.0 1685:2.0 2189:1.0 4255:1.0 4343:1.0 4344:1.0 4345:1.0 4346:2.0 4347:2.0 4348:1.0 4349:1.0 4350:1.0 
3.3907592606098413 1:12.0 3:4.0 5:2.0 7:2.0 10:1.0 15:1.0 37:2.0 39:1.0 41:2.0 63:1.0 85:1.0 112:1.0 116:1.0 222:1.0 551:1.0 554:1.0 555:1.0 562:1.0 1056:1.0 1057:2.0 1352:1.0 1354:1.0 1360:1.0 1361:1.0 1370:1.0 3247:1.0 3248:1.0 3256:1.0 3257:1.0 3258:1.0 4300:1.0 4304:1.0 4372:1.0 4373:1.0 4374:1.0 4375:1.0 4376:1.0 4377:1.0 4378:1.0 4379:1.0 4380:1.0 4381:1.0 4382:1.0 4383:1.0 4384:1.0 
2.2838637027592084 1:6.0 2:3.0 3:4.0 6:1.0 8:1.0 61:1.0 68:2.0 70:1.0 112:2.0 145:1.0 157:2.0 178:1.0 179:1.0 191:1.0 192:1.0 390:1.0 711:1.0 1677:1.0 1681:1.0 2885:1.0 2887:1.0 2888:1.0 2891:1.0 2901:1.0 2904:1.0 2906:1.0 2907:1.0 4385:1.0 4386:1.0 4387:1.0 4388:1.0 4389:1.0 4390:1.0 4391:1.0 4392:1.0 4393:1.0 4394:1.0 4395:1.0 4396:1.0 
10.0 1:13.0 2:1.0 3:5.0 7:2.0 9:2.0 10:2.0 36:1.0 37:1.0 39:1.0 41:2.0 61:1.0 62:1.0 63:1.0 68:1.0 84:1.0 85:1.0 215:1.0 225:1.0 276:1.0 368:1.0 470:1.0 593:1.0 641:1.0 642:1.0 661:1.0 1001:1.0 1027:1.0 1028:1.0 1769:1.0 1770:1.0 1787:1.0 1794:1.0 2399:2.0 2771:1.0 4397:1.0 4398:1.0 4399:1.0 4400:1.0 4401:2.0 4402:1.0 4403:1.0 4404:1.0 4405:1.0 4406:1.0 4407:1.0 4408:1.0 4409:1.0 4410:1.0 4411:1.0 4412:1.0 4413:2.0 4414:1.0 4415:1.0 
10.0 1:12.0 2:3.0 3:2.0 41:2.0 61:4.0 62:2.0 67:1.0 69:5.0 89:1.0 176:1.0 306:3.0 589:1.0 654:1.0 965:2.0 1860:1.0 1862:1.0 1934:1.0 1949:1.0 1959:1.0 4434:1.0 4435:1.0 4436:1.0 4437:2.0 4438:1.0 4439:2.0 4440:1.0 4441:1.0 4442:1.0 4443:2.0 4444:1.0 4445:1.0 4446:1.0 4447:2.0 4448:1.0 4449:1.0 4450:1.0 4451:2.0 
10.0 1:8.0 2:2.0 7:5.0 17:3.0 30:1.0 36:1.0 39:1.0 44:2.0 61:1.0 251:1.0 252:1.0 258:2.0 261:2.0 642:1.0 1312:1.0 4453:1.0 4454:1.0 4455:1.0 4456:1.0 4457:1.0 4458:1.0 4459:1.0 4460:1.0 
10.0 1:17.0 2:1.0 3:2.0 5:2.0 7:9.0 15:4.0 17:3.0 28:2.0 30:1.0 36:1.0 39:1.0 41:2.0 44:2.0 67:1.0 89:1.0 111:2.0 176:1.0 187:1.0 190:1.0 215:1.0 221:1.0 225:1.0 241:1.0 842:1.0 843:1.0 845:1.0 846:2.0 1561:1.0 1569:2.0 1808:1.0 1809:1.0 1818:2.0 1819:1.0 1820:1.0 1821:1.0 1822:1.0 1823:1.0 4461:1.0 4462:1.0 4463:1.0 4464:1.0 4465:1.0 
6.652117415652248 1:4.0 2:3.0 3:1.0 6:1.0 70:2.0 114:1.0 145:1.0 390:1.0 391:1.0 401:1.0 402:1.0 1666:1.0 1669:1.0 4498:1.0 4499:1.0 4500:1.0 4501:1.0 4502:1.0 4503:1.0 4504:1.0 4505:1.0 4506:1.0 4507:1.0 4508:1.0 4509:1.0 4510:1.0 
5.705243054662192 1:7.0 2:3.0 3:2.0 7:3.0 17:1.0 36:1.0 44:1.0 70:1.0 72:2.0 141:1.0 142:1.0 145:1.0 149:1.0 178:1.0 179:1.0 191:1.0 192:1.0 351:1.0 366:1.0 367:1.0 2270:1.0 4511:1.0 4512:1.0 4513:1.0 4514:1.0 4515:1.0 4516:1.0 4517:1.0 4518:1.0 4519:1.0 4520:1.0 4521:1.0 4522:1.0 4523:1.0 4524:1.0 4525:1.0 
0.71952825617979 1:14.0 2:2.0 7:8.0 17:4.0 36:2.0 44:2.0 57:2.0 261:2.0 392:2.0 419:2.0 420:2.0 421:2.0 425:2.0 980:2.0 1304:2.0 1545:2.0 2301:2.0 4545:2.0 4546:2.0 4547:2.0 4548:2.0 4549:2.0 4550:2.0 4551:2.0 4552:2.0 4553:2.0 
10.0 1:3.0 2:2.0 57:1.0 61:2.0 176:2.0 461:2.0 4610:1.0 4611:1.0 4612:1.0 4613:2.0 4614:1.0 4615:1.0 4616:2.0 4617:1.0 4618:2.0 
6.191176911604807 1:10.0 2:1.0 3:1.0 39:4.0 41:1.0 57:1.0 59:2.0 62:1.0 132:2.0 134:2.0 420:1.0 980:1.0 2066:4.0 3106:1.0 3113:1.0 4307:1.0 4311:1.0 4668:1.0 4669:1.0 4670:1.0 4671:2.0 4672:1.0 4673:1.0 4674:1.0 4675:1.0 4676:1.0 4677:1.0 4678:1.0 4679:2.0 4680:1.0 4681:1.0 4682:4.0 4683:1.0 4684:1.0 4685:1.0 4686:1.0 4687:1.0 
10.0 1:16.0 3:3.0 5:2.0 7:9.0 9:1.0 10:2.0 11:1.0 15:4.0 17:3.0 19:2.0 20:1.0 21:1.0 22:1.0 28:2.0 30:1.0 32:2.0 33:1.0 34:1.0 35:1.0 41:1.0 215:1.0 225:1.0 263:2.0 1561:1.0 1569:2.0 1715:1.0 1719:1.0 1722:1.0 1732:1.0 1749:1.0 1807:1.0 1810:1.0 1811:1.0 1812:1.0 1813:1.0 1814:1.0 1816:1.0 4688:2.0 
10.0 1:6.0 2:1.0 3:1.0 10:1.0 39:2.0 61:2.0 176:1.0 263:2.0 462:1.0 1099:2.0 2038:2.0 4704:1.0 4705:2.0 4706:1.0 4707:2.0 4708:2.0 4709:2.0 4710:1.0 
10.0 1:5.0 3:1.0 39:2.0 41:1.0 132:1.0 134:1.0 470:1.0 474:2.0 551:1.0 555:1.0 3106:1.0 3113:1.0 4711:2.0 4712:1.0 4713:1.0 4714:1.0 4715:1.0 4716:1.0 4717:2.0 4718:1.0 
10.0 1:8.0 3:1.0 7:5.0 17:3.0 28:2.0 30:1.0 37:1.0 41:1.0 69:1.0 132:1.0 134:1.0 222:2.0 304:1.0 310:2.0 1170:1.0 1173:1.0 1174:1.0 4787:1.0 4788:1.0 4789:1.0 4790:1.0 4791:1.0 4792:1.0 4793:1.0 
10.0 1:21.0 2:1.0 6:1.0 7:13.0 17:4.0 141:6.0 142:2.0 149:6.0 151:2.0 166:4.0 323:2.0 324:1.0 336:1.0 434:2.0 435:1.0 436:2.0 445:2.0 448:2.0 1141:2.0 1336:2.0 1337:2.0 4800:2.0 4801:2.0 4802:2.0 4803:1.0 4804:2.0 
2.8460548725037587 1:12.0 2:3.0 3:6.0 5:2.0 7:7.0 15:2.0 17:2.0 28:1.0 36:3.0 44:2.0 145:3.0 178:3.0 179:3.0 191:3.0 192:3.0 261:1.0 350:1.0 351:3.0 365:1.0 366:3.0 367:3.0 693:1.0 847:1.0 1179:1.0 1371:2.0 1372:2.0 1374:1.0 1376:1.0 1377:1.0 1378:2.0 1379:1.0 4320:1.0 4839:2.0 4840:1.0 
10.0 1:18.0 2:2.0 3:1.0 7:9.0 9:1.0 17:2.0 19:1.0 36:2.0 37:2.0 39:2.0 44:1.0 46:2.0 68:1.0 141:2.0 149:3.0 166:2.0 222:1.0 277:1.0 369:1.0 377:1.0 436:1.0 448:1.0 688:2.0 692:2.0 694:1.0 706:1.0 1039:1.0 1042:1.0 1342:1.0 1381:1.0 2123:1.0 2204:1.0 2281:1.0 2723:1.0 2724:1.0 2725:1.0 2726:1.0 2727:1.0 2728:1.0 2729:1.0 2952:1.0 4861:1.0 4877:1.0 4878:1.0 4879:1.0 4880:1.0 4881:1.0 
10.0 1:6.0 2:3.0 3:7.0 7:2.0 9:1.0 36:3.0 68:1.0 145:3.0 178:3.0 179:3.0 191:3.0 192:3.0 277:1.0 350:1.0 351:3.0 365:1.0 366:3.0 367:3.0 370:2.0 378:2.0 693:2.0 1473:1.0 4882:1.0 4883:2.0 4884:1.0 4885:2.0 4886:1.0 
3.9166978898729012 1:16.0 5:2.0 7:10.0 15:2.0 17:4.0 28:2.0 141:2.0 149:2.0 173:2.0 222:2.0 436:1.0 448:2.0 762:1.0 770:2.0 1084:2.0 1089:2.0 2189:1.0 2191:2.0 2274:2.0 2278:2.0 2279:2.0 3391:1.0 
10.0 1:14.0 3:1.0 5:2.0 7:8.0 15:2.0 17:4.0 28:4.0 41:1.0 69:1.0 173:2.0 215:1.0 222:2.0 225:1.0 271:1.0 296:1.0 789:2.0 1085:2.0 1086:1.0 1091:2.0 1606:2.0 1646:1.0 4905:2.0 4906:2.0 4907:1.0 
5.784962117532868 1:19.0 3:11.0 5:1.0 7:4.0 9:6.0 10:3.0 19:2.0 37:1.0 41:1.0 68:7.0 112:1.0 157:1.0 215:1.0 220:2.0 225:1.0 263:4.0 269:2.0 271:1.0 277:3.0 296:1.0 346:1.0 438:1.0 450:1.0 783:1.0 788:1.0 791:1.0 799:3.0 874:1.0 884:1.0 900:1.0 907:1.0 917:1.0 1788:2.0 1790:1.0 1803:2.0 1804:1.0 1806:1.0 1997:2.0 2012:2.0 2498:1.0 2505:1.0 2539:1.0 2546:1.0 2552:1.0 2553:1.0 2566:1.0 4923:1.0 4924:1.0 4925:1.0 4926:1.0 4927:1.0 4928:1.0 4929:1.0 4930:1.0 4931:1.0 4932:1.0 4933:1.0 4934:1.0 4935:1.0 4936:1.0 4937:1.0 4938:1.0 
1.4108943448615872 1:18.0 3:3.0 7:7.0 9:1.0 19:1.0 37:2.0 68:3.0 111:2.0 141:4.0 149:4.0 222:1.0 263:2.0 277:1.0 434:2.0 436:1.0 437:1.0 438:1.0 446:1.0 447:1.0 449:1.0 450:1.0 799:2.0 842:1.0 1213:1.0 1225:1.0 1227:1.0 1336:1.0 1342:1.0 1753:1.0 1996:1.0 2007:1.0 2011:1.0 4211:1.0 4892:1.0 4893:1.0 4894:1.0 4895:1.0 4896:1.0 4897:1.0 4898:1.0 4899:1.0 4900:1.0 4901:1.0 4902:1.0 4903:1.0 4976:1.0 
7.188907493593569 1:5.0 2:6.0 3:1.0 6:4.0 142:1.0 179:1.0 391:1.0 392:1.0 403:1.0 710:1.0 711:1.0 712:1.0 713:1.0 715:1.0 719:1.0 721:1.0 726:1.0 730:1.0 735:1.0 937:1.0 943:1.0 2495:1.0 2835:1.0 3515:1.0 3518:1.0 3714:1.0 3719:1.0 4991:1.0 4992:1.0 4993:1.0 4994:1.0 4995:1.0 4996:1.0 4997:1.0 4998:1.0 4999:1.0 
9.340374260383882 1:2.0 2:2.0 114:2.0 251:3.0 255:4.0 1312:1.0 4455:2.0 
2.9123358160297768 1:11.0 2:3.0 3:2.0 7:5.0 17:3.0 30:1.0 36:1.0 39:1.0 41:1.0 44:2.0 67:1.0 89:1.0 114:1.0 145:1.0 251:2.0 252:1.0 255:1.0 258:2.0 261:2.0 1614:2.0 1666:1.0 1669:1.0 3181:1.0 3823:1.0 3824:1.0 3825:1.0 3827:1.0 3831:1.0 3832:1.0 3834:1.0 3836:1.0 3838:1.0 3840:1.0 5000:1.0 5001:1.0 5002:1.0 5003:1.0 5004:1.0 5005:1.0 5006:1.0 
1.8668385231315963 1:6.0 2:2.0 3:4.0 7:4.0 17:2.0 36:2.0 44:2.0 145:2.0 178:2.0 179:2.0 191:2.0 192:2.0 261:2.0 351:2.0 366:2.0 367:2.0 2946:2.0 2947:2.0 2950:2.0 5053:2.0 
10.0 1:16.0 3:3.0 7:9.0 17:1.0 57:1.0 65:2.0 141:6.0 149:7.0 419:1.0 436:3.0 448:2.0 1212:2.0 1222:3.0 1225:3.0 1423:1.0 1424:1.0 1425:1.0 1426:2.0 1427:1.0 1428:1.0 1429:1.0 1437:1.0 1438:2.0 1439:1.0 1545:1.0 2670:1.0 2671:1.0 5088:1.0 5089:1.0 5090:1.0 5091:1.0 5092:1.0 5093:1.0 
3.5300415693917344 1:20.0 2:3.0 3:1.0 6:1.0 7:6.0 36:2.0 39:4.0 44:2.0 61:4.0 62:2.0 142:2.0 151:2.0 324:1.0 510:2.0 641:4.0 642:4.0 661:4.0 1055:2.0 1056:1.0 1885:2.0 4188:2.0 4189:4.0 5122:2.0 5123:2.0 5124:2.0 5125:1.0 5126:2.0 5127:2.0 5128:2.0 5129:2.0 5130:2.0 5131:2.0 5132:1.0 5133:1.0 
10.0 1:6.0 2:1.0 3:1.0 10:1.0 39:1.0 61:3.0 62:1.0 112:2.0 118:2.0 120:2.0 640:1.0 641:1.0 642:1.0 660:1.0 661:1.0 932:1.0 4116:1.0 5137:1.0 5138:2.0 5139:2.0 
10.0 1:3.0 3:1.0 68:1.0 69:1.0 112:1.0 155:1.0 157:1.0 171:1.0 172:1.0 181:1.0 1558:1.0 1562:1.0 5146:2.0 5147:1.0 5148:1.0 5149:1.0 5150:1.0 
0.2099147056502037 1:13.0 2:1.0 6:1.0 7:8.0 17:2.0 70:1.0 141:3.0 142:1.0 149:5.0 166:2.0 397:1.0 436:1.0 448:1.0 530:1.0 744:1.0 1141:1.0 1225:1.0 1281:1.0 1394:1.0 1397:1.0 1399:1.0 1400:1.0 1401:1.0 1402:1.0 1403:1.0 1404:1.0 2014:1.0 2015:1.0 2016:1.0 
2.787054630523952 1:12.0 2:3.0 3:1.0 6:2.0 7:6.0 9:1.0 17:2.0 36:1.0 68:1.0 142:4.0 151:2.0 168:2.0 277:1.0 324:2.0 369:1.0 377:1.0 392:1.0 425:1.0 745:1.0 962:4.0 970:2.0 971:2.0 974:2.0 1775:1.0 1780:1.0 1908:1.0 1909:1.0 1910:1.0 1912:1.0 5153:1.0 5154:1.0 5155:1.0 
1.458987976804118 1:13.0 2:3.0 4:2.0 6:2.0 7:2.0 36:1.0 37:1.0 39:3.0 44:1.0 46:1.0 62:1.0 114:2.0 122:2.0 142:2.0 151:1.0 396:1.0 511:1.0 516:2.0 716:2.0 962:1.0 1145:2.0 2096:1.0 2177:1.0 2178:2.0 2179:1.0 2180:1.0 2182:1.0 2183:1.0 2185:1.0 2186:2.0 2188:2.0 4397:1.0 5156:1.0 5157:1.0 5158:1.0 5159:1.0 
6.220795395747358 1:7.0 2:2.0 3:2.0 7:3.0 17:1.0 36:2.0 37:1.0 41:1.0 44:2.0 54:1.0 63:1.0 68:1.0 84:1.0 85:1.0 392:2.0 425:2.0 695:2.0 708:2.0 1737:1.0 1746:1.0 1747:1.0 3450:2.0 5202:1.0 5203:1.0 5204:2.0 5205:1.0 
1.996752242930607 1:7.0 2:1.0 3:5.0 7:2.0 41:1.0 63:1.0 68:1.0 84:1.0 85:1.0 111:2.0 145:1.0 178:1.0 179:1.0 191:1.0 192:1.0 1056:1.0 1068:1.0 1879:1.0 1886:1.0 1888:1.0 1902:1.0 1904:1.0 1905:1.0 3030:1.0 3031:1.0 3033:1.0 3034:1.0 3046:1.0 3047:1.0 3048:1.0 3049:1.0 3050:1.0 3060:1.0 3314:1.0 3315:1.0 3317:1.0 3318:1.0 4815:1.0 5227:1.0 5228:1.0 
0.07913132585856247 1:8.0 2:1.0 3:2.0 7:4.0 17:2.0 36:1.0 44:1.0 57:2.0 132:2.0 134:2.0 145:1.0 178:1.0 179:1.0 191:1.0 192:1.0 261:1.0 351:1.0 366:1.0 367:1.0 419:1.0 668:1.0 672:1.0 1545:1.0 2283:2.0 2285:1.0 2286:1.0 2287:1.0 2288:1.0 2293:2.0 2294:1.0 2295:1.0 2297:1.0 2298:1.0 2299:1.0 2301:1.0 5229:1.0 5230:1.0 5231:1.0 5232:1.0 5233:1.0 5234:1.0 5235:1.0 5236:1.0 5237:1.0 5238:1.0 5239:2.0 
3.526781837156032 1:16.0 2:4.0 3:3.0 5:2.0 6:2.0 7:7.0 10:1.0 11:1.0 15:3.0 22:1.0 41:1.0 142:2.0 151:1.0 176:1.0 179:1.0 391:1.0 395:2.0 668:1.0 672:1.0 962:2.0 1264:1.0 1265:1.0 1266:1.0 1267:1.0 1268:1.0 1269:1.0 1270:1.0 1271:2.0 1272:1.0 1273:1.0 1274:1.0 1275:1.0 1276:1.0 1277:1.0 1651:1.0 1654:2.0 1655:1.0 1656:1.0 1662:2.0 1665:1.0 1863:1.0 5070:1.0 5243:1.0 5244:2.0 5245:1.0 5246:1.0 5247:1.0 5248:1.0 5249:1.0 5250:1.0 5251:1.0 5252:1.0 5253:1.0 5254:2.0 5255:1.0 5256:1.0 5257:1.0 5258:1.0 
0.5066394650404431 1:7.0 2:2.0 3:4.0 7:3.0 36:2.0 37:1.0 41:1.0 44:1.0 63:1.0 68:1.0 84:1.0 85:1.0 145:1.0 178:1.0 179:1.0 191:1.0 192:1.0 222:1.0 350:1.0 351:1.0 365:1.0 366:1.0 367:1.0 392:1.0 425:1.0 693:1.0 695:1.0 708:1.0 847:1.0 1379:1.0 1737:1.0 1746:1.0 1747:1.0 3445:1.0 3446:1.0 3449:1.0 5289:1.0 5290:1.0 5291:1.0 
10.0 1:20.0 3:3.0 5:1.0 7:7.0 10:1.0 17:2.0 37:1.0 39:1.0 68:2.0 69:1.0 141:4.0 149:3.0 166:2.0 173:1.0 222:1.0 263:4.0 308:1.0 435:1.0 436:1.0 448:1.0 799:2.0 1213:1.0 1524:1.0 1535:1.0 1540:1.0 1722:1.0 1749:1.0 1994:1.0 1995:1.0 1996:1.0 1997:1.0 2002:1.0 2003:1.0 2006:1.0 2007:1.0 2008:1.0 2011:1.0 2012:1.0 2934:1.0 5033:1.0 5327:1.0 5328:1.0 5329:1.0 5330:1.0 5331:1.0 5332:1.0 5333:1.0 5334:1.0 5335:1.0 5336:1.0 5337:1.0 5338:1.0 5339:1.0 
10.0 1:9.0 3:1.0 5:1.0 7:5.0 15:2.0 17:3.0 28:2.0 30:1.0 41:1.0 111:1.0 172:1.0 181:1.0 451:1.0 456:1.0 551:1.0 555:1.0 843:1.0 3082:1.0 3085:1.0 3499:2.0 5413:1.0 5414:1.0 5415:1.0 5416:1.0 5417:1.0 5418:1.0 5419:1.0 
2.8255796130097446 1:9.0 2:2.0 3:2.0 7:3.0 36:2.0 37:1.0 38:2.0 39:1.0 40:2.0 41:2.0 42:1.0 44:1.0 45:2.0 46:1.0 47:2.0 48:2.0 52:1.0 55:2.0 56:2.0 222:1.0 693:1.0 694:1.0 706:1.0 5431:1.0 5432:1.0 5433:1.0 5434:1.0 5435:1.0 5436:1.0 5437:1.0 5438:1.0 
10.0 1:14.0 2:3.0 3:3.0 7:2.0 36:2.0 37:2.0 39:2.0 59:2.0 61:1.0 68:1.0 69:2.0 112:1.0 145:1.0 157:1.0 176:2.0 178:1.0 179:1.0 191:1.0 192:1.0 305:1.0 351:1.0 366:1.0 367:1.0 590:1.0 693:1.0 758:1.0 769:1.0 1129:1.0 1381:1.0 1525:1.0 1536:1.0 2066:2.0 2509:1.0 2512:1.0 2807:1.0 3155:1.0 3164:1.0 3165:2.0 5489:1.0 5490:1.0 5491:1.0 5492:1.0 5493:1.0 5494:1.0 5495:1.0 5496:1.0 5497:1.0 5498:1.0 5499:1.0 5500:1.0 5501:1.0 5502:1.0 5503:1.0 5504:1.0 
3.366922281432852 1:14.0 2:3.0 5:1.0 7:9.0 15:2.0 17:3.0 28:2.0 30:1.0 36:1.0 37:1.0 39:1.0 44:2.0 46:1.0 61:1.0 222:2.0 688:1.0 696:1.0 1039:1.0 1040:1.0 1042:1.0 1183:1.0 2952:2.0 3432:1.0 3439:2.0 3671:1.0 3675:1.0 5506:1.0 5507:1.0 5508:1.0 5509:1.0 5510:2.0 5511:1.0 5512:1.0 5513:1.0 5514:1.0 5515:1.0 
10.0 1:12.0 2:1.0 3:2.0 7:7.0 9:1.0 10:1.0 17:3.0 19:1.0 41:1.0 114:1.0 141:2.0 149:3.0 166:2.0 176:1.0 436:1.0 448:2.0 1264:1.0 1267:1.0 1269:1.0 1276:1.0 1408:1.0 1447:1.0 4254:1.0 4255:1.0 4266:1.0 4534:1.0 5262:1.0 5516:1.0 5517:1.0 5518:1.0 5519:1.0 5520:1.0 5521:1.0 5522:1.0 5523:1.0 
10.0 1:5.0 2:1.0 3:2.0 10:1.0 39:1.0 41:1.0 62:1.0 112:1.0 114:2.0 122:2.0 230:1.0 231:1.0 250:1.0 1264:1.0 1269:1.0 1286:1.0 1303:1.0 5263:1.0 5278:1.0 5531:1.0 5532:1.0 5533:1.0 5534:1.0 5535:2.0 
10.0 1:7.0 3:1.0 7:3.0 37:1.0 41:1.0 132:3.0 133:2.0 134:3.0 136:1.0 137:2.0 222:1.0 348:1.0 349:1.0 361:1.0 363:1.0 553:1.0 561:1.0 1170:1.0 1172:1.0 1173:1.0 1174:1.0 1180:1.0 1181:1.0 1310:1.0 5536:1.0 5537:1.0 5538:1.0 5539:1.0 5540:1.0 5541:1.0 
4.288899671748032 1:32.0 3:11.0 5:1.0 7:4.0 9:1.0 10:4.0 15:2.0 19:2.0 39:5.0 41:3.0 63:2.0 68:4.0 69:3.0 85:2.0 111:3.0 112:1.0 115:1.0 126:1.0 157:1.0 215:1.0 225:1.0 263:4.0 264:2.0 277:1.0 281:1.0 379:1.0 438:1.0 450:1.0 470:1.0 474:1.0 486:2.0 491:1.0 493:2.0 783:1.0 791:1.0 793:1.0 799:1.0 842:1.0 843:1.0 845:1.0 900:1.0 907:1.0 917:1.0 1032:2.0 1033:1.0 1068:1.0 1095:2.0 1352:1.0 1354:1.0 1360:1.0 1361:1.0 1997:1.0 2012:1.0 2205:1.0 2206:1.0 2208:2.0 2493:1.0 2498:1.0 2508:1.0 2539:1.0 2553:1.0 2649:1.0 2650:1.0 5547:1.0 5548:1.0 5549:1.0 5550:1.0 5551:1.0 5552:1.0 5553:1.0 5554:2.0 5555:1.0 5556:1.0 5557:1.0 5558:1.0 5559:1.0 5560:1.0 5561:1.0 5562:1.0 5563:1.0 5564:1.0 5565:1.0 5566:1.0 5567:1.0 5568:1.0 5569:1.0 5570:1.0 5571:2.0 5572:2.0 5573:1.0 5574:1.0 5575:1.0 5576:1.0 5577:1.0 5578:1.0 5579:1.0 
10.0 1:2.0 3:3.0 11:1.0 57:1.0 65:2.0 668:3.0 672:3.0 1423:1.0 1426:2.0 1542:1.0 5593:1.0 5594:2.0 5595:1.0 5596:1.0 5597:3.0 5598:1.0 5599:1.0 5600:1.0 5601:2.0 5602:3.0 5603:1.0 
10.0 1:3.0 3:2.0 39:1.0 41:2.0 215:1.0 225:1.0 454:1.0 551:1.0 555:1.0 5613:2.0 5614:2.0 5615:1.0 5616:1.0 5617:1.0 
6.811976990056556 1:19.0 3:2.0 7:10.0 9:1.0 10:1.0 17:3.0 19:1.0 37:1.0 41:1.0 63:1.0 85:1.0 141:6.0 149:5.0 166:2.0 434:2.0 436:2.0 445:1.0 448:2.0 612:1.0 620:1.0 1062:1.0 1223:1.0 1224:1.0 1225:1.0 1521:1.0 2192:1.0 2203:1.0 4534:1.0 4872:1.0 5516:1.0 5521:1.0 5623:1.0 5624:1.0 5625:1.0 5626:1.0 5627:1.0 5628:1.0 5629:1.0 5630:1.0 5631:1.0 5632:1.0 
10.0 1:7.0 7:5.0 17:3.0 28:2.0 30:1.0 37:1.0 132:1.0 134:1.0 222:2.0 1211:1.0 1215:1.0 1216:1.0 1232:1.0 1353:1.0 1359:1.0 1362:1.0 5637:2.0 
2.059328457853935 1:3.0 132:1.0 134:1.0 172:2.0 181:2.0 1558:2.0 1562:2.0 2167:1.0 2170:2.0 2171:1.0 2176:2.0 5660:2.0 5661:2.0 5662:1.0 
3.4370908165741954 1:12.0 2:4.0 6:2.0 7:2.0 36:1.0 37:2.0 39:2.0 46:2.0 70:2.0 142:1.0 222:1.0 392:1.0 425:1.0 710:2.0 1281:1.0 1917:1.0 2177:1.0 2185:1.0 3051:1.0 3273:1.0 3274:1.0 3275:1.0 3276:1.0 3277:1.0 3279:1.0 3281:1.0 3283:1.0 3284:1.0 3288:1.0 3289:1.0 3292:1.0 3293:1.0 5670:1.0 5671:1.0 5672:1.0 5673:1.0 5674:1.0 5675:1.0 5676:1.0 5677:1.0 5678:1.0 5679:1.0 5680:1.0 
6.830367173312329 1:16.0 2:2.0 3:2.0 5:2.0 7:8.0 15:2.0 17:4.0 28:2.0 36:2.0 41:2.0 44:2.0 176:2.0 215:2.0 225:2.0 261:2.0 276:2.0 300:2.0 924:2.0 1614:2.0 1615:2.0 1632:2.0 5681:2.0 5682:2.0 5683:2.0 5684:2.0 5685:2.0 5686:2.0 5687:2.0 5688:2.0 
2.127250259708744 1:20.0 3:2.0 7:10.0 17:4.0 37:2.0 68:2.0 112:2.0 141:6.0 149:6.0 157:2.0 166:4.0 434:1.0 436:1.0 445:1.0 448:1.0 1213:1.0 1225:1.0 1227:1.0 1336:1.0 1523:2.0 1524:2.0 1525:2.0 1527:1.0 1528:1.0 1530:1.0 1533:2.0 1534:2.0 1535:2.0 1536:2.0 5698:1.0 5699:1.0 5700:1.0 
2.1664280851431457 1:20.0 2:1.0 5:2.0 7:8.0 15:2.0 17:4.0 28:4.0 59:3.0 62:1.0 69:5.0 173:2.0 222:2.0 306:3.0 654:1.0 1089:2.0 1129:2.0 2763:2.0 2768:2.0 2933:2.0 3429:2.0 3435:2.0 3437:2.0 5725:1.0 5726:1.0 5727:2.0 5728:1.0 5729:1.0 5730:2.0 5731:2.0 
10.0 1:7.0 2:1.0 3:1.0 7:4.0 9:1.0 10:1.0 11:1.0 17:2.0 19:1.0 21:1.0 22:1.0 35:1.0 36:1.0 44:1.0 261:1.0 392:1.0 425:1.0 1387:1.0 1390:1.0 1391:1.0 1393:1.0 1775:1.0 1776:1.0 1780:1.0 5746:1.0 5747:1.0 
1.2871590949843936 1:16.0 2:2.0 6:1.0 7:3.0 17:1.0 59:1.0 61:1.0 62:1.0 69:2.0 70:1.0 114:1.0 122:1.0 141:1.0 142:1.0 148:1.0 151:1.0 172:1.0 173:2.0 181:1.0 222:1.0 323:1.0 337:1.0 379:2.0 397:1.0 975:1.0 1558:1.0 1562:1.0 1685:1.0 2017:1.0 2021:1.0 2023:1.0 3369:1.0 3816:1.0 3992:1.0 4031:1.0 4470:1.0 4471:1.0 4475:1.0 4485:1.0 4486:1.0 5750:1.0 5751:1.0 5752:1.0 5753:1.0 5754:1.0 5755:1.0 5756:1.0 5757:1.0 5758:1.0 5759:1.0 5760:1.0 5761:1.0 5762:1.0 5763:1.0 5764:1.0 
4.522497111929997 1:20.0 2:2.0 3:1.0 5:1.0 7:6.0 15:1.0 17:2.0 28:1.0 36:1.0 37:2.0 39:3.0 41:1.0 44:1.0 46:1.0 57:1.0 61:4.0 62:1.0 176:1.0 215:1.0 222:1.0 225:1.0 271:1.0 296:1.0 419:2.0 420:1.0 461:1.0 590:1.0 640:1.0 641:2.0 642:2.0 660:2.0 661:2.0 886:1.0 965:1.0 1545:1.0 2301:1.0 2350:1.0 2747:1.0 2758:1.0 5765:1.0 5766:1.0 5767:1.0 5768:1.0 5769:1.0 5770:1.0 5771:1.0 5772:1.0 5773:1.0 5774:1.0 5775:1.0 5776:1.0 5777:1.0 5778:1.0 5779:1.0 5780:1.0 5781:1.0 5782:1.0 5783:1.0 5784:1.0 
10.0 1:5.0 2:1.0 3:2.0 10:1.0 11:1.0 22:1.0 41:1.0 63:1.0 85:1.0 113:1.0 470:1.0 471:1.0 475:1.0 480:1.0 738:1.0 743:1.0 2147:1.0 2148:1.0 2151:1.0 3416:1.0 3422:1.0 3423:1.0 5831:1.0 5832:1.0 5833:1.0 5834:1.0 5835:1.0 
2.139104106448732 1:10.0 2:3.0 3:3.0 7:4.0 11:2.0 17:2.0 28:1.0 36:1.0 41:1.0 44:1.0 57:2.0 67:1.0 89:1.0 173:1.0 222:1.0 251:1.0 261:1.0 688:1.0 1242:1.0 1244:2.0 2308:1.0 2760:2.0 3130:1.0 3671:1.0 3675:1.0 3822:1.0 4866:1.0 5208:1.0 5220:1.0 5259:1.0 5265:1.0 5266:1.0 5268:1.0 5282:1.0 5900:1.0 5901:1.0 5902:1.0 5903:1.0 5904:1.0 5905:2.0 5906:1.0 5907:1.0 5908:1.0 5909:1.0 5910:1.0 5911:1.0 5912:1.0 5913:1.0 5914:1.0 5915:1.0 5916:2.0 5917:2.0 
3.4875495096236757 1:7.0 2:2.0 3:5.0 7:3.0 17:1.0 36:2.0 37:1.0 41:1.0 44:2.0 54:1.0 145:2.0 178:2.0 179:2.0 191:2.0 192:2.0 351:2.0 366:2.0 367:2.0 551:1.0 554:1.0 555:1.0 562:1.0 758:2.0 769:2.0 1179:2.0 5932:1.0 5933:1.0 5934:2.0 5935:1.0 
10.0 1:6.0 2:2.0 3:5.0 7:3.0 9:1.0 17:1.0 19:1.0 36:2.0 44:1.0 68:1.0 145:2.0 178:2.0 179:2.0 191:2.0 192:2.0 277:1.0 351:2.0 366:2.0 367:2.0 369:1.0 377:1.0 2062:1.0 2946:1.0 2950:1.0 3269:1.0 5053:1.0 5939:1.0 5940:1.0 5941:1.0 5942:1.0 5943:1.0 
2.354620688284634 1:14.0 3:3.0 7:7.0 9:3.0 17:2.0 19:1.0 68:3.0 141:4.0 149:3.0 166:2.0 277:3.0 435:1.0 436:1.0 448:1.0 874:1.0 884:1.0 1408:3.0 1447:1.0 5984:1.0 5985:1.0 5986:1.0 5987:1.0 5988:1.0 5989:1.0 5990:1.0 5991:1.0 5992:1.0 5993:1.0 5994:1.0 5995:1.0 5996:1.0 5997:1.0 
6.014394566495268 1:16.0 2:3.0 3:3.0 5:2.0 7:7.0 15:1.0 17:2.0 28:1.0 36:2.0 38:1.0 41:1.0 44:2.0 61:1.0 62:1.0 67:1.0 89:1.0 114:1.0 122:1.0 145:1.0 178:1.0 179:1.0 191:1.0 192:1.0 273:1.0 350:1.0 351:1.0 365:1.0 366:1.0 367:1.0 373:1.0 668:1.0 672:1.0 1651:1.0 1654:1.0 1656:1.0 1863:1.0 2815:1.0 2825:1.0 3607:1.0 3617:1.0 4689:1.0 4722:1.0 4736:1.0 5837:1.0 5839:1.0 5843:1.0 6002:1.0 6006:1.0 6008:1.0 6017:1.0 6018:1.0 6019:1.0 6020:1.0 6021:1.0 6022:1.0 6023:1.0 6024:1.0 6025:1.0 6026:1.0 6027:1.0 6028:1.0 6029:1.0 6030:1.0 
1.0181499793964224 1:37.0 2:4.0 3:10.0 5:1.0 7:18.0 9:2.0 15:1.0 19:3.0 36:4.0 37:4.0 39:3.0 44:4.0 46:3.0 57:3.0 65:6.0 68:1.0 141:2.0 149:1.0 222:3.0 277:1.0 369:1.0 377:1.0 419:3.0 422:1.0 436:1.0 688:4.0 692:4.0 694:2.0 696:1.0 704:1.0 706:2.0 707:1.0 792:1.0 1029:2.0 1039:1.0 1040:1.0 1042:1.0 1308:2.0 1342:1.0 1381:1.0 1385:2.0 1423:3.0 1424:2.0 1425:2.0 1426:6.0 1427:2.0 1428:1.0 1435:1.0 1437:1.0 1438:4.0 1439:2.0 1542:1.0 1543:2.0 1544:1.0 1545:2.0 1549:1.0 1551:2.0 1553:2.0 1554:2.0 2618:2.0 2723:1.0 2727:1.0 2728:1.0 2729:1.0 4861:2.0 4877:2.0 4878:2.0 4879:2.0 4880:2.0 5162:1.0 6031:1.0 6032:1.0 6033:1.0 6034:1.0 6035:1.0 6036:1.0 6037:1.0 6038:1.0 6039:1.0 6040:1.0 6041:2.0 6042:2.0 6043:1.0 6044:1.0 6045:1.0 
10.0 1:8.0 2:1.0 3:5.0 7:3.0 10:1.0 36:1.0 37:1.0 41:2.0 44:1.0 63:2.0 85:2.0 145:1.0 173:1.0 178:1.0 179:1.0 191:1.0 192:1.0 222:1.0 350:1.0 351:1.0 365:1.0 366:1.0 367:1.0 611:1.0 612:2.0 620:2.0 691:1.0 847:1.0 2815:1.0 3734:1.0 5196:1.0 5201:1.0 6046:1.0 6047:1.0 6048:1.0 6049:2.0 6050:1.0 
9.927805774604037 1:5.0 2:3.0 6:1.0 7:3.0 17:1.0 392:2.0 711:2.0 722:2.0 2158:2.0 2166:2.0 3280:2.0 6076:1.0 6077:1.0 6078:2.0 6079:2.0 6080:1.0 
10.0 1:10.0 3:2.0 7:4.0 17:2.0 28:2.0 69:3.0 173:2.0 222:2.0 263:1.0 305:1.0 306:1.0 1085:1.0 1091:1.0 1098:1.0 1994:1.0 2945:1.0 4594:1.0 5439:1.0 6088:1.0 6089:1.0 6090:1.0 6091:1.0 6092:1.0 6093:1.0 6094:1.0 6095:1.0 6096:1.0 6097:1.0 6098:1.0 
8.433010708730228 1:7.0 2:1.0 3:2.0 7:4.0 17:1.0 36:1.0 37:1.0 44:1.0 132:1.0 134:1.0 145:1.0 178:1.0 179:1.0 191:1.0 192:1.0 222:1.0 350:1.0 351:1.0 365:1.0 366:1.0 367:1.0 691:1.0 1211:1.0 1215:1.0 1216:1.0 1232:1.0 1353:1.0 1362:1.0 1517:1.0 1907:1.0 2815:1.0 4293:1.0 5637:1.0 6139:1.0 
10.0 1:2.0 2:1.0 3:2.0 39:1.0 41:1.0 67:1.0 89:1.0 179:1.0 1809:1.0 3515:1.0 3518:1.0 6140:2.0 6141:2.0 6142:1.0 6143:1.0 6144:1.0 
1.8609989078141176 1:18.0 2:2.0 3:2.0 5:1.0 7:7.0 15:1.0 17:3.0 28:1.0 37:1.0 41:2.0 57:1.0 61:2.0 62:1.0 67:1.0 89:1.0 114:2.0 121:1.0 122:2.0 131:2.0 173:1.0 176:1.0 184:1.0 203:1.0 215:1.0 222:2.0 225:1.0 271:1.0 296:1.0 419:2.0 420:1.0 461:1.0 886:1.0 964:1.0 965:1.0 976:1.0 977:1.0 978:1.0 979:1.0 1545:1.0 2301:1.0 2971:1.0 5767:2.0 5768:1.0 5773:1.0 5777:1.0 5778:1.0 5781:2.0 5782:1.0 6145:1.0 6146:1.0 6147:1.0 6148:1.0 6149:1.0 6150:1.0 6151:1.0 6152:1.0 
1.865935493998125 1:11.0 2:1.0 3:2.0 5:1.0 7:4.0 9:1.0 10:1.0 11:1.0 15:2.0 19:2.0 20:1.0 21:1.0 22:1.0 32:2.0 33:1.0 34:1.0 35:1.0 39:1.0 41:1.0 61:1.0 67:1.0 89:1.0 172:1.0 176:1.0 181:1.0 964:1.0 2973:1.0 2977:1.0 2978:1.0 3432:1.0 3533:1.0 3541:1.0 3542:1.0 3602:2.0 6156:1.0 6157:1.0 6158:1.0 6159:1.0 6160:1.0 6161:1.0 6162:1.0 6163:1.0 
4.676540766977946 1:10.0 2:2.0 3:3.0 6:1.0 7:3.0 36:1.0 37:1.0 44:1.0 68:1.0 69:1.0 70:1.0 112:1.0 141:1.0 142:1.0 145:1.0 146:1.0 148:1.0 149:1.0 153:1.0 155:1.0 157:1.0 165:1.0 169:1.0 171:1.0 178:1.0 179:1.0 191:1.0 192:1.0 323:1.0 350:1.0 351:1.0 365:1.0 366:1.0 367:1.0 397:1.0 745:1.0 2017:1.0 2018:1.0 2021:1.0 2023:1.0 2097:1.0 3803:1.0 6178:1.0 6179:1.0 6180:1.0 6181:1.0 
10.0 1:8.0 2:2.0 6:2.0 7:4.0 17:2.0 70:2.0 142:2.0 151:2.0 168:2.0 397:2.0 401:2.0 415:2.0 962:2.0 971:2.0 2317:2.0 6195:2.0 
5.367946578309331 1:17.0 3:5.0 7:6.0 9:3.0 10:3.0 11:1.0 17:1.0 19:1.0 21:1.0 22:1.0 35:1.0 37:1.0 41:1.0 63:1.0 68:1.0 84:1.0 85:1.0 141:4.0 149:3.0 434:1.0 445:1.0 593:1.0 1213:1.0 1227:1.0 1408:1.0 1417:1.0 1737:1.0 1746:1.0 1747:1.0 1769:1.0 1770:1.0 2399:1.0 4401:2.0 4413:1.0 4415:1.0 4534:1.0 4872:1.0 5516:1.0 5521:1.0 5623:1.0 6200:1.0 6201:1.0 6202:1.0 6203:1.0 6204:1.0 6205:1.0 6206:1.0 6207:1.0 6208:1.0 6209:1.0 6210:1.0 6211:1.0 6212:1.0 
0.8911959054469877 1:12.0 2:3.0 3:4.0 4:2.0 7:4.0 17:2.0 39:1.0 41:1.0 61:1.0 67:1.0 68:1.0 89:1.0 112:1.0 142:2.0 151:2.0 157:1.0 168:2.0 176:1.0 179:2.0 964:1.0 1145:1.0 1677:1.0 1681:1.0 1932:1.0 1947:1.0 6217:2.0 6218:2.0 6219:2.0 6220:1.0 6221:2.0 6222:1.0 6223:1.0 6224:2.0 6225:1.0 6226:2.0 6227:1.0 6228:1.0 6229:2.0 6230:1.0 6231:1.0 6232:1.0 6233:1.0 6234:1.0 6235:1.0 
10.0 1:10.0 3:2.0 39:3.0 41:2.0 111:3.0 215:2.0 225:2.0 470:1.0 486:1.0 493:3.0 2957:1.0 4461:2.0 5952:1.0 5975:1.0 5977:1.0 6246:1.0 6247:1.0 6248:1.0 6249:1.0 6250:1.0 6251:3.0 6252:1.0 6253:1.0 6254:1.0 6255:1.0 6256:1.0 
10.0 1:9.0 3:1.0 5:1.0 7:5.0 10:1.0 15:2.0 17:3.0 28:2.0 30:1.0 39:1.0 112:1.0 264:1.0 279:1.0 280:1.0 281:1.0 632:1.0 648:2.0 6268:1.0 6269:1.0 6270:1.0 6271:1.0 6272:1.0 6273:1.0 
3.72682083859016 1:16.0 5:2.0 7:6.0 15:1.0 17:2.0 28:2.0 37:2.0 39:3.0 46:2.0 173:2.0 222:1.0 379:1.0 383:1.0 792:1.0 1084:2.0 1089:1.0 1121:2.0 1125:2.0 1381:1.0 1474:2.0 1652:1.0 1657:1.0 1660:1.0 1663:1.0 4890:1.0 4891:1.0 6292:1.0 6293:1.0 6294:1.0 6295:1.0 6296:2.0 
1.8611920229541294 1:18.0 3:1.0 7:9.0 17:1.0 37:1.0 39:1.0 68:1.0 141:6.0 149:6.0 263:1.0 436:4.0 448:2.0 799:1.0 1099:1.0 1212:2.0 1222:2.0 1225:4.0 1807:1.0 2670:2.0 2671:1.0 2921:2.0 4543:2.0 6297:1.0 6298:2.0 6299:1.0 6300:1.0 6301:1.0 6302:1.0 
10.0 1:6.0 2:1.0 3:2.0 7:4.0 9:1.0 19:2.0 36:1.0 44:2.0 68:1.0 145:1.0 277:1.0 438:1.0 450:1.0 1033:1.0 1666:1.0 1667:1.0 1668:1.0 1669:1.0 1675:1.0 1676:1.0 2919:2.0 4316:1.0 4317:2.0 
4.324719076737291 1:7.0 2:2.0 7:3.0 36:1.0 44:1.0 57:1.0 70:1.0 141:1.0 392:1.0 425:1.0 746:1.0 754:1.0 1436:1.0 1465:1.0 2249:1.0 2250:1.0 2252:1.0 2256:1.0 3892:1.0 3893:1.0 3897:1.0 3899:1.0 6331:1.0 6332:1.0 6333:1.0 6334:1.0 6335:1.0 6336:1.0 6337:1.0 6338:1.0 6339:1.0 
10.0 1:6.0 2:2.0 3:1.0 41:1.0 111:4.0 215:1.0 225:1.0 1863:1.0 4148:1.0 4149:1.0 4156:1.0 4461:2.0 5952:1.0 5977:1.0 6344:1.0 6345:2.0 6346:1.0 6347:1.0 6348:2.0 6349:1.0 6350:2.0 6351:1.0 6352:1.0 
6.004995609369801 1:16.0 2:1.0 3:2.0 5:1.0 7:9.0 15:1.0 17:5.0 28:2.0 30:1.0 36:1.0 41:2.0 44:2.0 111:1.0 173:1.0 176:1.0 190:1.0 210:2.0 215:2.0 221:1.0 222:1.0 225:2.0 241:1.0 261:2.0 789:2.0 1606:2.0 1614:1.0 1615:1.0 1621:1.0 1632:1.0 5682:1.0 6357:1.0 6358:1.0 6359:1.0 6360:1.0 6361:1.0 6362:1.0 6363:1.0 6364:1.0 6365:1.0 
0.2786599252873802 1:4.0 3:3.0 41:2.0 63:1.0 68:1.0 84:1.0 85:1.0 172:2.0 181:2.0 451:2.0 456:2.0 551:1.0 555:1.0 3082:1.0 3085:1.0 5141:1.0 5144:1.0 5145:1.0 6393:1.0 6394:1.0 6395:1.0 6396:1.0 6397:1.0 6398:1.0 6399:1.0 6400:1.0 
1.8612192607645388 1:22.0 7:14.0 17:4.0 141:8.0 149:10.0 166:4.0 434:4.0 436:3.0 445:2.0 448:2.0 1212:1.0 1222:1.0 1223:1.0 1224:2.0 1225:4.0 1336:2.0 4654:1.0 6454:1.0 6455:1.0 6456:1.0 
1.9230121446466737 1:9.0 2:3.0 3:5.0 39:1.0 41:3.0 59:1.0 61:2.0 62:1.0 63:1.0 67:2.0 68:1.0 69:2.0 84:1.0 85:1.0 89:2.0 144:1.0 145:1.0 156:1.0 251:1.0 254:1.0 262:1.0 1129:1.0 1282:1.0 1344:1.0 1809:1.0 2084:1.0 2093:1.0 2094:1.0 5466:1.0 5467:1.0 5473:1.0 5474:1.0 5477:1.0 6479:1.0 6480:1.0 6481:1.0 6482:1.0 6483:1.0 6484:1.0 6485:1.0 6486:1.0 6487:1.0 6488:1.0 6489:1.0 6490:1.0 6491:1.0 6492:1.0 6493:1.0 
8.014584829914503 1:10.0 3:3.0 5:1.0 7:3.0 9:2.0 10:2.0 11:1.0 15:1.0 19:1.0 21:1.0 22:1.0 35:1.0 68:1.0 69:1.0 112:1.0 263:1.0 270:1.0 277:1.0 872:1.0 873:1.0 874:1.0 880:1.0 882:1.0 884:1.0 1702:1.0 1703:1.0 1704:1.0 1706:1.0 1707:1.0 2399:1.0 2430:1.0 3087:1.0 3089:1.0 3091:1.0 6509:1.0 6510:1.0 6511:1.0 
0.7816514976379763 1:20.0 3:3.0 5:2.0 7:9.0 10:1.0 15:1.0 17:3.0 68:2.0 141:2.0 149:3.0 166:2.0 173:3.0 222:2.0 263:3.0 264:1.0 436:1.0 448:1.0 799:2.0 1089:1.0 1228:1.0 1524:1.0 1535:1.0 1994:1.0 1996:1.0 1997:1.0 2006:1.0 2011:1.0 2012:1.0 2933:1.0 2943:1.0 2945:1.0 2971:1.0 3857:1.0 6518:1.0 6519:1.0 6520:1.0 6521:1.0 6522:1.0 6523:1.0 6524:1.0 6525:1.0 6526:1.0 6527:1.0 6528:1.0 6529:1.0 6530:1.0 6531:1.0 6532:1.0 6533:1.0 
9.776371879803204 1:6.0 3:2.0 68:2.0 111:4.0 263:2.0 799:2.0 1753:2.0 3937:2.0 4894:2.0 4903:2.0 6583:2.0 6584:2.0 6585:2.0 
9.02733005070287 1:2.0 2:2.0 3:1.0 39:1.0 61:1.0 179:1.0 642:1.0 688:1.0 5824:1.0 5826:1.0 5828:1.0 5830:1.0 6586:2.0 6587:1.0 6588:1.0 6589:1.0 6590:1.0 
4.5045390119176965 1:16.0 7:10.0 17:4.0 57:1.0 141:4.0 149:5.0 166:3.0 177:1.0 436:1.0 448:1.0 1225:1.0 2249:2.0 3893:1.0 6591:1.0 6592:3.0 6593:1.0 6594:1.0 6595:1.0 6596:1.0 6597:1.0 6598:1.0 6599:1.0 6600:1.0 6601:1.0 6602:1.0 6603:1.0 6604:1.0 6605:1.0 6606:1.0 
1.0928954716107346 1:27.0 2:1.0 3:10.0 5:2.0 7:3.0 9:3.0 10:3.0 11:1.0 15:1.0 17:1.0 19:1.0 21:1.0 22:1.0 35:1.0 37:3.0 39:1.0 41:3.0 59:1.0 68:4.0 69:4.0 112:1.0 157:1.0 173:1.0 215:3.0 217:1.0 225:3.0 263:2.0 264:1.0 271:2.0 277:2.0 296:2.0 392:1.0 491:1.0 783:1.0 784:1.0 786:2.0 789:1.0 801:1.0 803:1.0 805:1.0 810:1.0 813:1.0 825:1.0 900:2.0 1097:1.0 1099:1.0 1116:1.0 1130:1.0 1571:1.0 1573:1.0 1574:1.0 1575:2.0 1576:1.0 1577:1.0 1578:1.0 1579:1.0 1580:1.0 1584:1.0 1585:1.0 1586:1.0 1587:1.0 1588:1.0 1589:1.0 1590:1.0 1591:2.0 1592:2.0 1593:1.0 1594:1.0 1595:1.0 1596:1.0 1599:1.0 1600:1.0 1601:1.0 1602:1.0 1605:1.0 1606:1.0 1607:1.0 1611:1.0 1612:1.0 3370:1.0 3376:1.0 3991:1.0 4018:1.0 6607:1.0 6608:1.0 6609:1.0 6610:1.0 
2.645791690904804 1:18.0 2:2.0 3:4.0 7:8.0 10:2.0 36:2.0 37:2.0 39:2.0 41:2.0 44:4.0 63:2.0 85:2.0 112:2.0 116:2.0 222:4.0 688:2.0 692:2.0 696:2.0 704:2.0 707:2.0 1352:2.0 1354:2.0 1360:2.0 1361:2.0 1370:2.0 1548:2.0 1557:4.0 4300:2.0 4304:2.0 5190:2.0 5510:4.0 6611:2.0 
2.3146443140102573 1:22.0 3:8.0 5:3.0 7:4.0 9:2.0 10:1.0 11:1.0 15:1.0 17:1.0 19:1.0 22:1.0 37:3.0 39:1.0 41:3.0 63:1.0 68:4.0 69:2.0 85:1.0 215:2.0 225:2.0 263:1.0 264:1.0 271:2.0 277:2.0 296:2.0 308:1.0 379:1.0 491:1.0 738:1.0 743:1.0 784:1.0 786:1.0 789:1.0 792:1.0 799:1.0 805:1.0 813:1.0 815:1.0 819:1.0 825:1.0 1480:1.0 1485:1.0 1571:1.0 1575:1.0 1592:1.0 1600:1.0 1606:1.0 1646:1.0 1790:1.0 1804:1.0 2931:1.0 3988:1.0 4023:1.0 6612:1.0 6613:1.0 6614:1.0 6615:1.0 6616:1.0 6617:1.0 6618:1.0 6619:1.0 6620:1.0 6621:1.0 6622:1.0 6623:1.0 6624:1.0 6625:1.0 6626:1.0 6627:1.0 6628:1.0 6629:1.0 6630:1.0 6631:1.0 
10.0 1:3.0 2:1.0 3:2.0 41:1.0 57:1.0 59:1.0 63:1.0 68:1.0 79:1.0 84:1.0 85:1.0 103:1.0 104:1.0 392:1.0 980:1.0 981:1.0 984:1.0 1130:1.0 4331:2.0 4337:1.0 4338:1.0 6648:1.0 6649:1.0 6650:1.0 
2.6597445894662908 1:26.0 2:4.0 3:2.0 6:2.0 7:12.0 8:2.0 17:4.0 41:2.0 67:2.0 89:2.0 141:2.0 142:4.0 151:4.0 168:4.0 173:4.0 222:4.0 962:2.0 971:2.0 1327:2.0 1843:2.0 2986:2.0 4178:2.0 4646:2.0 6403:2.0 6719:2.0 6720:2.0 6721:2.0 6722:2.0 6723:2.0 6724:2.0 6725:2.0 6726:2.0 6727:2.0 6728:2.0 6729:2.0 6730:2.0 6731:2.0 6732:2.0 6733:2.0 6734:2.0 
10.0 1:3.0 3:1.0 68:1.0 69:1.0 112:1.0 132:1.0 134:1.0 155:1.0 157:1.0 171:1.0 1211:1.0 1216:1.0 1875:1.0 1878:1.0 6735:2.0 6736:1.0 6737:1.0 
10.0 1:12.0 2:1.0 3:3.0 7:4.0 9:1.0 10:1.0 19:2.0 20:1.0 36:1.0 39:2.0 41:1.0 44:2.0 67:1.0 68:1.0 69:1.0 89:1.0 112:1.0 176:1.0 187:1.0 190:1.0 227:1.0 230:1.0 231:1.0 250:1.0 263:1.0 360:2.0 609:1.0 610:1.0 799:1.0 918:1.0 928:1.0 1099:1.0 1819:1.0 2622:1.0 5724:2.0 6057:1.0 6060:1.0 6061:1.0 6746:1.0 6747:1.0 6748:1.0 6749:1.0 6750:1.0 
9.433085578442997 1:19.0 3:3.0 10:1.0 39:5.0 41:2.0 63:1.0 69:2.0 85:1.0 111:2.0 113:1.0 119:1.0 215:1.0 225:1.0 263:1.0 379:2.0 470:3.0 474:3.0 486:1.0 493:2.0 1095:1.0 2651:1.0 3154:1.0 3161:1.0 3939:1.0 3953:2.0 3988:1.0 4023:1.0 6497:1.0 6508:1.0 6696:1.0 6765:1.0 6766:1.0 6767:1.0 6768:1.0 6769:1.0 6770:1.0 6771:1.0 6772:1.0 6773:1.0 6774:1.0 6775:1.0 6776:1.0 6777:2.0 6778:1.0 6779:1.0 6780:1.0 6781:1.0 6782:1.0 6783:1.0 6784:1.0 6785:1.0 6786:1.0 6787:1.0 
9.547508597780201 1:16.0 2:2.0 3:4.0 7:8.0 9:1.0 10:2.0 11:1.0 17:2.0 19:1.0 20:1.0 22:1.0 36:2.0 37:1.0 39:1.0 41:2.0 44:2.0 46:1.0 176:2.0 190:2.0 210:2.0 222:1.0 368:1.0 691:1.0 1039:1.0 1042:1.0 1264:2.0 1267:2.0 1268:1.0 1269:2.0 1275:1.0 1276:2.0 1277:1.0 1517:1.0 1572:1.0 2953:1.0 3269:1.0 5262:1.0 6356:1.0 6854:2.0 6855:1.0 6856:1.0 6857:1.0 6858:1.0 6859:2.0 6860:1.0 6861:1.0 6862:1.0 6863:1.0 
2.0322106411384637 1:15.0 3:2.0 5:2.0 7:8.0 10:1.0 15:2.0 17:4.0 28:4.0 41:1.0 112:1.0 132:1.0 134:1.0 173:2.0 222:2.0 379:1.0 613:1.0 1089:2.0 1657:2.0 2933:2.0 4891:2.0 6878:1.0 6879:1.0 6880:2.0 6881:1.0 6882:1.0 6883:1.0 6884:1.0 6885:1.0 6886:2.0 6887:1.0 6888:1.0 6889:1.0 6890:1.0 6891:1.0 
10.0 1:7.0 2:1.0 3:1.0 7:3.0 9:1.0 36:1.0 37:1.0 39:1.0 44:1.0 46:1.0 68:1.0 222:1.0 277:1.0 369:1.0 377:1.0 392:1.0 425:1.0 593:1.0 1039:1.0 1042:1.0 1775:1.0 1780:1.0 2952:1.0 6355:1.0 6901:1.0 6902:1.0 6903:1.0 6904:1.0 
10.0 1:9.0 2:3.0 3:3.0 6:1.0 39:4.0 57:1.0 59:1.0 72:1.0 112:2.0 132:1.0 134:1.0 231:2.0 1242:1.0 1244:3.0 2066:2.0 2109:2.0 2120:2.0 2307:1.0 2308:1.0 2313:1.0 2314:2.0 2315:1.0 2324:2.0 2325:1.0 2326:2.0 2713:1.0 2717:1.0 6905:1.0 6906:1.0 6907:1.0 6908:1.0 6909:1.0 6910:1.0 6911:1.0 6912:1.0 6913:1.0 6914:1.0 6915:1.0 6916:1.0 6917:1.0 6918:1.0 6919:1.0 6920:1.0 6921:1.0 6922:1.0 6923:2.0 
3.2907762780086136 1:20.0 2:1.0 3:2.0 5:2.0 7:3.0 36:1.0 37:6.0 69:8.0 145:1.0 178:1.0 179:1.0 191:1.0 192:1.0 305:6.0 306:2.0 350:1.0 351:1.0 365:1.0 366:1.0 367:1.0 691:2.0 797:1.0 1381:1.0 2071:2.0 2072:3.0 2073:1.0 2074:2.0 2075:2.0 2076:3.0 2077:1.0 2380:2.0 4592:1.0 4594:1.0 6924:1.0 6925:1.0 6926:1.0 6927:1.0 6928:1.0 6929:1.0 6930:1.0 6931:1.0 6932:1.0 
4.640456923997468 1:6.0 2:3.0 57:1.0 61:6.0 1242:1.0 2308:1.0 4951:3.0 6962:1.0 6963:1.0 6964:3.0 6965:1.0 6966:6.0 6967:1.0 6968:3.0 6969:1.0 6970:6.0 
1.0437793316884225 1:17.0 2:1.0 6:1.0 7:9.0 17:2.0 70:2.0 141:6.0 149:6.0 166:2.0 434:4.0 436:1.0 445:1.0 448:1.0 525:1.0 529:1.0 530:1.0 548:1.0 1143:1.0 1223:1.0 1224:2.0 1225:1.0 1336:1.0 4433:1.0 4654:2.0 5542:1.0 6971:1.0 6972:1.0 6973:1.0 6974:1.0 6975:1.0 
4.149239750098195 1:17.0 2:3.0 3:2.0 7:7.0 9:2.0 10:1.0 17:3.0 19:2.0 36:2.0 37:1.0 41:1.0 44:1.0 61:2.0 62:1.0 67:1.0 89:1.0 114:2.0 121:1.0 122:2.0 131:2.0 176:2.0 184:1.0 203:1.0 222:1.0 261:1.0 322:1.0 346:1.0 461:1.0 964:1.0 965:1.0 976:1.0 977:1.0 978:1.0 979:1.0 1387:2.0 1390:2.0 1393:1.0 1571:1.0 2913:1.0 3562:1.0 5208:1.0 5220:1.0 6976:1.0 6977:1.0 6978:1.0 6979:1.0 6980:1.0 6981:1.0 6982:1.0 6983:1.0 6984:1.0 
3.828063908287211 1:11.0 3:1.0 5:1.0 7:4.0 10:1.0 15:2.0 37:1.0 39:1.0 46:1.0 69:2.0 112:1.0 222:2.0 263:1.0 305:1.0 309:1.0 872:1.0 1039:1.0 1040:1.0 1042:1.0 1098:1.0 1702:1.0 1703:1.0 1704:1.0 1705:1.0 1706:1.0 1707:1.0 1840:2.0 6985:1.0 6986:2.0 6987:1.0 
1.524609162206223 1:18.0 3:1.0 7:11.0 9:1.0 17:2.0 19:1.0 68:1.0 141:6.0 149:7.0 166:2.0 277:1.0 434:4.0 436:2.0 437:1.0 438:1.0 445:1.0 446:1.0 447:1.0 448:1.0 449:1.0 450:1.0 1223:1.0 1224:2.0 1225:2.0 1336:2.0 1342:1.0 4654:2.0 4976:1.0 
6.537738229248021 1:12.0 2:5.0 5:1.0 6:3.0 7:5.0 15:2.0 17:3.0 28:2.0 30:1.0 61:1.0 142:1.0 392:1.0 710:1.0 711:1.0 713:1.0 717:1.0 722:1.0 733:1.0 937:2.0 943:1.0 1931:1.0 1935:1.0 2495:1.0 2831:1.0 2835:1.0 2854:1.0 2855:1.0 2856:1.0 2860:1.0 2861:1.0 2863:1.0 2986:1.0 3432:1.0 3439:2.0 6988:1.0 6989:1.0 6990:1.0 6991:1.0 6992:1.0 6993:1.0 6994:1.0 
10.0 1:3.0 3:2.0 68:2.0 112:1.0 157:1.0 263:1.0 799:1.0 896:1.0 898:1.0 907:1.0 917:1.0 6995:1.0 6996:2.0 6997:1.0 6998:1.0 6999:1.0 7000:1.0 7001:1.0 7002:1.0 
1.4905853144896442 1:13.0 2:2.0 4:1.0 6:1.0 7:4.0 17:1.0 36:1.0 37:1.0 44:1.0 69:4.0 141:1.0 142:1.0 149:1.0 305:1.0 306:2.0 392:1.0 425:1.0 716:1.0 744:1.0 781:1.0 2270:1.0 2369:1.0 2370:1.0 2379:1.0 2380:1.0 2381:1.0 2921:1.0 3973:1.0 3978:1.0 3979:1.0 4595:1.0 7014:1.0 7015:1.0 7016:1.0 7017:1.0 7018:1.0 7019:1.0 7020:1.0 7021:1.0 7022:1.0 
1.232280558173138 1:17.0 2:4.0 3:4.0 7:1.0 9:1.0 10:1.0 36:2.0 41:2.0 61:4.0 62:2.0 63:1.0 68:1.0 84:1.0 85:1.0 114:2.0 122:1.0 173:1.0 215:1.0 225:1.0 251:2.0 255:1.0 276:1.0 470:1.0 668:1.0 672:1.0 965:4.0 1001:1.0 1027:1.0 1028:1.0 1623:1.0 1640:2.0 1641:1.0 1642:1.0 1651:1.0 1653:1.0 1656:1.0 1787:1.0 1794:1.0 1885:1.0 2771:1.0 2818:1.0 2824:1.0 4400:1.0 4407:1.0 4414:1.0 7049:1.0 7050:1.0 7051:1.0 7052:1.0 7053:1.0 7054:1.0 7055:1.0 7056:1.0 7057:1.0 7058:1.0 7059:1.0 7060:1.0 7061:1.0 7062:1.0 7063:1.0 7064:1.0 7065:1.0 7066:1.0 7067:1.0 7068:1.0 7069:1.0 7070:1.0 7071:1.0 7072:2.0 
1.0093514117540683 1:19.0 2:1.0 3:4.0 4:1.0 5:2.0 6:1.0 7:5.0 9:3.0 10:3.0 11:3.0 15:1.0 19:1.0 20:1.0 21:3.0 22:3.0 32:1.0 34:1.0 35:3.0 37:1.0 41:1.0 70:1.0 141:2.0 215:1.0 225:1.0 271:1.0 296:1.0 436:1.0 437:1.0 524:1.0 530:1.0 789:1.0 873:1.0 1059:1.0 1143:1.0 1154:1.0 1570:1.0 2399:1.0 2430:1.0 5287:1.0 7004:1.0 7005:1.0 7110:1.0 7111:1.0 7112:1.0 7113:1.0 7114:1.0 7115:1.0 7116:1.0 7117:1.0 7118:1.0 7119:1.0 7120:1.0 7121:1.0 7122:1.0 7123:1.0 7124:1.0 7125:1.0 
10.0 1:15.0 2:2.0 39:1.0 57:1.0 69:8.0 70:2.0 114:1.0 306:6.0 307:1.0 308:1.0 313:4.0 314:1.0 315:1.0 316:1.0 390:2.0 402:1.0 420:1.0 937:1.0 980:1.0 3501:1.0 3503:1.0 3822:1.0 4502:2.0 6168:1.0 7146:1.0 7147:1.0 7148:1.0 7149:1.0 7150:1.0 7151:1.0 7152:1.0 7153:1.0 7154:1.0 7155:1.0 7156:1.0 7157:1.0 7158:1.0 7159:1.0 7160:1.0 
0.15845522553521646 1:18.0 3:2.0 7:8.0 17:2.0 37:2.0 68:2.0 111:2.0 141:4.0 149:5.0 166:2.0 222:1.0 263:2.0 434:2.0 436:1.0 445:1.0 448:1.0 799:2.0 842:1.0 1092:1.0 1223:1.0 1225:1.0 1227:1.0 1336:1.0 1524:1.0 1753:1.0 1996:1.0 2011:1.0 4211:1.0 4894:1.0 4896:1.0 4901:1.0 4902:1.0 4903:1.0 6632:1.0 6634:1.0 6637:1.0 6638:1.0 7161:1.0 7162:1.0 7163:1.0 
10.0 1:10.0 2:1.0 6:1.0 7:5.0 17:1.0 37:1.0 39:1.0 46:1.0 70:1.0 141:1.0 142:1.0 149:2.0 222:1.0 397:1.0 530:1.0 744:1.0 781:1.0 1281:1.0 1402:1.0 1403:1.0 1404:1.0 1845:1.0 1858:1.0 2367:1.0 3461:1.0 7164:1.0 7165:1.0 7166:1.0 7167:1.0 7168:1.0 
10.0 1:7.0 7:5.0 17:3.0 28:2.0 30:1.0 37:1.0 172:1.0 181:1.0 222:2.0 1558:1.0 1562:1.0 6706:1.0 6707:1.0 6708:1.0 6709:1.0 6710:1.0 7193:2.0 
10.0 1:9.0 2:1.0 3:2.0 5:1.0 7:4.0 15:1.0 17:2.0 28:2.0 41:2.0 62:1.0 67:2.0 89:2.0 132:1.0 134:1.0 173:1.0 222:1.0 3778:2.0 5448:2.0 7194:1.0 7195:2.0 7196:1.0 7197:1.0 7198:1.0 7199:2.0 7200:2.0 7201:2.0 7202:1.0 7203:1.0 7204:1.0 
10.0 1:16.0 2:1.0 5:2.0 7:9.0 15:4.0 17:3.0 28:2.0 30:1.0 36:1.0 44:2.0 62:1.0 111:2.0 114:2.0 122:2.0 510:1.0 511:1.0 512:1.0 513:2.0 514:1.0 516:2.0 842:2.0 843:2.0 844:2.0 845:2.0 846:2.0 3499:2.0 
3.946526230483402 1:17.0 5:2.0 7:9.0 15:2.0 17:3.0 28:2.0 37:1.0 132:1.0 134:1.0 141:2.0 149:1.0 173:2.0 222:3.0 770:1.0 1084:2.0 1089:2.0 1211:1.0 1213:1.0 1214:1.0 1215:1.0 1216:1.0 1226:1.0 1231:1.0 1232:1.0 1535:1.0 2189:1.0 2191:2.0 2274:2.0 2278:2.0 2279:1.0 7242:1.0 7243:1.0 7244:1.0 7245:1.0 
10.0 1:9.0 2:1.0 7:2.0 36:1.0 37:3.0 39:3.0 46:3.0 392:1.0 425:1.0 694:2.0 706:2.0 1039:1.0 1042:1.0 1380:1.0 1381:2.0 1382:1.0 1383:2.0 1384:1.0 4881:2.0 7267:1.0 
0.3590182032083069 1:15.0 7:9.0 17:4.0 37:1.0 39:1.0 46:1.0 141:4.0 149:4.0 166:4.0 435:1.0 436:2.0 448:2.0 1054:1.0 1213:1.0 1522:1.0 1524:1.0 1532:1.0 1535:2.0 1539:1.0 1540:2.0 1541:2.0 
5.159431183426315 1:8.0 2:1.0 3:5.0 7:4.0 9:1.0 11:2.0 19:2.0 36:1.0 44:2.0 57:1.0 145:1.0 178:1.0 179:1.0 191:1.0 192:1.0 350:1.0 351:1.0 362:2.0 364:1.0 365:1.0 366:1.0 367:1.0 1242:1.0 1244:3.0 2108:1.0 2119:2.0 2307:1.0 2308:1.0 2313:1.0 2315:1.0 2325:1.0 2760:2.0 7268:1.0 7269:2.0 7270:1.0 7271:1.0 7272:2.0 7273:1.0 7274:2.0 
3.0184980634913705 1:6.0 2:2.0 3:2.0 111:4.0 179:2.0 1863:2.0 5070:2.0 5245:2.0 5247:2.0 5255:2.0 6345:4.0 7370:2.0 7371:2.0 7372:4.0 7373:2.0 
10.0 1:17.0 3:6.0 7:1.0 9:3.0 10:4.0 11:1.0 21:1.0 22:1.0 35:1.0 41:2.0 63:1.0 69:3.0 85:1.0 112:1.0 173:2.0 215:1.0 220:1.0 225:1.0 269:2.0 379:1.0 470:2.0 471:1.0 473:1.0 480:1.0 783:1.0 788:1.0 901:1.0 998:1.0 1062:1.0 1100:1.0 1365:1.0 3213:1.0 3214:1.0 3216:1.0 3217:1.0 3219:1.0 3225:1.0 3227:1.0 3228:1.0 3229:1.0 3232:1.0 3233:1.0 3235:1.0 3241:1.0 6497:1.0 6508:1.0 7412:1.0 7413:1.0 7414:1.0 7415:1.0 7416:1.0 7417:1.0 7418:1.0 7419:1.0 7420:1.0 7421:1.0 7422:1.0 7423:1.0 7424:1.0 7425:1.0 
10.0 1:3.0 3:1.0 68:1.0 112:1.0 132:2.0 134:2.0 157:1.0 1211:1.0 1216:1.0 2167:1.0 2169:1.0 2171:1.0 2175:1.0 7426:2.0 7427:1.0 7428:1.0 7429:1.0 7430:1.0 7431:1.0 
10.0 1:10.0 2:2.0 6:2.0 7:6.0 17:2.0 70:2.0 530:2.0 1281:2.0 2233:2.0 2397:2.0 2401:2.0 3603:2.0 4077:2.0 4083:2.0 4084:2.0 7436:2.0 7437:2.0 7438:2.0 
8.133202734557628 1:8.0 2:3.0 6:1.0 7:4.0 17:2.0 114:1.0 142:2.0 151:2.0 168:2.0 390:1.0 391:1.0 392:1.0 395:1.0 399:1.0 400:1.0 402:1.0 403:1.0 412:1.0 417:1.0 418:1.0 962:1.0 971:1.0 1843:1.0 1852:1.0 4645:1.0 4646:1.0 7455:1.0 7456:1.0 
0.7406792615513729 1:23.0 3:2.0 7:9.0 10:1.0 17:2.0 37:2.0 39:2.0 41:1.0 46:1.0 63:1.0 69:1.0 85:1.0 141:6.0 149:5.0 166:2.0 173:1.0 222:1.0 263:1.0 270:1.0 434:2.0 435:1.0 436:2.0 441:1.0 445:1.0 448:1.0 755:1.0 803:1.0 1095:1.0 1121:1.0 1125:1.0 1223:1.0 1225:1.0 1227:1.0 1228:1.0 1336:1.0 1352:1.0 1354:1.0 1360:1.0 1361:1.0 1524:1.0 1537:1.0 4575:1.0 4656:1.0 5577:1.0 7457:1.0 7458:1.0 7459:1.0 7460:1.0 7461:1.0 7462:1.0 7463:1.0 7464:1.0 7465:1.0 7466:1.0 
4.250962990524772 1:19.0 2:1.0 3:3.0 5:1.0 7:5.0 9:2.0 10:1.0 15:1.0 17:2.0 28:1.0 36:2.0 37:1.0 39:1.0 41:1.0 44:1.0 62:1.0 68:1.0 69:1.0 113:1.0 114:1.0 122:1.0 173:1.0 215:1.0 220:1.0 225:1.0 261:1.0 263:1.0 265:1.0 266:1.0 267:1.0 268:1.0 269:1.0 270:1.0 271:1.0 272:1.0 273:1.0 274:1.0 276:1.0 277:1.0 282:1.0 283:1.0 284:1.0 285:1.0 286:1.0 288:1.0 289:1.0 290:1.0 291:1.0 293:1.0 295:1.0 296:1.0 297:1.0 298:1.0 300:1.0 470:1.0 474:1.0 475:1.0 6768:1.0 7492:1.0 7493:1.0 7494:1.0 7495:1.0 7496:1.0 7497:1.0 7498:1.0 
6.643307194496034 1:9.0 2:1.0 3:2.0 7:4.0 17:2.0 36:1.0 44:1.0 57:2.0 132:2.0 134:2.0 145:1.0 178:1.0 179:1.0 191:1.0 192:1.0 261:1.0 351:1.0 366:1.0 367:1.0 419:1.0 668:3.0 672:3.0 1545:1.0 2283:2.0 2284:1.0 2286:1.0 2287:1.0 2288:1.0 2289:1.0 2292:1.0 2294:1.0 2295:1.0 2296:1.0 2297:1.0 2298:1.0 2299:1.0 2301:1.0 3106:1.0 3113:1.0 3330:1.0 3346:3.0 7499:1.0 7500:1.0 7501:1.0 7502:1.0 7503:1.0 7504:1.0 7505:1.0 7506:1.0 7507:1.0 7508:3.0 
6.756814733679695 1:14.0 2:2.0 3:4.0 7:8.0 9:1.0 10:1.0 11:1.0 17:3.0 19:1.0 21:1.0 22:1.0 30:1.0 35:1.0 36:2.0 41:1.0 44:2.0 67:1.0 89:1.0 145:1.0 173:1.0 176:1.0 178:1.0 179:1.0 184:1.0 187:1.0 190:1.0 191:1.0 192:1.0 202:1.0 203:1.0 210:2.0 222:1.0 261:2.0 351:1.0 366:1.0 367:1.0 370:1.0 378:1.0 1387:1.0 1388:1.0 1391:1.0 1819:1.0 4689:1.0 4820:1.0 4830:1.0 7524:1.0 7525:1.0 7526:1.0 7527:1.0 7528:1.0 
10.0 1:6.0 2:1.0 7:4.0 36:1.0 44:2.0 132:1.0 133:1.0 134:1.0 137:1.0 348:2.0 349:1.0 363:1.0 392:1.0 425:1.0 746:1.0 754:1.0 849:1.0 1311:1.0 4074:2.0 7553:2.0 
10.0 1:14.0 7:9.0 17:2.0 132:1.0 133:1.0 134:1.0 137:1.0 141:4.0 149:3.0 166:2.0 348:1.0 349:1.0 363:1.0 435:2.0 436:4.0 444:3.0 448:2.0 772:1.0 1054:2.0 7554:1.0 7555:1.0 7556:1.0 7557:1.0 7558:1.0 
10.0 1:5.0 3:4.0 41:2.0 63:2.0 68:2.0 84:2.0 85:2.0 132:3.0 134:3.0 470:1.0 1001:1.0 1027:1.0 1028:1.0 2801:1.0 2804:2.0 3106:1.0 3113:1.0 7559:1.0 7560:1.0 7561:1.0 7562:1.0 7563:1.0 7564:1.0 7565:1.0 7566:1.0 7567:1.0 7568:1.0 7569:2.0 7570:1.0 7571:1.0 
10.0 1:2.0 2:1.0 132:1.0 134:1.0 172:1.0 181:1.0 2147:1.0 2148:1.0 2151:1.0 7592:1.0 7593:2.0 7594:2.0 7595:1.0 7596:1.0 7597:1.0 7598:1.0 7599:1.0 
10.0 1:12.0 2:1.0 3:1.0 7:6.0 9:2.0 10:1.0 19:2.0 20:1.0 36:1.0 44:2.0 132:3.0 133:3.0 134:3.0 136:2.0 137:3.0 346:1.0 347:2.0 349:1.0 356:1.0 357:2.0 358:2.0 360:2.0 363:1.0 392:1.0 425:1.0 746:1.0 754:1.0 849:1.0 1364:2.0 1841:1.0 6366:1.0 6367:1.0 6368:1.0 6369:2.0 
10.0 1:9.0 2:1.0 6:1.0 7:5.0 17:1.0 70:1.0 141:1.0 142:1.0 149:2.0 397:1.0 530:1.0 668:1.0 672:1.0 744:1.0 781:1.0 1281:1.0 1402:1.0 1403:1.0 1404:1.0 1651:1.0 1654:1.0 1656:1.0 5292:1.0 5293:1.0 5297:1.0 5300:1.0 7605:1.0 7606:1.0 7607:1.0 7608:1.0 7609:1.0 
9.177820294781842 1:3.0 2:1.0 3:2.0 39:1.0 69:1.0 132:1.0 134:1.0 145:1.0 178:1.0 179:1.0 191:1.0 192:1.0 308:1.0 7624:1.0 7625:2.0 7626:1.0 7627:1.0 7628:1.0 7629:1.0 7630:1.0 7631:1.0 7632:1.0 7633:1.0 7634:1.0 
10.0 1:13.0 3:3.0 10:2.0 39:3.0 41:1.0 63:1.0 69:5.0 85:1.0 112:2.0 116:1.0 263:1.0 306:3.0 313:1.0 381:1.0 388:1.0 486:1.0 492:1.0 493:3.0 904:1.0 1131:1.0 1405:1.0 1703:1.0 1704:1.0 3480:1.0 3481:1.0 3482:1.0 3483:1.0 3667:1.0 3670:1.0 7635:1.0 7636:1.0 7637:1.0 7638:3.0 7639:1.0 7640:1.0 7641:1.0 
10.0 1:8.0 2:2.0 3:1.0 7:5.0 17:3.0 30:1.0 36:1.0 39:1.0 41:1.0 44:2.0 67:1.0 89:1.0 261:2.0 1183:2.0 1809:1.0 7687:1.0 7688:1.0 7689:1.0 7690:1.0 7691:1.0 7692:1.0 7693:2.0 7694:1.0 7695:1.0 7696:1.0 7697:1.0 
10.0 1:10.0 2:1.0 3:3.0 7:6.0 9:1.0 17:2.0 19:1.0 36:1.0 68:1.0 141:2.0 145:1.0 149:3.0 166:2.0 178:1.0 179:1.0 191:1.0 192:1.0 277:1.0 351:1.0 366:1.0 367:1.0 369:1.0 377:1.0 436:1.0 448:1.0 1342:1.0 2123:1.0 2281:1.0 2726:1.0 2729:1.0 7706:1.0 7707:1.0 7708:1.0 7709:1.0 7710:1.0 
6.984254530152058 1:10.0 2:1.0 3:5.0 11:2.0 39:3.0 41:1.0 61:2.0 62:1.0 67:1.0 89:1.0 132:1.0 134:1.0 216:1.0 641:2.0 642:2.0 661:2.0 1242:1.0 1244:3.0 1961:1.0 1986:2.0 2101:1.0 2327:1.0 2328:1.0 2330:1.0 2334:1.0 2759:2.0 2760:2.0 2761:2.0 2762:2.0 3106:1.0 3113:1.0 3468:1.0 7711:1.0 7712:1.0 7713:1.0 7714:1.0 7715:1.0 7716:1.0 7717:1.0 7718:1.0 7719:1.0 7720:1.0 7721:1.0 7722:1.0 7723:1.0 
10.0 1:17.0 2:1.0 3:4.0 6:1.0 7:2.0 9:1.0 10:1.0 37:2.0 39:2.0 41:1.0 63:1.0 68:2.0 69:4.0 84:1.0 85:1.0 112:1.0 141:1.0 142:1.0 146:1.0 153:1.0 264:1.0 277:1.0 308:2.0 437:1.0 438:1.0 450:1.0 473:1.0 593:1.0 1132:1.0 1139:1.0 1140:1.0 1499:1.0 1505:1.0 2233:1.0 2237:1.0 2238:1.0 2367:1.0 4198:1.0 5329:1.0 5339:1.0 6616:1.0 6628:1.0 7724:1.0 7725:1.0 7726:1.0 7727:1.0 7728:1.0 7729:1.0 7730:1.0 7731:1.0 7732:1.0 7733:1.0 7734:1.0 7735:1.0 7736:1.0 7737:1.0 7738:1.0 7739:1.0 7740:1.0 7741:1.0 7742:1.0 
5.165225166886065 1:9.0 2:3.0 3:1.0 5:1.0 6:1.0 7:2.0 15:1.0 59:1.0 61:1.0 69:2.0 70:2.0 144:1.0 145:1.0 156:1.0 251:1.0 254:1.0 262:1.0 529:1.0 530:1.0 1129:1.0 1280:1.0 1281:1.0 1282:1.0 1283:1.0 1293:1.0 1294:1.0 1296:1.0 7777:1.0 7778:1.0 7779:1.0 7780:1.0 7781:1.0 7782:1.0 7783:1.0 7784:1.0 7785:1.0 7786:1.0 7787:1.0 7788:1.0 
10.0 1:8.0 2:1.0 39:2.0 57:2.0 61:2.0 62:1.0 113:1.0 132:1.0 134:1.0 420:1.0 641:2.0 642:2.0 661:2.0 980:1.0 3106:1.0 3113:1.0 4611:1.0 4674:1.0 7804:1.0 7805:1.0 7806:1.0 7807:1.0 7808:1.0 7809:1.0 7810:1.0 7811:1.0 7812:1.0 7813:2.0 7814:1.0 7815:1.0 7816:1.0 7817:1.0 7818:1.0 7819:1.0 
10.0 1:4.0 2:2.0 3:1.0 41:1.0 61:1.0 111:1.0 113:1.0 119:1.0 176:1.0 392:1.0 1860:1.0 1861:1.0 1862:1.0 4640:1.0 4692:1.0 4702:1.0 4703:1.0 5302:1.0 5306:1.0 7820:1.0 7821:1.0 7822:1.0 7823:1.0 7824:1.0 
2.143886841208454 1:21.0 2:1.0 3:3.0 5:1.0 6:1.0 7:9.0 10:1.0 17:2.0 68:2.0 141:4.0 142:2.0 149:4.0 151:1.0 166:2.0 173:1.0 222:1.0 263:4.0 323:1.0 324:1.0 434:1.0 435:1.0 436:1.0 445:1.0 448:1.0 744:1.0 799:2.0 1141:1.0 1336:1.0 1337:1.0 1722:1.0 1749:1.0 1992:1.0 1993:1.0 1994:1.0 1995:1.0 1996:1.0 1997:1.0 1998:1.0 1999:1.0 2000:1.0 2001:1.0 2002:1.0 2003:1.0 2004:1.0 2006:1.0 2007:1.0 2008:1.0 2009:1.0 2011:1.0 2012:1.0 4800:1.0 4801:1.0 4802:1.0 4804:1.0 7239:1.0 7870:1.0 
1.0393007973484312 1:36.0 2:6.0 3:9.0 5:1.0 7:19.0 9:2.0 15:2.0 19:2.0 36:6.0 37:1.0 41:2.0 44:8.0 57:1.0 63:2.0 65:2.0 68:4.0 84:2.0 85:2.0 141:2.0 149:1.0 173:2.0 222:2.0 272:2.0 277:2.0 297:2.0 419:1.0 688:6.0 692:6.0 696:4.0 704:4.0 707:2.0 1029:2.0 1030:2.0 1308:4.0 1423:1.0 1424:1.0 1425:1.0 1426:2.0 1427:1.0 1435:1.0 1438:2.0 1439:1.0 1543:1.0 1545:1.0 1737:2.0 1746:2.0 1747:2.0 2123:2.0 2618:2.0 2701:2.0 2704:2.0 2706:2.0 2736:2.0 2738:2.0 2739:2.0 4689:2.0 5162:1.0 5510:4.0 6183:2.0 7884:1.0 7885:2.0 7886:2.0 7887:1.0 7888:1.0 7889:2.0 7890:2.0 7891:1.0 7892:1.0 7893:1.0 
0.5397642440635815 1:22.0 5:2.0 7:10.0 15:2.0 17:4.0 37:2.0 39:2.0 46:2.0 141:4.0 149:4.0 166:2.0 173:2.0 436:1.0 448:2.0 762:1.0 770:2.0 1524:2.0 1535:2.0 2189:1.0 2279:2.0 3391:1.0 5309:2.0 5319:2.0 6865:2.0 7894:2.0 7895:2.0 7896:2.0 7897:2.0 7898:2.0 
10.0 1:3.0 3:2.0 41:2.0 69:1.0 551:2.0 555:2.0 6474:2.0 6478:2.0 7905:2.0 7906:2.0 
10.0 1:4.0 2:2.0 4:1.0 7:1.0 39:1.0 57:1.0 175:1.0 392:1.0 1145:1.0 2250:1.0 2252:1.0 7911:1.0 7912:1.0 7913:1.0 7914:1.0 7915:1.0 7916:1.0 7917:1.0 7918:1.0 7919:1.0 7920:1.0 7921:1.0 7922:1.0 7923:1.0 
5.358475524563827 1:26.0 2:2.0 7:18.0 17:4.0 36:4.0 44:6.0 141:4.0 149:6.0 166:4.0 176:2.0 190:4.0 322:2.0 335:2.0 338:4.0 436:4.0 448:4.0 767:2.0 1436:2.0 1748:2.0 2923:2.0 5720:2.0 5721:2.0 5722:2.0 5723:2.0 
3.470115676004227 1:18.0 2:1.0 5:2.0 7:8.0 15:2.0 17:4.0 28:4.0 39:1.0 59:2.0 61:1.0 62:1.0 69:2.0 173:2.0 222:2.0 307:1.0 308:1.0 316:1.0 1089:2.0 1282:1.0 1344:1.0 2610:1.0 2763:2.0 2768:2.0 2933:2.0 3429:2.0 3430:1.0 3433:2.0 3435:2.0 3437:2.0 7924:1.0 7925:1.0 7926:1.0 
7.2103233376235725 1:17.0 2:2.0 5:2.0 7:8.0 15:4.0 36:2.0 44:4.0 62:2.0 69:1.0 114:4.0 122:4.0 510:2.0 511:2.0 512:2.0 513:4.0 514:2.0 515:4.0 516:4.0 872:2.0 1086:1.0 4913:2.0 7791:1.0 
4.9437194661467165 1:55.0 2:17.0 3:21.0 4:1.0 6:6.0 8:1.0 10:5.0 37:1.0 39:4.0 41:8.0 46:1.0 57:3.0 59:5.0 61:3.0 67:7.0 68:8.0 69:3.0 70:2.0 89:7.0 112:2.0 157:2.0 174:1.0 176:6.0 177:2.0 263:11.0 319:2.0 379:1.0 383:1.0 392:5.0 711:1.0 722:1.0 783:2.0 791:2.0 799:6.0 855:2.0 900:4.0 907:2.0 917:2.0 937:1.0 964:2.0 980:1.0 994:1.0 1020:1.0 1099:1.0 1130:1.0 1264:1.0 1269:1.0 1683:3.0 1846:1.0 1932:1.0 1947:1.0 1955:2.0 1974:2.0 1997:3.0 2012:3.0 2066:1.0 2233:2.0 2352:2.0 2488:2.0 2489:1.0 2490:2.0 2491:1.0 2492:1.0 2493:1.0 2494:1.0 2495:1.0 2496:1.0 2497:1.0 2498:2.0 2499:1.0 2500:1.0 2501:1.0 2502:1.0 2503:1.0 2504:1.0 2505:1.0 2506:1.0 2507:1.0 2508:1.0 2509:1.0 2510:1.0 2511:1.0 2512:1.0 2513:1.0 2514:1.0 2515:1.0 2516:1.0 2517:1.0 2518:1.0 2519:1.0 2520:1.0 2521:1.0 2522:1.0 2523:1.0 2524:1.0 2525:1.0 2527:1.0 2528:1.0 2529:1.0 2530:1.0 2531:1.0 2532:1.0 2533:1.0 2534:1.0 2535:1.0 2536:1.0 2537:1.0 2538:1.0 2539:2.0 2540:1.0 2541:1.0 2542:1.0 2543:1.0 2544:1.0 2545:1.0 2546:2.0 2547:1.0 2548:1.0 2549:1.0 2550:1.0 2551:1.0 2552:1.0 2553:2.0 2554:1.0 2555:1.0 2556:1.0 2557:1.0 2558:1.0 2559:1.0 2560:1.0 2561:1.0 2562:1.0 2563:1.0 2564:1.0 2565:1.0 2566:1.0 2567:1.0 2568:1.0 2569:1.0 2570:1.0 2571:1.0 2572:1.0 2573:1.0 2574:1.0 2575:1.0 2576:1.0 2577:1.0 2578:1.0 2579:1.0 2580:1.0 2581:1.0 2582:1.0 2583:1.0 2584:1.0 2585:1.0 2586:1.0 2587:1.0 2588:1.0 2589:1.0 2590:1.0 2591:1.0 2592:1.0 2593:1.0 2594:1.0 2595:1.0 2596:1.0 7989:1.0 7990:1.0 7991:1.0 7992:1.0 7993:1.0 7994:1.0 7995:1.0 7996:1.0 7997:1.0 7998:1.0 7999:2.0 8000:1.0 8001:1.0 8002:1.0 8003:1.0 8004:1.0 8005:1.0 8006:1.0 8007:1.0 8008:1.0 8009:1.0 8010:1.0 8011:1.0 8012:2.0 
2.8087913222887293 1:8.0 2:5.0 61:8.0 176:3.0 392:2.0 461:6.0 462:3.0 463:2.0 464:2.0 465:4.0 466:3.0 467:2.0 468:2.0 469:2.0 
10.0 1:5.0 2:1.0 6:1.0 7:2.0 70:1.0 132:2.0 133:1.0 134:2.0 137:1.0 348:1.0 530:1.0 1281:1.0 2251:1.0 2259:1.0 3631:1.0 3632:1.0 3641:1.0 3642:1.0 3738:1.0 3744:1.0 8161:1.0 8162:1.0 8163:1.0 8164:1.0 8165:1.0 
10.0 1:7.0 2:2.0 3:2.0 7:4.0 17:1.0 36:1.0 37:1.0 44:1.0 145:1.0 178:1.0 179:1.0 191:1.0 192:1.0 222:1.0 350:1.0 351:1.0 365:1.0 366:1.0 367:1.0 691:1.0 1517:1.0 1907:1.0 2147:1.0 2148:1.0 2151:1.0 2815:1.0 4123:1.0 4124:1.0 4128:1.0 4129:1.0 8194:1.0 8195:1.0 8196:1.0 
1.2388037476553637 1:9.0 3:4.0 132:6.0 134:6.0 263:3.0 1211:6.0 1216:6.0 1242:1.0 1244:3.0 2101:1.0 2327:1.0 2328:1.0 2330:1.0 2334:1.0 2837:3.0 6760:6.0 6764:6.0 8232:3.0 8233:1.0 8234:3.0 8235:3.0 8236:6.0 
2.2337588043206242 1:26.0 2:5.0 3:6.0 6:1.0 7:6.0 10:2.0 17:2.0 36:3.0 39:2.0 41:2.0 44:2.0 61:4.0 62:2.0 63:2.0 69:1.0 85:2.0 112:2.0 114:2.0 116:2.0 118:2.0 120:2.0 121:1.0 122:2.0 127:2.0 131:2.0 141:2.0 142:2.0 145:1.0 149:1.0 151:1.0 166:1.0 168:1.0 176:1.0 178:1.0 179:1.0 191:1.0 192:1.0 320:1.0 321:1.0 323:1.0 324:1.0 331:1.0 333:1.0 334:1.0 337:1.0 351:1.0 366:1.0 367:1.0 1344:1.0 1345:1.0 1352:2.0 1354:2.0 1360:2.0 1361:2.0 1370:2.0 1409:1.0 1420:1.0 1885:1.0 2350:1.0 2352:1.0 2354:1.0 2356:1.0 2357:1.0 2361:1.0 2364:1.0 2365:1.0 2366:1.0 4595:1.0 7535:1.0 7536:1.0 7537:1.0 7538:1.0 7540:1.0 7541:1.0 7542:1.0 8237:1.0 8238:1.0 8239:2.0 8240:2.0 
6.792556368115466 1:14.0 2:5.0 3:3.0 6:2.0 39:1.0 41:2.0 61:5.0 62:2.0 63:1.0 68:1.0 70:1.0 84:1.0 85:1.0 173:1.0 176:1.0 215:1.0 225:1.0 391:1.0 461:2.0 462:1.0 470:1.0 641:1.0 642:1.0 661:1.0 721:1.0 965:2.0 1001:1.0 1027:1.0 1028:1.0 1787:1.0 1794:1.0 1927:1.0 2017:1.0 2771:1.0 4399:1.0 4400:1.0 4412:1.0 4414:1.0 4500:1.0 8205:2.0 8206:1.0 8257:1.0 8258:1.0 8259:1.0 8260:1.0 8261:1.0 8262:1.0 8263:1.0 8264:1.0 8265:1.0 8266:1.0 8267:1.0 8268:1.0 8269:1.0 8270:1.0 8271:1.0 8272:1.0 8273:2.0 
10.0 1:8.0 2:1.0 3:2.0 5:1.0 7:5.0 15:2.0 17:3.0 28:2.0 30:1.0 111:1.0 145:1.0 178:1.0 179:1.0 191:1.0 192:1.0 843:1.0 2771:1.0 3499:2.0 6640:1.0 6641:1.0 6645:1.0 6646:1.0 6647:1.0 8286:1.0 8287:1.0 8288:1.0 8289:1.0 
10.0 1:6.0 2:5.0 6:3.0 114:1.0 142:1.0 390:1.0 392:1.0 402:1.0 710:1.0 717:1.0 722:1.0 733:1.0 937:2.0 943:1.0 1927:1.0 1931:1.0 1935:1.0 2495:1.0 2835:1.0 2854:1.0 2860:1.0 2863:1.0 8341:1.0 8342:1.0 8343:1.0 8344:1.0 8345:1.0 8346:1.0 8347:1.0 8348:1.0 8349:1.0 8350:1.0 
6.245684853173121 1:15.0 5:2.0 7:7.0 15:1.0 17:2.0 28:2.0 37:1.0 39:2.0 46:1.0 173:2.0 222:3.0 379:1.0 383:1.0 792:1.0 1039:1.0 1042:1.0 1084:2.0 1089:1.0 1474:2.0 1652:1.0 1657:1.0 1660:1.0 1663:1.0 1840:1.0 2202:1.0 2204:1.0 4890:2.0 4891:1.0 6292:1.0 8372:1.0 
4.619502813085318 1:14.0 7:9.0 17:4.0 132:1.0 133:1.0 134:1.0 137:1.0 141:4.0 149:4.0 166:4.0 435:1.0 436:2.0 448:2.0 1046:2.0 1054:1.0 2674:2.0 8451:1.0 8452:2.0 8453:2.0 8454:1.0 8455:1.0 
10.0 1:8.0 3:2.0 7:2.0 9:2.0 10:2.0 11:2.0 21:2.0 22:2.0 35:2.0 132:2.0 133:2.0 134:2.0 137:2.0 345:2.0 347:2.0 358:2.0 2471:2.0 7048:2.0 8456:2.0 8457:2.0 8458:2.0 
10.0 1:11.0 2:3.0 3:3.0 7:5.0 17:3.0 30:1.0 36:1.0 41:2.0 44:2.0 59:1.0 63:1.0 67:1.0 68:1.0 69:2.0 79:1.0 84:1.0 85:1.0 89:1.0 103:1.0 104:1.0 261:2.0 392:1.0 1128:1.0 1129:1.0 1130:1.0 1133:1.0 1135:1.0 1136:1.0 1183:2.0 1258:1.0 7409:1.0 7687:1.0 7688:1.0 7689:1.0 7691:1.0 7692:1.0 7693:2.0 8467:1.0 8468:1.0 8469:1.0 8470:1.0 8471:1.0 
5.105000332951977 1:14.0 3:2.0 5:2.0 7:8.0 15:2.0 17:4.0 28:4.0 39:1.0 173:2.0 222:2.0 264:1.0 281:1.0 1084:2.0 1089:2.0 5439:1.0 6088:1.0 6091:1.0 6520:2.0 8482:1.0 8483:1.0 8484:2.0 8485:2.0 8486:1.0 8487:2.0 8488:1.0 8489:1.0 8490:1.0 
2.9137785388060724 1:3.0 2:3.0 3:2.0 41:2.0 67:1.0 89:1.0 176:1.0 1183:1.0 1860:1.0 1862:1.0 1936:1.0 3020:1.0 3021:1.0 4151:1.0 4162:1.0 4817:1.0 7872:1.0 8496:1.0 8497:1.0 8498:1.0 8499:1.0 8500:1.0 8501:1.0 8502:1.0 8503:1.0 8504:1.0 
0.9251387700367637 1:14.0 2:2.0 5:1.0 6:1.0 7:7.0 15:2.0 36:1.0 37:1.0 39:1.0 44:2.0 46:1.0 57:1.0 142:1.0 151:1.0 177:1.0 222:1.0 392:1.0 425:1.0 746:1.0 754:1.0 848:2.0 849:1.0 1039:1.0 1042:1.0 2249:1.0 2488:1.0 4948:1.0 5885:1.0 5886:1.0 8521:1.0 8522:1.0 8523:1.0 8524:1.0 8525:1.0 8526:1.0 8527:1.0 8528:1.0 8529:1.0 8530:2.0 8531:1.0 8532:1.0 8533:1.0 8534:1.0 8535:1.0 
0.9924150962313439 1:7.0 2:4.0 3:2.0 10:1.0 39:3.0 41:1.0 59:1.0 61:1.0 63:1.0 85:1.0 264:1.0 281:3.0 392:1.0 635:1.0 688:1.0 1130:1.0 4149:1.0 4215:1.0 4218:1.0 4219:1.0 4229:1.0 4841:1.0 4846:3.0 8543:1.0 8544:1.0 8545:1.0 8546:1.0 8547:1.0 8548:1.0 8549:1.0 8550:1.0 8551:1.0 8552:1.0 8553:1.0 8554:1.0 8555:1.0 
6.551568212609835 1:15.0 2:1.0 3:2.0 5:1.0 7:9.0 15:2.0 17:3.0 28:2.0 30:1.0 36:1.0 37:1.0 41:1.0 44:2.0 111:2.0 179:1.0 222:2.0 842:2.0 843:2.0 844:2.0 845:2.0 846:2.0 1254:1.0 1255:1.0 2625:1.0 3499:2.0 3565:2.0 4887:1.0 4889:1.0 5340:1.0 5341:1.0 5342:1.0 5344:1.0 5345:1.0 5346:1.0 5347:1.0 
9.563204995729638 1:5.0 2:1.0 61:2.0 62:1.0 114:1.0 122:1.0 132:2.0 134:2.0 1211:2.0 1216:2.0 1623:1.0 1642:1.0 1887:2.0 1889:2.0 1903:2.0 1906:2.0 8567:1.0 8568:2.0 
10.0 1:14.0 2:1.0 3:1.0 5:2.0 7:9.0 15:4.0 17:3.0 28:2.0 30:1.0 36:1.0 39:1.0 41:1.0 44:2.0 67:1.0 89:1.0 176:1.0 187:1.0 190:1.0 1029:2.0 1030:2.0 1308:2.0 1808:1.0 1809:1.0 1818:2.0 1819:1.0 1820:1.0 1821:1.0 1822:1.0 1823:1.0 2669:2.0 
6.148313549351785 1:2.0 3:3.0 11:1.0 57:1.0 65:2.0 319:1.0 1423:1.0 1426:2.0 1542:1.0 4106:2.0 4108:1.0 4111:1.0 4112:2.0 5596:2.0 5598:1.0 5603:1.0 
4.456363217978453 1:11.0 2:2.0 3:1.0 6:1.0 7:5.0 36:1.0 39:1.0 41:1.0 44:1.0 67:1.0 70:1.0 89:1.0 141:1.0 142:1.0 149:1.0 151:1.0 176:1.0 187:1.0 190:1.0 323:1.0 397:1.0 530:1.0 744:1.0 780:1.0 1281:1.0 1402:1.0 1403:1.0 1404:1.0 1436:1.0 1808:1.0 1809:1.0 1820:1.0 1821:1.0 1822:1.0 1823:1.0 3749:1.0 6260:1.0 8600:1.0 8601:1.0 8602:1.0 8603:1.0 
10.0 1:9.0 3:2.0 10:2.0 39:1.0 69:4.0 112:3.0 263:1.0 306:2.0 307:1.0 308:1.0 314:1.0 315:1.0 316:1.0 473:1.0 476:1.0 484:1.0 904:1.0 932:1.0 1703:1.0 1704:1.0 3441:1.0 3480:1.0 3481:1.0 3482:1.0 3483:1.0 3484:1.0 3485:1.0 3486:1.0 
5.555459010341958 1:4.0 3:4.0 39:2.0 57:1.0 65:2.0 112:2.0 231:2.0 1542:2.0 4107:2.0 4113:2.0 8651:1.0 8652:1.0 8653:2.0 8654:2.0 8655:1.0 8656:2.0 8657:2.0 8658:2.0 
10.0 1:8.0 5:1.0 7:5.0 15:2.0 17:3.0 28:2.0 30:1.0 172:2.0 181:2.0 1558:1.0 1562:1.0 2973:1.0 2977:1.0 8198:1.0 8203:2.0 8659:1.0 8660:1.0 8661:1.0 8662:1.0 8663:1.0 8664:1.0 8665:1.0 
10.0 1:3.0 2:2.0 3:1.0 39:1.0 61:1.0 69:1.0 179:1.0 308:1.0 688:1.0 4478:1.0 4497:1.0 5824:1.0 5826:1.0 5828:1.0 5830:1.0 6586:1.0 6589:1.0 8666:1.0 8667:1.0 8668:1.0 8669:1.0 
10.0 1:10.0 3:2.0 7:6.0 9:2.0 17:1.0 19:2.0 68:2.0 141:2.0 149:2.0 277:2.0 436:1.0 437:1.0 438:1.0 447:1.0 448:1.0 449:1.0 450:1.0 1408:1.0 1410:1.0 1418:1.0 1422:1.0 3960:1.0 4534:1.0 5991:1.0 8698:1.0 8699:1.0 8700:1.0 
1.4761262629010363 1:12.0 2:3.0 6:2.0 7:5.0 17:2.0 37:1.0 39:1.0 46:1.0 141:2.0 142:1.0 149:1.0 151:1.0 166:1.0 168:1.0 323:1.0 337:1.0 392:1.0 710:1.0 711:1.0 714:1.0 722:1.0 1141:1.0 1151:1.0 1917:1.0 2503:1.0 2562:1.0 2921:1.0 4363:1.0 8701:1.0 8702:1.0 8703:1.0 8704:1.0 8705:1.0 8706:1.0 8707:1.0 8708:1.0 8709:1.0 8710:1.0 8711:1.0 8712:1.0 
10.0 1:26.0 3:14.0 5:2.0 7:5.0 9:2.0 10:4.0 15:2.0 17:2.0 28:2.0 37:2.0 41:2.0 68:8.0 112:3.0 157:1.0 173:1.0 215:2.0 225:2.0 263:7.0 269:1.0 271:2.0 277:1.0 296:2.0 593:1.0 783:2.0 786:1.0 788:1.0 789:3.0 791:2.0 799:6.0 810:1.0 819:1.0 900:1.0 901:2.0 904:2.0 1525:1.0 1536:1.0 1575:1.0 1592:1.0 1606:2.0 1644:2.0 1646:1.0 1826:1.0 1837:1.0 1997:3.0 2012:3.0 2498:1.0 2505:2.0 2539:1.0 2552:1.0 2566:2.0 4929:1.0 4932:1.0 4935:2.0 4938:1.0 8713:1.0 8714:1.0 8715:1.0 8716:1.0 8717:1.0 8718:1.0 8719:1.0 8720:1.0 8721:1.0 8722:1.0 8723:1.0 8724:1.0 8725:1.0 8726:1.0 8727:1.0 
10.0 1:3.0 3:1.0 41:1.0 111:1.0 113:1.0 119:1.0 551:1.0 555:1.0 2384:2.0 2389:1.0 8739:2.0 8740:1.0 
4.574422735581386 1:17.0 3:4.0 7:6.0 9:3.0 17:2.0 19:2.0 37:1.0 39:1.0 41:1.0 68:3.0 69:1.0 141:4.0 149:2.0 215:1.0 225:1.0 277:3.0 308:1.0 1279:1.0 1292:1.0 1410:2.0 1422:2.0 1524:2.0 1535:2.0 3960:2.0 4534:2.0 5985:1.0 5996:1.0 8741:1.0 8742:2.0 8743:1.0 8744:1.0 8745:2.0 8746:1.0 8747:2.0 8748:1.0 8749:1.0 8750:2.0 8751:1.0 
5.728419733989796 1:9.0 3:2.0 7:5.0 9:1.0 10:2.0 17:3.0 19:2.0 20:1.0 30:1.0 112:2.0 227:1.0 263:1.0 904:1.0 1393:2.0 1572:2.0 1703:1.0 1704:1.0 2622:1.0 3480:1.0 3481:1.0 3482:1.0 3483:1.0 5421:1.0 5422:1.0 
10.0 1:10.0 2:2.0 3:7.0 10:1.0 41:2.0 62:1.0 67:1.0 68:2.0 69:1.0 89:1.0 112:2.0 157:1.0 176:1.0 263:2.0 470:1.0 799:1.0 907:1.0 917:1.0 1860:1.0 1862:1.0 1934:1.0 1936:1.0 1949:1.0 2036:1.0 2048:1.0 2498:1.0 2553:1.0 2770:1.0 2771:1.0 2773:1.0 2774:1.0 2783:1.0 2834:1.0 4399:1.0 5439:1.0 6088:1.0 6091:1.0 7348:1.0 7366:1.0 7367:1.0 7744:1.0 7746:1.0 7747:1.0 7748:1.0 7749:1.0 7751:1.0 7755:1.0 8765:1.0 8766:1.0 8767:1.0 8768:1.0 8769:1.0 8770:1.0 8771:1.0 8772:1.0 8773:1.0 
0.8186257106933922 1:4.0 39:1.0 132:1.0 134:1.0 172:2.0 181:2.0 1558:1.0 1562:1.0 2167:1.0 2171:1.0 2973:1.0 2977:1.0 8660:1.0 8665:1.0 8779:2.0 8780:1.0 8781:1.0 8782:1.0 8783:1.0 8784:1.0 8785:1.0 8786:1.0 
2.9081205796575373 1:7.0 2:2.0 7:3.0 17:1.0 36:1.0 44:1.0 57:1.0 70:1.0 141:1.0 149:1.0 392:1.0 425:1.0 2249:1.0 2250:1.0 2252:1.0 2253:1.0 2256:1.0 2270:1.0 6275:1.0 6277:1.0 6278:1.0 6279:1.0 6331:1.0 6332:1.0 6333:1.0 6338:1.0 6339:1.0 8787:1.0 8788:1.0 8789:1.0 8790:1.0 
10.0 1:3.0 3:2.0 41:1.0 63:1.0 68:1.0 84:1.0 85:1.0 111:1.0 132:1.0 134:1.0 3314:1.0 3317:1.0 3318:1.0 4307:1.0 4310:1.0 4311:1.0 4315:1.0 8791:2.0 8792:1.0 8793:1.0 
10.0 1:4.0 3:1.0 10:1.0 39:2.0 263:2.0 1099:2.0 1722:2.0 8794:4.0 8795:2.0 
0.1385644526377489 1:12.0 2:1.0 3:7.0 5:1.0 7:3.0 15:1.0 36:1.0 37:1.0 39:1.0 46:1.0 61:2.0 62:1.0 68:1.0 132:2.0 134:2.0 222:1.0 694:1.0 706:1.0 1211:2.0 1216:2.0 1242:2.0 1885:1.0 1887:2.0 1889:2.0 1901:2.0 1903:2.0 1906:2.0 2100:2.0 2101:2.0 2107:2.0 2827:4.0 4397:1.0 4689:1.0 6188:1.0 8805:1.0 8806:1.0 8807:1.0 8808:2.0 8809:1.0 8810:4.0 8811:1.0 8812:1.0 8813:2.0 8814:1.0 8815:1.0 8816:1.0 8817:4.0 8818:2.0 8819:1.0 8820:1.0 8821:1.0 
1.4555077411073145 1:4.0 3:3.0 41:2.0 63:1.0 68:1.0 84:1.0 85:1.0 132:2.0 134:2.0 551:1.0 555:1.0 3106:2.0 3113:2.0 4713:1.0 4718:1.0 7562:1.0 7570:1.0 7571:1.0 8840:1.0 8841:1.0 8842:1.0 8843:1.0 8844:1.0 8845:1.0 8846:1.0 8847:1.0 
3.223916190210219 1:16.0 2:2.0 3:3.0 4:2.0 6:2.0 10:1.0 11:1.0 22:1.0 37:2.0 41:2.0 69:4.0 70:1.0 111:1.0 141:1.0 142:1.0 215:2.0 216:1.0 221:1.0 224:1.0 225:2.0 241:1.0 305:1.0 306:2.0 519:1.0 520:1.0 521:1.0 523:1.0 524:1.0 525:1.0 526:1.0 528:1.0 531:1.0 533:1.0 534:1.0 537:1.0 538:1.0 539:1.0 543:1.0 544:1.0 547:1.0 550:1.0 716:1.0 2237:1.0 2369:1.0 2370:1.0 2373:1.0 2377:1.0 2378:1.0 2379:1.0 2380:1.0 2381:1.0 8858:1.0 8859:1.0 8860:1.0 8861:1.0 8862:1.0 
0.5040969421823593 1:20.0 2:2.0 3:2.0 5:1.0 7:6.0 15:1.0 17:2.0 28:1.0 36:1.0 37:2.0 39:2.0 41:1.0 44:1.0 57:1.0 61:4.0 62:1.0 68:1.0 112:1.0 157:1.0 176:1.0 215:1.0 222:1.0 225:1.0 271:1.0 296:1.0 419:2.0 420:1.0 461:1.0 590:1.0 640:1.0 641:2.0 642:2.0 660:2.0 661:2.0 886:1.0 965:1.0 1525:1.0 1536:1.0 1545:1.0 2301:1.0 2350:1.0 5765:1.0 5766:1.0 5767:1.0 5768:1.0 5769:1.0 5771:1.0 5772:1.0 5773:1.0 5775:1.0 5776:1.0 5777:1.0 5778:1.0 5780:1.0 5781:1.0 5782:1.0 5783:1.0 5784:1.0 8869:1.0 8870:1.0 8871:1.0 8872:1.0 8873:1.0 
1.5947080020693207 1:24.0 2:1.0 3:6.0 7:9.0 9:2.0 10:2.0 17:3.0 36:1.0 39:2.0 41:2.0 44:1.0 63:2.0 85:2.0 141:8.0 145:1.0 149:5.0 166:2.0 178:1.0 179:1.0 191:1.0 192:1.0 351:1.0 366:1.0 367:1.0 434:4.0 440:2.0 445:3.0 1062:2.0 1212:2.0 1219:2.0 1352:2.0 1354:2.0 1358:2.0 1360:2.0 1361:2.0 1408:1.0 1409:1.0 1419:1.0 1420:1.0 1447:1.0 2671:1.0 3799:1.0 5644:1.0 6200:2.0 8884:1.0 8885:1.0 8886:1.0 8887:1.0 8888:1.0 8889:1.0 8890:1.0 8891:2.0 
4.654799251407834 1:1.0 2:1.0 3:2.0 132:1.0 134:1.0 145:1.0 178:1.0 179:1.0 191:1.0 192:1.0 7194:1.0 7198:1.0 8892:2.0 8893:2.0 8894:1.0 8895:1.0 8896:1.0 
0.4341419530009493 1:9.0 2:1.0 3:3.0 10:1.0 11:1.0 22:1.0 39:2.0 41:2.0 57:1.0 59:1.0 63:1.0 67:1.0 85:1.0 89:1.0 172:1.0 176:1.0 181:1.0 420:1.0 738:1.0 743:1.0 980:2.0 1305:1.0 1683:1.0 1808:1.0 1809:1.0 1822:1.0 1823:1.0 2973:1.0 2977:1.0 2978:1.0 3107:1.0 3108:1.0 3117:1.0 3120:1.0 8543:1.0 8550:1.0 8902:1.0 8903:1.0 8904:1.0 8905:1.0 8906:1.0 8907:1.0 8908:1.0 8909:1.0 8910:1.0 8911:1.0 8912:1.0 
10.0 1:9.0 2:1.0 3:1.0 5:1.0 7:5.0 15:2.0 17:3.0 28:2.0 30:1.0 41:1.0 61:1.0 67:1.0 89:1.0 132:1.0 134:1.0 176:1.0 964:1.0 1211:1.0 1216:1.0 3432:1.0 3439:2.0 3533:1.0 3541:1.0 3542:1.0 8937:1.0 8938:1.0 8939:1.0 8940:1.0 8941:1.0 8942:1.0 8943:1.0 
6.4521929399092794 1:23.0 2:5.0 3:2.0 4:1.0 5:1.0 7:4.0 15:1.0 17:2.0 28:1.0 39:2.0 41:2.0 59:1.0 61:4.0 62:1.0 67:1.0 69:4.0 72:1.0 89:1.0 114:1.0 173:1.0 176:2.0 215:1.0 225:1.0 271:1.0 296:1.0 306:1.0 462:1.0 668:1.0 672:1.0 711:1.0 1129:1.0 1145:1.0 1282:1.0 1344:2.0 1345:1.0 1651:1.0 1654:1.0 1656:1.0 2066:1.0 2352:1.0 2364:1.0 2606:1.0 2825:1.0 3027:1.0 3043:1.0 4150:1.0 6018:1.0 6029:1.0 6030:1.0 6906:1.0 7963:1.0 8131:1.0 8972:1.0 8973:1.0 8974:1.0 8975:1.0 8976:1.0 8977:1.0 8978:1.0 8979:1.0 8980:1.0 8981:1.0 8982:1.0 8983:1.0 8984:1.0 8985:1.0 8986:1.0 8987:1.0 8988:1.0 8989:1.0 8990:1.0 8991:1.0 8992:1.0 8993:1.0 8994:1.0 8995:1.0 8996:1.0 8997:1.0 8998:1.0 8999:1.0 9000:1.0 9001:1.0 9002:1.0 
2.7991939403611017 1:3.0 39:1.0 172:2.0 181:2.0 1558:1.0 1562:1.0 2973:1.0 2977:1.0 2978:1.0 8660:2.0 8665:1.0 9026:2.0 9027:1.0 9028:1.0 
1.590432909022079 1:7.0 2:2.0 3:4.0 7:3.0 36:2.0 37:1.0 39:1.0 44:1.0 46:1.0 145:2.0 178:2.0 179:2.0 191:2.0 192:2.0 222:1.0 350:1.0 351:2.0 365:1.0 366:2.0 367:2.0 693:1.0 694:1.0 706:1.0 758:1.0 769:1.0 847:1.0 1377:1.0 1379:1.0 5436:1.0 9035:1.0 9036:1.0 
10.0 1:19.0 2:1.0 3:1.0 5:1.0 7:8.0 9:1.0 10:1.0 15:2.0 19:2.0 20:1.0 32:2.0 36:1.0 37:1.0 38:1.0 39:2.0 44:2.0 69:3.0 112:1.0 222:2.0 227:1.0 304:1.0 307:1.0 308:2.0 316:1.0 473:1.0 476:1.0 515:2.0 2622:1.0 3021:1.0 3487:1.0 3488:1.0 3682:1.0 5329:1.0 5339:1.0 5431:1.0 5437:2.0 8514:1.0 9037:1.0 9038:1.0 9039:1.0 9040:1.0 9041:1.0 9042:1.0 9043:2.0 9044:1.0 9045:1.0 9046:1.0 
2.2894202806017385 1:7.0 2:2.0 3:5.0 7:3.0 36:2.0 37:1.0 44:1.0 68:1.0 112:1.0 145:2.0 157:1.0 178:2.0 179:2.0 191:2.0 192:2.0 222:1.0 350:1.0 351:2.0 365:1.0 366:2.0 367:2.0 693:1.0 758:1.0 769:1.0 847:1.0 1377:1.0 1379:1.0 1525:1.0 1536:1.0 5491:1.0 5498:1.0 5503:1.0 9047:1.0 9048:1.0 
0.004539095635819354 1:8.0 2:2.0 3:1.0 5:1.0 7:5.0 15:2.0 17:3.0 28:2.0 30:1.0 61:1.0 114:1.0 144:1.0 145:1.0 156:1.0 251:1.0 254:1.0 255:1.0 262:1.0 3432:1.0 3439:2.0 8756:1.0 8761:1.0 8762:1.0 9054:1.0 9055:1.0 9056:1.0 9057:1.0 
5.820952129333519 1:5.0 2:2.0 3:3.0 7:1.0 37:1.0 41:1.0 57:1.0 67:1.0 89:1.0 145:1.0 174:1.0 175:1.0 177:1.0 178:1.0 179:1.0 182:1.0 185:1.0 186:1.0 188:1.0 189:1.0 191:1.0 192:1.0 198:1.0 200:1.0 201:1.0 204:1.0 205:1.0 207:1.0 208:1.0 392:1.0 855:1.0 4324:1.0 4329:1.0 4330:1.0 9058:1.0 9059:1.0 9060:1.0 
10.0 1:13.0 3:2.0 5:1.0 7:8.0 9:2.0 10:1.0 15:1.0 17:4.0 19:2.0 28:2.0 68:1.0 173:1.0 217:2.0 222:1.0 263:1.0 346:1.0 799:1.0 1393:2.0 1611:2.0 7585:1.0 9063:1.0 9064:1.0 9065:1.0 9066:2.0 9067:2.0 9068:1.0 9069:2.0 9070:1.0 
5.522698608481249 1:13.0 2:2.0 3:4.0 5:1.0 7:6.0 9:1.0 19:1.0 36:2.0 41:1.0 44:2.0 67:1.0 68:1.0 89:1.0 132:2.0 133:2.0 134:2.0 137:2.0 145:1.0 176:1.0 178:1.0 179:1.0 184:1.0 187:1.0 191:1.0 192:1.0 203:1.0 277:1.0 348:1.0 349:1.0 350:1.0 351:1.0 359:1.0 363:1.0 365:1.0 366:1.0 367:1.0 373:1.0 1682:1.0 1736:1.0 1743:1.0 1790:1.0 1804:1.0 2707:1.0 2708:1.0 3334:1.0 4326:1.0 4975:1.0 5165:1.0 5998:1.0 9071:1.0 9072:1.0 9073:1.0 9074:1.0 9075:1.0 9076:1.0 9077:1.0 9078:1.0 
10.0 1:9.0 2:1.0 6:1.0 7:5.0 17:1.0 70:1.0 132:1.0 133:1.0 134:1.0 137:1.0 141:1.0 142:1.0 149:2.0 348:1.0 397:1.0 530:1.0 744:1.0 781:1.0 1053:1.0 1281:1.0 1402:1.0 1403:1.0 1404:1.0 2349:1.0 2351:1.0 2359:1.0 2363:1.0 6111:1.0 9079:1.0 9080:1.0 9081:1.0 
2.746963327633882 1:12.0 2:1.0 3:2.0 7:7.0 17:2.0 36:1.0 39:1.0 41:1.0 44:1.0 67:1.0 89:1.0 141:2.0 149:3.0 166:2.0 179:1.0 436:2.0 448:2.0 767:1.0 1254:1.0 1255:1.0 1436:1.0 1809:1.0 2625:1.0 2628:1.0 2638:1.0 2639:1.0 2923:1.0 3563:1.0 3569:1.0 4977:1.0 4978:1.0 5720:1.0 9106:1.0 9107:1.0 9108:1.0 
10.0 1:10.0 2:1.0 3:4.0 10:1.0 39:2.0 41:3.0 67:1.0 89:1.0 111:2.0 112:1.0 176:1.0 215:2.0 216:1.0 224:1.0 225:2.0 230:1.0 231:1.0 250:1.0 526:1.0 1614:1.0 1621:1.0 1808:1.0 1809:1.0 1822:1.0 1823:1.0 3180:1.0 3575:1.0 3586:1.0 6357:1.0 9109:1.0 9110:1.0 9111:1.0 9112:1.0 9113:1.0 9114:1.0 9115:1.0 9116:1.0 9117:1.0 9118:1.0 9119:1.0 9120:1.0 9121:1.0 
10.0 1:8.0 2:1.0 3:4.0 7:4.0 17:2.0 28:1.0 36:1.0 37:1.0 41:1.0 44:1.0 63:1.0 68:1.0 69:1.0 84:1.0 85:1.0 145:1.0 178:1.0 179:1.0 191:1.0 192:1.0 222:1.0 261:1.0 351:1.0 366:1.0 367:1.0 758:1.0 769:1.0 1132:1.0 1139:1.0 1140:1.0 1179:1.0 2807:1.0 9133:1.0 9134:1.0 9135:1.0 9136:1.0 9137:1.0 9138:1.0 
0.023694380655024914 1:14.0 2:1.0 7:9.0 17:4.0 36:1.0 141:4.0 149:4.0 166:4.0 392:1.0 425:1.0 435:1.0 436:2.0 448:2.0 1054:1.0 2123:2.0 2281:2.0 4794:1.0 4799:1.0 9142:2.0 9143:2.0 9144:1.0 
10.0 1:10.0 2:1.0 6:1.0 7:5.0 37:1.0 39:1.0 46:1.0 70:1.0 141:1.0 142:1.0 149:1.0 151:1.0 222:1.0 323:1.0 397:1.0 530:1.0 744:1.0 780:1.0 1039:1.0 1042:1.0 1281:1.0 1402:1.0 1403:1.0 1404:1.0 2921:1.0 3749:1.0 4214:1.0 4948:1.0 9176:1.0 9177:1.0 9178:1.0 
10.0 1:3.0 2:1.0 3:4.0 41:1.0 61:1.0 63:1.0 68:1.0 69:1.0 84:1.0 85:1.0 145:1.0 178:1.0 179:1.0 191:1.0 192:1.0 1132:1.0 1139:1.0 1140:1.0 7450:1.0 7452:1.0 7453:1.0 8851:1.0 8857:1.0 9180:1.0 9181:1.0 9182:1.0 9183:1.0 
10.0 1:6.0 3:3.0 7:3.0 9:3.0 19:2.0 68:3.0 220:1.0 277:3.0 438:1.0 450:1.0 874:2.0 883:1.0 884:2.0 2920:1.0 3753:1.0 4937:1.0 9184:1.0 9185:1.0 
0.32407301985802134 1:14.0 2:1.0 5:2.0 7:8.0 15:4.0 36:1.0 44:2.0 111:2.0 132:1.0 133:1.0 134:1.0 137:1.0 348:2.0 349:1.0 363:1.0 392:1.0 425:1.0 746:1.0 754:1.0 842:2.0 843:2.0 844:2.0 845:2.0 846:2.0 848:2.0 849:1.0 1310:2.0 1311:1.0 4807:2.0 
0.31973801787116896 1:15.0 2:1.0 3:1.0 5:2.0 7:7.0 15:2.0 17:2.0 28:2.0 36:1.0 39:1.0 41:1.0 44:1.0 67:1.0 69:1.0 89:1.0 173:2.0 176:1.0 187:1.0 190:1.0 222:1.0 691:1.0 1084:2.0 1085:2.0 1086:1.0 1087:2.0 1088:1.0 1089:1.0 1090:1.0 1091:1.0 1670:1.0 1671:1.0 1808:1.0 1809:1.0 1818:1.0 1820:1.0 1821:1.0 1822:1.0 1823:1.0 9265:1.0 9266:1.0 
1.0967616591361689 1:12.0 2:1.0 3:1.0 5:2.0 7:9.0 15:3.0 17:4.0 28:2.0 30:1.0 36:1.0 44:1.0 145:1.0 1029:2.0 1030:1.0 1517:1.0 1666:1.0 1667:1.0 1668:1.0 1669:1.0 1674:1.0 1675:1.0 1676:1.0 2669:3.0 4689:1.0 9267:1.0 9268:1.0 9269:1.0 
4.051904615947394 1:17.0 3:1.0 5:1.0 7:10.0 15:1.0 17:4.0 28:2.0 41:1.0 141:2.0 149:2.0 173:3.0 215:1.0 222:3.0 225:1.0 271:1.0 296:1.0 436:1.0 448:2.0 762:1.0 770:2.0 789:1.0 1084:1.0 1089:1.0 1606:1.0 2124:1.0 2135:1.0 2189:1.0 2191:1.0 2279:1.0 9280:1.0 9281:1.0 9282:1.0 9283:1.0 9284:1.0 9285:1.0 
0.4021858179697899 1:7.0 2:1.0 3:1.0 7:4.0 9:1.0 10:1.0 11:1.0 19:2.0 20:1.0 21:1.0 22:1.0 33:1.0 34:1.0 35:1.0 36:1.0 44:2.0 360:2.0 392:1.0 425:1.0 746:1.0 754:1.0 849:1.0 1364:2.0 
10.0 1:12.0 2:3.0 3:4.0 7:4.0 36:1.0 37:1.0 41:2.0 44:2.0 59:1.0 63:1.0 67:1.0 68:2.0 69:2.0 79:1.0 84:1.0 85:1.0 89:1.0 103:1.0 104:1.0 112:1.0 157:1.0 222:2.0 392:1.0 1128:1.0 1129:1.0 1130:1.0 1133:1.0 1135:1.0 1136:1.0 1183:2.0 1258:1.0 1525:1.0 1536:1.0 1548:1.0 1557:2.0 5788:1.0 5789:1.0 7409:1.0 7687:1.0 7688:1.0 7689:1.0 7691:1.0 7692:1.0 8467:1.0 8468:1.0 8469:1.0 8470:1.0 8471:1.0 9296:2.0 
10.0 1:7.0 5:1.0 7:3.0 15:1.0 132:5.0 133:2.0 134:5.0 136:1.0 137:2.0 348:1.0 349:1.0 361:1.0 363:1.0 1310:1.0 5541:1.0 5581:1.0 5585:1.0 6164:1.0 6166:3.0 8734:1.0 8738:3.0 9297:1.0 9298:1.0 9299:1.0 9300:1.0 9301:1.0 
4.4887392223680225 1:12.0 2:2.0 3:5.0 5:2.0 7:7.0 9:1.0 15:2.0 17:1.0 19:1.0 36:2.0 44:1.0 68:1.0 145:2.0 178:2.0 179:2.0 191:2.0 192:2.0 277:1.0 350:1.0 351:2.0 365:1.0 366:2.0 367:2.0 369:1.0 370:1.0 377:1.0 378:1.0 1029:2.0 1031:1.0 1517:1.0 1907:1.0 2669:1.0 2815:1.0 4689:2.0 4699:1.0 9267:2.0 9363:1.0 9364:1.0 9365:1.0 9366:1.0 
10.0 1:6.0 2:1.0 7:4.0 36:1.0 44:2.0 132:1.0 133:1.0 134:1.0 137:1.0 348:2.0 349:1.0 363:1.0 392:1.0 425:1.0 746:1.0 754:1.0 849:1.0 1311:1.0 4074:2.0 7553:2.0 
2.2901252407157395 1:9.0 2:1.0 6:1.0 7:5.0 17:1.0 70:1.0 141:1.0 142:1.0 149:1.0 151:1.0 323:1.0 337:1.0 397:1.0 530:1.0 668:1.0 672:1.0 1281:1.0 1403:1.0 1404:1.0 1651:1.0 1654:1.0 1656:1.0 3749:1.0 6867:1.0 6877:1.0 9392:1.0 9393:1.0 9394:1.0 9395:1.0 9396:1.0 9397:1.0 9398:1.0 
2.806969870119725 1:22.0 3:8.0 10:5.0 39:5.0 41:3.0 63:3.0 69:2.0 85:3.0 111:1.0 112:2.0 116:1.0 263:1.0 264:1.0 279:1.0 280:1.0 379:3.0 380:2.0 381:2.0 382:2.0 383:4.0 384:2.0 386:2.0 388:2.0 389:4.0 470:2.0 783:1.0 1095:1.0 1352:1.0 1354:1.0 1360:1.0 1361:1.0 1370:1.0 1786:1.0 1791:1.0 3217:1.0 3220:1.0 3650:1.0 9399:1.0 9400:1.0 9401:1.0 9402:1.0 9403:1.0 9404:1.0 9405:1.0 9406:1.0 9407:1.0 9408:1.0 9409:1.0 9410:1.0 9411:1.0 9412:1.0 9413:1.0 9414:1.0 9415:1.0 9416:1.0 9417:1.0 9418:1.0 9419:1.0 9420:1.0 9421:1.0 9422:1.0 
9.267810390828828 1:8.0 2:2.0 3:4.0 7:2.0 36:2.0 37:2.0 39:2.0 43:1.0 44:1.0 46:2.0 53:1.0 145:2.0 178:2.0 179:2.0 191:2.0 192:2.0 222:1.0 351:2.0 366:2.0 367:2.0 694:1.0 706:1.0 758:1.0 769:1.0 3922:1.0 3930:1.0 3931:1.0 4867:1.0 5436:1.0 9530:1.0 9531:1.0 9532:1.0 
10.0 1:5.0 2:5.0 6:4.0 142:1.0 392:1.0 710:1.0 711:1.0 712:1.0 713:1.0 717:1.0 722:1.0 733:1.0 937:2.0 943:2.0 1931:1.0 2495:2.0 2835:1.0 2860:1.0 2861:1.0 2863:1.0 4995:1.0 4996:1.0 4999:1.0 9535:1.0 9536:1.0 9537:1.0 
10.0 1:9.0 2:1.0 3:1.0 6:1.0 7:5.0 9:1.0 17:1.0 19:1.0 68:1.0 70:1.0 141:1.0 142:1.0 149:2.0 277:1.0 397:1.0 530:1.0 744:1.0 781:1.0 1281:1.0 1402:1.0 1403:1.0 1404:1.0 4526:1.0 4529:1.0 4531:1.0 4534:1.0 9545:1.0 9546:1.0 9547:1.0 9548:1.0 9549:1.0 
1.6470719697051062 1:7.0 2:1.0 3:3.0 7:4.0 36:1.0 37:1.0 41:1.0 44:2.0 145:1.0 178:1.0 179:1.0 191:1.0 192:1.0 222:2.0 350:1.0 351:1.0 364:1.0 365:1.0 366:1.0 367:1.0 551:1.0 554:1.0 555:1.0 562:1.0 847:2.0 9126:1.0 9130:1.0 9533:1.0 9554:2.0 
10.0 1:13.0 2:3.0 7:10.0 17:6.0 30:2.0 36:2.0 44:4.0 176:2.0 190:2.0 210:4.0 261:4.0 6534:1.0 7341:1.0 9555:2.0 9556:1.0 9557:1.0 9558:2.0 9559:2.0 9560:1.0 9561:1.0 
10.0 1:17.0 2:1.0 3:4.0 6:1.0 7:2.0 9:1.0 10:1.0 19:1.0 37:2.0 39:2.0 41:1.0 63:1.0 68:2.0 69:4.0 84:1.0 85:1.0 112:1.0 141:1.0 142:1.0 146:1.0 149:1.0 153:1.0 264:1.0 272:1.0 277:1.0 297:1.0 308:2.0 473:1.0 1132:1.0 1139:1.0 1140:1.0 1499:1.0 1505:1.0 2233:1.0 2237:1.0 2238:1.0 2367:1.0 5329:1.0 5339:1.0 6616:1.0 6628:1.0 7724:1.0 7725:1.0 7726:1.0 7728:1.0 7729:1.0 7730:1.0 7731:1.0 7732:1.0 7733:1.0 7734:1.0 7736:1.0 7738:1.0 9564:1.0 9565:1.0 9566:1.0 9567:1.0 9568:1.0 9569:1.0 9570:1.0 9571:1.0 
3.493951295956958 1:23.0 3:2.0 7:11.0 10:1.0 17:3.0 37:1.0 39:1.0 41:1.0 63:1.0 85:1.0 112:1.0 116:1.0 141:8.0 149:8.0 166:2.0 434:2.0 436:2.0 445:1.0 448:2.0 1212:2.0 1213:2.0 1219:1.0 1222:2.0 1224:1.0 1225:2.0 1227:1.0 1352:1.0 1354:1.0 1360:1.0 1361:1.0 1370:1.0 1523:1.0 1535:1.0 2670:1.0 2671:1.0 3865:1.0 4300:1.0 4301:1.0 4303:1.0 4304:1.0 5785:1.0 5786:1.0 5787:1.0 
1.162371208611363 1:21.0 5:2.0 7:11.0 17:3.0 37:1.0 39:1.0 46:1.0 141:4.0 149:3.0 166:2.0 173:2.0 222:1.0 436:3.0 448:3.0 770:1.0 1039:1.0 1042:1.0 1084:2.0 1381:1.0 2189:1.0 2191:2.0 2274:1.0 2279:1.0 2921:1.0 2922:2.0 2958:2.0 2970:2.0 3391:1.0 4212:1.0 7956:2.0 9677:1.0 9678:1.0 9679:1.0 9680:1.0 
10.0 1:9.0 2:1.0 6:1.0 7:5.0 17:1.0 70:1.0 132:1.0 133:1.0 134:1.0 137:1.0 141:1.0 142:1.0 149:1.0 151:1.0 323:1.0 337:1.0 348:1.0 397:1.0 530:1.0 1045:1.0 1047:1.0 1050:1.0 1281:1.0 1403:1.0 1404:1.0 3749:1.0 6109:1.0 9721:1.0 9722:1.0 9723:1.0 9724:1.0 9725:1.0 
9.134497099872622 1:16.0 2:3.0 3:3.0 5:1.0 6:2.0 7:8.0 10:1.0 11:1.0 15:2.0 17:3.0 22:1.0 28:2.0 30:1.0 37:1.0 41:2.0 142:2.0 151:1.0 176:1.0 215:1.0 222:1.0 225:1.0 271:1.0 296:1.0 391:1.0 395:2.0 962:2.0 1264:1.0 1265:1.0 1266:1.0 1267:1.0 1268:1.0 1269:1.0 1270:1.0 1271:2.0 1272:1.0 1273:1.0 1274:1.0 1275:1.0 1276:1.0 1277:1.0 1561:2.0 1569:2.0 1844:1.0 5256:1.0 5257:1.0 5382:1.0 5383:1.0 9736:1.0 9737:1.0 9738:1.0 
3.1651032751858543 1:3.0 3:1.0 68:1.0 132:2.0 134:2.0 263:1.0 799:1.0 1211:2.0 1216:2.0 6760:2.0 6764:2.0 9742:2.0 9743:2.0 9744:1.0 
10.0 1:11.0 2:1.0 3:4.0 7:4.0 11:2.0 17:2.0 28:2.0 41:2.0 57:2.0 62:1.0 67:2.0 89:2.0 173:2.0 222:2.0 1242:1.0 1244:2.0 2308:1.0 2760:2.0 3130:1.0 3778:2.0 3822:1.0 5259:1.0 5264:1.0 5265:1.0 5266:1.0 5268:1.0 5279:1.0 5282:1.0 5448:2.0 5905:2.0 5915:1.0 5916:2.0 5917:2.0 7195:2.0 7199:2.0 7201:2.0 9808:1.0 9809:2.0 9810:1.0 9811:1.0 
10.0 1:4.0 2:2.0 3:3.0 39:1.0 41:2.0 67:1.0 89:1.0 114:1.0 176:1.0 179:1.0 1254:1.0 1255:1.0 1809:1.0 1860:1.0 1862:1.0 2628:1.0 2638:1.0 2639:1.0 4251:1.0 4253:1.0 4255:1.0 4261:1.0 4262:1.0 4265:1.0 9812:1.0 9813:1.0 9814:1.0 9815:1.0 9816:1.0 
0.5759390734602956 1:9.0 2:2.0 3:2.0 7:4.0 36:1.0 37:1.0 39:1.0 41:1.0 44:2.0 67:1.0 68:1.0 89:1.0 112:1.0 157:1.0 222:2.0 1183:2.0 1525:1.0 1536:1.0 1548:1.0 1557:2.0 1809:1.0 5788:1.0 5789:1.0 7687:1.0 7688:1.0 7689:1.0 7690:1.0 7691:1.0 7692:1.0 7694:1.0 7695:1.0 7696:1.0 7697:1.0 9296:2.0 
7.486970327691909 1:10.0 2:3.0 6:3.0 7:4.0 8:1.0 17:2.0 57:1.0 142:2.0 151:2.0 168:2.0 174:1.0 177:1.0 962:2.0 971:2.0 1327:2.0 2233:1.0 2524:1.0 5884:1.0 5890:1.0 9818:1.0 9819:1.0 9820:1.0 9821:1.0 9822:1.0 9823:1.0 9824:2.0 9825:1.0 9826:1.0 9827:2.0 9828:1.0 9829:1.0 
10.0 1:17.0 2:4.0 3:1.0 7:8.0 36:4.0 39:1.0 41:1.0 44:8.0 62:2.0 67:1.0 89:1.0 114:3.0 122:3.0 510:2.0 511:1.0 512:1.0 514:1.0 516:2.0 688:2.0 692:2.0 696:2.0 704:2.0 707:2.0 1809:1.0 2741:4.0 2742:4.0 4722:1.0 4736:1.0 6480:1.0 6489:1.0 6490:1.0 9846:1.0 9847:1.0 9848:1.0 
10.0 1:9.0 3:2.0 5:1.0 7:5.0 15:2.0 17:3.0 28:2.0 30:1.0 39:2.0 264:1.0 281:2.0 632:1.0 648:2.0 5439:1.0 5452:1.0 5453:1.0 5456:2.0 6088:1.0 6091:1.0 8483:1.0 8490:1.0 9861:1.0 9862:1.0 
10.0 1:14.0 5:2.0 7:10.0 15:4.0 17:6.0 28:4.0 30:2.0 57:2.0 980:2.0 2283:2.0 9252:2.0 9863:2.0 9864:2.0 9865:2.0 9866:2.0 9867:4.0 9868:2.0 
10.0 1:6.0 3:2.0 39:2.0 41:2.0 69:2.0 215:2.0 225:2.0 308:2.0 8743:2.0 8751:2.0 9869:2.0 9870:2.0 9871:2.0 9872:2.0 
10.0 1:9.0 5:1.0 7:5.0 15:2.0 17:3.0 28:2.0 30:1.0 57:1.0 132:1.0 134:1.0 420:1.0 980:2.0 1211:1.0 1216:1.0 1305:1.0 9863:1.0 9867:2.0 9873:1.0 9874:1.0 9875:1.0 9876:1.0 9877:1.0 9878:1.0 9879:1.0 9880:1.0 9881:1.0 
